{
  "format": "chebyshev-ephemeris",
  "version": "1.0",
  "metadata": {
    "source": "SPICE sampling",
    "created": "2026-03-31T17:33:56.996892+00:00",
    "tolerance_km": 5.0,
    "segments_count": 5238,
    "bodies": [
      "SC",
      "MOON",
      "SUN"
    ],
    "coordinate_frame": "J2000",
    "units": {
      "time": "julian_date",
      "position": "km"
    },
    "step_size_seconds": 600,
    "spice_target": {
      "name": "-531",
      "code": -531
    },
    "source_kernels": [
      "/home/sankar/sankar/projects/skyfield-ts/data/mirrors/naif/generic_kernels/lsk/latest_leapseconds.tls",
      "/home/sankar/sankar/projects/skyfield-ts/data/mirrors/lunarorbiter1/spk/lo1_ssd_lp150q.bsp",
      "/home/sankar/sankar/projects/skyfield-ts/data/dev/showcase/de440.bsp"
    ],
    "coverage_intervals_utc": [
      {
        "start_utc": "1966-08-14T15:39:55.898",
        "end_utc": "1966-08-22T10:28:55.918",
        "duration_hours": 186.816672
      },
      {
        "start_utc": "1966-08-30T19:59:55.940",
        "end_utc": "1966-09-08T19:28:55.963",
        "duration_hours": 215.48334
      },
      {
        "start_utc": "1966-09-09T18:59:55.966",
        "end_utc": "1966-09-17T19:28:55.987",
        "duration_hours": 192.483339
      },
      {
        "start_utc": "1966-09-18T12:29:55.988",
        "end_utc": "1966-09-18T19:09:55.989",
        "duration_hours": 6.666667
      },
      {
        "start_utc": "1966-09-19T12:29:55.991",
        "end_utc": "1966-09-19T19:29:55.992",
        "duration_hours": 7.0
      },
      {
        "start_utc": "1966-09-20T09:29:55.993",
        "end_utc": "1966-09-20T19:39:55.994",
        "duration_hours": 10.166667
      },
      {
        "start_utc": "1966-09-21T09:59:55.996",
        "end_utc": "1966-09-21T19:59:55.997",
        "duration_hours": 10.0
      },
      {
        "start_utc": "1966-09-22T00:29:55.998",
        "end_utc": "1966-09-22T19:29:56.000",
        "duration_hours": 19.000001
      },
      {
        "start_utc": "1966-09-23T17:29:56.002",
        "end_utc": "1966-09-23T23:59:56.003",
        "duration_hours": 6.5
      },
      {
        "start_utc": "1966-09-24T17:29:56.005",
        "end_utc": "1966-09-25T00:19:56.005",
        "duration_hours": 6.833334
      },
      {
        "start_utc": "1966-09-25T17:59:56.007",
        "end_utc": "1966-09-26T00:39:56.008",
        "duration_hours": 6.666667
      },
      {
        "start_utc": "1966-09-26T07:29:56.009",
        "end_utc": "1966-09-26T14:29:56.009",
        "duration_hours": 7.0
      },
      {
        "start_utc": "1966-09-27T07:59:56.011",
        "end_utc": "1966-09-27T14:49:56.012",
        "duration_hours": 6.833334
      },
      {
        "start_utc": "1966-09-28T08:59:56.014",
        "end_utc": "1966-09-28T14:59:56.015",
        "duration_hours": 6.0
      },
      {
        "start_utc": "1966-09-29T21:59:56.018",
        "end_utc": "1966-09-30T04:59:56.019",
        "duration_hours": 7.0
      },
      {
        "start_utc": "1966-09-30T22:19:56.021",
        "end_utc": "1966-10-01T04:59:56.021",
        "duration_hours": 6.666667
      },
      {
        "start_utc": "1966-10-01T22:29:56.023",
        "end_utc": "1966-10-02T05:19:56.024",
        "duration_hours": 6.833334
      },
      {
        "start_utc": "1966-10-02T22:29:56.026",
        "end_utc": "1966-10-03T05:19:56.027",
        "duration_hours": 6.833334
      },
      {
        "start_utc": "1966-10-03T15:39:56.028",
        "end_utc": "1966-10-03T22:39:56.028",
        "duration_hours": 7.0
      },
      {
        "start_utc": "1966-10-04T15:39:56.030",
        "end_utc": "1966-10-04T22:49:56.031",
        "duration_hours": 7.166667
      },
      {
        "start_utc": "1966-10-05T14:29:56.033",
        "end_utc": "1966-10-05T22:59:56.034",
        "duration_hours": 8.5
      },
      {
        "start_utc": "1966-10-06T15:59:56.035",
        "end_utc": "1966-10-06T20:54:56.036",
        "duration_hours": 4.916667
      },
      {
        "start_utc": "1966-10-07T09:49:56.037",
        "end_utc": "1966-10-07T23:09:56.039",
        "duration_hours": 13.333334
      },
      {
        "start_utc": "1966-10-08T16:19:56.041",
        "end_utc": "1966-10-08T19:49:56.041",
        "duration_hours": 3.5
      },
      {
        "start_utc": "1966-10-09T05:59:56.042",
        "end_utc": "1966-10-09T12:59:56.043",
        "duration_hours": 7.0
      },
      {
        "start_utc": "1966-10-10T06:19:56.045",
        "end_utc": "1966-10-10T13:09:56.046",
        "duration_hours": 6.833334
      },
      {
        "start_utc": "1966-10-11T13:29:56.048",
        "end_utc": "1966-10-11T20:09:56.049",
        "duration_hours": 6.666667
      },
      {
        "start_utc": "1966-10-12T20:29:56.052",
        "end_utc": "1966-10-13T03:09:56.052",
        "duration_hours": 6.666667
      },
      {
        "start_utc": "1966-10-13T20:29:56.054",
        "end_utc": "1966-10-14T03:19:56.055",
        "duration_hours": 6.833334
      },
      {
        "start_utc": "1966-10-14T23:29:56.057",
        "end_utc": "1966-10-15T08:49:56.058",
        "duration_hours": 9.333334
      },
      {
        "start_utc": "1966-10-15T15:49:56.059",
        "end_utc": "1966-10-15T23:29:56.060",
        "duration_hours": 7.666667
      },
      {
        "start_utc": "1966-10-17T04:09:56.063",
        "end_utc": "1966-10-17T10:39:56.063",
        "duration_hours": 6.5
      },
      {
        "start_utc": "1966-10-19T15:39:56.069",
        "end_utc": "1966-10-20T04:39:56.071",
        "duration_hours": 13.0
      },
      {
        "start_utc": "1966-10-24T16:29:56.082",
        "end_utc": "1966-10-24T23:19:56.083",
        "duration_hours": 6.833334
      },
      {
        "start_utc": "1966-10-26T16:59:56.087",
        "end_utc": "1966-10-26T23:39:56.088",
        "duration_hours": 6.666667
      }
    ]
  },
  "time_range": {
    "start": 2439352.153206956,
    "end": 2439425.486542484
  },
  "SC": {
    "time_range": {
      "start": 2439352.153206956,
      "end": 2439425.486542484
    },
    "segments": [
      {
        "t_start": 2439352.153206956,
        "t_end": 2439352.1601514006,
        "cx": [
          -157380.21918087231,
          -239.5894440069087,
          -7.085778832150027,
          -3.5428894160731943
        ],
        "cy": [
          286479.851814349,
          207.28495570813539,
          2.4335705971971002,
          1.2167852986021916
        ],
        "cz": [
          156301.07072717766,
          101.54486781725882,
          -0.8414203745905997,
          -0.4207101872934791
        ]
      },
      {
        "t_start": 2439352.1601514006,
        "t_end": 2439352.167095845,
        "cx": [
          -157970.9703422131,
          -355.60470074361956,
          -15.971745651640049,
          -0.9000939936754548
        ],
        "cy": [
          286935.5358840843,
          248.52738494388723,
          2.690112430773297,
          -1.0885143818213692
        ],
        "cz": [
          156492.03323926855,
          88.32918286147151,
          -3.018343198907134,
          -0.6677512248684261
        ]
      },
      {
        "t_start": 2439352.167095845,
        "t_end": 2439352.1740402896,
        "cx": [
          -158823.46661913727,
          -498.23596701174165,
          -18.660527314044003,
          -0.4442968375247034
        ],
        "cy": [
          287440.67016679404,
          253.53096164157742,
          -3.461759818051039,
          -1.987421742583523
        ],
        "cz": [
          156635.6865698347,
          53.7435314636123,
          -6.1795756810571065,
          -0.9128650162047447
        ]
      },
      {
        "t_start": 2439352.1740402896,
        "t_end": 2439352.1809847336,
        "cx": [
          -159978.4021120065,
          -656.1085078872244,
          -17.478491373471897,
          1.0353148078107566
        ],
        "cy": [
          287893.69592588244,
          194.77903715244358,
          -12.893280406671767,
          -2.728338551734118
        ],
        "cz": [
          156680.79587419075,
          -10.379436389751778,
          -9.669994245410006,
          -0.8323442659698874
        ]
      },
      {
        "t_start": 2439352.1809847336,
        "t_end": 2439352.187929178,
        "cx": [
          -161420.0809768007,
          -781.4355886500715,
          -9.208954859728536,
          3.099453449060924
        ],
        "cy": [
          288140.3527061536,
          47.20022552135868,
          -22.24831560153801,
          -1.9491790456953675
        ],
        "cz": [
          156569.34218203044,
          -101.89792335153344,
          -11.317329407246895,
          0.008676685049625377
        ]
      },
      {
        "t_start": 2439352.187929178,
        "t_end": 2439352.1948736226,
        "cx": [
          -163014.08013641147,
          -805.9403182027581,
          4.037550656148596,
          3.523799308879461
        ],
        "cy": [
          288024.50038776494,
          -164.46203301173682,
          -25.067293804988367,
          0.5396899439701883
        ],
        "cz": [
          156272.9066582081,
          -193.4089893746832,
          -9.060107215078464,
          1.1199344110327711
        ]
      },
      {
        "t_start": 2439352.1948736226,
        "t_end": 2439352.201818067,
        "cx": [
          -164540.81795219835,
          -715.5045114889294,
          14.62352284662029,
          1.7691867863545667
        ],
        "cy": [
          287499.0735130766,
          -358.125403068394,
          -19.388416588495602,
          2.299748664272556
        ],
        "cz": [
          155828.77072295474,
          -248.2289867877448,
          -4.064189033187166,
          1.3780246799183242
        ]
      },
      {
        "t_start": 2439352.201818067,
        "t_end": 2439352.2087625116,
        "cx": [
          -165826.55085703926,
          -568.4496799567519,
          18.180949637019694,
          0.009526608841497364
        ],
        "cy": [
          286660.03202050505,
          -476.3766746613528,
          -10.309586905008473,
          2.239666177481922
        ],
        "cz": [
          155320.04384960802,
          -258.2179706867946,
          0.4956427111592525,
          0.9018911922512434
        ]
      },
      {
        "t_start": 2439352.2087625116,
        "t_end": 2439352.215706956,
        "cx": [
          -166816.40133242196,
          -422.11569966373736,
          16.75114116138503,
          -0.7244308466533731
        ],
        "cy": [
          285657.673929272,
          -522.2603976391692,
          -2.867549039732694,
          1.4813527551450534
        ],
        "cz": [
          154821.1843169155,
          -239.33017477138173,
          3.118417179925924,
          0.40949604213210655
        ]
      },
      {
        "t_start": 2439352.215706956,
        "t_end": 2439352.2226514006,
        "cx": [
          -167536.56582685927,
          -299.5975601929781,
          13.653610322596244,
          -0.8243345727428242
        ],
        "cy": [
          284612.21785832185,
          -520.8660568377281,
          1.7916839067020192,
          0.8482637180759411
        ],
        "cz": [
          154373.76361417738,
          -207.551218270135,
          4.197036573035803,
          0.12981365442101378
        ]
      },
      {
        "t_start": 2439352.2226514006,
        "t_end": 2439352.229595845,
        "cx": [
          -168038.28201083193,
          -203.66266185063387,
          10.565534180705985,
          -0.7197034982023052
        ],
        "cy": [
          283597.45886129164,
          -492.5783894256392,
          4.420785440490363,
          0.4662870488182307
        ],
        "cz": [
          153994.30814995908,
          -171.77126292724188,
          4.463002614887955,
          0.003169366506881488
        ]
      },
      {
        "t_start": 2439352.229595845,
        "t_end": 2439352.2365402896,
        "cx": [
          -168371.4196917337,
          -130.78403521188943,
          7.947501859197059,
          -0.5893126625503315
        ],
        "cy": [
          282654.6130677423,
          -449.543171573286,
          5.869250541151473,
          0.25794550150868645
        ],
        "cz": [
          153686.6146456584,
          -135.9662173922331,
          4.37505057729267,
          -0.047145385302704845
        ]
      },
      {
        "t_start": 2439352.2365402896,
        "t_end": 2439352.2434847336,
        "cx": [
          -168577.87066682085,
          -76.7392905728718,
          5.802800464056919,
          -0.4830380350233767
        ],
        "cy": [
          281806.3117679929,
          -398.35212398938654,
          6.681258914428369,
          0.14805868513704468
        ],
        "cz": [
          153449.0564785394,
          -101.70318573191095,
          4.1525785670249515,
          -0.06409061983661157
        ]
      },
      {
        "t_start": 2439352.2434847336,
        "t_end": 2439352.250429178,
        "cx": [
          -168691.83895210118,
          -38.12028503957162,
          4.020219799734152,
          -0.40825229713618794
        ],
        "cy": [
          281065.2440216997,
          -342.4763217377524,
          7.159860046756364,
          0.09124188102330777
        ],
        "cz": [
          153277.98083471498,
          -69.50432609497196,
          3.8888425620124885,
          -0.067777382664163
        ]
      },
      {
        "t_start": 2439352.250429178,
        "t_end": 2439352.2573736226,
        "cx": [
          -168741.72607320512,
          -12.536952027269763,
          2.4799878739740966,
          -0.3618636657438403
        ],
        "cy": [
          280438.9047462797,
          -283.70902059377113,
          7.467726223800128,
          0.06269120749493595
        ],
        "cz": [
          153169.1332356053,
          -39.47842575078357,
          3.6185370899838745,
          -0.067375353350144
        ]
      },
      {
        "t_start": 2439352.2573736226,
        "t_end": 2439352.264318067,
        "cx": [
          -168752.0698747946,
          1.4912777094768899,
          1.0762424172880856,
          -0.3400090625991652
        ],
        "cy": [
          279932.13413401705,
          -222.95018036868623,
          7.690548823937206,
          0.04872009258451726
        ],
        "cz": [
          153118.1814581505,
          -11.608118547572303,
          3.349003402821836,
          -0.06739149023451318
        ]
      },
      {
        "t_start": 2439352.264318067,
        "t_end": 2439352.2712625116,
        "cx": [
          -168745.2362799136,
          4.661685546260287,
          -0.28502083323928673,
          -0.34062256266452096
        ],
        "cy": [
          279548.4557561891,
          -160.6385127849071,
          7.869918172780672,
          0.04096458182993956
        ],
        "cz": [
          153120.8202982637,
          14.10891025575529,
          3.072906592815343,
          -0.07065691476873326
        ]
      },
      {
        "t_start": 2439352.2712625116,
        "t_end": 2439352.278206956,
        "cx": [
          -168742.91496251847,
          -3.0450276993879015,
          -1.6943399297269934,
          -0.3640369855775134
        ],
        "cy": [
          279290.7278982111,
          -97.01557506143035,
          8.017458436261222,
          0.032805549906697706
        ],
        "cz": [
          153172.65069262875,
          37.570911320856794,
          2.771761015859738,
          -0.0799158737054313
        ]
      },
      {
        "t_start": 2439352.278206956,
        "t_end": 2439352.2851514006,
        "cx": [
          -168767.55809817268,
          -22.375260416200945,
          -3.248644852432335,
          -0.4131154757769764
        ],
        "cy": [
          279161.32836195634,
          -32.334684433191796,
          8.11601195642288,
          0.016471210177769535
        ],
        "cz": [
          153268.88599482953,
          58.48545230048376,
          2.4138838570243024,
          -0.09902270571228655
        ]
      },
      {
        "t_start": 2439352.2851514006,
        "t_end": 2439352.292095845,
        "cx": [
          -168843.9216795921,
          -54.894409401429584,
          -5.060821648830823,
          -0.4929729224240864
        ],
        "cy": [
          279161.89197638,
          32.89409592913307,
          8.107606101004421,
          -0.020674137890637212
        ],
        "cz": [
          153403.85232819463,
          76.24749775924965,
          1.9471172463299808,
          -0.13436059963669322
        ]
      },
      {
        "t_start": 2439352.292095845,
        "t_end": 2439352.2990402896,
        "cx": [
          -169000.8667999413,
          -103.1526030717248,
          -7.264605896891686,
          -0.6089192016045226
        ],
        "cy": [
          279292.4154358344,
          97.5060868901556,
          7.861052830719782,
          -0.10260249724440662
        ],
        "cz": [
          153570.1683183006,
          89.73721864157783,
          1.2845698360323787,
          -0.19691310551210783
        ]
      },
      {
        "t_start": 2439352.2990402896,
        "t_end": 2439352.3059847336,
        "cx": [
          -169273.51654865823,
          -170.86356614401888,
          -9.997446894491166,
          -0.7575012971952173
        ],
        "cy": [
          279549.22749009554,
          158.9268116858653,
          7.10274146045824,
          -0.27655318789000205
        ],
        "cz": [
          153757.37824795075,
          96.9710230980503,
          0.28119401504688035,
          -0.30477480498064313
        ]
      },
      {
        "t_start": 2439352.3059847336,
        "t_end": 2439352.312929178,
        "cx": [
          -169705.55284561042,
          -262.8254550267991,
          -13.302895331756716,
          -0.8952229214375649
        ],
        "cy": [
          279920.7386093794,
          211.67755299030554,
          5.289232245092247,
          -0.6302014197966326
        ],
        "cz": [
          153949.6575149588,
          94.52143951635033,
          -1.292414772262278,
          -0.48202958867575507
        ]
      },
      {
        "t_start": 2439352.312929178,
        "t_end": 2439352.3198736226,
        "cx": [
          -170350.25034588997,
          -383.6173377597556,
          -16.793480345671014,
          -0.8500695855213962
        ],
        "cy": [
          280378.8964917225,
          244.56405737370093,
          1.4566882868512003,
          -1.2860705593166148
        ],
        "cz": [
          154122.11652063785,
          76.72157745239382,
          -3.7243921929639336,
          -0.7339591216732502
        ]
      },
      {
        "t_start": 2439352.3198736226,
        "t_end": 2439352.326818067,
        "cx": [
          -171265.06836323542,
          -532.233556325099,
          -18.85923382461442,
          -0.18280715394666913
        ],
        "cy": [
          280863.5520122253,
          236.57987836500706,
          -5.566481241357899,
          -2.2255142047915797
        ],
        "cz": [
          154235.90343717227,
          35.39025740030047,
          -7.074555556404449,
          -0.9411225600488247
        ]
      },
      {
        "t_start": 2439352.326818067,
        "t_end": 2439352.3337625116,
        "cx": [
          -172486.45390221404,
          -687.7749691732874,
          -16.105206864024694,
          1.5598206342378944
        ],
        "cy": [
          281262.0266920418,
          156.9417870996358,
          -15.472509944838752,
          -2.72750014694884
        ],
        "cz": [
          154236.42381951003,
          -36.50813409719194,
          -10.351073625739446,
          -0.6971364746168547
        ]
      },
      {
        "t_start": 2439352.3337625116,
        "t_end": 2439352.340706956,
        "cx": [
          -173972.7718131799,
          -793.5413972308925,
          -6.102117740736517,
          3.441723927408013
        ],
        "cy": [
          281411.33031079447,
          -11.785731725514779,
          -23.767636702050368,
          -1.420063231660607
        ],
        "cz": [
          154068.82606411388,
          -131.47740047259867,
          -11.12663197299662,
          0.3093573009900865
        ]
      },
      {
        "t_start": 2439352.340706956,
        "t_end": 2439352.3476514006,
        "cx": [
          -175560.04424871897,
          -787.0691733857952,
          7.221612104006468,
          3.220140994961632
        ],
        "cy": [
          281172.610221709,
          -227.21116043590337,
          -24.321242854042787,
          1.1432601556680346
        ],
        "cz": [
          153719.2387514035,
          -216.51596853825777,
          -7.93874457389029,
          1.2845863985612596
        ]
      },
      {
        "t_start": 2439352.3476514006,
        "t_end": 2439352.354595845,
        "cx": [
          -177027.39464328092,
          -675.8074799103038,
          16.16909463562206,
          1.2536002708498017
        ],
        "cy": [
          280537.0604645115,
          -404.7705086139076,
          -17.185066558735343,
          2.424827991989339
        ],
        "cz": [
          153240.6600296546,
          -259.4830615829401,
          -2.77936131853221,
          1.2951052291159613
        ]
      },
      {
        "t_start": 2439352.354595845,
        "t_end": 2439352.3615402896,
        "cx": [
          -178229.073793886,
          -524.8807943224188,
          18.15084738042337,
          -0.2627238984473266
        ],
        "cy": [
          279624.6990852053,
          -503.0975039601043,
          -8.198333094244433,
          2.0685387402488615
        ],
        "cz": [
          152718.65508721364,
          -260.4639694325887,
          1.3364615323005573,
          0.7628061963040604
        ]
      },
      {
        "t_start": 2439352.3615402896,
        "t_end": 2439352.3684847336,
        "cx": [
          -179136.25767534933,
          -383.3530510529198,
          16.050919556509932,
          -0.7872400135130384
        ],
        "cy": [
          278583.41218364856,
          -534.8199171501798,
          -1.4593722014448787,
          1.3009417061581772
        ],
        "cz": [
          152219.9823927662,
          -237.12523700444885,
          3.5034375531706914,
          0.32068181412918406
        ]
      },
      {
        "t_start": 2439352.3684847336,
        "t_end": 2439352.375429178,
        "cx": [
          -179785.5366316738,
          -267.5209709956681,
          12.860788108331523,
          -0.8078257105816302
        ],
        "cy": [
          277521.4471472575,
          -525.1115493803105,
          2.6077675199256447,
          0.7326281545270703
        ],
        "cz": [
          151778.71545050733,
          -203.73359197320795,
          4.3196641155477415,
          0.08743146705934457
        ]
      },
      {
        "t_start": 2439352.375429178,
        "t_end": 2439352.3823736226,
        "cx": [
          -180229.24280662037,
          -177.6803664352483,
          9.870463139486674,
          -0.6873367738298874
        ],
        "cy": [
          276503.0044679631,
          -492.1966161766941,
          4.8767949947905365,
          0.40188558289446163
        ],
        "cz": [
          151407.23346440474,
          -167.67545338556602,
          4.465545603196915,
          -0.014490723236576741
        ]
      },
      {
        "t_start": 2439352.3823736226,
        "t_end": 2439352.389318067,
        "cx": [
          -180515.5157579777,
          -109.84065408516517,
          7.3743248134715085,
          -0.5607323891813403
        ],
        "cy": [
          275563.60865734797,
          -446.57375508239784,
          6.127673706618239,
          0.22355377303028945
        ],
        "cz": [
          151107.4824265967,
          -132.14375300037545,
          4.32920844732598,
          -0.05367785469525277
        ]
      },
      {
        "t_start": 2439352.389318067,
        "t_end": 2439352.3962625116,
        "cx": [
          -180684.2498623286,
          -59.91634442415716,
          5.328536496627746,
          -0.4621617692459945
        ],
        "cy": [
          274722.79948826024,
          -393.8819057600831,
          6.834690197152661,
          0.12995447223329748
        ],
        "cz": [
          150877.10180415088,
          -98.3565781258576,
          4.08979108656786,
          -0.06603082568562968
        ]
      },
      {
        "t_start": 2439352.3962625116,
        "t_end": 2439352.403206956,
        "cx": [
          -180768.05939648906,
          -24.750077016971318,
          3.6147619351968387,
          -0.3947255114621845
        ],
        "cy": [
          273991.6288007773,
          -337.07699270283774,
          7.25826823743774,
          0.08183454791288014
        ],
        "cz": [
          150712.18667280712,
          -66.6926787567595,
          3.8215400088074585,
          -0.06809471319638671
        ]
      },
      {
        "t_start": 2439352.403206956,
        "t_end": 2439352.4101514006,
        "cx": [
          -180794.24773176352,
          -2.1876494995758553,
          2.115979451131352,
          -0.35466573057601647
        ],
        "cy": [
          273376.7346324187,
          -277.6775002982431,
          7.537618952428595,
          0.05784080957164761
        ],
        "cz": [
          150608.41907161628,
          -37.210492978988896,
          3.5503989189919594,
          -0.06747583170772486
        ]
      },
      {
        "t_start": 2439352.4101514006,
        "t_end": 2439352.417095845,
        "cx": [
          -180786.69296445078,
          9.04930988569231,
          0.7297655978691182,
          -0.3384411960532816
        ],
        "cy": [
          272882.51400766586,
          -216.4392692806232,
          7.7453293001963175,
          0.046014364323127666
        ],
        "cz": [
          150561.4577983716,
          -9.886323431731853,
          3.279312586962078,
          -0.06806733430903478
        ]
      },
      {
        "t_start": 2439352.417095845,
        "t_end": 2439352.4240402896,
        "cx": [
          -180767.48219232974,
          9.478477687538808,
          -0.6362034978033804,
          -0.3445433517847867
        ],
        "cy": [
          272512.256955859,
          -153.73307942371179,
          7.91473550532908,
          0.038688738239615716
        ],
        "cz": [
          150566.97569556278,
          15.263592934661753,
          2.99805721044286,
          -0.07256035395057414
        ]
      },
      {
        "t_start": 2439352.4240402896,
        "t_end": 2439352.4309847336,
        "cx": [
          -180758.3797331915,
          -1.0944747166838649,
          -2.0731158325703776,
          -0.3739128155968929
        ],
        "cy": [
          272268.66927155736,
          -89.78669740414021,
          8.050550452797768,
          0.02921873549473064
        ],
        "cz": [
          150620.49409945795,
          38.098386711865146,
          2.685208713190568,
          -0.08386389467557143
        ]
      },
      {
        "t_start": 2439352.4309847336,
        "t_end": 2439352.437929178,
        "cx": [
          -180782.27621470502,
          -23.605919854954692,
          -3.6809419488400383,
          -0.4300002425379379
        ],
        "cy": [
          272153.94973803416,
          -24.89459825283229,
          8.12702618534023,
          0.009019130776500184
        ],
        "cz": [
          150717.0433337769,
          58.26067857232504,
          2.3048706436264705,
          -0.1063051401064774
        ]
      },
      {
        "t_start": 2439352.437929178,
        "t_end": 2439352.4448736226,
        "cx": [
          -180864.7791069712,
          -59.84521611127866,
          -5.577429348998521,
          -0.5182434575413026
        ],
        "cy": [
          272169.39427647926,
          40.3115461409443,
          8.071845071184725,
          -0.036609687854252115
        ],
        "cz": [
          150850.5971247164,
          75.03963178331242,
          1.7979094758420633,
          -0.14717544378572622
        ]
      },
      {
        "t_start": 2439352.4448736226,
        "t_end": 2439352.451818067,
        "cx": [
          -181036.09486590917,
          -112.63178798283752,
          -7.899919661311284,
          -0.6430016986168976
        ],
        "cy": [
          272314.2784497249,
          104.39997971683897,
          7.726550295663401,
          -0.1360376999100481
        ],
        "cz": [
          151013.1428006773,
          87.13989688974198,
          1.0656149002024886,
          -0.21897184403587655
        ]
      },
      {
        "t_start": 2439352.451818067,
        "t_end": 2439352.4587625116,
        "cx": [
          -181333.25564418518,
          -185.96708307082372,
          -10.77610521661882,
          -0.7950910790350445
        ],
        "cy": [
          272583.4039052761,
          164.24458965904796,
          6.764777944850721,
          -0.344848475489016
        ],
        "cz": [
          151193.12728370941,
          92.28395452050881,
          -0.05564834353936021,
          -0.3416597778295909
        ]
      },
      {
        "t_start": 2439352.4587625116,
        "t_end": 2439352.465706956,
        "cx": [
          -181802.2994474091,
          -284.782142189767,
          -14.186949289927718,
          -0.9103309576175853
        ],
        "cy": [
          272962.01802995894,
          213.26253784144774,
          4.550783580240026,
          -0.7621487068199695
        ],
        "cz": [
          151372.8606370084,
          86.56914527488789,
          -1.8161553505779011,
          -0.5385937256951365
        ]
      },
      {
        "t_start": 2439352.465706956,
        "t_end": 2439352.4726514006,
        "cx": [
          -182498.40058932058,
          -412.9913467339852,
          -17.531643314477158,
          -0.7620160546589396
        ],
        "cy": [
          273415.76251982735,
          238.21604089372704,
          0.018961314002801544,
          -1.5037624262986355
        ],
        "cz": [
          151524.44903984718,
          63.68223648583762,
          -4.49019750683965,
          -0.7984273524339187
        ]
      },
      {
        "t_start": 2439352.4726514006,
        "t_end": 2439352.479595845,
        "cx": [
          -183477.13200930099,
          -566.3504277400398,
          -18.752352301658888,
          0.1516615610644365
        ],
        "cy": [
          273873.1672798311,
          215.24436342124045,
          -7.869750063729949,
          -2.440593262567747
        ],
        "cz": [
          151604.99980179148,
          15.12874477289597,
          -7.969758878011817,
          -0.9413533331521649
        ]
      },
      {
        "t_start": 2439352.479595845,
        "t_end": 2439352.4865402896,
        "cx": [
          -184761.62889801635,
          -715.8928995147587,
          -14.245229380691441,
          2.1018998994265914
        ],
        "cy": [
          274206.85557175067,
          113.39980634175163,
          -17.957994376935854,
          -2.6035288940315677
        ],
        "cz": [
          151557.45373501827,
          -64.1242488970577,
          -10.868633579804236,
          -0.5080840177422257
        ]
      },
      {
        "t_start": 2439352.4865402896,
        "t_end": 2439352.4934847336,
        "cx": [
          -186281.0160877011,
          -797.7573879919245,
          -2.7714250244090834,
          3.6350022787109495
        ],
        "cy": [
          274249.93497068604,
          -73.7240386943688,
          -24.76525695272859,
          -0.8001023938757132
        ],
        "cz": [
          151332.910445875,
          -160.31893128967766,
          -10.668415666652887,
          0.608192974314262
        ]
      },
      {
        "t_start": 2439352.4934847336,
        "t_end": 2439352.500429178,
        "cx": [
          -187846.14071022318,
          -760.9330168719855,
          10.097010291903032,
          2.7992153794433037
        ],
        "cy": [
          273888.2640339275,
          -287.09742376958303,
          -23.066308363916086,
          1.6495766882928855
        ],
        "cz": [
          150933.89707026133,
          -236.70662032696146,
          -6.692767672653698,
          1.3796310226871586
        ]
      },
      {
        "t_start": 2439352.500429178,
        "t_end": 2439352.5073736226,
        "cx": [
          -189244.00173847197,
          -633.3495345418078,
          17.2539639618317,
          0.7792614555246402
        ],
        "cy": [
          273151.04852734896,
          -446.02679655030073,
          -14.883735846411547,
          2.4417095704557177
        ],
        "cz": [
          150426.65710460843,
          -267.97437431285243,
          -1.574825646593112,
          1.1793399903431236
        ]
      },
      {
        "t_start": 2439352.5073736226,
        "t_end": 2439352.514318067,
        "cx": [
          -190359.26132960836,
          -481.6005866211535,
          17.872903908775697,
          -0.4697914820526421
        ],
        "cy": [
          272175.23724212294,
          -525.4651998645913,
          -6.245158224075595,
          1.8775792407159315
        ],
        "cz": [
          149895.71391168644,
          -261.15683913429393,
          2.049133303119561,
          0.6326394845150389
        ]
      },
      {
        "t_start": 2439352.514318067,
        "t_end": 2439352.5212625116,
        "cx": [
          -191185.3546137498,
          -345.7831497740822,
          15.291999401272733,
          -0.8206607717024781
        ],
        "cy": [
          271102.11614269327,
          -544.6429694446242,
          -0.21929798313249194,
          1.135350879744692
        ],
        "cz": [
          149399.42467115636,
          -234.25433169193093,
          3.805272710971618,
          0.24543021940735166
        ]
      },
      {
        "t_start": 2439352.5212625116,
        "t_end": 2439352.528206956,
        "cx": [
          -191766.14789560917,
          -236.6145902699036,
          12.083083031964634,
          -0.7837974129533904
        ],
        "cy": [
          270027.9778626601,
          -527.7281740314484,
          3.3149751308410487,
          0.6317856772493542
        ],
        "cz": [
          148965.17913179196,
          -199.6928068636671,
          4.402074328530947,
          0.05297058937594379
        ]
      },
      {
        "t_start": 2439352.528206956,
        "t_end": 2439352.590706956,
        "cx": [
          -192436.20880518094,
          -195.61202981077352,
          153.50764819563986,
          -91.59215030517998,
          3.237418466200375
        ],
        "cy": [
          266520.6086264831,
          -2396.729522655809,
          606.5760117584914,
          16.250964586349067,
          -3.0152442872253187
        ],
        "cz": [
          148107.03730347453,
          -365.19812764663914,
          281.16776188695763,
          -16.896421485730954,
          -0.3807306508319527
        ]
      },
      {
        "t_start": 2439352.590706956,
        "t_end": 2439352.5976514006,
        "cx": [
          -192627.30163550182,
          -65.43291171481951,
          -6.120473833615504,
          -0.5457241004146445
        ],
        "cy": [
          264783.8041624252,
          47.8512855981553,
          8.017074322302506,
          -0.05588418714069121
        ],
        "cz": [
          148077.453750292,
          73.58416370295299,
          1.6344333557108275,
          -0.1618789209910565
        ]
      },
      {
        "t_start": 2439352.5976514006,
        "t_end": 2439352.604595845,
        "cx": [
          -192814.505268202,
          -122.99522858827369,
          -8.569489039573462,
          -0.67878350256251
        ],
        "cy": [
          264943.1015607605,
          111.21403877267403,
          7.552926393535017,
          -0.17618977725760487
        ],
        "cz": [
          148235.59574318546,
          84.15181958063113,
          0.8224141359587502,
          -0.24413068888315959
        ]
      },
      {
        "t_start": 2439352.604595845,
        "t_end": 2439352.6115402896,
        "cx": [
          -193138.25079151674,
          -202.25976933875492,
          -11.588438264069303,
          -0.8306911096835954
        ],
        "cy": [
          265223.9859722854,
          169.06820334121983,
          6.348587571366089,
          -0.42597963381958337
        ],
        "cz": [
          148407.33887181134,
          86.9640446568227,
          -0.4321146409108607,
          -0.3831336995498269
        ]
      },
      {
        "t_start": 2439352.6115402896,
        "t_end": 2439352.6184847336,
        "cx": [
          -193646.94881747905,
          -308.1789774384852,
          -15.069879893892825,
          -0.9100297052318034
        ],
        "cy": [
          265607.9249965144,
          213.53003930427332,
          3.667024404240518,
          -0.9148019497395676
        ],
        "cz": [
          148572.87876890544,
          77.59328394537816,
          -2.3972516247756284,
          -0.5994347923880121
        ]
      },
      {
        "t_start": 2439352.6184847336,
        "t_end": 2439352.625429178,
        "cx": [
          -194397.17405722974,
          -443.5824194261315,
          -18.14219412185993,
          -0.6261274087499302
        ],
        "cy": [
          266053.15850237606,
          229.05164037504875,
          -1.636627960242926,
          -1.7370242325094267
        ],
        "cz": [
          148701.01000753077,
          49.08170178116917,
          -5.309757422380215,
          -0.8568181064088234
        ]
      },
      {
        "t_start": 2439352.625429178,
        "t_end": 2439352.6323736226,
        "cx": [
          -195440.61304637181,
          -599.9234177372209,
          -18.275890164404714,
          0.5592793874757191
        ],
        "cy": [
          266475.596295386,
          189.03916657139598,
          -10.330600087410854,
          -2.6099618310672685
        ],
        "cz": [
          148744.7951107729,
          -7.0578410261609825,
          -8.832242396462789,
          -0.904424380632463
        ]
      },
      {
        "t_start": 2439352.6323736226,
        "t_end": 2439352.639318067,
        "cx": [
          -196782.96269491507,
          -739.244870442004,
          -11.913169436409575,
          2.622080976530917
        ],
        "cy": [
          266733.95408832276,
          64.3668396390949,
          -20.234173539687617,
          -2.341824895071113
        ],
        "cz": [
          148646.0897652497,
          -92.82146177310506,
          -11.180156948591502,
          -0.2695328954373508
        ]
      },
      {
        "t_start": 2439352.639318067,
        "t_end": 2439352.6462625116,
        "cx": [
          -198322.12229239423,
          -793.6337476963827,
          0.6487892453696986,
          3.658898364345987
        ],
        "cy": [
          266663.6150981178,
          -137.18261331683334,
          -25.187740485145696,
          -0.13495857766520203
        ],
        "cz": [
          148364.93001661895,
          -187.72629816869676,
          -9.956179570798668,
          0.8815215843374062
        ]
      },
      {
        "t_start": 2439352.6462625116,
        "t_end": 2439352.653206956,
        "cx": [
          -199850.26570243703,
          -728.546462760834,
          12.575188416370096,
          2.304301221159669
        ],
        "cy": [
          266181.5209835404,
          -343.01264642827573,
          -21.39003082072123,
          2.0338134098810734
        ],
        "cz": [
          147921.11967803203,
          -253.7961933176316,
          -5.380485369593771,
          1.406325516266861
        ]
      },
      {
        "t_start": 2439352.653206956,
        "t_end": 2439352.6601514006,
        "cx": [
          -201170.61886445098,
          -589.1371163510594,
          17.91435422049109,
          0.36528168090080015
        ],
        "cy": [
          265352.1705039932,
          -481.93104236750963,
          -12.576449318074047,
          2.372977341442496
        ],
        "cz": [
          147390.89499830207,
          -273.9773516969267,
          -0.4782159387732463,
          1.0448091991397632
        ]
      },
      {
        "t_start": 2439352.6601514006,
        "t_end": 2439352.667095845,
        "cx": [
          -202198.49403809794,
          -438.99263481340995,
          17.405199185478523,
          -0.6198591984070845
        ],
        "cy": [
          264322.30240450037,
          -543.8830509457857,
          -4.468436958843114,
          1.681028838176644
        ],
        "cz": [
          146854.8015392082,
          -260.55631050980446,
          2.6413778354853967,
          0.5149876879950153
        ]
      },
      {
        "t_start": 2439352.667095845,
        "t_end": 2439352.6740402896,
        "cx": [
          -202945.49156173604,
          -309.45669786281906,
          14.501581109265373,
          -0.8319498396976712
        ],
        "cy": [
          263223.71291085606,
          -552.039235113892,
          0.8659782104211757,
          0.9861787464518486
        ],
        "cz": [
          146362.69472727552,
          -230.85300543240317,
          4.036369816484438,
          0.18250830249904126
        ]
      },
      {
        "t_start": 2439352.6740402896,
        "t_end": 2439352.6809847336,
        "cx": [
          -203460.19341847042,
          -206.83214380581228,
          11.327611240753786,
          -0.7550350945599416
        ],
        "cy": [
          262141.2524599558,
          -528.890685795544,
          3.927038192134802,
          0.5443512444031313
        ],
        "cz": [
          145936.14952089047,
          -195.4845420605491,
          4.451687600638227,
          0.025150589579679306
        ]
      },
      {
        "t_start": 2439352.6809847336,
        "t_end": 2439352.687929178,
        "cx": [
          -203794.0707850356,
          -128.42355981391216,
          8.570937131751498,
          -0.6233019599393872
        ],
        "cy": [
          261122.99855987655,
          -488.5196531129973,
          5.61416053360238,
          0.2992099263269985
        ],
        "cz": [
          145581.27516075774,
          -159.40408030712695,
          4.423163130780512,
          -0.03941282450854011
        ]
      },
      {
        "t_start": 2439352.687929178,
        "t_end": 2439352.6948736226,
        "cx": [
          -203991.30525263606,
          -69.94320291264603,
          6.306346879548984,
          -0.5089931661655109
        ],
        "cy": [
          260195.32170417949,
          -438.6888963771862,
          6.550772947117366,
          0.16909628043595148
        ],
        "cz": [
          145297.34636504375,
          -124.62646075445673,
          4.219672435588107,
          -0.06233252308584358
        ]
      },
      {
        "t_start": 2439352.6948736226,
        "t_end": 2439352.701818067,
        "cx": [
          -204088.0327668913,
          -27.7193081049154,
          4.436353354822131,
          -0.4260035961960966
        ],
        "cy": [
          259372.85277555353,
          -383.5095060005924,
          7.091825443469141,
          0.10142996774175472
        ],
        "cz": [
          145080.98996982054,
          -91.86050057700595,
          3.958540219129647,
          -0.06823358514702793
        ]
      },
      {
        "t_start": 2439352.701818067,
        "t_end": 2439352.7087625116,
        "cx": [
          -204114.05153562,
          0.9019966891546574,
          2.839267980743898,
          -0.37253909084120096
        ],
        "cy": [
          258664.05706501057,
          -325.1176837879234,
          7.428866952431228,
          0.06709078673748436
        ],
        "cz": [
          144927.98220418332,
          -61.28382420839762,
          3.685421922636124,
          -0.0683255630997337
        ]
      },
      {
        "t_start": 2439352.7087625116,
        "t_end": 2439352.715706956,
        "cx": [
          -204094.80494615823,
          17.627514836311548,
          1.4051121081402016,
          -0.34453884546246627
        ],
        "cy": [
          258074.22576890906,
          -264.5963631604218,
          7.663365258811609,
          0.05015836645634408
        ],
        "cz": [
          144833.94061976962,
          -32.89403458421975,
          3.412873164777011,
          -0.06794881582800372
        ]
      },
      {
        "t_start": 2439352.715706956,
        "t_end": 2439352.7226514006,
        "cx": [
          -204053.1429206284,
          23.350611588305583,
          0.037313897746571456,
          -0.3393602597343488
        ],
        "cy": [
          257607.05999377466,
          -202.47800123380603,
          7.8461867392416025,
          0.04125237375137658
        ],
        "cz": [
          144794.5087278208,
          -6.675992657771985,
          3.1366025784400335,
          -0.07018647733684702
        ]
      },
      {
        "t_start": 2439352.7226514006,
        "t_end": 2439352.729595845,
        "cx": [
          -204010.85962357352,
          18.23666178082567,
          -1.3547334737195342,
          -0.356663426002342
        ],
        "cy": [
          257265.4664525923,
          -139.04075227045996,
          7.995762095282771,
          0.03353530427284568
        ],
        "cz": [
          144805.28196356547,
          17.30134989009548,
          2.840845553833788,
          -0.07769203497173272
        ]
      },
      {
        "t_start": 2439352.729595845,
        "t_end": 2439352.7365402896,
        "cx": [
          -203990.13357272634,
          1.7341206946815766,
          -2.8652702172101057,
          -0.3986049457393057
        ],
        "cy": [
          257051.84807294875,
          -74.52432370219077,
          8.10236943709117,
          0.01976836663135373
        ],
        "cz": [
          144861.55619175252,
          38.80126799408823,
          2.4976249481155577,
          -0.09391826788556212
        ]
      },
      {
        "t_start": 2439352.7365402896,
        "t_end": 2439352.7434847336,
        "cx": [
          -204015.0257841909,
          -27.494630666356805,
          -4.601867231509237,
          -0.46969356141026
        ],
        "cy": [
          256967.95675726427,
          -9.358263388139873,
          8.119826625357469,
          -0.01103977249820498
        ],
        "cz": [
          144957.88588033267,
          57.310078064032716,
          2.0609399040681726,
          -0.1244242541381313
        ]
      },
      {
        "t_start": 2439352.7434847336,
        "t_end": 2439352.750429178,
        "cx": [
          -204113.19427772265,
          -71.71895942535865,
          -6.69206035132445,
          -0.5754029984955285
        ],
        "cy": [
          257014.18050667775,
          55.491824027524245,
          7.93944907722932,
          -0.07914900156404947
        ],
        "cz": [
          145087.36022183695,
          71.86111424151431,
          1.4546415065315337,
          -0.1787249446320036
        ]
      },
      {
        "t_start": 2439352.750429178,
        "t_end": 2439352.7573736226,
        "cx": [
          -204317.9435556152,
          -134.3215073380229,
          -9.274438092935274,
          -0.7157858723117005
        ],
        "cy": [
          257187.86195410145,
          117.8861790067185,
          7.332560298327728,
          -0.22429538789037906
        ],
        "cz": [
          145240.40549513992,
          80.7326781758843,
          0.5516797354202936,
          -0.27275594091997846
        ]
      },
      {
        "t_start": 2439352.7573736226,
        "t_end": 2439352.764318067,
        "cx": [
          -204670.51020528685,
          -219.82315005835787,
          -12.430453542450763,
          -0.862221852446055
        ],
        "cy": [
          257479.7498954125,
          173.25555335781837,
          5.840142405194456,
          -0.5219135586726225
        ],
        "cz": [
          145402.77907607364,
          80.93870594029659,
          -0.8527138997078492,
          -0.4294408766459119
        ]
      },
      {
        "t_start": 2439352.764318067,
        "t_end": 2439352.7712625116,
        "cx": [
          -205221.61932287374,
          -333.0363696352965,
          -15.931257755909428,
          -0.8881802542796322
        ],
        "cy": [
          257866.81000150854,
          212.1934006407373,
          2.6178382103444164,
          -1.0892385387542163
        ],
        "cz": [
          145552.29052426308,
          67.47990060604343,
          -3.038397185780015,
          -0.6634007663901675
        ]
      },
      {
        "t_start": 2439352.7712625116,
        "t_end": 2439352.778206956,
        "cx": [
          -206028.488095168,
          -475.153039459256,
          -18.572531356393483,
          -0.43245654596785243
        ],
        "cy": [
          258298.66698772655,
          216.5966991016112,
          -3.5159347410117334,
          -1.9776479369256776
        ],
        "cz": [
          145654.13533552812,
          32.79820999190542,
          -6.171798519997537,
          -0.9032999007204126
        ]
      },
      {
        "t_start": 2439352.778206956,
        "t_end": 2439352.7851514006,
        "cx": [
          -207136.35780904102,
          -632.1170912757602,
          -17.373365080581593,
          1.0320396838737977
        ],
        "cy": [
          258677.50551635082,
          157.5566939157584,
          -12.886205954909201,
          -2.707487670021237
        ],
        "cz": [
          145657.5484691017,
          -31.110326399686983,
          -9.622298482799124,
          -0.8219500806785618
        ]
      },
      {
        "t_start": 2439352.7851514006,
        "t_end": 2439352.792095845,
        "cx": [
          -208529.2168530103,
          -756.6346251521354,
          -9.158709997771453,
          3.0752878575331195
        ],
        "cy": [
          258850.0921775405,
          10.38111774497429,
          -22.183905012718242,
          -1.9413618588796453
        ],
        "cz": [
          145505.18363892598,
          -122.06915974515823,
          -11.251610421136316,
          0.007294111513603596
        ]
      },
      {
        "t_start": 2439352.792095845,
        "t_end": 2439352.7990402896,
        "cx": [
          -210073.57608984134,
          -781.1368676888093,
          4.016777982392497,
          3.5124561325506747
        ],
        "cy": [
          258661.27398232798,
          -200.61697438699298,
          -25.019227871695428,
          0.5237004293837764
        ],
        "cz": [
          145168.93255037104,
          -213.06633895837516,
          -9.020430718179373,
          1.1082957399594218
        ]
      },
      {
        "t_start": 2439352.7990402896,
        "t_end": 2439352.8059847336,
        "cx": [
          -211551.07610259365,
          -691.0707646625367,
          14.601538784377993,
          1.7799242684402543
        ],
        "cy": [
          258063.69074571048,
          -394.15521600760985,
          -19.397135425931047,
          2.287345793505697
        ],
        "cz": [
          144685.62359296967,
          -267.7615318948677,
          -4.058257621930707,
          1.3727908081649076
        ]
      },
      {
        "t_start": 2439352.8059847336,
        "t_end": 2439352.812929178,
        "cx": [
          -212787.96776727805,
          -544.0203794633804,
          18.20257990137967,
          0.020596290060598932
        ],
        "cy": [
          257152.3153855827,
          -512.6901247522576,
          -10.337096690071547,
          2.2426735744186033
        ],
        "cz": [
          144137.79207688535,
          -277.79368036383056,
          0.49435002925896043,
          0.9035130174317452
        ]
      },
      {
        "t_start": 2439352.812929178,
        "t_end": 2439352.8198736226,
        "cx": [
          -213728.6136852091,
          -397.3272727494659,
          16.79911133777385,
          -0.7223305718616757
        ],
        "cy": [
          256077.14322183092,
          -558.750406466419,
          -2.873831623881415,
          1.4889589586764487
        ],
        "cz": [
          143599.7928140409,
          -258.8906141483171,
          3.1242866938528095,
          0.41145531486881737
        ]
      },
      {
        "t_start": 2439352.8198736226,
        "t_end": 2439352.826818067,
        "cx": [
          -214398.7784595143,
          -274.38691694822865,
          13.700280552817283,
          -0.8270848206220798
        ],
        "cy": [
          254958.76778720698,
          -557.2824131794232,
          1.8113983323182765,
          0.8536560194233971
        ],
        "cz": [
          143113.32823535535,
          -227.03204473352343,
          4.208126301402448,
          0.13046448890054485
        ]
      },
      {
        "t_start": 2439352.826818067,
        "t_end": 2439352.8337625116,
        "cx": [
          -214849.73617117817,
          -178.12149700630744,
          10.598875971441885,
          -0.7236174700601623
        ],
        "cy": [
          253871.4149130279,
          -528.747939585468,
          4.456441160618851,
          0.46886539473052835
        ],
        "cz": [
          142695.0109001181,
          -191.15198201292242,
          4.47474328296812,
          0.0028440018841173753
        ]
      },
      {
        "t_start": 2439352.8337625116,
        "t_end": 2439352.840706956,
        "cx": [
          -215131.58025002986,
          -105.0390927705821,
          7.96585412105196,
          -0.5928934551402572
        ],
        "cy": [
          252856.55508907442,
          -485.384358781695,
          5.911492333266324,
          0.25866019159684583
        ],
        "cz": [
          142348.64623387705,
          -155.25776397168147,
          4.384583795836985,
          -0.04792374545149691
        ]
      },
      {
        "t_start": 2439352.840706956,
        "t_end": 2439352.8476514006,
        "cx": [
          -215286.44592352642,
          -50.90546136035118,
          5.808092852157644,
          -0.4859871793014472
        ],
        "cy": [
          251936.92145094497,
          -433.8429080072483,
          6.724235014458827,
          0.1477111489903109
        ],
        "cz": [
          142072.5706570028,
          -120.93076696284061,
          4.158675675169434,
          -0.06503031487864064
        ]
      },
      {
        "t_start": 2439352.8476514006,
        "t_end": 2439352.854595845,
        "cx": [
          -215348.74666167636,
          -12.29188228005205,
          4.01488187132054,
          -0.4106183111189239
        ],
        "cy": [
          251125.21231064858,
          -377.628229749469,
          7.2002400937435596,
          0.09029139065387426
        ],
        "cz": [
          141863.07556577484,
          -88.69811574720825,
          3.8910927111082856,
          -0.06876116715557146
        ]
      },
      {
        "t_start": 2439352.854595845,
        "t_end": 2439352.8615402896,
        "cx": [
          -215347.05372903225,
          13.210429007245772,
          2.4661100375395346,
          -0.36376760576975986
        ],
        "cy": [
          250428.87972276076,
          -318.5527110530483,
          7.503534264247541,
          0.06135569459993562
        ],
        "cz": [
          141715.84464172347,
          -58.669941685660305,
          3.6168259480206997,
          -0.06837221438458352
        ]
      },
      {
        "t_start": 2439352.8615402896,
        "t_end": 2439352.8684847336,
        "cx": [
          -215306.04116511138,
          27.09681299479342,
          1.0554661999079085,
          -0.3415543130460541
        ],
        "cy": [
          249852.6901296264,
          -257.52844860330674,
          7.720401220239285,
          0.04707778339957436
        ],
        "cz": [
          141626.4822289436,
          -30.82925102468171,
          3.3432660871684043,
          -0.06840771604156326
        ]
      },
      {
        "t_start": 2439352.8684847336,
        "t_end": 2439352.875429178,
        "cx": [
          -215248.1849533407,
          30.07598281456169,
          -0.3113657226627171,
          -0.34186164824653376
        ],
        "cy": [
          249400.07168758876,
          -195.00392367196204,
          7.892540745120922,
          0.038991979033967894
        ],
        "cz": [
          141590.6187608383,
          -5.174339754245413,
          3.063020739960046,
          -0.07171495756443536
        ]
      },
      {
        "t_start": 2439352.875429178,
        "t_end": 2439352.8823736226,
        "cx": [
          -215195.26379990505,
          22.138358992932353,
          -1.7249889791555688,
          -0.3649499799944351
        ],
        "cy": [
          249073.76720872094,
          -131.2311486421645,
          8.031353852436041,
          0.03041457463086772
        ],
        "cz": [
          141603.7888850606,
          18.19171045292387,
          2.7575136926952837,
          -0.08103856606976478
        ]
      },
      {
        "t_start": 2439352.8823736226,
        "t_end": 2439352.889318067,
        "cx": [
          -215169.7990494394,
          2.5478694962603186,
          -3.2820329321002646,
          -0.41357199647791276
        ],
        "cy": [
          248876.01534614392,
          -66.47678470702022,
          8.119212308115493,
          0.013514653199763416
        ],
        "cz": [
          141661.13623442137,
          38.974382356524075,
          2.3950005900169344,
          -0.10021798526759085
        ]
      },
      {
        "t_start": 2439352.889318067,
        "t_end": 2439352.8962625116,
        "cx": [
          -215196.59141002037,
          -30.24645998718188,
          -5.094492752024962,
          -0.492657913484436
        ],
        "cy": [
          248808.28046188317,
          -1.2689610191700922,
          8.097489377083548,
          -0.024376118704822147
        ],
        "cz": [
          141756.91269113313,
          56.56626884854859,
          1.9233895766383284,
          -0.13558752142353114
        ]
      },
      {
        "t_start": 2439352.8962625116,
        "t_end": 2439352.903206956,
        "cx": [
          -215304.50839234024,
          -78.77038338941065,
          -7.2942148654065,
          -0.6072031432063332
        ],
        "cy": [
          248870.3467834882,
          63.20373324255252,
          7.834390613972573,
          -0.10717326286157913
        ],
        "cz": [
          141883.65894050428,
          69.84639529928427,
          1.2562191300094128,
          -0.1979977018872887
        ]
      },
      {
        "t_start": 2439352.903206956,
        "t_end": 2439352.9101514006,
        "cx": [
          -215528.61156656046,
          -146.6932748605659,
          -10.015182924995322,
          -0.7532808865898915
        ],
        "cy": [
          249058.27816013517,
          124.33869141357854,
          7.056486632159249,
          -0.281778728037807
        ],
        "cz": [
          142030.84396854896,
          76.83541122540328,
          0.2497760900378143,
          -0.3052238180985105
        ]
      },
      {
        "t_start": 2439352.9101514006,
        "t_end": 2439352.917095845,
        "cx": [
          -215912.3983387713,
          -238.73364578476458,
          -13.29547979398103,
          -0.8868675478938712
        ],
        "cy": [
          249360.16835579902,
          176.63503580822953,
          5.223549748135156,
          -0.6346897139760586
        ],
        "cz": [
          142182.59074625,
          74.12547884779087,
          -1.321999165587842,
          -0.4806638097161331
        ]
      },
      {
        "t_start": 2439352.917095845,
        "t_end": 2439352.9240402896,
        "cx": [
          -216508.74479374572,
          -359.33695459413207,
          -16.743770602692564,
          -0.8372778564728094
        ],
        "cy": [
          249747.64256362544,
          208.91909547997176,
          1.3833966716751007,
          -1.285386824253969
        ],
        "cz": [
          142314.0321615255,
          56.106736687972905,
          -3.740398645105441,
          -0.7285359300444854
        ]
      },
      {
        "t_start": 2439352.9240402896,
        "t_end": 2439352.9309847336,
        "cx": [
          -217374.42080294105,
          -507.34857317084834,
          -18.762807742088455,
          -0.17224071321967926
        ],
        "cy": [
          250160.40758805122,
          200.34761067907098,
          -5.613239861788784,
          -2.2129314424761546
        ],
        "cz": [
          142386.52696938743,
          14.72898482046719,
          -7.0585713521284665,
          -0.9305504234652073
        ]
      },
      {
        "t_start": 2439352.9309847336,
        "t_end": 2439352.937929178,
        "cx": [
          -218545.07963926802,
          -661.9308351292232,
          -16.003951688304724,
          1.5516687401060878
        ],
        "cy": [
          250486.20281108565,
          120.52827438443369,
          -15.451915803614522,
          -2.706406528440356
        ],
        "cz": [
          142346.00349460397,
          -56.87097734501948,
          -10.295606834328995,
          -0.6879673176350574
        ]
      },
      {
        "t_start": 2439352.937929178,
        "t_end": 2439352.9448736226,
        "cx": [
          -219978.9807471399,
          -767.0013420282139,
          -6.066090259528181,
          3.4172619742839743
        ],
        "cy": [
          250563.17698138586,
          -47.678236820323946,
          -23.700181275842624,
          -1.4177262076736952
        ],
        "cz": [
          142138.27965565902,
          -151.23605266850882,
          -11.061988971508974,
          0.3047762490468813
        ]
      },
      {
        "t_start": 2439352.9448736226,
        "t_end": 2439352.951818067,
        "cx": [
          -221513.2643179275,
          -760.6507886633613,
          7.196789932447231,
          3.2141781217055794
        ],
        "cy": [
          250253.2826789842,
          -262.50741217328687,
          -24.28287445984097,
          1.126379615681799
        ],
        "cz": [
          141749.64134401057,
          -235.82412546881096,
          -7.905721949204235,
          1.2733572621000349
        ]
      },
      {
        "t_start": 2439352.951818067,
        "t_end": 2439352.9587625116,
        "cx": [
          -222928.0956624745,
          -649.7009094483988,
          16.156082802947807,
          1.2654683135519846
        ],
        "cy": [
          249547.19484456375,
          -440.0379985084337,
          -17.19802698215244,
          2.4160441231551886
        ],
        "cz": [
          141232.53773433462,
          -278.7144772759343,
          -2.7757080868386765,
          1.2916496690882013
        ]
      },
      {
        "t_start": 2439352.9587625116,
        "t_end": 2439352.965706956,
        "cx": [
          -224077.49334893518,
          -498.68529719655044,
          18.179042434684575,
          -0.253988497692724
        ],
        "cy": [
          248564.04514899285,
          -538.6225586056798,
          -8.219750068636131,
          2.0730943336066048
        ],
        "cz": [
          140672.04025836405,
          -279.7267233108164,
          1.3368426808055958,
          0.7646257147302968
        ]
      },
      {
        "t_start": 2439352.965706956,
        "t_end": 2439352.9726514006,
        "cx": [
          -224931.92233448924,
          -356.7842195175258,
          16.097980114592254,
          -0.7865426623534368
        ],
        "cy": [
          247451.59578787338,
          -570.4458318318298,
          -1.457808704618401,
          1.3078763484022602
        ],
        "cz": [
          140134.87109663605,
          -256.35557870822777,
          3.510562098652379,
          0.3222339941985375
        ]
      },
      {
        "t_start": 2439352.9726514006,
        "t_end": 2439352.979595845,
        "cx": [
          -225527.66994200306,
          -240.5607672597157,
          12.903221587698674,
          -0.8108366010951578
        ],
        "cy": [
          246318.49338613966,
          -560.6115485496653,
          2.6322339997959716,
          0.7371450037994691
        ],
        "cz": [
          139655.22456035475,
          -222.88091379825028,
          4.330649648497452,
          0.08780978071854229
        ]
      },
      {
        "t_start": 2439352.979595845,
        "t_end": 2439352.9865402896,
        "cx": [
          -225917.15696495664,
          -150.42815453588014,
          9.899423903533274,
          -0.6910622409802665
        ],
        "cy": [
          245229.31465850974,
          -527.4261227816354,
          4.914346597005256,
          0.40391129481244903
        ],
        "cz": [
          139245.54271814262,
          -186.72803448558776,
          4.4764375049411065,
          -0.014915852496722337
        ]
      },
      {
        "t_start": 2439352.9865402896,
        "t_end": 2439352.9934847336,
        "cx": [
          -226148.74674852466,
          -82.41675241428872,
          7.389177139373132,
          -0.564061141101627
        ],
        "cy": [
          244219.79180372722,
          -481.46882244750105,
          6.1701657038911435,
          0.22399825862322587
        ],
        "cz": [
          138907.76842750947,
          -151.11563230460067,
          4.337685190887502,
          -0.05446030452826456
        ]
      },
      {
        "t_start": 2439352.9934847336,
        "t_end": 2439353.000429178,
        "cx": [
          -226262.5620069735,
          -32.427472879268024,
          5.331243449896503,
          -0.46490570364214445
        ],
        "cy": [
          243309.54044514534,
          -428.4290473951936,
          6.877143182083543,
          0.12949048047661904
        ],
        "cz": [
          138639.50115571782,
          -117.27304237429315,
          4.094879416385295,
          -0.06694258271920095
        ]
      },
      {
        "t_start": 2439353.000429178,
        "t_end": 2439353.0073736226,
        "cx": [
          -226291.41159905057,
          2.716026428218356,
          3.6075347018704633,
          -0.3969486703617804
        ],
        "cy": [
          242509.6096653401,
          -371.2914028499922,
          7.297802302208773,
          0.08083907958416248
        ],
        "cz": [
          138436.78111804757,
          -85.58298441402849,
          3.8229011803441626,
          -0.0690465353068257
        ]
      },
      {
        "t_start": 2439353.0073736226,
        "t_end": 2439353.014318067,
        "cx": [
          -226262.75752547896,
          25.184637560073497,
          2.1007155354018323,
          -0.35646091288163007
        ],
        "cy": [
          241826.58968943803,
          -311.59122702597597,
          7.572494354357332,
          0.056506946497393074
        ],
        "cz": [
          138295.23019141197,
          -56.10527741416672,
          3.5482307950233,
          -0.06828865735360568
        ]
      },
      {
        "t_start": 2439353.014318067,
        "t_end": 2439353.0212625116,
        "cx": [
          -226200.6059907073,
          36.27048131149104,
          0.7078837351082257,
          -0.33995498726335427
        ],
        "cy": [
          241264.8026385957,
          -250.09498548522697,
          7.774171016788387,
          0.0443313847108584
        ],
        "cz": [
          138210.45164340938,
          -28.810948737431318,
          3.2728744970390844,
          -0.06938949163304686
        ]
      },
      {
        "t_start": 2439353.0212625116,
        "t_end": 2439353.028206956,
        "cx": [
          -226127.14974394132,
          36.50006343802215,
          -0.6635202978268353,
          -0.34574702920053824
        ],
        "cy": [
          240827.441972137,
          -187.18466669978898,
          7.936199564124767,
          0.03668288895369365
        ],
        "cz": [
          138178.04942951648,
          -3.734114382941242,
          2.987176042109241,
          -0.07345973583733206
        ]
      },
      {
        "t_start": 2439353.028206956,
        "t_end": 2439353.0351514006,
        "cx": [
          -226064.24013991526,
          25.688997558937444,
          -2.1046063560479524,
          -0.3747959999100203
        ],
        "cy": [
          240517.0956659558,
          -123.09820883355587,
          8.063060859682079,
          0.02674775883224534
        ],
        "cz": [
          138193.47324697283,
          18.999475274059478,
          2.670262911653481,
          -0.08499682939054765
        ]
      },
      {
        "t_start": 2439353.0351514006,
        "t_end": 2439353.042095845,
        "cx": [
          -226034.83493563547,
          2.9110127165113227,
          -3.7149943645999883,
          -0.4303980043696356
        ],
        "cy": [
          240335.8198452343,
          -58.144937092544296,
          8.128410450525736,
          0.0059270365932209135
        ],
        "cz": [
          138251.6893867007,
          39.02415004600607,
          2.285234096032581,
          -0.1075175784162643
        ]
      },
      {
        "t_start": 2439353.042095845,
        "t_end": 2439353.0490402896,
        "cx": [
          -226064.58366258524,
          -33.607922972604456,
          -5.611360977398822,
          -0.5177853020261431
        ],
        "cy": [
          240284.73312061542,
          7.0236228220513635,
          8.05923114737497,
          -0.04051668817406018
        ],
        "cz": [
          138346.5960999975,
          55.626634826802494,
          1.7733772480337642,
          -0.14841084558314588
        ]
      },
      {
        "t_start": 2439353.0490402896,
        "t_end": 2439353.0559847336,
        "cx": [
          -226183.69303973115,
          -86.66019816518751,
          -7.92884896109253,
          -0.640958689826169
        ],
        "cy": [
          240362.88767837186,
          70.9495519700727,
          7.696465218784841,
          -0.1408662761246422
        ],
        "cz": [
          138470.10183390864,
          67.51067627938289,
          1.0365316382151786,
          -0.22001195932796502
        ]
      },
      {
        "t_start": 2439353.0559847336,
        "t_end": 2439353.062929178,
        "cx": [
          -226429.11915627113,
          -160.19708648509837,
          -10.791185181812015,
          -0.7902094205244818
        ],
        "cy": [
          240564.80518069016,
          130.47681891756028,
          6.714202357390789,
          -0.3502651545651112
        ],
        "cz": [
          138610.57905838202,
          72.4046334917133,
          -0.0872977664032355,
          -0.341902742983061
        ]
      },
      {
        "t_start": 2439353.062929178,
        "t_end": 2439353.0698736226,
        "cx": [
          -226846.6843754114,
          -259.05923508205206,
          -14.173390035407479,
          -0.90089300628415
        ],
        "cy": [
          240875.4007921961,
          179.00222879147623,
          4.481074763682045,
          -0.7662986422947142
        ],
        "cz": [
          138750.29275068,
          66.43053039653432,
          -1.8443545859454389,
          -0.5366256667880407
        ]
      },
      {
        "t_start": 2439353.0698736226,
        "t_end": 2439353.076818067,
        "cx": [
          -227491.10718889677,
          -387.01300394092596,
          -17.472241110746843,
          -0.7485325313764442
        ],
        "cy": [
          241259.9957879127,
          203.32510913237093,
          -0.05424082189529145,
          -1.501359150492135
        ],
        "cz": [
          138861.39662610192,
          43.34488836605851,
          -4.501267904646738,
          -0.7918309925571521
        ]
      },
      {
        "t_start": 2439353.076818067,
        "t_end": 2439353.0837625116,
        "cx": [
          -228417.20804772343,
          -539.6761866386696,
          -18.64890461661159,
          0.16020077844223124
        ],
        "cy": [
          241647.04071389046,
          179.79326734686038,
          -7.90733981894846,
          -2.42519034803263
        ],
        "cz": [
          138901.26704018092,
          -5.1963435120933354,
          -7.945006354533689,
          -0.9300382323917802
        ]
      },
      {
        "t_start": 2439353.0837625116,
        "t_end": 2439353.090706956,
        "cx": [
          -229647.36621414922,
          -688.2328946733783,
          -14.150734388968885,
          2.0888843353773154
        ],
        "cy": [
          241909.73254139017,
          77.889841341791,
          -17.924777441003243,
          -2.5835284630002215
        ],
        "cz": [
          138813.4352759894,
          -84.0662516054108,
          -10.806668206632821,
          -0.500792693655967
        ]
      },
      {
        "t_start": 2439353.090706956,
        "t_end": 2439353.0976514006,
        "cx": [
          -231110.84007288254,
          -769.5399079041122,
          -2.748622077354426,
          3.6121718204262763
        ],
        "cy": [
          241882.38355905094,
          -108.6253571006473,
          -24.697844280401117,
          -0.8030049566932593
        ],
        "cz": [
          138549.635042836,
          -179.63392364615584,
          -10.606552402849957,
          0.6008505955455803
        ]
      },
      {
        "t_start": 2439353.0976514006,
        "t_end": 2439353.104595845,
        "cx": [
          -232619.71015106462,
          -732.9199810166651,
          10.071756445212515,
          2.7980174408626226
        ],
        "cy": [
          241451.4354189363,
          -321.492491789164,
          -23.037261830651914,
          1.6332961815660383
        ],
        "cz": [
          138112.38943144426,
          -255.64135994737444,
          -6.665896806494857,
          1.3694772026356077
        ]
      },
      {
        "t_start": 2439353.104595845,
        "t_end": 2439353.1115402896,
        "cx": [
          -233961.78990739404,
          -605.5706954160636,
          17.249916238587176,
          0.7910624558210984
        ],
        "cy": [
          240645.4124176134,
          -480.46088234993965,
          -14.898007463121104,
          2.436331002197548
        ],
        "cz": [
          137567.3364947133,
          -286.86476076772027,
          -1.5722647747154,
          1.1773388132504827
        ]
      },
      {
        "t_start": 2439353.1115402896,
        "t_end": 2439353.1184847336,
        "cx": [
          -235021.34836785495,
          -453.6599854224729,
          17.905475483243663,
          -0.4632828334910215
        ],
        "cy": [
          239600.52206824362,
          -560.1102081460964,
          -6.2594897155896945,
          1.8829278715681568
        ],
        "cz": [
          136998.5974907576,
          -280.06250228400006,
          2.051217033241244,
          0.6344020907314771
        ]
      },
      {
        "t_start": 2439353.1184847336,
        "t_end": 2439353.125429178,
        "cx": [
          -235791.19508451177,
          -317.4710148454706,
          15.33690826101143,
          -0.8210007776269137
        ],
        "cy": [
          238458.06956806025,
          -579.3178771603757,
          -0.21065996190998248,
          1.1414870052735182
        ],
        "cz": [
          136464.53942849903,
          -253.11455310301739,
          3.8132307763272593,
          0.2466047808097187
        ]
      },
      {
        "t_start": 2439353.125429178,
        "t_end": 2439353.1323736226,
        "cx": [
          -236315.00403497982,
          -207.94584918864166,
          12.121081128843798,
          -0.7869127884532645
        ],
        "cy": [
          237314.74130731687,
          -562.2333871718656,
          3.3433328603568953,
          0.6355094058599207
        ],
        "cz": [
          135992.65559033994,
          -218.46955294694226,
          4.412694994563026,
          0.05312732830816458
        ]
      },
      {
        "t_start": 2439353.1323736226,
        "t_end": 2439353.1948736226,
        "cx": [
          -236696.2937061513,
          63.758778211703856,
          152.3222567958199,
          -92.03078105431081,
          3.285448172705221
        ],
        "cy": [
          233472.8528221846,
          -2693.945844776627,
          609.1397394673938,
          15.928226618025645,
          -3.069935238211503
        ],
        "cz": [
          134948.0557533129,
          -532.9480054956598,
          280.88383847446875,
          -17.129227033051976,
          -0.3874403951670572
        ]
      },
      {
        "t_start": 2439353.1948736226,
        "t_end": 2439353.201818067,
        "cx": [
          -236601.76580941342,
          -37.64018524193807,
          -6.1545457607835505,
          -0.545098024913842
        ],
        "cy": [
          231408.68125428047,
          15.502244297310881,
          8.001767197793924,
          -0.060011574021245906
        ],
        "cz": [
          134731.11445605845,
          54.475883683925076,
          1.609117902883554,
          -0.16311829156666136
        ]
      },
      {
        "t_start": 2439353.201818067,
        "t_end": 2439353.2087625116,
        "cx": [
          -236733.6513909511,
          -95.46685603618016,
          -8.597465241643475,
          -0.6763617155179427
        ],
        "cy": [
          231503.1022619367,
          78.67746845310285,
          7.5191773861479305,
          -0.18128333180175105
        ],
        "cz": [
          134850.81948727445,
          64.82092259541969,
          0.7926680295986444,
          -0.2451066450739745
        ]
      },
      {
        "t_start": 2439353.2087625116,
        "t_end": 2439353.215706956,
        "cx": [
          -237002.53650295635,
          -174.91967240886606,
          -11.600298121213196,
          -0.8250547242669182
        ],
        "cy": [
          231718.5731801637,
          136.18061867186088,
          6.293515182135703,
          -0.43154777020436264
        ],
        "cz": [
          134983.64720261982,
          67.37856998543384,
          -0.4637774993580024,
          -0.38311611940980583
        ]
      },
      {
        "t_start": 2439353.215706956,
        "t_end": 2439353.2226514006,
        "cx": [
          -237456.5802034771,
          -280.8485352636049,
          -15.049312424690491,
          -0.8994524274753566
        ],
        "cy": [
          232036.21458729968,
          180.1108343647229,
          3.593606983324211,
          -0.9184063292068476
        ],
        "cz": [
          135109.7577533521,
          57.752120293996995,
          -2.4234984051472566,
          -0.5967443334811833
        ]
      },
      {
        "t_start": 2439353.2226514006,
        "t_end": 2439353.229595845,
        "cx": [
          -238151.838499358,
          -415.92146948651543,
          -18.072730163244152,
          -0.6122564417960383
        ],
        "cy": [
          232413.95569020155,
          194.97932242133447,
          -1.7082852484963986,
          -1.7325397866943621
        ],
        "cz": [
          135198.02405915505,
          29.068460279549527,
          -5.314948863996506,
          -0.8489808959398033
        ]
      },
      {
        "t_start": 2439353.229595845,
        "t_end": 2439353.2365402896,
        "cx": [
          -239139.18932221833,
          -571.4766400592996,
          -18.167303534116087,
          0.5649697563564331
        ],
        "cy": [
          232767.71128224864,
          154.45179694931687,
          -10.357230601251315,
          -2.591932889684922
        ],
        "cz": [
          135201.8432227641,
          -26.99104171491251,
          -8.798438952634806,
          -0.8927641483848037
        ]
      },
      {
        "t_start": 2439353.2365402896,
        "t_end": 2439353.2434847336,
        "cx": [
          -240423.65088036054,
          -709.8152439742089,
          -11.827955316769675,
          2.6047043523258537
        ],
        "cy": [
          232956.93474106136,
          29.85540798690907,
          -20.18973835412402,
          -2.324320986753248
        ],
        "cz": [
          135063.71884990222,
          -112.29081722264544,
          -11.113411104110305,
          -0.26472192734930644
        ]
      },
      {
        "t_start": 2439353.2434847336,
        "t_end": 2439353.250429178,
        "cx": [
          -241903.50832257658,
          -763.7982278027984,
          0.6599855615244508,
          3.6392660868066713
        ],
        "cy": [
          232818.22302015673,
          -171.033705157579,
          -25.122890886323326,
          -0.14225527935004223
        ],
        "cz": [
          134744.25010142272,
          -206.57052133748672,
          -9.898591265266017,
          0.8721318467696282
        ]
      },
      {
        "t_start": 2439353.250429178,
        "t_end": 2439353.2573736226,
        "cx": [
          -243372.21044090547,
          -698.9577221371428,
          12.552322339182865,
          2.306902302035269
        ],
        "cy": [
          232268.8580186913,
          -376.4543617922068,
          -21.369021855090082,
          2.019189794973954
        ],
        "cz": [
          134263.07913991946,
          -272.3306591917658,
          -5.359029317257395,
          1.397649127234672
        ]
      },
      {
        "t_start": 2439353.2573736226,
        "t_end": 2439353.264318067,
        "cx": [
          -244633.54917467714,
          -559.6979568107608,
          17.918431986887292,
          0.3761525218114876
        ],
        "cy": [
          231372.56316105698,
          -515.4508080826945,
          -12.589646336213235,
          2.370497964455353
        ],
        "cz": [
          133695.8201820662,
          -292.48675405053655,
          -0.4759400953535078,
          1.0438954837154597
        ]
      },
      {
        "t_start": 2439353.264318067,
        "t_end": 2439353.2712625116,
        "cx": [
          -245602.34857720791,
          -409.3406006215173,
          17.44012218384342,
          -0.6153074233352562
        ],
        "cy": [
          230275.49914311347,
          -577.5561126365901,
          -4.475451887845338,
          1.6865992597413424
        ],
        "cz": [
          133122.70836931982,
          -279.0646074011488,
          2.6449624938804845,
          0.5165558109033555
        ]
      },
      {
        "t_start": 2439353.2712625116,
        "t_end": 2439353.278206956,
        "cx": [
          -246289.68767901254,
          -279.4468289769552,
          14.543466596119284,
          -0.8330203705286312
        ],
        "cy": [
          229109.5859205722,
          -585.6790254842945,
          0.8807169531228283,
          0.9914851607336459
        ],
        "cz": [
          132593.63703444847,
          -249.3068151620514,
          4.044787110294237,
          0.18335649730352088
        ]
      },
      {
        "t_start": 2439353.278206956,
        "t_end": 2439353.2851514006,
        "cx": [
          -246744.04564481607,
          -176.50229985207443,
          11.361140544988306,
          -0.7581426550295891
        ],
        "cy": [
          227960.04261540185,
          -562.3254183260833,
          3.9584396730515437,
          0.5473761992288928
        ],
        "cz": [
          132130.26513656214,
          -213.85659202624447,
          4.461768506347656,
          0.025134200721369737
        ]
      },
      {
        "t_start": 2439353.2851514006,
        "t_end": 2439353.292095845,
        "cx": [
          -247017.03825473497,
          -97.87502667471881,
          8.59170732927214,
          -0.6265739528357699
        ],
        "cy": [
          226875.2165522036,
          -521.6528871138648,
          5.653955189464796,
          0.3003815589831902
        ],
        "cz": [
          131738.7281470032,
          -177.69521294760034,
          4.432137676434646,
          -0.03994961567241084
        ]
      },
      {
        "t_start": 2439353.292095845,
        "t_end": 2439353.2990402896,
        "cx": [
          -247153.05613639185,
          -39.281277086922756,
          6.31486311966643,
          -0.5118481519579898
        ],
        "cy": [
          225881.61025933144,
          -471.4838916473761,
          6.592983411377077,
          0.1691325519729503
        ],
        "cz": [
          131418.28181867528,
          -142.85415999926448,
          4.226048438725124,
          -0.06309500318780703
        ]
      },
      {
        "t_start": 2439353.2990402896,
        "t_end": 2439353.3059847336,
        "cx": [
          -247188.43259182206,
          2.9645920205507563,
          4.434403847471119,
          -0.428381484146942
        ],
        "cy": [
          224993.89089064195,
          -415.96554285898026,
          7.132851777758823,
          0.10080163121609687
        ],
        "cz": [
          131165.51054098783,
          -110.04929587568127,
          3.961692063637816,
          -0.06908318435220906
        ]
      },
      {
        "t_start": 2439353.3059847336,
        "t_end": 2439353.312929178,
        "cx": [
          -247153.1332537378,
          31.531851639499596,
          2.8286149990590825,
          -0.3745129400572571
        ],
        "cy": [
          224220.50334824977,
          -357.25516236340803,
          7.466526117265097,
          0.06603553853521404
        ],
        "cz": [
          130976.1385809126,
          -79.46096362145782,
          3.685093219896581,
          -0.06921623752113693
        ]
      },
      {
        "t_start": 2439353.312929178,
        "t_end": 2439353.3198736226,
        "cx": [
          -247072.7404442529,
          48.14024827817684,
          1.3871958646541316,
          -0.34619662714885635
        ],
        "cy": [
          223566.68424512562,
          -296.44912724623373,
          7.696153146269353,
          0.04877797597237077
        ],
        "cz": [
          130845.72769175611,
          -51.08801783634863,
          3.408908617200723,
          -0.06887606382497324
        ]
      },
      {
        "t_start": 2439353.3198736226,
        "t_end": 2439353.326818067,
        "cx": [
          -246970.22000431034,
          53.69323378554691,
          0.013280106773891909,
          -0.34076125178398753
        ],
        "cy": [
          223036.05657166554,
          -234.09022236120336,
          7.872800851738248,
          0.03954587675661969
        ],
        "cz": [
          130769.86324358876,
          -24.916474189291193,
          3.12882090066023,
          -0.07116779444709209
        ]
      },
      {
        "t_start": 2439353.326818067,
        "t_end": 2439353.3337625116,
        "cx": [
          -246867.46384992413,
          48.364346354144345,
          -1.3838683861458785,
          -0.3578129946758959
        ],
        "cy": [
          222631.4284139306,
          -170.46696256968062,
          8.01474645968483,
          0.031426927216671174
        ],
        "cz": [
          130744.07968197673,
          -1.0170073534004587,
          2.8289810393016523,
          -0.0787521362312873
        ]
      },
      {
        "t_start": 2439353.3337625116,
        "t_end": 2439353.340706956,
        "cx": [
          -246786.73226927852,
          31.60999982618341,
          -2.8983373166101956,
          -0.3994214705653576
        ],
        "cy": [
          222355.08106102017,
          -105.83184827153855,
          8.111830598099914,
          0.017115141990871052
        ],
        "cz": [
          130763.60763425472,
          20.37113107012715,
          2.481323916762904,
          -0.09507642503899638
        ]
      },
      {
        "t_start": 2439353.340706956,
        "t_end": 2439353.3476514006,
        "cx": [
          -246752.1498219849,
          2.1030811452305898,
          -4.6370699610934025,
          -0.4699448516707889
        ],
        "cy": [
          222208.6147323011,
          -40.63180568926418,
          8.117180114631992,
          -0.01444038371755596
        ],
        "cz": [
          130822.93060584077,
          38.731093634708934,
          2.039830154340051,
          -0.12567045617060968
        ]
      },
      {
        "t_start": 2439353.3476514006,
        "t_end": 2439353.354595845,
        "cx": [
          -246791.41017294457,
          -42.407958989253075,
          -6.7261237298343985,
          -0.5745820326960711
        ],
        "cy": [
          222192.22454059013,
          24.143661149655145,
          7.9212744574442695,
          -0.08351244488721932
        ],
        "cz": [
          130915.06063056242,
          53.09329887265608,
          1.4285657257737503,
          -0.1799617581125399
        ]
      },
      {
        "t_start": 2439353.354595845,
        "t_end": 2439353.3615402896,
        "cx": [
          -246937.8025390274,
          -105.27191625502512,
          -9.301142052550084,
          -0.7129271286635905
        ],
        "cy": [
          222303.0051759216,
          86.32380349147029,
          7.294933076644067,
          -0.22965824550378677
        ],
        "cz": [
          131030.34365293478,
          61.736118266279114,
          0.5213552589672048,
          -0.2736434752952803
        ]
      },
      {
        "t_start": 2439353.3615402896,
        "t_end": 2439353.3684847336,
        "cx": [
          -247232.4508703529,
          -190.94507303889696,
          -12.438457989289109,
          -0.8557308397095564
        ],
        "cy": [
          222531.39285585415,
          141.30664426010208,
          5.7804687147288725,
          -0.5275739354592677
        ],
        "cz": [
          131154.4666234059,
          61.68411293653338,
          -0.8841232777601169,
          -0.42909579306292267
        ]
      },
      {
        "t_start": 2439353.3684847336,
        "t_end": 2439353.375429178,
        "cx": [
          -247725.78750220686,
          -304.1237337697678,
          -15.902807898878116,
          -0.8764441150849471
        ],
        "cy": [
          222853.99281769674,
          179.6736957147777,
          2.5412249792533537,
          -1.0920479322784953
        ],
        "cz": [
          131265.21604571256,
          47.97635772482008,
          -3.0620265683490158,
          -0.6598558522351656
        ]
      },
      {
        "t_start": 2439353.375429178,
        "t_end": 2439353.3823736226,
        "cx": [
          -248474.44328817644,
          -445.8271216160747,
          -18.492946731495977,
          -0.41862530122034514
        ],
        "cy": [
          223220.13870884935,
          183.40941410279538,
          -3.584337690845132,
          -1.9707334027689285
        ],
        "cz": [
          131327.90327765764,
          13.156807028997264,
          -6.170160950877289,
          -0.8942113390253323
        ]
      },
      {
        "t_start": 2439353.3823736226,
        "t_end": 2439353.389318067,
        "cx": [
          -249522.8072854896,
          -601.9214132935117,
          -17.262021924300825,
          1.034087704810645
        ],
        "cy": [
          223532.12570879818,
          123.91954858609597,
          -12.900412210748073,
          -2.687303857177085
        ],
        "cz": [
          131292.16912395493,
          -50.59562270606898,
          -9.579484899602448,
          -0.8104506353390661
        ]
      },
      {
        "t_start": 2439353.389318067,
        "t_end": 2439353.3962625116,
        "cx": [
          -250854.31008387447,
          -725.4926975463918,
          -9.08464683450893,
          3.0545998400943972
        ],
        "cy": [
          223637.61985197695,
          -23.04031196815231,
          -22.130225332224658,
          -1.9276027035721217
        ],
        "cz": [
          131101.35637947667,
          -141.0183675556018,
          -11.181976466398737,
          0.009204851941831294
        ]
      },
      {
        "t_start": 2439353.3962625116,
        "t_end": 2439353.403206956,
        "cx": [
          -252336.09307553121,
          -749.7386846055729,
          4.018572175225017,
          3.497009664772577
        ],
        "cy": [
          223382.62927464157,
          -233.3646143288042,
          -24.958923255482645,
          0.5132537419540313
        ],
        "cz": [
          130727.81568671494,
          -231.41540857897644,
          -8.968143212045106,
          1.0977117752322556
        ]
      },
      {
        "t_start": 2439353.403206956,
        "t_end": 2439353.4101514006,
        "cx": [
          -253751.04009481275,
          -659.9261339568498,
          14.58297361347195,
          1.7851910543417944
        ],
        "cy": [
          222719.89062342,
          -426.5857349550615,
          -19.382319379974426,
          2.2750481957891715
        ],
        "cz": [
          130208.0716289823,
          -285.86519573741543,
          -4.041236379634938,
          1.365741640975557
        ]
      },
      {
        "t_start": 2439353.4101514006,
        "t_end": 2439353.417095845,
        "cx": [
          -254925.7255567804,
          -512.9441170409204,
          18.213395553098053,
          0.0300199154821712
        ],
        "cy": [
          221743.57651850244,
          -545.2108962166312,
          -10.347371888321533,
          2.2424255500445724
        ],
        "cz": [
          129624.056563569,
          -295.88080345641515,
          0.49689605933826897,
          0.9033245785119561
        ]
      },
      {
        "t_start": 2439353.417095845,
        "t_end": 2439353.4240402896,
        "cx": [
          -255803.98752072506,
          -366.00722052056716,
          16.83464831965675,
          -0.7193935322119174
        ],
        "cy": [
          220603.2658426209,
          -591.3629955436465,
          -2.8738036457721847,
          1.4943585712300873
        ],
        "cz": [
          129049.89779469477,
          -276.96187899312156,
          3.1290689087502273,
          0.41276184618856604
        ]
      },
      {
        "t_start": 2439353.4240402896,
        "t_end": 2439353.4309847336,
        "cx": [
          -256411.17777539132,
          -242.73106561370386,
          13.738585383481908,
          -0.8286379358700326
        ],
        "cy": [
          219419.74287838378,
          -589.8074497990854,
          1.8312341430286097,
          0.8581603231684909
        ],
        "cz": [
          128527.34871661029,
          -245.0433980498934,
          4.2166709916051595,
          0.13103919524345464
        ]
      },
      {
        "t_start": 2439353.4309847336,
        "t_end": 2439353.437929178,
        "cx": [
          -256798.53616973181,
          -146.18260360486946,
          10.628035627342312,
          -0.7266369422033998
        ],
        "cy": [
          218267.56579453158,
          -561.0401817157431,
          4.490138817730397,
          0.4712920141787649
        ],
        "cz": [
          128073.08650492024,
          -209.08507673208948,
          4.484144807736726,
          0.0026977128232346104
        ]
      },
      {
        "t_start": 2439353.437929178,
        "t_end": 2439353.500429178,
        "cx": [
          -256846.58104199296,
          270.16058424025726,
          89.51081917711194,
          -90.01817229986193,
          1.6218754144537506
        ],
        "cy": [
          214549.08127361978,
          -2557.43408649518,
          620.6934074843481,
          13.044563491677401,
          -2.3906150577562353
        ],
        "cz": [
          127092.52979628129,
          -489.6869115604754,
          268.9675906365992,
          -17.760287359650473,
          -0.5392054608480732
        ]
      },
      {
        "t_start": 2439353.500429178,
        "t_end": 2439353.5073736226,
        "cx": [
          -256617.32990916912,
          -47.98253719867944,
          -7.328098869776113,
          -0.6061554268394502
        ],
        "cy": [
          212648.17209244356,
          32.91673960089156,
          7.813161851016048,
          -0.11178862263386691
        ],
        "cz": [
          126903.41637005171,
          51.45458250740535,
          1.2294078375975914,
          -0.1992232699883516
        ]
      },
      {
        "t_start": 2439353.5073736226,
        "t_end": 2439353.514318067,
        "cx": [
          -256780.1184258956,
          -116.16205268388649,
          -10.040245181967293,
          -0.7499177292579589
        ],
        "cy": [
          212775.2970694706,
          93.80903831388287,
          7.0147636265037345,
          -0.28741048962410876
        ],
        "cz": [
          127013.58521164814,
          58.20904271871177,
          0.21897509699465534,
          -0.30599310031311644
        ]
      },
      {
        "t_start": 2439353.514318067,
        "t_end": 2439353.5212625116,
        "cx": [
          -257103.00434602177,
          -208.35320035426503,
          -13.29891100603163,
          -0.8794151827742098
        ],
        "cy": [
          213015.71539833007,
          145.68152452914774,
          5.159231593507691,
          -0.6403555268739183
        ],
        "cz": [
          127127.8190298233,
          55.23887157274453,
          -1.3528326703667535,
          -0.4799107833694052
        ]
      },
      {
        "t_start": 2439353.5212625116,
        "t_end": 2439353.528206956,
        "cx": [
          -257638.52383716404,
          -328.8701262402492,
          -16.70658191056463,
          -0.8244202694886518
        ],
        "cy": [
          213340.680819,
          177.35643696705893,
          1.3043132461252753,
          -1.2871036468081911
        ],
        "cz": [
          127221.24353575346,
          36.98172523328435,
          -3.7606509186584836,
          -0.7239983407755521
        ]
      },
      {
        "t_start": 2439353.528206956,
        "t_end": 2439353.5351514006,
        "cx": [
          -258442.78945361075,
          -476.37891829103006,
          -18.673438079570616,
          -0.15900781501431993
        ],
        "cy": [
          213689.64111526223,
          168.11346829443073,
          -5.676468755279529,
          -2.203287353905125
        ],
        "cz": [
          127255.37837494446,
          -4.49116914611659,
          -7.049217126344957,
          -0.9202847630658657
        ]
      },
      {
        "t_start": 2439353.5351514006,
        "t_end": 2439353.542095845,
        "cx": [
          -259550.57774475764,
          -630.0189682268465,
          -15.892628821491584,
          1.5494124440520025
        ],
        "cy": [
          213950.5734263376,
          87.93069433137134,
          -15.452765654432369,
          -2.6848610956658376
        ],
        "cz": [
          127176.632190933,
          -75.85252337869133,
          -10.244234152994977,
          -0.6772237502609642
        ]
      },
      {
        "t_start": 2439353.542095845,
        "t_end": 2439353.5490402896,
