{
  "format": "chebyshev-ephemeris",
  "version": "1.0",
  "metadata": {
    "source": "SPICE sampling",
    "created": "2026-03-31T23:06:08.130057+00:00",
    "tolerance_km": 5.0,
    "segments_count": 3284,
    "bodies": [
      "SC",
      "MOON",
      "SUN"
    ],
    "coordinate_frame": "J2000",
    "units": {
      "time": "julian_date",
      "position": "km"
    },
    "step_size_seconds": 60,
    "spice_target": {
      "name": "-531",
      "code": -531
    },
    "source_kernels": [
      "/home/sankar/sankar/projects/skyfield-ts/data/mirrors/naif/generic_kernels/lsk/latest_leapseconds.tls",
      "/home/sankar/sankar/projects/skyfield-ts/data/mirrors/lunarorbiter1/spk/lo1_ssd_lp150q.bsp",
      "/home/sankar/sankar/projects/skyfield-ts/data/dev/showcase/de440.bsp"
    ],
    "coverage_intervals_utc": [
      {
        "start_utc": "1966-08-14T15:39:55.898",
        "end_utc": "1966-08-22T10:28:55.918",
        "duration_hours": 186.816672
      },
      {
        "start_utc": "1966-08-30T19:59:55.940",
        "end_utc": "1966-09-08T19:28:55.963",
        "duration_hours": 215.48334
      },
      {
        "start_utc": "1966-09-09T18:59:55.966",
        "end_utc": "1966-09-17T19:28:55.987",
        "duration_hours": 192.483339
      },
      {
        "start_utc": "1966-09-18T12:29:55.988",
        "end_utc": "1966-09-18T19:09:55.989",
        "duration_hours": 6.666667
      },
      {
        "start_utc": "1966-09-19T12:29:55.991",
        "end_utc": "1966-09-19T19:29:55.992",
        "duration_hours": 7.0
      },
      {
        "start_utc": "1966-09-20T09:29:55.993",
        "end_utc": "1966-09-20T19:39:55.994",
        "duration_hours": 10.166667
      },
      {
        "start_utc": "1966-09-21T09:59:55.996",
        "end_utc": "1966-09-21T19:59:55.997",
        "duration_hours": 10.0
      },
      {
        "start_utc": "1966-09-22T00:29:55.998",
        "end_utc": "1966-09-22T19:29:56.000",
        "duration_hours": 19.000001
      },
      {
        "start_utc": "1966-09-23T17:29:56.002",
        "end_utc": "1966-09-23T23:59:56.003",
        "duration_hours": 6.5
      },
      {
        "start_utc": "1966-09-24T17:29:56.005",
        "end_utc": "1966-09-25T00:19:56.005",
        "duration_hours": 6.833334
      },
      {
        "start_utc": "1966-09-25T17:59:56.007",
        "end_utc": "1966-09-26T00:39:56.008",
        "duration_hours": 6.666667
      },
      {
        "start_utc": "1966-09-26T07:29:56.009",
        "end_utc": "1966-09-26T14:29:56.009",
        "duration_hours": 7.0
      },
      {
        "start_utc": "1966-09-27T07:59:56.011",
        "end_utc": "1966-09-27T14:49:56.012",
        "duration_hours": 6.833334
      },
      {
        "start_utc": "1966-09-28T08:59:56.014",
        "end_utc": "1966-09-28T14:59:56.015",
        "duration_hours": 6.0
      },
      {
        "start_utc": "1966-09-29T21:59:56.018",
        "end_utc": "1966-09-30T04:59:56.019",
        "duration_hours": 7.0
      },
      {
        "start_utc": "1966-09-30T22:19:56.021",
        "end_utc": "1966-10-01T04:59:56.021",
        "duration_hours": 6.666667
      },
      {
        "start_utc": "1966-10-01T22:29:56.023",
        "end_utc": "1966-10-02T05:19:56.024",
        "duration_hours": 6.833334
      },
      {
        "start_utc": "1966-10-02T22:29:56.026",
        "end_utc": "1966-10-03T05:19:56.027",
        "duration_hours": 6.833334
      },
      {
        "start_utc": "1966-10-03T15:39:56.028",
        "end_utc": "1966-10-03T22:39:56.028",
        "duration_hours": 7.0
      },
      {
        "start_utc": "1966-10-04T15:39:56.030",
        "end_utc": "1966-10-04T22:49:56.031",
        "duration_hours": 7.166667
      },
      {
        "start_utc": "1966-10-05T14:29:56.033",
        "end_utc": "1966-10-05T22:59:56.034",
        "duration_hours": 8.5
      },
      {
        "start_utc": "1966-10-06T15:59:56.035",
        "end_utc": "1966-10-06T20:54:56.036",
        "duration_hours": 4.916667
      },
      {
        "start_utc": "1966-10-07T09:49:56.037",
        "end_utc": "1966-10-07T23:09:56.039",
        "duration_hours": 13.333334
      },
      {
        "start_utc": "1966-10-08T16:19:56.041",
        "end_utc": "1966-10-08T19:49:56.041",
        "duration_hours": 3.5
      },
      {
        "start_utc": "1966-10-09T05:59:56.042",
        "end_utc": "1966-10-09T12:59:56.043",
        "duration_hours": 7.0
      },
      {
        "start_utc": "1966-10-10T06:19:56.045",
        "end_utc": "1966-10-10T13:09:56.046",
        "duration_hours": 6.833334
      },
      {
        "start_utc": "1966-10-11T13:29:56.048",
        "end_utc": "1966-10-11T20:09:56.049",
        "duration_hours": 6.666667
      },
      {
        "start_utc": "1966-10-12T20:29:56.052",
        "end_utc": "1966-10-13T03:09:56.052",
        "duration_hours": 6.666667
      },
      {
        "start_utc": "1966-10-13T20:29:56.054",
        "end_utc": "1966-10-14T03:19:56.055",
        "duration_hours": 6.833334
      },
      {
        "start_utc": "1966-10-14T23:29:56.057",
        "end_utc": "1966-10-15T08:49:56.058",
        "duration_hours": 9.333334
      },
      {
        "start_utc": "1966-10-15T15:49:56.059",
        "end_utc": "1966-10-15T23:29:56.060",
        "duration_hours": 7.666667
      },
      {
        "start_utc": "1966-10-17T04:09:56.063",
        "end_utc": "1966-10-17T10:39:56.063",
        "duration_hours": 6.5
      },
      {
        "start_utc": "1966-10-19T15:39:56.069",
        "end_utc": "1966-10-20T04:39:56.071",
        "duration_hours": 13.0
      },
      {
        "start_utc": "1966-10-24T16:29:56.082",
        "end_utc": "1966-10-24T23:19:56.083",
        "duration_hours": 6.833334
      },
      {
        "start_utc": "1966-10-26T16:59:56.087",
        "end_utc": "1966-10-26T23:39:56.088",
        "duration_hours": 6.666667
      }
    ]
  },
  "time_range": {
    "start": 2439352.153206956,
    "end": 2439425.486542484
  },
  "SC": {
    "time_range": {
      "start": 2439352.153206956,
      "end": 2439425.486542484
    },
    "segments": [
      {
        "t_start": 2439352.153206956,
        "t_end": 2439352.1837625117,
        "cx": [
          -158863.6670933012,
          -2041.286005679111,
          -340.13674495747256,
          -14.407947370130247,
          5.167037630406289,
          1.5314243177290245
        ],
        "cy": [
          287258.2556907338,
          988.9689330343784,
          -37.66504603010188,
          -48.766101885129245,
          -7.014615471024862,
          -0.17637067883709448
        ],
        "cz": [
          156504.23297511114,
          224.34137695882197,
          -102.43071271185853,
          -23.29395313718177,
          -1.500657146875381,
          0.32069611538552284
        ]
      },
      {
        "t_start": 2439352.1837625117,
        "t_end": 2439352.2143180673,
        "cx": [
          -164417.65857909297,
          -2956.955275559711,
          267.79682988782366,
          45.68794642069156,
          -14.69425775524036,
          0.371696278987812
        ],
        "cy": [
          287092.538455431,
          -1459.593588992453,
          -348.7204675596225,
          57.79386523533412,
          5.0887533303127945,
          -3.085224561925588
        ],
        "cz": [
          155712.39368648367,
          -996.5584271594106,
          -71.91094510814372,
          34.93852187021255,
          -1.7266581014767215,
          -1.1461889348037868
        ]
      },
      {
        "t_start": 2439352.2143180673,
        "t_end": 2439352.244873623,
        "cx": [
          -168053.20805627407,
          -779.0553957326609,
          179.89861500196585,
          -18.590191009456607,
          0.9976793290430376
        ],
        "cy": [
          283209.8660450766,
          -2048.701631100963,
          98.45335519923627,
          10.396760860239826,
          -1.6638282059534757
        ],
        "cz": [
          153912.67189611166,
          -678.4663273017528,
          85.26595044420436,
          -0.5797653010031126,
          -0.4129879406652622
        ]
      },
      {
        "t_start": 2439352.244873623,
        "t_end": 2439352.2754291785,
        "cx": [
          -168729.7969794447,
          -26.14945182972799,
          23.639195752113885,
          -9.786371115401515
        ],
        "cy": [
          280118.07374623785,
          -1003.8350034900344,
          148.37298058746697,
          1.4420017962442893
        ],
        "cz": [
          153182.7693337971,
          -68.56787791922292,
          65.34643635955453,
          -1.9237728650332806
        ]
      },
      {
        "t_start": 2439352.2754291785,
        "t_end": 2439352.3059847336,
        "cx": [
          -168986.08046841368,
          -341.4305205574632,
          -111.13685047965926,
          -15.037781394102998
        ],
        "cy": [
          279335.0482053308,
          227.02663160730376,
          155.3290737339737,
          -1.347666500674409
        ],
        "cz": [
          153483.00272170297,
          342.8372801755343,
          33.67491222818969,
          -4.386540555793273
        ]
      },
      {
        "t_start": 2439352.3059847336,
        "t_end": 2439352.336540289,
        "cx": [
          -171292.13964256647,
          -2168.777478586406,
          -345.8532255246834,
          -8.566265875015603,
          6.988809585859851,
          1.7434529161780108
        ],
        "cy": [
          280656.50959938415,
          916.380482787123,
          -73.07934012454308,
          -54.65854886964464,
          -6.928655258956299,
          0.1630638539785428
        ],
        "cz": [
          154099.6392096766,
          150.0704177562534,
          -118.10168861555809,
          -24.15313592251935,
          -0.9984725659493352,
          0.5116512978039752
        ]
      },
      {
        "t_start": 2439352.336540289,
        "t_end": 2439352.367095845,
        "cx": [
          -176870.73655846916,
          -2816.6691237763484,
          295.3754088786839,
          33.51981591852598,
          -14.01083317666548,
          1.0757920556528757
        ],
        "cy": [
          280159.27804840874,
          -1647.0840066329313,
          -311.142373083664,
          61.40944284733788,
          1.9506716833446087,
          -2.6718497607743332
        ],
        "cz": [
          153143.93903614173,
          -1047.8209957999773,
          -49.68614630275765,
          33.251164864465984,
          -2.8130243037218614,
          -0.7970920177588414
        ]
      },
      {
        "t_start": 2439352.367095845,
        "t_end": 2439352.396956956,
        "cx": [
          -180222.129060585,
          -671.2970958768597,
          162.23675646948737,
          -16.71042421468905,
          0.8972883501322354
        ],
        "cy": [
          276164.39527913777,
          -2008.4489889625631,
          99.81025477437493,
          8.592079613166064,
          -1.336797839840959
        ],
        "cz": [
          151340.6223503867,
          -654.194326909752,
          81.25281939355469,
          -0.8252022253533603,
          -0.30699265761688976
        ]
      },
      {
        "t_start": 2439352.396956956,
        "t_end": 2439352.4275125116,
        "cx": [
          -180771.35209444747,
          5.1544213446213565,
          19.521143375852386,
          -9.749392229806263
        ],
        "cy": [
          273112.96893195354,
          -1002.7349423390307,
          149.09644813217687,
          1.382999512279033
        ],
        "cz": [
          150627.7098962859,
          -72.47987823238417,
          64.52407239408234,
          -1.9377682400086207
        ]
      },
      {
        "t_start": 2439352.4275125116,
        "t_end": 2439352.458068067,
        "cx": [
          -181001.93572203902,
          -348.9390718391073,
          -117.56573709007725,
          -15.503634740277443
        ],
        "cy": [
          272334.97518695914,
          229.7852809538392,
          154.55997319489552,
          -1.7138875004603067
        ],
        "cz": [
          150911.35689213563,
          329.21115413524166,
          31.670146242079678,
          -4.651156922711731
        ]
      },
      {
        "t_start": 2439352.458068067,
        "t_end": 2439352.488623623,
        "cx": [
          -183383.65116457274,
          -2234.2991147657317,
          -346.91802752558,
          -4.264424082062277,
          8.156347339176591,
          1.82940249086815
        ],
        "cy": [
          273610.1835213966,
          849.0635456251058,
          -96.06788935576407,
          -57.977886952217844,
          -6.655973853568939,
          0.42487462256125536
        ],
        "cz": [
          151464.20146246746,
          93.29492201807791,
          -127.57078094737885,
          -24.369516774997738,
          -0.5888831216095163,
          0.6388236284657232
        ]
      },
      {
        "t_start": 2439352.488623623,
        "t_end": 2439352.518484734,
        "cx": [
          -188894.75923207117,
          -2682.4800485148085,
          292.86722019968823,
          26.688829003974007,
          -12.43115139678495,
          1.1771199437756628
        ],
        "cy": [
          272927.2396260108,
          -1709.9173444946243,
          -282.46303000906676,
          58.48992986194584,
          0.6729144994038858,
          -2.2070279115007976
        ],
        "cz": [
          150418.59238034984,
          -1058.3043718630634,
          -38.744366479756906,
          30.309132674113606,
          -2.920230606223997,
          -0.5835797761113717
        ]
      },
      {
        "t_start": 2439352.518484734,
        "t_end": 2439352.5490402896,
        "cx": [
          -192083.7062488877,
          -631.1981282436176,
          165.2968707406657,
          -17.585209926101832,
          0.9690263322789847
        ],
        "cy": [
          268820.7011584684,
          -2075.179334290873,
          106.99101421051613,
          8.726971811859347,
          -1.384155110812109
        ],
        "cz": [
          148587.64210066493,
          -675.6237990376345,
          84.84645798401714,
          -0.9962020236278736,
          -0.307310765407665
        ]
      },
      {
        "t_start": 2439352.5490402896,
        "t_end": 2439352.579595845,
        "cx": [
          -192554.40318161863,
          37.16394460778113,
          15.412670418438841,
          -9.726340163524178
        ],
        "cy": [
          265711.2376347693,
          -1000.5619166388847,
          149.7939438270462,
          1.3275009347475335
        ],
        "cz": [
          147853.67175356438,
          -76.35414368118035,
          63.69371481248764,
          -1.953848120328235
        ]
      },
      {
        "t_start": 2439352.579595845,
        "t_end": 2439352.6101514003,
        "cx": [
          -192758.3906808096,
          -356.42737265255244,
          -124.19024202445068,
          -15.989954694216047
        ],
        "cy": [
          264940.0312484004,
          233.11188503539842,
          153.61999316918346,
          -2.1230801667707424
        ],
        "cz": [
          148120.52327354738,
          315.2501185342989,
          29.548590594066415,
          -4.937880384154963
        ]
      },
      {
        "t_start": 2439352.6101514003,
        "t_end": 2439352.6400125115,
        "cx": [
          -195148.38076322016,
          -2216.2401961450173,
          -332.41345286080656,
          -1.3520658213180217,
          8.14706650063291,
          1.6756844242604827
        ],
        "cy": [
          266156.9650549536,
          777.8130736054978,
          -106.05106131256882,
          -56.17325452116286,
          -5.890034427792848,
          0.5391722939458263
        ],
        "cz": [
          148613.8508662643,
          48.77390241925619,
          -127.81220298462165,
          -22.88358146180632,
          -0.2825443528254721,
          0.6452155833678324
        ]
      },
      {
        "t_start": 2439352.6400125115,
        "t_end": 2439352.670568067,
        "cx": [
          -200623.82051152995,
          -2661.287488977794,
          312.09204784040656,
          24.300153197626752,
          -12.98127844926886,
          1.4506866435609689
        ],
        "cy": [
          265274.0204432353,
          -1833.15747157816,
          -279.60023606822523,
          62.47471461057704,
          -0.18870505010964297,
          -2.242983649764371
        ],
        "cz": [
          147471.0975208736,
          -1107.8192887158411,
          -32.646281114041415,
          31.275809225127656,
          -3.4058461744922277,
          -0.5272109844465735
        ]
      },
      {
        "t_start": 2439352.670568067,
        "t_end": 2439352.7011236227,
        "cx": [
          -203693.75682410074,
          -557.4085832485689,
          158.27424854016746,
          -17.093262143169316,
          0.9461961389569745
        ],
        "cy": [
          261035.55509816488,
          -2085.2545671491016,
          110.75943548259393,
          7.99951080524994,
          -1.2613131524673804
        ],
        "cz": [
          145599.22467862855,
          -673.8035669552775,
          84.50406562481878,
          -1.1633496859941421,
          -0.2635752124780576
        ]
      },
      {
        "t_start": 2439352.7011236227,
        "t_end": 2439352.7316791783,
        "cx": [
          -204060.38288374938,
          69.85162869803762,
          11.30820805906747,
          -9.717189432634441
        ],
        "cy": [
          257921.73547897328,
          -997.2478545136312,
          150.46658849239162,
          1.2748545418648352
        ],
        "cz": [
          144863.6252210403,
          -80.15352335608351,
          62.854504186298975,
          -1.9722744587449823
        ]
      },
      {
        "t_start": 2439352.7316791783,
        "t_end": 2439352.762234734,
        "cx": [
          -204236.98495354393,
          -363.9769334081059,
          -131.0179332550371,
          -16.495980631338803
        ],
        "cy": [
          257159.17604199555,
          237.02616102501315,
          152.48976647359328,
          -2.5799629567315696
        ],
        "cz": [
          145113.52159613426,
          300.9595526600342,
          27.30086697750823,
          -5.248366037843526
        ]
      },
      {
        "t_start": 2439352.762234734,
        "t_end": 2439352.7927902895,
        "cx": [
          -206767.13082503536,
          -2357.4569124893387,
          -343.0791076094311,
          6.0906432032166995,
          10.536006048734984,
          1.856985489286568
        ],
        "cy": [
          258330.29900802698,
          698.2685119878128,
          -145.2060562354257,
          -63.73510096959997,
          -5.515175458922107,
          1.0685508593112314
        ],
        "cz": [
          145531.65028592455,
          -26.225244316810084,
          -146.20278573063155,
          -23.99662991822178,
          0.4795964611661745,
          0.9039344024618534
        ]
      },
      {
        "t_start": 2439352.7927902895,
        "t_end": 2439352.823345845,
        "cx": [
          -212246.34756924483,
          -2496.7116827418495,
          326.6017782148095,
          13.630219599417206,
          -11.314959467351768,
          1.7175571287254832
        ],
        "cy": [
          257127.1264940878,
          -1990.1168374242932,
          -239.34358262856597,
          61.94186098721546,
          -2.383605104403663,
          -1.6628962700568597
        ],
        "cz": [
          144239.14958653526,
          -1142.0451914140863,
          -12.755549103924382,
          28.30775707623232,
          -3.85676530050604,
          -0.22510574995346463
        ]
      },
      {
        "t_start": 2439352.823345845,
        "t_end": 2439352.8539014007,
        "cx": [
          -215032.81148221245,
          -456.2450503782995,
          146.9243028834317,
          -16.283784874165207,
          0.8990567818237153
        ],
        "cy": [
          252775.51716252664,
          -2072.698072472908,
          116.26244651646792,
          6.923272525640362,
          -1.0774613241619015
        ],
        "cz": [
          142367.47526674956,
          -656.5222254905487,
          83.74879790460672,
          -1.3886022236335929,
          -0.20169261907506283
        ]
      },
      {
        "t_start": 2439352.8539014007,
        "t_end": 2439352.8837625114,
        "cx": [
          -215269.60411165556,
          102.7071906363056,
          5.60738750389079,
          -9.067892819576626
        ],
        "cy": [
          249724.97739013087,
          -956.9058306888496,
          144.49403070879052,
          1.1303641021473168
        ],
        "cz": [
          141656.20285714936,
          -76.18000981839918,
          58.96224808118804,
          -1.8638658950974716
        ]
      },
      {
        "t_start": 2439352.8837625114,
        "t_end": 2439352.914318067,
        "cx": [
          -215419.74195179396,
          -371.6755747058861,
          -138.47764824406812,
          -17.020615094745544,
          -1.0006844120766265
        ],
        "cy": [
          249001.985328566,
          241.54075674649576,
          150.7669997565416,
          -3.089705916848835,
          -0.903630946040014
        ],
        "cz": [
          141893.67794253153,
          286.3422403779116,
          24.656679609330812,
          -5.584341913156666,
          -0.6174182060938573
        ]
      },
      {
        "t_start": 2439352.914318067,
        "t_end": 2439352.9448736226,
        "cx": [
          -218021.99290432376,
          -2414.0365222898945,
          -337.78716552319486,
          12.100972882647792,
          11.67108991766703,
          1.773868102582565
        ],
        "cy": [
          250115.0947892526,
          614.6449266166745,
          -171.01568031934167,
          -65.95772030314767,
          -4.607111545834042,
          1.4370492345097516
        ],
        "cz": [
          142241.06916139132,
          -88.7074216963917,
          -155.1289346333514,
          -23.332953725309086,
          1.1343972616811069,
          1.0300808469280982
        ]
      },
      {
        "t_start": 2439352.9448736226,
        "t_end": 2439352.975429178,
        "cx": [
          -223441.96173238836,
          -2380.910414540908,
          332.1285116558587,
          7.897573621501457,
          -10.200620394527373,
          1.7748297546621634
        ],
        "cy": [
          248677.0633319138,
          -2090.7734809895874,
          -215.311693133826,
          60.757280558661975,
          -3.400427868080582,
          -1.32308649972204
        ],
        "cz": [
          140841.33810650188,
          -1166.5635274043052,
          -1.6867896336496944,
          26.345741066773726,
          -3.976353054096887,
          -0.07386549545213567
        ]
      },
      {
        "t_start": 2439352.975429178,
        "t_end": 2439353.0052902894,
        "cx": [
          -226028.96415933385,
          -385.69596438341813,
          135.67878830655923,
          -14.910051567248637
        ],
        "cy": [
          244279.70294142992,
          -2042.0380446188049,
          113.62095387311136,
          6.076984687007442
        ],
        "cz": [
          138968.26965389564,
          -646.5111339359837,
          79.7756736523034,
          -1.3771558692328236
        ]
      },
      {
        "t_start": 2439353.0052902894,
        "t_end": 2439353.035845845,
        "cx": [
          -226168.42090452035,
          137.12055336472622,
          3.0895147200035384,
          -9.740961484574777
        ],
        "cy": [
          241218.7050679296,
          -986.9260112941722,
          151.74131016099756,
          1.1752335575810822
        ],
        "cz": [
          138249.45430914863,
          -87.37367980493043,
          61.145671518275876,
          -2.0199049484239673
        ]
      },
      {
        "t_start": 2439353.035845845,
        "t_end": 2439353.0664014006,
        "cx": [
          -226288.55095653856,
          -379.6194273728401,
          -145.7471675343501,
          -17.562417629818547,
          -1.033671033523451
        ],
        "cy": [
          240479.2402624597,
          246.66634201905683,
          149.1441737212724,
          -3.658104591092066,
          -1.0122143810887734
        ],
        "cz": [
          138465.03796515262,
          271.3957205188163,
          22.103591683177086,
          -5.947673938549572,
          -0.668920598419293
        ]
      },
      {
        "t_start": 2439353.0664014006,
        "t_end": 2439353.096956956,
        "cx": [
          -228961.41585166045,
          -2466.5500846461387,
          -330.0213017018461,
          18.602475712633982,
          12.707375526672143,
          1.611550027305432
        ],
        "cy": [
          241529.92685912867,
          525.5268090296721,
          -197.36554644854456,
          -67.59298631404076,
          -3.4581695998039774,
          1.82134403417314
        ],
        "cz": [
          138739.34584418984,
          -152.7870276755147,
          -163.62132427040115,
          -22.308001667534352,
          1.8596778283581359,
          1.1420419671723232
        ]
      },
      {
        "t_start": 2439353.096956956,
        "t_end": 2439353.1268180674,
        "cx": [
          -234272.08509349835,
          -2239.188990932045,
          321.1908682437357,
          3.7457686576345823,
          -8.607513791059786,
          1.6023981608728188
        ],
        "cy": [
          239913.292884209,
          -2124.362667885809,
          -189.94574651521927,
          55.9399217182939,
          -3.6957820722564434,
          -0.9775616273280578
        ],
        "cz": [
          137260.85981388768,
          -1164.025791317594,
          5.710876437710461,
          23.336678650736335,
          -3.6843505931417995,
          0.02040282851016204
        ]
      },
      {
        "t_start": 2439353.1268180674,
        "t_end": 2439353.1573736225,
        "cx": [
          -236684.9902387286,
          -336.47339041932213,
          137.92834894607327,
          -15.691345849516456
        ],
        "cy": [
          235434.91846373424,
          -2102.953993279703,
          120.78756908291939,
          6.179687063499549
        ],
        "cz": [
          135371.48227689858,
          -666.5531939150486,
          83.14036241364622,
          -1.5362674041188014
        ]
      },
      {
        "t_start": 2439353.1573736225,
        "t_end": 2439353.187929178,
        "cx": [
          -236735.0476121283,
          171.61308588664915,
          -1.0373252010513412,
          -9.77343873541966
        ],
        "cy": [
          232326.71918502537,
          -979.7830540139005,
          152.34331052155758,
          1.127320387188914
        ],
        "cz": [
          134633.33171180548,
          -90.7310726742502,
          60.27324801082968,
          -2.04437610850163
        ]
      },
      {
        "t_start": 2439353.187929178,
        "t_end": 2439353.2184847337,
        "cx": [
          -236826.20837521684,
          -387.91063730184436,
          -153.23719701643216,
          -18.119131931048745,
          -1.0628295819858766
        ],
        "cy": [
          231602.0273592305,
          252.39223238853575,
          147.25425596907587,
          -4.29124708487967,
          -1.1325056868531667
        ],
        "cz": [
          134831.74171287369,
          256.1216421578112,
          19.390446164094985,
          -6.340221261960761,
          -0.7240489636629719
        ]
      },
      {
        "t_start": 2439353.2184847337,
        "t_end": 2439353.2490402893,
        "cx": [
          -239567.7227423586,
          -2514.415299571498,
          -319.6504333210594,
          25.515749735905306,
          13.591772418878646,
          1.3624316446620555
        ],
        "cy": [
          232585.8856811652,
          430.99272420487483,
          -223.9877332176229,
          -68.52943103724414,
          -2.068603525117801,
          2.2048767610513633
        ],
        "cz": [
          135030.81062146754,
          -218.25024807973202,
          -171.54129735112699,
          -20.89848039631494,
          2.641588690784951,
          1.231263842510623
        ]
      },
      {
        "t_start": 2439353.2490402893,
        "t_end": 2439353.279595845,
        "cx": [
          -244830.3322377111,
          -2139.261059319723,
          336.7974810533087,
          -1.9369621339592857,
          -7.9172966565839165,
          1.7179353610860038
        ],
        "cy": [
          230683.42694477132,
          -2270.779197508693,
          -168.54540620917177,
          56.9409638379436,
          -4.812344052579394,
          -0.714976759321594
        ],
        "cz": [
          133426.1885086384,
          -1205.8051147183608,
          18.25311828254305,
          22.26510260976806,
          -3.9515528430275073,
          0.15528701796769442
        ]
      },
      {
        "t_start": 2439353.279595845,
        "t_end": 2439353.3101514005,
        "cx": [
          -247024.00365088833,
          -239.05961419184544,
          127.48839594282204,
          -14.960015491170909
        ],
        "cy": [
          226095.34015557967,
          -2082.463794578954,
          125.02703243914117,
          5.366618875691064
        ],
        "cz": [
          131525.13807841475,
          -648.5631977764256,
          82.10815569293128,
          -1.6749986893627642
        ]
      },
      {
        "t_start": 2439353.3101514005,
        "t_end": 2439353.340706956,
        "cx": [
          -246945.85008980503,
          205.38159840773056,
          -7.878764241189771,
          -9.852942227204615
        ],
        "cy": [
          223046.65437198745,
          -943.4365901682681,
          153.21321071141392,
          1.0551601717869894
        ],
        "cz": [
          130812.8794455344,
          -83.13804841988996,
          58.81568337044267,
          -2.0929573655471323
        ]
      },
      {
        "t_start": 2439353.340706956,
        "t_end": 2439353.3705680673,
        "cx": [
          -247018.85738131567,
          -399.7441192575071,
          -155.9894070699642,
          -17.618994082696737,
          -1.00120010423452
        ],
        "cy": [
          222381.57997997288,
          266.17979585957147,
          138.06078589520826,
          -4.847348189524819,
          -1.1911721441495617
        ],
        "cz": [
          131002.81061795434,
          237.25551097806363,
          14.98860403213045,
          -6.4318012851872055,
          -0.7313092574695753
        ]
      },
      {
        "t_start": 2439353.3705680673,
        "t_end": 2439353.401123623,
        "cx": [
          -249823.6970793424,
          -2557.054266780985,
          -306.582566564605,
          32.738150924651464,
          14.269475124194146,
          1.0232567873085947
        ],
        "cy": [
          223294.82882797086,
          331.1872551503599,
          -250.58627039278213,
          -68.66353136710079,
          -0.4502745880336764,
          2.567750205495597
        ],
        "cz": [
          131120.2052163321,
          -284.8644957220998,
          -178.74658524644659,
          -19.08979551279004,
          3.461204085724832,
          1.2889705022885405
        ]
      },
      {
        "t_start": 2439353.401123623,
        "t_end": 2439353.4316791785,
        "cx": [
          -254988.52924801272,
          -2014.585674357436,
          336.31925962715536,
          -6.014679191338912,
          -6.815322778721694,
          1.6280045799906697
        ],
        "cy": [
          221164.37457222564,
          -2350.068450746101,
          -146.1826853433329,
          54.50587566064393,
          -5.238859202636846,
          -0.4601105658103962
        ],
        "cz": [
          129418.55078576857,
          -1220.775953636476,
          27.074751785592152,
          20.232098736287842,
          -3.837325796012443,
          0.2341174474157717
        ]
      },
      {
        "t_start": 2439353.4316791785,
        "t_end": 2439353.4622347336,
        "cx": [
          -256982.32622427717,
          -166.76472256516516,
          121.46481435040654,
          -14.552549188587003
        ],
        "cy": [
          216514.59821088825,
          -2081.62128371242,
          127.38873595098538,
          4.937684035983993
        ],
        "cz": [
          127513.36305784009,
          -645.219833031313,
          81.45259653687717,
          -1.7426439284535722
        ]
      },
      {
        "t_start": 2439353.4622347336,
        "t_end": 2439353.492095845,
        "cx": [
          -256803.02260269516,
          236.9441299595969,
          -10.207897135486865,
          -9.234302962117297
        ],
        "cy": [
          213492.71259767286,
          -925.8898458018296,
          146.7247268702698,
          0.9512222369130067
        ],
        "cz": [
          126801.14607640493,
          -89.08627287900343,
          55.59045129358398,
          -1.9760885615074208
        ]
      },
      {
        "t_start": 2439353.492095845,
        "t_end": 2439353.5226514004,
        "cx": [
          -256841.0253788642,
          -405.9479559801537,
          -168.89212859171718,
          -19.26567873079383,
          -1.1045346236961051
        ],
        "cy": [
          212832.73651042642,
          265.57603202890493,
          142.55448954074828,
          -5.779504712084034,
          -1.4125855426933713
        ],
        "cz": [
          126970.17440952311,
          224.54876600939173,
          13.433714912769565,
          -7.220738502784667,
          -0.8455757719359157
        ]
      },
      {
        "t_start": 2439353.5226514004,
        "t_end": 2439353.553206956,
        "cx": [
          -259712.62653536347,
          -2593.900410324742,
          -290.77057892726236,
          40.14415010843504,
          14.686833113055659,
          0.5962376488712688
        ],
        "cy": [
          213669.3465857267,
          226.32226521849472,
          -276.8383373091913,
          -67.90492696678163,
          1.3717460665366752,
          2.8875527030557944
        ],
        "cz": [
          127012.68703686896,
          -352.36964092169103,
          -185.0970010039658,
          -16.878728740964767,
          4.294650537137706,
          1.3068053669848858
        ]
      },
      {
        "t_start": 2439353.553206956,
        "t_end": 2439353.5837625116,
        "cx": [
          -264767.2770085612,
          -1888.0665477966952,
          334.2324337093136,
          -9.544187154198754,
          -5.7723069811197325,
          1.5122681019974293
        ],
        "cy": [
          211314.72347389226,
          -2422.2705382136523,
          -124.6889287501799,
          51.84023583508142,
          -5.506512282636305,
          -0.24191068014945882
        ],
        "cz": [
          125217.99432366918,
          -1232.8268766753813,
          35.12536082130031,
          18.249437884485523,
          -3.6747152724885654,
          0.29151805748525944
        ]
      },
      {
        "t_start": 2439353.5837625116,
        "t_end": 2439353.613623623,
        "cx": [
          -266562.8294468362,
          -101.01564041310911,
          112.15173712649275,
          -13.33337184111294
        ],
        "cy": [
          206652.9812061844,
          -2043.439252225617,
          123.24087665913822,
          4.343370664115378
        ],
        "cz": [
          123322.4863842592,
          -633.846418851413,
          77.37943710425996,
          -1.6689858722754043
        ]
      },
      {
        "t_start": 2439353.613623623,
        "t_end": 2439353.6441791784,
        "cx": [
          -266282.43142629386,
          277.8623956678789,
          -13.54881694709646,
          -9.956939101461598
        ],
        "cy": [
          203633.6337873311,
          -949.6987116423944,
          154.01051965869482,
          0.9814488449881105
        ],
        "cz": [
          122605.29304677507,
          -99.32476198157225,
          57.57077251415137,
          -2.147806455222845
        ]
      },
      {
        "t_start": 2439353.6441791784,
        "t_end": 2439353.674734734,
        "cx": [
          -266285.9934131702,
          -415.91891100385055,
          -177.05945811391638,
          -19.847524278328446,
          -1.1138700047314833
        ],
        "cy": [
          202966.67895427515,
          272.97129246339665,
          139.6768228285292,
          -6.649936733174901,
          -1.574640913881537
        ],
        "cz": [
          122752.3812870042,
          208.2230086296599,
          10.163141852531082,
          -7.712644114417171,
          -0.9120369834872553
        ]
      },
      {
        "t_start": 2439353.674734734,
        "t_end": 2439353.7052902896,
        "cx": [
          -269218.35452243645,
          -2624.405918782481,
          -272.2177930096497,
          47.58809716242965,
          14.795134654673884,
          0.09004288737404399
        ],
        "cy": [
          203722.74035333755,
          116.67936909525056,
          -302.40135835655246,
          -66.18201394409049,
          3.3586135963729737,
          3.1408969098596304
        ],
        "cz": [
          122713.81751470894,
          -420.48177365310573,
          -190.4578057784254,
          -14.274751692393865,
          5.113849054431409,
          1.2776959266882644
        ]
      },
      {
        "t_start": 2439353.7052902896,
        "t_end": 2439353.7351514003,
        "cx": [
          -274124.2080142572,
          -1747.7533203630508,
          318.0688744186126,
          -11.579013967100577,
          -4.632795182346289
        ],
        "cy": [
          201206.99093889762,
          -2426.9950931114763,
          -104.99099612691454,
          46.71796678094668,
          -5.161953991266335
        ],
        "cz": [
          120855.9292075671,
          -1219.2887811415385,
          38.875742697588535,
          15.670884658198618,
          -3.243497340501093
        ]
      },
      {
        "t_start": 2439353.7351514003,
        "t_end": 2439353.765706956,
        "cx": [
          -275740.3303577992,
          -43.05941518860438,
          113.68829309484326,
          -14.047715466589652
        ],
        "cy": [
          196494.6205405215,
          -2097.2537888689194,
          130.39336232455037,
          4.425837823274544
        ],
        "cz": [
          118954.33160997291,
          -651.9067355196705,
          80.54501085913607,
          -1.8185176095100335
        ]
      },
      {
        "t_start": 2439353.765706956,
        "t_end": 2439353.7962625115,
        "cx": [
          -275360.7880069916,
          313.9827249364163,
          -17.782722926205448,
          -10.04709092148764
        ],
        "cy": [
          193441.21838655524,
          -936.5900567553058,
          154.51802423714162,
          0.9299649247418984
        ],
        "cz": [
          118220.73663243173,
          -101.59028787952441,
          56.63589852371855,
          -2.190723478800327
        ]
      },
      {
        "t_start": 2439353.7962625115,
        "t_end": 2439353.826818067,
        "cx": [
          -275335.52991549094,
          -426.68069944441095,
          -185.4511671891008,
          -20.428029842412535,
          -1.1128728878200693
        ],
        "cy": [
          192798.14227133553,
          280.83867848177727,
          136.39654844852836,
          -7.6157650798248255,
          -1.7528992289441478
        ],
        "cz": [
          118350.87185527505,
          191.51190984039837,
          6.678579069448303,
          -8.241544306578524,
          -0.9822084908919502
        ]
      },
      {
        "t_start": 2439353.826818067,
        "t_end": 2439353.8566791783,
        "cx": [
          -278258.51634356426,
          -2574.435706900731,
          -248.9179551886939,
          49.075293582146834,
          13.536622338057539,
          -0.23190167255739852
        ],
        "cy": [
          193486.53197689354,
          38.15267067863732,
          -305.4361918616627,
          -60.78093174980176,
          4.288359809144432,
          2.940106620722919
        ],
        "cz": [
          118249.38521161723,
          -460.1317781103697,
          -185.59450355086614,
          -11.724894135470606,
          5.1617925727645355,
          1.1145426084475925
        ]
      },
      {
        "t_start": 2439353.8566791783,
        "t_end": 2439353.887234734,
        "cx": [
          -283046.61211683345,
          -1689.6985687323681,
          329.33588829285287,
          -13.911709010675978,
          -4.504003462399158
        ],
        "cy": [
          190789.32915743586,
          -2527.3481370996387,
          -97.51244036087114,
          48.06919653101932,
          -5.64970385130759
        ],
        "cz": [
          116316.58588769885,
          -1256.1602115525723,
          44.70509996908519,
          15.600156936525414,
          -3.402812905700303
        ]
      },
      {
        "t_start": 2439353.887234734,
        "t_end": 2439353.9177902895,
        "cx": [
          -284516.4091706106,
          29.969555282648116,
          108.00779751408544,
          -13.681798039381665
        ],
        "cy": [
          185989.36555937285,
          -2090.5370839499597,
          132.36699031131144,
          4.08169049373468
        ],
        "cz": [
          114389.15312537046,
          -647.1893131020082,
          79.82227000888305,
          -1.862492050213605
        ]
      },
      {
        "t_start": 2439353.9177902895,
        "t_end": 2439353.948345845,
        "cx": [
          -284028.6491351564,
          350.32929476701656,
          -22.05824260429218,
          -10.152086355051324
        ],
        "cy": [
          182958.6022067327,
          -921.850594729292,
          154.99977638337083,
          0.8758080928261466
        ],
        "cz": [
          113658.53470820085,
          -103.50374395264303,
          55.68094994466212,
          -2.238449163499281
        ]
      },
      {
        "t_start": 2439353.948345845,
        "t_end": 2439353.9782069563,
        "cx": [
          -283955.2278348416,
          -408.34951185406067,
          -182.44081689725977,
          -19.422025595507435,
          -1.0119251314185616
        ],
        "cy": [
          182330.09560119495,
          272.210374211402,
          128.2262242293261,
          -7.720350556815579,
          -1.7092881507488467
        ],
        "cz": [
          113768.37334465826,
          171.4559686596163,
          4.174640927346461,
          -8.022555882716368,
          -0.9384481904592958
        ]
      },
      {
        "t_start": 2439353.9782069563,
        "t_end": 2439354.0087625114,
        "cx": [
          -286906.31877058005,
          -2626.225927426383,
          -243.0017396863676,
          57.279986647997696,
          14.365596523098436,
          -0.6815561115024137
        ],
        "cy": [
          182934.25515007446,
          -55.746037280144876,
          -334.8185239676817,
          -62.22435271458918,
          6.173995778643073,
          3.3294148436189803
        ],
        "cz": [
          113591.8116281002,
          -523.7109904461256,
          -195.69232932332244,
          -10.193420699946657,
          6.121899926916105,
          1.1540787875307668
        ]
      },
      {
        "t_start": 2439354.0087625114,
        "t_end": 2439354.039318067,
        "cx": [
          -291600.2344533044,
          -1559.7479228490308,
          324.26328157269063,
          -16.22330856797566,
          -3.649532409534462
        ],
        "cy": [
          180037.51171342362,
          -2582.4448275630816,
          -78.3754319213804,
          45.106438294070124,
          -5.635339057828481
        ],
        "cz": [
          111574.12860544857,
          -1261.5188267047297,
          51.02349505982786,
          13.818282782449351,
          -3.176908686421269
        ]
      },
      {
        "t_start": 2439354.039318067,
        "t_end": 2439354.0698736226,
        "cx": [
          -292868.04146246327,
          102.80941670908079,
          102.46533223642189,
          -13.334316920671958
        ],
        "cy": [
          175205.42013294698,
          -2081.6760596910085,
          134.19823116537407,
          3.7689133092010656
        ],
        "cz": [
          109651.98269026742,
          -641.9961113360224,
          79.07940135656386,
          -1.898587335262553
        ]
      },
      {
        "t_start": 2439354.0698736226,
        "t_end": 2439354.099734734,
        "cx": [
          -292278.93216334487,
          381.7110591282435,
          -23.822508566764643,
          -9.543643998847138
        ],
        "cy": [
          172214.73761523204,
          -898.7473977188121,
          148.3758930907143,
          0.7803838788697764
        ],
        "cz": [
          108925.34191792272,
          -107.19482611379522,
          52.559147234281824,
          -2.120860128895205
        ]
      },
      {
        "t_start": 2439354.099734734,
        "t_end": 2439354.1302902894,
        "cx": [
          -292168.280330919,
          -414.32993728948384,
          -197.0790366290049,
          -21.177021358933754,
          -1.0875688137732116
        ],
        "cy": [
          171601.16875596766,
          274.88426907300516,
          131.21379656835197,
          -9.094759243997068,
          -2.0193892026042755
        ],
        "cz": [
          109015.93729952394,
          157.1833002444126,
          1.581978470562101,
          -9.012246732741534,
          -1.0804532899990724
        ]
      },
      {
        "t_start": 2439354.1302902894,
        "t_end": 2439354.160845845,
        "cx": [
          -295172.1288626728,
          -2639.055720189712,
          -218.37106906500384,
          64.1615766566506,
          13.61893712158743,
          -1.3002002543912254
        ],
        "cy": [
          172115.65469781932,
          -174.04832509549627,
          -357.38068726074704,
          -58.115030888636824,
          8.320032125035647,
          3.344529626681069
        ],
        "cz": [
          108758.78737799548,
          -591.555271874014,
          -198.2740455644884,
          -6.789023371598658,
          6.783266903017957,
          1.001080107003278
        ]
      },
      {
        "t_start": 2439354.160845845,
        "t_end": 2439354.1914014006,
        "cx": [
          -299715.27247559506,
          -1429.4906770863804,
          318.2193699025074,
          -18.097000996328862,
          -2.8849132376864643
        ],
        "cy": [
          169014.75587770852,
          -2630.8706706619046,
          -60.329618101581644,
          42.15094604710846,
          -5.536789609200501
        ],
        "cz": [
          106664.09701667615,
          -1264.4116551202371,
          56.65244403461085,
          12.149472529574384,
          -2.939438032121767
        ]
      },
      {
        "t_start": 2439354.1914014006,
        "t_end": 2439354.221956956,
        "cx": [
          -300781.77435427526,
          175.4221933733825,
          97.0528986141444,
          -13.005201527778722
        ],
        "cy": [
          164158.49579949921,
          -2070.6512775110396,
          135.9001569599571,
          3.4846151300769845
        ],
        "cz": [
          104749.65965157197,
          -636.2970112868649,
          78.31769255672526,
          -1.9278864780574039
        ]
      },
      {
        "t_start": 2439354.221956956,
        "t_end": 2439354.252512512,
        "cx": [
          -300077.39089690824,
          423.35630108449425,
          -30.759714496847245,
          -10.40774105308037
        ],
        "cy": [
          161184.28899565077,
          -887.2793807312304,
          155.8801666126544,
          0.7562323780544132
        ],
        "cz": [
          104027.64084890441,
          -106.15228000210563,
          53.702779233504835,
          -2.3499448925908375
        ]
      },
      {
        "t_start": 2439354.252512512,
        "t_end": 2439354.2830680674,
        "cx": [
          -299969.68789493555,
          -464.92973426784994,
          -211.90336677879333,
          -22.08488979577522,
          -1.021030411330792
        ],
        "cy": [
          160627.0279633275,
          306.5437574059892,
          123.69500832032551,
          -11.179723355738645,
          -2.395580390141436
        ],
        "cz": [
          104107.61819614083,
          138.78891308729868,
          -5.214962369264634,
          -10.06742686538278,
          -1.2122965501590157
        ]
      },
      {
        "t_start": 2439354.2830680674,
        "t_end": 2439354.3136236225,
        "cx": [
          -303108.3721093159,
          -2673.266542516849,
          -172.5796976185223,
          74.39696784754624,
          11.54179264478019,
          -2.325736573124768
        ],
        "cy": [
          161014.46213345844,
          -361.72546949496297,
          -390.70629300658294,
          -49.13793599366826,
          11.750818316219895,
          3.092083519302246
        ],
        "cz": [
          103729.57513629024,
          -692.6926761015455,
          -199.73370177909402,
          -0.5979449985414058,
          7.615442714451315,
          0.6373135478908755
        ]
      },
      {
        "t_start": 2439354.3136236225,
        "t_end": 2439354.3434847337,
        "cx": [
          -307422.88060818065,
          -1240.2032521516858,
          295.43220995833,
          -18.834289825756613,
          -1.790996011409657
        ],
        "cy": [
          157681.57128080947,
          -2621.7221282696914,
          -35.423887069565296,
          35.68146616528707,
          -4.857505183417161
        ],
        "cz": [
          101563.1745331645,
          -1232.5847751115725,
          60.75165293148605,
          9.377666801085304,
          -2.3877389476258943
        ]
      },
      {
        "t_start": 2439354.3434847337,
        "t_end": 2439354.3740402893,
        "cx": [
          -308244.92882300506,
          247.75881014342744,
          91.76419782512765,
          -12.694393537033337
        ],
        "cy": [
          152864.8967337649,
          -2057.4531849030473,
          137.48353751201188,
          3.2263772755511972
        ],
        "cz": [
          99689.32235054379,
          -630.0695381419151,
          77.54101915313096,
          -1.9514004572888908
        ]
      },
      {
        "t_start": 2439354.3740402893,
        "t_end": 2439354.404595845,
        "cx": [
          -307432.41499969264,
          459.8503519381561,
          -35.19792969888645,
          -10.558933156875437
        ],
        "cy": [
          149924.74424270686,
          -867.3625987469484,
          156.27439892444764,
          0.6890196716477273
        ],
        "cz": [
          98973.0322224892,
          -106.84261189084211,
          52.67423599818165,
          -2.4145209994167347
        ]
      },
      {
        "t_start": 2439354.404595845,
        "t_end": 2439354.4351514005,
        "cx": [
          -307299.3081371553,
          -480.0635761222404,
          -221.1001518276492,
          -22.574574281453415,
          -0.9495231228124792
        ],
        "cy": [
          149400.76216692262,
          315.4811325924555,
          118.33999704855326,
          -12.623230940970773,
          -2.6485692610319926
        ],
        "cz": [
          99036.52076828231,
          120.22388196670663,
          -9.712571720521568,
          -10.759879347124778,
          -1.293698593973298
        ]
      },
      {
        "t_start": 2439354.4351514005,
        "t_end": 2439354.4650125117,
        "cx": [
          -310417.17914804554,
          -2602.8214345656666,
          -147.17770504068213,
          73.23122137209775,
          9.645014719249678,
          -2.434195112692593
        ],
        "cy": [
          149715.09202019023,
          -438.51384776571786,
          -386.2842626896203,
          -42.32264587177053,
          11.951625743916177,
          2.6171782540738486
        ],
        "cz": [
          98595.86375462344,
          -725.704822887805,
          -191.35029839293887,
          1.8241514949936302,
          7.207802577889531,
          0.4198270392337349
        ]
      },
      {
        "t_start": 2439354.4650125117,
        "t_end": 2439354.4955680673,
        "cx": [
          -314578.5460222024,
          -1169.52183245238,
          303.88453741309314,
          -20.711265118726114,
          -1.6217367305740276
        ],
        "cy": [
          146222.84917794185,
          -2708.484218713406,
          -27.551379533492252,
          36.419812637354276,
          -5.158417495461228
        ],
        "cz": [
          96370.55752220089,
          -1263.3978805962597,
          65.9913173095244,
          9.182615716384369,
          -2.4623467944679325
        ]
      },
      {
        "t_start": 2439354.4955680673,
        "t_end": 2439354.526123623,
        "cx": [
          -315245.62287188304,
          319.7682517901832,
          86.5921154817682,
          -12.401718651902765
        ],
        "cy": [
          141341.41490881055,
          -2042.0684696347932,
          138.958669878817,
          2.991883846152649
        ],
        "cz": [
          94478.4382153289,
          -623.2887128883416,
          76.75179392741293,
          -1.9700268848644844
        ]
      },
      {
        "t_start": 2439354.526123623,
        "t_end": 2439354.5566791785,
        "cx": [
          -314325.3001814543,
          496.19893831212363,
          -39.70295411372332,
          -10.726147838137784
        ],
        "cy": [
          138439.24503309693,
          -845.6443155516145,
          156.63469023322375,
          0.6155809052042952
        ],
        "cz": [
          93768.8984580066,
          -107.079155287198,
          51.61618518364655,
          -2.4856109160065025
        ]
      },
      {
        "t_start": 2439354.5566791785,
        "t_end": 2439354.586540289,
        "cx": [
          -314145.3368954546,
          -461.83490356597974,
          -217.00782375191932,
          -21.36797723676137,
          -0.8186117194521235
        ],
        "cy": [
          137939.64946374757,
          309.3602855328796,
          109.70294283335734,
          -12.691932965786227,
          -2.5719936835661397
        ],
        "cz": [
          93815.1701986707,
          101.76169200311566,
          -12.106234457706176,
          -10.474102591671418,
          -1.2290285756536208
        ]
      },
      {
        "t_start": 2439354.586540289,
        "t_end": 2439354.617095845,
        "cx": [
          -317273.6659164139,
          -2629.008344506814,
          -131.51226665742325,
          80.9611673760364,
          9.11867927532444,
          -3.0487772933364794
        ],
        "cy": [
          138157.8358242106,
          -546.6414334140829,
          -412.62011111514596,
          -40.0087116048383,
          14.138677307136362,
          2.614816677178206
        ],
        "cz": [
          93297.45748142365,
          -790.743049445942,
          -197.69871008060892,
          4.718777548165449,
          7.937595790772749,
          0.261511053066439
        ]
      },
      {
        "t_start": 2439354.617095845,
        "t_end": 2439354.6476514004,
        "cx": [
          -321303.362959497,
          -1040.425230129524,
          295.8855438498213,
          -21.540370377994286,
          -1.1150109045362293
        ],
        "cy": [
          134488.11823859217,
          -2738.1072330185243,
          -12.79381516958683,
          33.70505651792261,
          -4.910538221111581
        ],
        "cz": [
          91002.43126919998,
          -1259.7640972400322,
          69.78986494269829,
          7.8839499512683515,
          -2.2327855639509884
        ]
      },
      {
        "t_start": 2439354.6476514004,
        "t_end": 2439354.678206956,
        "cx": [
          -321772.8117094129,
          391.3944356602911,
          81.52960638820748,
          -12.126943582885373
        ],
        "cy": [
          129605.30789931971,
          -2024.4853578068544,
          140.33490906638522,
          2.779034910718691
        ],
        "cz": [
          89124.77444415216,
          -615.9308316962215,
          75.95204896720328,
          -1.984559212795867
        ]
      },
      {
        "t_start": 2439354.678206956,
        "t_end": 2439354.708068067,
        "cx": [
          -320754.6101229482,
          525.5771475121497,
          -40.817636223799674,
          -10.11787513344194
        ],
        "cy": [
          126756.87254953556,
          -817.3923734383199,
          149.85642820676392,
          0.5255668235946733
        ],
        "cz": [
          88423.43475397248,
          -108.5509755859375,
          48.61113386847116,
          -2.365947692883505
        ]
      },
      {
        "t_start": 2439354.708068067,
        "t_end": 2439354.738623623,
        "cx": [
          -320540.23182166705,
          -471.27920620554914,
          -233.6839816229123,
          -23.125743105746643,
          -0.8060151169547854
        ],
        "cy": [
          126281.860911844,
          314.6555715781791,
          110.03950647126737,
          -14.805182919109305,
          -3.018829239222634
        ],
        "cz": [
          88451.72937014488,
          85.1100570993098,
          -16.2595524629909,
          -11.753319423967032,
          -1.4020833548183749
        ]
      },
      {
        "t_start": 2439354.738623623,
        "t_end": 2439354.7691791784,
        "cx": [
          -323702.7651703407,
          -2608.5007718564475,
          -99.19616574005546,
          84.76500547186025,
          6.97015835051932,
          -3.487853877478077
        ],
        "cy": [
          126394.1470510588,
          -674.740413547357,
          -425.90793257825186,
          -32.34490154809388,
          15.614242774490055,
          2.124090377861249
        ],
        "cz": [
          87848.58921009024,
          -854.5354543931215,
          -194.60078692812672,
          8.734653578582504,
          7.970895597156433,
          -0.04623127165923322
        ]
      },
      {
        "t_start": 2439354.7691791784,
        "t_end": 2439354.799734734,
        "cx": [
          -327542.8093641783,
          -912.2720952712133,
          287.5012488849291,
          -22.1068868325029,
          -0.6835350969829281
        ],
        "cy": [
          122551.21468801261,
          -2761.909426271342,
          0.915098497301191,
          31.117600861421874,
          -4.64052509098989
        ],
        "cz": [
          85497.4588208566,
          -1254.2150876326841,
          73.06796865347009,
          6.704517930148774,
          -2.0139281120541774
        ]
      },
      {
        "t_start": 2439354.799734734,
        "t_end": 2439354.829595845,
        "cx": [
          -327829.48978961585,
          446.67198815519845,
          74.61619739714739,
          -11.150323992929666
        ],
        "cy": [
          117713.45977519684,
          -1971.985473914159,
          134.95922897276486,
          2.461701192368263
        ],
        "cz": [
          83647.02103111825,
          -600.5802255201935,
          72.02731859293705,
          -1.861847992113327
        ]
      },
      {
        "t_start": 2439354.829595845,
        "t_end": 2439354.8601514003,
        "cx": [
          -326706.50686043274,
          576.8115852372955,
          -45.91086730535387,
          -10.980231461101049
        ],
        "cy": [
          114896.8368238684,
          -825.2015273853892,
          157.1200213396565,
          0.4990607842404393
        ],
        "cz": [
          82948.97496691042,
          -115.10034157138865,
          50.12264149463879,
          -2.5952638452602392
        ]
      },
      {
        "t_start": 2439354.8601514003,
        "t_end": 2439354.890706956,
        "cx": [
          -326455.75878007885,
          -489.1864324687483,
          -243.18172761847458,
          -23.461253832149545,
          -0.6622452657015868
        ],
        "cy": [
          114436.42741347672,
          324.4380520347206,
          103.05671641703239,
          -16.60355276885435,
          -3.318213818859889
        ],
        "cz": [
          82957.01178225692,
          65.66536181594721,
          -21.465118273340586,
          -12.544496543274702,
          -1.4830612324901584
        ]
      },
      {
        "t_start": 2439354.890706956,
        "t_end": 2439354.9212625115,
        "cx": [
          -329645.2476474614,
          -2579.097200645748,
          -65.78011664965717,
          87.46726852936975,
          4.594547996769271,
          -3.8071007699077475
        ],
        "cy": [
          114437.51350018554,
          -803.693339015109,
          -436.2431402386962,
          -24.090224123174163,
          16.745288931552828,
          1.5366792681373747
        ],
        "cz": [
          82265.7353754113,
          -916.4518260585642,
          -190.0477474832484,
          12.699200517113763,
          7.808984878687854,
          -0.3614086842037385
        ]
      },
      {
        "t_start": 2439354.9212625115,
        "t_end": 2439354.9511236227,
        "cx": [
          -333280.4189123491,
          -789.41417634232,
          269.19750085467547,
          -20.9639121733727,
          -0.3709560972217121
        ],
        "cy": [
          110491.46880942472,
          -2721.158479440996,
          9.871781272427121,
          27.426130962249157,
          -4.0628402710802884
        ],
        "cz": [
          79888.77084882831,
          -1225.7516396978792,
          71.95561127595587,
          5.524812897516743,
          -1.7038364481075712
        ]
      },
      {
        "t_start": 2439354.9511236227,
        "t_end": 2439354.9816791783,
        "cx": [
          -333389.19162642176,
          519.7231353021474,
          74.91696466883883,
          -11.79342064821107
        ],
        "cy": [
          105656.67367052958,
          -2008.4550461645633,
          142.1347100974043,
          2.5244846225421784
        ],
        "cz": [
          78049.38132070923,
          -612.9560586650908,
          74.8715354189125,
          -2.000648907432492
        ]
      },
      {
        "t_start": 2439354.9816791783,
        "t_end": 2439355.012234734,
        "cx": [
          -332152.8113674882,
          612.9429991039136,
          -50.598055696070645,
          -11.186114280805025
        ],
        "cy": [
          102837.71516744455,
          -797.9575075456768,
          157.38533304599645,
          0.4069397572160098
        ],
        "cz": [
          77344.1810432863,
          -113.65788893805218,
          48.9835549736267,
          -2.683504700899266
        ]
      },
      {
        "t_start": 2439355.012234734,
        "t_end": 2439355.0427902895,
        "cx": [
          -331881.228457349,
          -508.76174532801224,
          -252.74432862057589,
          -23.697964847942792,
          -0.4781250305793542
        ],
        "cy": [
          102420.1625257864,
          333.82153334628487,
          95.27032784664398,
          -18.57113354927414,
          -3.6344620098074087
        ],
        "cz": [
          77337.06008988852,
          45.53233443917128,
          -27.004426252552722,
          -13.375226632561422,
          -1.5585353690556778
        ]
      },
      {
        "t_start": 2439355.0427902895,
        "t_end": 2439355.0726514007,
        "cx": [
          -335038.1481267633,
          -2490.996342427457,
          -41.451076341248566,
          83.45337658930337,
          2.704545076753582,
          -3.5675102436596315
        ],
        "cy": [
          102346.40353432446,
          -872.9067523620266,
          -424.2877483629051,
          -17.29350949649503,
          15.944269659006732,
          1.0017860965596976
        ],
        "cz": [
          76586.18058072573,
          -940.6513474172195,
          -178.95193136194283,
          14.372794199359634,
          7.004836837931827,
          -0.5129426752146102
        ]
      },
      {
        "t_start": 2439355.0726514007,
        "t_end": 2439355.1032069563,
        "cx": [
          -338494.52413665096,
          -709.1851259979126,
          275.9058798225635,
          -22.514666154785218,
          -0.214781212823107
        ],
        "cy": [
          98267.35348457796,
          -2795.3782037645287,
          17.732546207339226,
          27.88354993772686,
          -4.261122492508253
        ],
        "cz": [
          74166.48885444182,
          -1251.2789811531832,
          76.72688364602698,
          5.303481865992153,
          -1.741161985095811
        ]
      },
      {
        "t_start": 2439355.1032069563,
        "t_end": 2439355.1337625114,
        "cx": [
          -338441.64604366885,
          590.7099182225074,
          70.0787182138078,
          -11.55883936904269
        ],
        "cy": [
          93389.13466165477,
          -1984.444319381657,
          143.30975570242728,
          2.354655843602655
        ],
        "cz": [
          72316.28481704362,
          -603.5855126887511,
          74.05025505852821,
          -2.0082395613924025
        ]
      },
      {
        "t_start": 2439355.1337625114,
        "t_end": 2439355.164318067,
        "cx": [
          -337098.77626096917,
          648.4960023286598,
          -55.3752366332833,
          -11.409357829142282
        ],
        "cy": [
          90624.09194447153,
          -768.8027927648454,
          157.6052093848448,
          0.3047067017541105
        ],
        "cz": [
          71622.69418803033,
          -111.70009465244321,
          47.80324777030686,
          -2.780081831698159
        ]
      },
      {
        "t_start": 2439355.164318067,
        "t_end": 2439355.1948736226,
        "cx": [
          -336808.69282583636,
          -530.0839230198928,
          -262.31531326076475,
          -23.81136750833842,
          -0.24767572166926385
        ],
        "cy": [
          90251.33068253902,
          342.57249218746125,
          86.61490107882771,
          -20.712978696762008,
          -3.9704635565851687
        ],
        "cz": [
          71600.41467269765,
          24.63860407971618,
          -32.873281553363476,
          -14.244261630918851,
          -1.6333031140650258
        ]
      },
      {
        "t_start": 2439355.1948736226,
        "t_end": 2439355.225429178,
        "cx": [
          -340034.5434010205,
          -2493.366629689396,
          2.7713733064606143,
          89.29235147463702,
          -0.5114037396112799,
          -4.015957385203013
        ],
        "cy": [
          90018.30815267206,
          -1061.3730680241615,
          -447.47108697806726,
          -6.498579307492256,
          17.799172094132896,
          0.18767254364040098
        ],
        "cz": [
          70732.41136591148,
          -1033.348064428386,
          -176.753967382241,
          20.12953552390578,
          6.914699323464958,
          -0.9498453171829947
        ]
      },
      {
        "t_start": 2439355.225429178,
        "t_end": 2439355.255984734,
        "cx": [
          -343258.7551604896,
          -535.5554030372572,
          261.03817937384446,
          -22.59854380250145,
          0.22985144429512444
        ],
        "cy": [
          85711.41992066313,
          -2800.674902289923,
          36.19364697448983,
          24.21323777409857,
          -3.7874550557529414
        ],
        "cz": [
          68246.26637454996,
          -1227.183465746089,
          80.21951935469792,
          3.8231359313157056,
          -1.4390226378171402
        ]
      },
      {
        "t_start": 2439355.255984734,
        "t_end": 2439355.2865402894,
        "cx": [
          -342956.5575291292,
          672.7948025052935,
          62.23678217612022,
          -11.201146051251714
        ],
        "cy": [
          80893.55071948262,
          -1931.9986479668987,
          145.01123250229702,
          2.1073673011275402
        ],
        "cz": [
          66447.05549309663,
          -580.3012341124036,
          72.6760301113298,
          -2.015116361333664
        ]
      },
      {
        "t_start": 2439355.2865402894,
        "t_end": 2439355.3164014006,
        "cx": [
          -341519.7011205232,
          663.8556665307092,
          -59.00336156961106,
          -10.940641286670958
        ],
        "cy": [
          78250.98254117291,
          -707.022060690759,
          150.7313054091393,
          0.1500679611115288
        ],
        "cz": [
          65788.54703469975,
          -102.25986558989658,
          44.13468560892057,
          -2.721458828228194
        ]
      },
      {
        "t_start": 2439355.3164014006,
        "t_end": 2439355.346956956,
        "cx": [
          -341231.1513337122,
          -553.2006450386423,
          -271.8300739741799,
          -23.773180571025797,
          0.03644934822913247
        ],
        "cy": [
          77948.4349696755,
          350.4727742805688,
          77.01930249275273,
          -23.038312385468956,
          -4.317901188985242
        ],
        "cz": [
          65755.78928192487,
          2.935979367060424,
          -39.0974178185071,
          -15.145058510127784,
          -1.6970526072676768
        ]
      },
      {
        "t_start": 2439355.346956956,
        "t_end": 2439355.377512512,
        "cx": [
          -344465.7686506197,
          -2437.112924984047,
          37.07743744766362,
          88.36785337488138,
          -3.062033745055831,
          -3.8934985598170346
        ],
        "cy": [
          77592.92854586041,
          -1188.6385447965386,
          -448.20948929424264,
          2.4601219356668897,
          17.68112262179521,
          -0.5055934376122828
        ],
        "cz": [
          64799.692864841636,
          -1087.7034210975562,
          -168.1738435123909,
          23.433531021455636,
          6.21287830568091,
          -1.1928490421263516
        ]
      },
      {
        "t_start": 2439355.377512512,
        "t_end": 2439355.4080680674,
        "cx": [
          -347471.2819726499,
          -413.13859928911637,
          252.04632166136759,
          -22.464839235332786,
          0.4307743078038438
        ],
        "cy": [
          73151.23554447659,
          -2803.4549942503118,
          46.1726356606987,
          22.207532185900735,
          -3.5094813613156575
        ],
        "cz": [
          62279.781296502944,
          -1215.0551744939562,
          81.84737459768611,
          3.0582665083415175,
          -1.2767957520346565
        ]
      },
      {
        "t_start": 2439355.4080680674,
        "t_end": 2439355.437929178,
        "cx": [
          -347000.5547128341,
          720.8698728240877,
          56.42295537900148,
          -10.328222651549387
        ],
        "cy": [
          68403.05433234562,
          -1873.249646807884,
          139.2139560387729,
          1.8770474539012842
        ],
        "cz": [
          60514.97759576738,
          -562.9391711317437,
          68.8777994413706,
          -1.8842386717386195
        ]
      },
      {
        "t_start": 2439355.437929178,
        "t_end": 2439355.4684847337,
        "cx": [
          -345461.7674471296,
          717.383237869691,
          -65.2240206285334,
          -11.90918210971442
        ],
        "cy": [
          65808.29600268239,
          -704.7931952025453,
          157.88511552629387,
          0.06452984332154314
        ],
        "cz": [
          59864.81806173722,
          -106.19333852401863,
          45.31097037810807,
          -3.0008110395686685
        ]
      },
      {
        "t_start": 2439355.4684847337,
        "t_end": 2439355.4990402893,
        "cx": [
          -345142.5524070825,
          -578.1457260627813,
          -281.20994912365353,
          -23.551727783379143,
          0.38133175128981933
        ],
        "cy": [
          65530.18566007773,
          357.2660525565369,
          66.4147985354448,
          -25.550002947692644,
          -4.6737056002264845
        ],
        "cz": [
          59812.099878719586,
          -19.657983216390136,
          -45.67829082678427,
          -16.071418034672863,
          -1.748469764041561
        ]
      },
      {
        "t_start": 2439355.4990402893,
        "t_end": 2439355.529595845,
        "cx": [
          -348379.25856336375,
          -2372.1161268453284,
          70.85192490966061,
          86.25003373115922,
          -5.4916012632136155,
          -3.628198805564923
        ],
        "cy": [
          65048.90511733201,
          -1313.884924901693,
          -445.69635524442776,
          11.27039809440351,
          17.139808600697336,
          -1.1644766736508214
        ],
        "cz": [
          58768.41609699998,
          -1138.9480314932746,
          -158.44712603812297,
          26.36991602331689,
          5.374845606900319,
          -1.3852903459516865
        ]
      },
      {
        "t_start": 2439355.529595845,
        "t_end": 2439355.559456956,
        "cx": [
          -351163.21116427256,
          -304.8074259451759,
          234.91563804310377,
          -20.870336639080097,
          0.5083945493187254
        ],
        "cy": [
          60543.04193515774,
          -2744.8970232172014,
          50.650515778118844,
          19.47929539230961,
          -3.0312481376266067
        ],
        "cz": [
          56243.95649801551,
          -1181.7540451393927,
          79.25302720702034,
          2.380926977758334,
          -1.0671457220019294
        ]
      },
      {
        "t_start": 2439355.559456956,
        "t_end": 2439355.5900125117,
        "cx": [
          -350521.4866513922,
          799.3665270949733,
          56.05971342049529,
          -10.955466229165276
        ],
        "cy": [
          55822.66967336981,
          -1899.0103188256264,
          146.4148381499106,
          1.934109519788739
        ],
        "cz": [
          54497.962154743145,
          -571.4956125485216,
          71.55769336486624,
          -2.021219012372234
        ]
      },
      {
        "t_start": 2439355.5900125117,
        "t_end": 2439355.6205680673,
        "cx": [
          -348867.2326637866,
          750.4698840374924,
          -70.31002172031063,
          -12.186641024233372
        ],
        "cy": [
          53244.101445485714,
          -669.9383092068709,
          157.93456960577703,
          -0.07656388028805018
        ],
        "cz": [
          53846.559246420686,
          -102.64656868960218,
          43.98980541971088,
          -3.1263721763750976
        ]
      },
      {
        "t_start": 2439355.6205680673,
        "t_end": 2439355.651123623,
        "cx": [
          -348537.8058009724,
          -604.9257035279577,
          -290.36277178699976,
          -23.11156458788606,
          0.7943354167878464
        ],
        "cy": [
          53015.43671794662,
          362.67956714325817,
          54.73340135276217,
          -28.248350115901587,
          -5.0313691061889285
        ],
        "cz": [
          53778.410086243486,
          -43.21547045056701,
          -52.6184141403163,
          -17.014301326074612,
          -1.7831125344336112
        ]
      },
      {
        "t_start": 2439355.651123623,
        "t_end": 2439355.6809847336,
        "cx": [
          -351726.3187215859,
          -2264.43308281218,
          89.89072649124239,
          79.23014850374041,
          -6.5049487485395305,
          -3.050859540813016
        ],
        "cy": [
          52455.087007641516,
          -1369.199354908493,
          -424.95702950144465,
          16.15706743344818,
          15.25716169348478,
          -1.430749163078854
        ],
        "cz": [
          52679.36217927046,
          -1150.7705705944954,
          -145.25743818500402,
          26.50702916061781,
          4.368146280007756,
          -1.342955741371382
        ]
      },
      {
        "t_start": 2439355.6809847336,
        "t_end": 2439355.711540289,
        "cx": [
          -354309.92098241055,
          -217.18360958404406,
          240.06745259685508,
          -22.124176678365224,
          0.6353534481653411
        ],
        "cy": [
          47850.22991093952,
          -2805.0599166777242,
          58.34692805740094,
          19.753935501107378,
          -3.153461174458891
        ],
        "cz": [
          50131.32431501767,
          -1201.4948027166092,
          83.5489307911548,
          2.1652714453299597,
          -1.0821198878394984
        ]
      },
      {
        "t_start": 2439355.711540289,
        "t_end": 2439355.742095845,
        "cx": [
          -353503.95191083365,
          867.2284678942833,
          51.5310001128369,
          -10.786787367373115
        ],
        "cy": [
          43109.441775286476,
          -1866.0873140095282,
          147.32935469569662,
          1.8190382228594708
        ],
        "cz": [
          48382.569723443834,
          -559.4283108734857,
          70.71802078487467,
          -2.0238296031918974
        ]
      },
      {
        "t_start": 2439355.742095845,
        "t_end": 2439355.7726514004,
        "cx": [
          -351749.2683016976,
          782.4822736332991,
          -75.51338038186054,
          -12.483002816519324
        ],
        "cy": [
          40601.266844464204,
          -633.1992697302261,
          157.91500694638287,
          -0.2339790978987073
        ],
        "cz": [
          47747.733354419826,
          -98.57479932963263,
          42.61282699683964,
          -3.2630960463548253
        ]
      },
      {
        "t_start": 2439355.7726514004,
        "t_end": 2439355.8025125116,
        "cx": [
          -351384.0595984812,
          -590.0919599851011,
          -283.22612368250924,
          -21.29140005060018,
          0.9839948209322718
        ],
        "cy": [
          40415.36858500402,
          359.20871197827836,
          45.05321605053439,
          -28.056824241768872,
          -4.80747871951332
        ],
        "cz": [
          47669.3339457627,
          -58.4159868653662,
          -54.60396047718228,
          -16.465998887469162,
          -1.64505483395243
        ]
      },
      {
        "t_start": 2439355.8025125116,
        "t_end": 2439355.833068067,
        "cx": [
          -354541.6083824476,
          -2236.754665401721,
          114.60793329512228,
          81.63277232782961,
          -8.409754410705315,
          -3.0779476381646895
        ],
        "cy": [
          39747.61519486492,
          -1481.6767000435873,
          -437.26820336060496,
          22.519250784535085,
          15.795291106107193,
          -1.9361075464343118
        ],
        "cz": [
          46499.21359875133,
          -1206.9801420554488,
          -143.7087445762139,
          29.61630465575963,
          4.091175009538812,
          -1.5484569356418139
        ]
      },
      {
        "t_start": 2439355.833068067,
        "t_end": 2439355.863623623,
        "cx": [
          -356944.886398216,
          -98.96580939184658,
          231.18088788775697,
          -21.778264298103448,
          0.7499593833827938
        ],
        "cy": [
          35023.47086170804,
          -2795.844247741097,
          66.5429483697859,
          18.07844066522745,
          -2.902217410998868
        ],
        "cz": [
          43913.46946963147,
          -1185.5537029894072,
          84.49194720433155,
          1.587661123582188,
          -0.9529468116370545
        ]
      },
      {
        "t_start": 2439355.863623623,
        "t_end": 2439355.8941791784,
        "cx": [
          -355957.6321724653,
          934.1118858816086,
          47.06413963451155,
          -10.633840756861424
        ],
        "cy": [
          30332.759844765795,
          -1830.9617994613923,
          148.19158961878324,
          1.7145293618752826
        ],
        "cz": [
          42194.72842338246,
          -546.6614793928869,
          69.8745001795457,
          -2.0262546406873354
        ]
      },
      {
        "t_start": 2439355.8941791784,
        "t_end": 2439355.9240402896,
        "cx": [
          -354118.63740619033,
          803.7203747861622,
          -75.45309315296781,
          -11.837205967932698
        ],
        "cy": [
          27905.70179821976,
          -594.981645332588,
          150.83185913303353,
          -0.31924576451867076
        ],
        "cz": [
          41578.28602310249,
          -95.01971114844112,
          39.81211576912263,
          -3.132064830196965
        ]
      },
      {
        "t_start": 2439355.9240402896,
        "t_end": 2439355.954595845,
        "cx": [
          -353732.6784465707,
          -609.1253413714998,
          -302.074021825577,
          -22.090629920664256,
          1.470108535404066
        ],
        "cy": [
          27760.293529597664,
          364.28286042831115,
          37.20034394483809,
          -32.16005078587023,
          -5.496496556623059
        ],
        "cz": [
          41484.40408988467,
          -81.06308861587455,
          -62.50299885037155,
          -18.274591483827187,
          -1.7914138549763987
        ]
      },
      {
        "t_start": 2439355.954595845,
        "t_end": 2439355.9851514003,
        "cx": [
          -356876.9845572368,
          -2152.190551635,
          145.6180863067752,
          77.05282562183454,
          -10.259136664621492,
          -2.5612755059429673
        ],
        "cy": [
          26967.24115150832,
          -1598.1466071780621,
          -427.53786611460174,
          30.283407976369435,
          14.411759537090962,
          -2.399152792300227
        ],
        "cz": [
          40230.35792795612,
          -1249.3448636508858,
          -131.8536189107137,
          31.500674161359555,
          3.0703746872155793,
          -1.5983528664673545
        ]
      },
      {
        "t_start": 2439355.9851514003,
        "t_end": 2439356.015706956,
        "cx": [
          -359045.4079902631,
          17.12739707882595,
          222.40602062663643,
          -21.37233325999112,
          0.8362929939804683
        ],
        "cy": [
          22146.650805034034,
          -2782.3797582123016,
          74.06303484414697,
          16.534712502793145,
          -2.665068939501109
        ],
        "cz": [
          37630.86318632199,
          -1168.3652529510234,
          85.19446351148449,
          1.0781905634852305,
          -0.8366988472395659
        ]
      },
      {
        "t_start": 2439356.015706956,
        "t_end": 2439356.045568067,
        "cx": [
          -357903.93851846113,
          974.6980585870209,
          42.076868562466075,
          -9.831679149426787
        ],
        "cy": [
          17546.09842469646,
          -1766.2939248667674,
          142.110381297282,
          1.5379849013040243
        ],
        "cz": [
          35953.097409324866,
          -526.9692494723804,
          66.20034361610122,
          -1.8969593607806687
        ]
      },
      {
        "t_start": 2439356.045568067,
        "t_end": 2439356.0761236227,
        "cx": [
          -355967.608795127,
          858.399975129354,
          -82.73033743365492,
          -12.912244159297595
        ],
        "cy": [
          15182.715657191133,
          -582.6887819149707,
          157.8062373567129,
          -0.47918750758020034
        ],
        "cz": [
          35350.65194227449,
          -96.05607115491817,
          40.647085366066385,
          -3.467450736173576
        ]
      },
      {
        "t_start": 2439356.0761236227,
        "t_end": 2439356.1066791783,
        "cx": [
          -355557.3708528788,
          -639.9085761513372,
          -310.24551125030615,
          -20.981762196566702,
          2.068858697849282
        ],
        "cy": [
          15070.259385568821,
          366.5509430656936,
          22.763083682490404,
          -35.26664208577391,
          -5.820627886891114
        ],
        "cz": [
          35237.57600522743,
          -106.49996110927766,
          -70.25539987667972,
          -19.204382786488864,
          -1.7652398386250563
        ]
      },
      {
        "t_start": 2439356.1066791783,
        "t_end": 2439356.137234734,
        "cx": [
          -358679.27684895357,
          -2060.013101643603,
          174.87747739018602,
          71.6268586050049,
          -11.769293354757973,
          -1.9856176936376377
        ],
        "cy": [
          14145.183321980692,
          -1710.2898566651156,
          -415.01247079245803,
          37.34937489232789,
          12.765665989391907,
          -2.7456462455410438
        ],
        "cz": [
          33900.83402021857,
          -1287.8585869236226,
          -119.35653664542816,
          32.89121318890123,
          2.0337102253265114,
          -1.5870172283057722
        ]
      },
      {
        "t_start": 2439356.137234734,
        "t_end": 2439356.1677902895,
        "cx": [
          -360609.74849153095,
          131.02800956426424,
          213.7710545196307,
          -20.921358348007818,
          0.8987754752124488
        ],
        "cy": [
          9239.257370902986,
          -2764.848650365365,
          80.95875661822619,
          15.115758048821883,
          -2.4426520373247778
        ],
        "cz": [
          31293.075476938222,
          -1150.0062575587062,
          85.6857879617933,
          0.6303351957771555,
          -0.7325095665147267
        ]
      },
      {
        "t_start": 2439356.1677902895,
        "t_end": 2439356.198345845,
        "cx": [
          -359269.35250095016,
          1064.6261895009538,
          38.29062069611452,
          -10.37429169064058
        ],
        "cy": [
          4666.360803797343,
          -1754.1596298523232,
          149.7770258172785,
          1.5330238111159689
        ],
        "cz": [
          29639.6344748761,
          -519.0059444710357,
          68.17847639694449,
          -2.031991554554229
        ]
      },
      {
        "t_start": 2439356.198345845,
        "t_end": 2439356.2289014007,
        "cx": [
          -357226.4006260612,
          870.7558400306324,
          -91.90799784882651,
          -13.489761124465632
        ],
        "cy": [
          2393.77063760549,
          -511.88823469596673,
          157.3649151484674,
          -0.8249422665860924
        ],
        "cz": [
          29062.08901589002,
          -83.28418304609954,
          38.09861570041463,
          -3.7493681565570856
        ]
      },
      {
        "t_start": 2439356.2289014007,
        "t_end": 2439356.2594569563,
        "cx": [
          -356889.3367978924,
          -729.4626620091168,
          -322.33369224370483,
          -18.340947811268187,
          3.257693955310113
        ],
        "cy": [
          2370.9728483989124,
          364.50783367239956,
          -3.961377518456908,
          -40.73284359116884,
          -6.272512580693568
        ],
        "cz": [
          28929.017750270246,
          -148.46506867830055,
          -83.82340476324038,
          -20.670628163925887,
          -1.6391214805781493
        ]
      },
      {
        "t_start": 2439356.2594569563,
        "t_end": 2439356.289318067,
        "cx": [
          -359995.74164501164,
          -1907.9295085926954,
          203.2252533358216,
          59.40313747587743,
          -12.216972787628082,
          -1.0481326819663659
        ],
        "cy": [
          1278.662294618308,
          -1815.2032969925388,
          -378.46831074164606,
          43.033561909304495,
          9.423265327343161,
          -2.7318548008412233
        ],
        "cz": [
          27496.782473310595,
          -1305.6022443560703,
          -97.63097625000152,
          32.00759021988424,
          0.6005685507899807,
          -1.3411808625706396
        ]
      },
      {
        "t_start": 2439356.289318067,
        "t_end": 2439356.3198736226,
        "cx": [
          -361637.1781181644,
          242.69730601960646,
          205.2858616634653,
          -20.436963699571947,
          0.94136757034415
        ],
        "cy": [
          -3679.4056726718677,
          -2743.4185672067515,
          87.28367975610217,
          13.812252416474289,
          -2.234957893715513
        ],
        "cz": [
          24909.710687481936,
          -1130.484885568519,
          85.98750278802424,
          0.23699325086898512,
          -0.6392857299973993
        ]
      },
      {
        "t_start": 2439356.3198736226,
        "t_end": 2439356.350429178,
        "cx": [
          -360125.16806403425,
          1128.0878733570264,
          33.969046692477534,
          -10.266841461658657
        ],
        "cy": [
          -8184.850685013122,
          -1712.5002394431322,
          150.50592915593592,
          1.4539729680509204
        ],
        "cz": [
          23291.531916572756,
          -504.09840787285947,
          67.32247468275133,
          -2.035914421985777
        ]
      },
      {
        "t_start": 2439356.350429178,
        "t_end": 2439356.380984734,
        "cx": [
          -357991.19900905614,
          897.1315245281255,
          -97.66199086017379,
          -13.865609701787365
        ],
        "cy": [
          -10370.869873103578,
          -467.8442996717958,
          156.9855425190715,
          -1.0695038621859185
        ],
        "cz": [
          22735.60256216119,
          -77.21461563315933,
          36.44535573695707,
          -3.940157132226691
        ]
      },
      {
        "t_start": 2439356.380984734,
        "t_end": 2439356.410845845,
        "cx": [
          -357628.9261851213,
          -716.7347731881426,
          -312.5513971378764,
          -16.03604460182994,
          3.4372495103473497
        ],
        "cy": [
          -10345.628503711878,
          358.76303764717403,
          -14.062157571604791,
          -40.113450828566755,
          -5.87318218921035
        ],
        "cz": [
          22594.554613093766,
          -162.7440766674205,
          -85.27229161212338,
          -19.828356446379804,
          -1.4347632180943037
        ]
      },
      {
        "t_start": 2439356.410845845,
        "t_end": 2439356.4414014006,
        "cx": [
          -360680.01263360307,
          -1854.6538643967071,
          227.0972580476655,
          58.85724393180825,
          -13.676938696891083,
          -0.7845127613703891
        ],
        "cy": [
          -11546.782285464673,
          -1919.4109005640973,
          -382.55093043320386,
          48.974890960125485,
          8.974891530977379,
          -3.0660151143431986
        ],
        "cz": [
          21098.504104208085,
          -1352.7938016701585,
          -93.06788186751663,
          34.186553545510584,
          0.05081055741437783,
          -1.4043624803540136
        ]
      },
      {
        "t_start": 2439356.4414014006,
        "t_end": 2439356.471956956,
        "cx": [
          -362127.9114856767,
          352.01826894726884,
          196.9769339264573,
          -19.930324455974475,
          0.9673543882042369
        ],
        "cy": [
          -16589.91844305871,
          -2718.27780906162,
          93.0766626920186,
          12.618274898353786,
          -2.0420612976998975
        ],
        "cz": [
          18490.44299488138,
          -1109.8944130106115,
          86.12327006520258,
          -0.10692741411223776,
          -0.5562338905882753
        ]
      },
      {
        "t_start": 2439356.471956956,
        "t_end": 2439356.502512512,
        "cx": [
          -360447.8149639844,
          1190.2363891518723,
          29.686022567106452,
          -10.174174637103496
        ],
        "cy": [
          -21022.47826201359,
          -1668.7298140386795,
          151.1963960926808,
          1.3816083321488055
        ],
        "cz": [
          16909.180319295156,
          -488.485574985173,
          66.46216105425677,
          -2.0409560639282023
        ]
      },
      {
        "t_start": 2439356.502512512,
        "t_end": 2439356.5323736225,
        "cx": [
          -358241.1725405149,
          911.9677339041102,
          -96.94963663248996,
          -13.176697520382946
        ],
        "cy": [
          -23115.195802676273,
          -426.1218945174966,
          149.7145232960727,
          -1.153031454561556
        ],
        "cz": [
          16376.458689658633,
          -71.57000067600417,
          33.74886922238269,
          -3.797357640747096
        ]
      },
      {
        "t_start": 2439356.5323736225,
        "t_end": 2439356.562929178,
        "cx": [
          -357869.97883547435,
          -741.9190326345993,
          -330.2466175892571,
          -15.308343383140699,
          4.404674811154603
        ],
        "cy": [
          -23047.081735415366,
          357.58856295485197,
          -28.300757489721793,
          -45.359606401885976,
          -6.503452651270957
        ],
        "cz": [
          16219.330925149783,
          -190.26124115427044,
          -95.35227138801719,
          -21.689212539261504,
          -1.4347126019209588
        ]
      },
      {
        "t_start": 2439356.562929178,
        "t_end": 2439356.5934847337,
        "cx": [
          -360878.3171830539,
          -1742.6147431247439,
          249.6026862534659,
          51.85966799919119,
          -14.06947524827436,
          -0.21917304258127765
        ],
        "cy": [
          -24378.259858735102,
          -2015.1751151019498,
          -363.2156450790666,
          53.391619664182166,
          6.982332021011135,
          -3.048031327081319
        ],
        "cz": [
          14645.266527623124,
          -1378.9822710571066,
          -79.63736138471205,
          34.12550402359956,
          -0.8339493195876803,
          -1.2519945661626455
        ]
      },
      {
        "t_start": 2439356.5934847337,
        "t_end": 2439356.6240402893,
        "cx": [
          -362083.119938493,
          458.9339054042727,
          188.85570620949323,
          -19.410184900807923,
          0.9796586940266748
        ],
        "cy": [
          -29473.129028725572,
          -2689.592493849861,
          98.38079581243252,
          11.526128950250952,
          -1.8636144438914501
        ],
        "cz": [
          12044.911391165375,
          -1088.286021133903,
          86.11333545597624,
          -0.4067771770499682,
          -0.4824589080545676
        ]
      },
      {
        "t_start": 2439356.6240402893,
        "t_end": 2439356.654595845,
        "cx": [
          -360238.59428643016,
          1250.9884448130242,
          25.435951600273793,
          -10.09611190734935
        ],
        "cy": [
          -33827.53609698453,
          -1622.8808797453228,
          151.85098170336752,
          1.3151162234469789
        ],
        "cz": [
          10502.178892650347,
          -472.1718435063062,
          65.59710968387341,
          -2.0473940174231564
        ]
      },
      {
        "t_start": 2439356.654595845,
        "t_end": 2439356.6851514005,
        "cx": [
          -357931.4734333581,
          944.5409340203097,
          -109.64376580003584,
          -14.678433767846954
        ],
        "cy": [
          -35828.85532561283,
          -374.69384004483857,
          155.86705193671096,
          -1.6466637086788058
        ],
        "cz": [
          9993.10766178549,
          -63.75914298723402,
          32.881396229824944,
          -4.371395535695277
        ]
      },
      {
        "t_start": 2439356.6851514005,
        "t_end": 2439356.715706956,
        "cx": [
          -357626.946051559,
          -836.9585543533357,
          -337.11797510919064,
          -9.783400951657349,
          6.031060109984593,
          1.5410971575603034
        ],
        "cy": [
          -35697.60109443499,
          336.04298325889505,
          -61.54618668181332,
          -51.11604996048026,
          -6.54731401169866,
          0.04259423206355468
        ],
        "cz": [
          9805.464244951609,
          -240.49607904940618,
          -110.11004734836702,
          -22.529115895723205,
          -1.036814680846997,
          0.4082697821578592
        ]
      },
      {
        "t_start": 2439356.715706956,
        "t_end": 2439356.7462625117,
        "cx": [
          -360610.5061423169,
          -1579.805412982186,
          281.18002302472695,
          39.93313662106005,
          -13.972420322782682,
          0.5886793363206875
        ],
        "cy": [
          -37264.43284777374,
          -2163.6045338682675,
          -327.7280120129849,
          58.590082287343826,
          3.7701985010807775,
          -2.8030245578504727
        ],
        "cz": [
          8110.700189361155,
          -1412.6810073222284,
          -57.5817358847985,
          33.11697828823135,
          -2.0710437141142246,
          -0.9486394760566145
        ]
      },
      {
        "t_start": 2439356.7462625117,
        "t_end": 2439356.776123623,
        "cx": [
          -361501.29307296255,
          569.1867884794868,
          170.18492763686038,
          -17.460250015885062,
          0.8962955786899084
        ],
        "cy": [
          -42374.20430523976,
          -2589.5854377671317,
          100.29697261403727,
          9.495203496249413,
          -1.49756738126973
        ],
        "cz": [
          5554.734412783913,
          -1033.8482541102019,
          82.11487001625702,
          -0.7110125984145711,
          -0.3595262688328012
        ]
      },
      {
        "t_start": 2439356.776123623,
        "t_end": 2439356.8066791785,
        "cx": [
          -359499.73512275965,
          1310.2614012607298,
          21.21328228687702,
          -10.032486950817864
        ],
        "cy": [
          -46581.23646078619,
          -1574.9893823916304,
          152.4719441459761,
          1.2536866692923685
        ],
        "cz": [
          4080.0998520076796,
          -455.1638151603128,
          64.72678787551783,
          -2.0555093837469727
        ]
      },
      {
        "t_start": 2439356.8066791785,
        "t_end": 2439356.8372347336,
        "cx": [
          -357110.90766263887,
          965.3089246321613,
          -115.88667801046894,
          -15.115317010835987
        ],
        "cy": [
          -48484.59540138132,
          -325.7124303885365,
          155.1014289283439,
          -1.9858771838823357
        ],
        "cz": [
          3596.211769322613,
          -56.43168901306173,
          30.95658800555849,
          -4.614367675268223
        ]
      },
      {
        "t_start": 2439356.8372347336,
        "t_end": 2439356.867790289,
        "cx": [
          -356824.6857664549,
          -874.2949442466086,
          -339.30385379535664,
          -6.023778861465861,
