{
  "format": "chebyshev-ephemeris",
  "version": "1.0",
  "metadata": {
    "source": "SPICE sampling",
    "created": "2026-03-31T23:06:15.856213+00:00",
    "tolerance_km": 5.0,
    "segments_count": 3284,
    "bodies": [
      "SC",
      "EARTH",
      "SUN"
    ],
    "coordinate_frame": "J2000",
    "units": {
      "time": "julian_date",
      "position": "km"
    },
    "step_size_seconds": 60,
    "spice_target": {
      "name": "-531",
      "code": -531
    },
    "source_kernels": [
      "/home/sankar/sankar/projects/skyfield-ts/data/mirrors/naif/generic_kernels/lsk/latest_leapseconds.tls",
      "/home/sankar/sankar/projects/skyfield-ts/data/mirrors/lunarorbiter1/spk/lo1_ssd_lp150q.bsp",
      "/home/sankar/sankar/projects/skyfield-ts/data/dev/showcase/de440.bsp"
    ],
    "coverage_intervals_utc": [
      {
        "start_utc": "1966-08-14T15:39:55.898",
        "end_utc": "1966-08-22T10:28:55.918",
        "duration_hours": 186.816672
      },
      {
        "start_utc": "1966-08-30T19:59:55.940",
        "end_utc": "1966-09-08T19:28:55.963",
        "duration_hours": 215.48334
      },
      {
        "start_utc": "1966-09-09T18:59:55.966",
        "end_utc": "1966-09-17T19:28:55.987",
        "duration_hours": 192.483339
      },
      {
        "start_utc": "1966-09-18T12:29:55.988",
        "end_utc": "1966-09-18T19:09:55.989",
        "duration_hours": 6.666667
      },
      {
        "start_utc": "1966-09-19T12:29:55.991",
        "end_utc": "1966-09-19T19:29:55.992",
        "duration_hours": 7.0
      },
      {
        "start_utc": "1966-09-20T09:29:55.993",
        "end_utc": "1966-09-20T19:39:55.994",
        "duration_hours": 10.166667
      },
      {
        "start_utc": "1966-09-21T09:59:55.996",
        "end_utc": "1966-09-21T19:59:55.997",
        "duration_hours": 10.0
      },
      {
        "start_utc": "1966-09-22T00:29:55.998",
        "end_utc": "1966-09-22T19:29:56.000",
        "duration_hours": 19.000001
      },
      {
        "start_utc": "1966-09-23T17:29:56.002",
        "end_utc": "1966-09-23T23:59:56.003",
        "duration_hours": 6.5
      },
      {
        "start_utc": "1966-09-24T17:29:56.005",
        "end_utc": "1966-09-25T00:19:56.005",
        "duration_hours": 6.833334
      },
      {
        "start_utc": "1966-09-25T17:59:56.007",
        "end_utc": "1966-09-26T00:39:56.008",
        "duration_hours": 6.666667
      },
      {
        "start_utc": "1966-09-26T07:29:56.009",
        "end_utc": "1966-09-26T14:29:56.009",
        "duration_hours": 7.0
      },
      {
        "start_utc": "1966-09-27T07:59:56.011",
        "end_utc": "1966-09-27T14:49:56.012",
        "duration_hours": 6.833334
      },
      {
        "start_utc": "1966-09-28T08:59:56.014",
        "end_utc": "1966-09-28T14:59:56.015",
        "duration_hours": 6.0
      },
      {
        "start_utc": "1966-09-29T21:59:56.018",
        "end_utc": "1966-09-30T04:59:56.019",
        "duration_hours": 7.0
      },
      {
        "start_utc": "1966-09-30T22:19:56.021",
        "end_utc": "1966-10-01T04:59:56.021",
        "duration_hours": 6.666667
      },
      {
        "start_utc": "1966-10-01T22:29:56.023",
        "end_utc": "1966-10-02T05:19:56.024",
        "duration_hours": 6.833334
      },
      {
        "start_utc": "1966-10-02T22:29:56.026",
        "end_utc": "1966-10-03T05:19:56.027",
        "duration_hours": 6.833334
      },
      {
        "start_utc": "1966-10-03T15:39:56.028",
        "end_utc": "1966-10-03T22:39:56.028",
        "duration_hours": 7.0
      },
      {
        "start_utc": "1966-10-04T15:39:56.030",
        "end_utc": "1966-10-04T22:49:56.031",
        "duration_hours": 7.166667
      },
      {
        "start_utc": "1966-10-05T14:29:56.033",
        "end_utc": "1966-10-05T22:59:56.034",
        "duration_hours": 8.5
      },
      {
        "start_utc": "1966-10-06T15:59:56.035",
        "end_utc": "1966-10-06T20:54:56.036",
        "duration_hours": 4.916667
      },
      {
        "start_utc": "1966-10-07T09:49:56.037",
        "end_utc": "1966-10-07T23:09:56.039",
        "duration_hours": 13.333334
      },
      {
        "start_utc": "1966-10-08T16:19:56.041",
        "end_utc": "1966-10-08T19:49:56.041",
        "duration_hours": 3.5
      },
      {
        "start_utc": "1966-10-09T05:59:56.042",
        "end_utc": "1966-10-09T12:59:56.043",
        "duration_hours": 7.0
      },
      {
        "start_utc": "1966-10-10T06:19:56.045",
        "end_utc": "1966-10-10T13:09:56.046",
        "duration_hours": 6.833334
      },
      {
        "start_utc": "1966-10-11T13:29:56.048",
        "end_utc": "1966-10-11T20:09:56.049",
        "duration_hours": 6.666667
      },
      {
        "start_utc": "1966-10-12T20:29:56.052",
        "end_utc": "1966-10-13T03:09:56.052",
        "duration_hours": 6.666667
      },
      {
        "start_utc": "1966-10-13T20:29:56.054",
        "end_utc": "1966-10-14T03:19:56.055",
        "duration_hours": 6.833334
      },
      {
        "start_utc": "1966-10-14T23:29:56.057",
        "end_utc": "1966-10-15T08:49:56.058",
        "duration_hours": 9.333334
      },
      {
        "start_utc": "1966-10-15T15:49:56.059",
        "end_utc": "1966-10-15T23:29:56.060",
        "duration_hours": 7.666667
      },
      {
        "start_utc": "1966-10-17T04:09:56.063",
        "end_utc": "1966-10-17T10:39:56.063",
        "duration_hours": 6.5
      },
      {
        "start_utc": "1966-10-19T15:39:56.069",
        "end_utc": "1966-10-20T04:39:56.071",
        "duration_hours": 13.0
      },
      {
        "start_utc": "1966-10-24T16:29:56.082",
        "end_utc": "1966-10-24T23:19:56.083",
        "duration_hours": 6.833334
      },
      {
        "start_utc": "1966-10-26T16:59:56.087",
        "end_utc": "1966-10-26T23:39:56.088",
        "duration_hours": 6.666667
      }
    ]
  },
  "time_range": {
    "start": 2439352.153206956,
    "end": 2439425.486542484
  },
  "SC": {
    "time_range": {
      "start": 2439352.153206956,
      "end": 2439425.486542484
    },
    "segments": [
      {
        "t_start": 2439352.153206956,
        "t_end": 2439352.1837625117,
        "cx": [
          1970.5124867891964,
          -796.7408619417071,
          -340.71126833540404,
          -14.408758435616763,
          5.167035265844826,
          1.5314223525206265
        ],
        "cy": [
          16.215536236921725,
          1645.4512908797856,
          -36.62522669556334,
          -48.76640718691781,
          -7.01461719107588,
          -0.17637172933338122
        ],
        "cz": [
          510.3888041319783,
          457.7443752114577,
          -101.86499662442276,
          -23.294043523424055,
          -1.50065782783736,
          0.32069573987958694
        ]
      },
      {
        "t_start": 2439352.1837625117,
        "t_end": 2439352.2143180673,
        "cx": [
          -1099.0155931463873,
          -1717.0450948616872,
          267.21261376283024,
          45.68713821893665,
          -14.69426081654834,
          0.37169459194361126
        ],
        "cy": [
          1171.7699474178244,
          -794.8073750932211,
          -347.6843352740479,
          57.79355397937965,
          5.088751215669131,
          -3.08522548593957
        ],
        "cz": [
          189.8777850290477,
          -758.6340729226434,
          -71.34632852171741,
          34.93842827176687,
          -1.7266589265903622,
          -1.1461892682832955
        ]
      },
      {
        "t_start": 2439352.2143180673,
        "t_end": 2439352.244873623,
        "cx": [
          -2259.4490728219193,
          456.1423589480962,
          179.30472520906966,
          -18.590995179135547,
          0.9976763051741763
        ],
        "cy": [
          -1373.052852818573,
          -1375.6413741462363,
          99.48572084126955,
          10.39644427565186,
          -1.663830324451132
        ],
        "cz": [
          -1129.48195109195,
          -436.02957822480954,
          85.8294260751306,
          -0.5798618879773009,
          -0.4129887706811798
        ]
      },
      {
        "t_start": 2439352.244873623,
        "t_end": 2439352.2754291785,
        "cx": [
          -470.4241824588007,
          1204.2585659932236,
          23.035653386488843,
          -9.787171179170713
        ],
        "cy": [
          -3110.477843578974,
          -322.5311556380633,
          149.40150076223455,
          1.4416799168081311
        ],
        "cz": [
          -1370.0069296410074,
          178.37197205019865,
          65.90872981178526,
          -1.923872429293472
        ]
      },
      {
        "t_start": 2439352.2754291785,
        "t_end": 2439352.3059847336,
        "cx": [
          1729.2494761843716,
          884.110592214936,
          -111.75002576658702,
          -15.038576598732506
        ],
        "cy": [
          -2522.679933195168,
          916.542969138886,
          156.35366785370593,
          -1.3479932497557734
        ],
        "cz": [
          -571.3993538543702,
          594.2706000494663,
          34.23598150437328,
          -4.386642942079995
        ]
      },
      {
        "t_start": 2439352.3059847336,
        "t_end": 2439352.336540289,
        "cx": [
          1869.3366708322526,
          -948.180222036308,
          -346.47601099694276,
          -8.567061743030871,
          6.988812377931624,
          1.7434542563356055
        ],
        "cy": [
          185.99824531951296,
          1614.0775972797603,
          -72.0587513640458,
          -54.658883629607985,
          -6.928654134399615,
          0.16306463395789855
        ],
        "cz": [
          552.5883416606097,
          405.987252613098,
          -117.54188510686969,
          -24.15324228101507,
          -0.998472217383018,
          0.5116515857871756
        ]
      },
      {
        "t_start": 2439352.336540289,
        "t_end": 2439352.367095845,
        "cx": [
          -1273.0784240540759,
          -1601.0925464506,
          294.7430347557379,
          33.51901917513434,
          -14.010829384389067,
          1.07579203067231
        ],
        "cy": [
          1092.3127244468894,
          -941.2384937171181,
          -310.1258699120494,
          61.409099856031006,
          1.9506734018693197,
          -2.6718497554300136
        ],
        "cz": [
          113.19614261807493,
          -787.4309452173908,
          -49.12765052474208,
          33.2510544395216,
          -2.8130237342198487,
          -0.7970920131425918
        ]
      },
      {
        "t_start": 2439352.367095845,
        "t_end": 2439352.396956956,
        "cx": [
          -2225.889753859946,
          511.72842392497415,
          161.623766850618,
          -16.711168482326553,
          0.8972914114729107
        ],
        "cy": [
          -1499.0309622007999,
          -1310.8043619062362,
          100.77714493547928,
          8.591751891185302,
          -1.336796486959998
        ],
        "cz": [
          -1170.9205633715303,
          -395.41055268443876,
          81.78494308372716,
          -0.8253090545375837,
          -0.3069922151263102
        ]
      },
      {
        "t_start": 2439352.396956956,
        "t_end": 2439352.4275125116,
        "cx": [
          -386.626534455087,
          1210.5784090508628,
          18.869876710663792,
          -9.750188422192569
        ],
        "cy": [
          -3130.9953037951054,
          -280.87558558365305,
          150.1046363697112,
          1.3826413015863632
        ],
        "cz": [
          -1355.8699208825342,
          196.72332921111845,
          65.07985841876815,
          -1.9378863515551998
        ]
      },
      {
        "t_start": 2439352.4275125116,
        "t_end": 2439352.458068067,
        "cx": [
          1788.397536121768,
          851.2366994820684,
          -118.22652013516814,
          -15.504428961645067
        ],
        "cy": [
          -2457.2184715539843,
          959.6928932382045,
          155.56383798165623,
          -1.7142524935168484
        ],
        "cz": [
          -529.374733965072,
          602.8549417765938,
          32.22449947385578,
          -4.651278593307534
        ]
      },
      {
        "t_start": 2439352.458068067,
        "t_end": 2439352.488623623,
        "cx": [
          1801.7173169961359,
          -1039.4475793829413,
          -347.5883008408364,
          -4.2652159132171645,
          8.156345973193575,
          1.8294021935379885
        ],
        "cy": [
          285.8221148240724,
          1586.984510938925,
          -95.06842810981003,
          -57.978258521312895,
          -6.655975205452834,
          0.4248744305244483
        ],
        "cz": [
          575.1875936585809,
          371.3676607264265,
          -127.01790275526704,
          -24.369641933453472,
          -0.5888836947730995,
          0.6388235550367978
        ]
      },
      {
        "t_start": 2439352.488623623,
        "t_end": 2439352.518484734,
        "cx": [
          -1352.0829193167274,
          -1520.001049063355,
          292.218133157245,
          26.688092683596604,
          -12.431154148919397,
          1.1771190186734803
        ],
        "cy": [
          1069.7057999539375,
          -981.0591575869771,
          -281.5127145218639,
          58.48957728380139,
          0.6729123065742756,
          -2.207028510070089
        ],
        "cz": [
          83.69782045714388,
          -782.283836334303,
          -38.217765532074296,
          30.309012745678004,
          -2.9202314943929717,
          -0.5835800050551613
        ]
      },
      {
        "t_start": 2439352.518484734,
        "t_end": 2439352.5490402896,
        "cx": [
          -2194.4114176919325,
          552.9030411740877,
          164.60791548228784,
          -17.585993442865135,
          0.969022910010411
        ],
        "cy": [
          -1554.3550824077684,
          -1321.5189961304593,
          107.98153541427709,
          8.726589408190936,
          -1.3841577966952545
        ],
        "cz": [
          -1184.4609697607075,
          -388.82935701706845,
          85.39629615648644,
          -0.9963332675668488,
          -0.3073118493022468
        ]
      },
      {
        "t_start": 2439352.5490402896,
        "t_end": 2439352.579595845,
        "cx": [
          -302.4474239568143,
          1215.715868353464,
          14.714313127431106,
          -9.72711895028832
        ],
        "cy": [
          -3148.588387052571,
          -238.99589949217147,
          150.77982751313894,
          1.3271133808623405
        ],
        "cz": [
          -1340.4487629605994,
          214.8326356710956,
          64.24195359903692,
          -1.9539823172774362
        ]
      },
      {
        "t_start": 2439352.579595845,
        "t_end": 2439352.6101514003,
        "cx": [
          1845.0523560160336,
          816.5001822394445,
          -124.89797165139585,
          -15.990728040051447
        ],
        "cy": [
          -2388.790572424222,
          1002.546143983042,
          154.60115935651578,
          -2.1234724014442086
        ],
        "cz": [
          -486.8429527317361,
          610.8162636467857,
          30.095187525299252,
          -4.9380173534636596
        ]
      },
      {
        "t_start": 2439352.6101514003,
        "t_end": 2439352.6400125115,
        "cx": [
          1768.7295766756597,
          -1075.4759494850614,
          -333.0981984117779,
          -1.3527883586096272,
          8.147068093889313,
          1.675684987445953
        ],
        "cy": [
          357.13800231355407,
          1537.3257415945513,
          -105.1185154214448,
          -56.17362874989898,
          -5.890033836973196,
          0.5391726853710711
        ],
        "cz": [
          595.1438435282627,
          341.8410817183107,
          -127.2917589093009,
          -22.88371333158008,
          -0.2825441795526809,
          0.6452157362896646
        ]
      },
      {
        "t_start": 2439352.6400125115,
        "t_end": 2439352.670568067,
        "cx": [
          -1404.319406919317,
          -1499.7008929522667,
          311.36588219972134,
          24.299377646024684,
          -12.981275309088131,
          1.4506850449308974
        ],
        "cy": [
          1018.5455315435414,
          -1048.2781532269155,
          -278.6286291722387,
          62.47430440003192,
          -0.1887034623640242,
          -2.2429847092100172
        ],
        "cz": [
          49.620489857672446,
          -803.6334158423573,
          -32.10305425850078,
          31.27566339875618,
          -3.4058456203617586,
          -0.5272113926915888
        ]
      },
      {
        "t_start": 2439352.670568067,
        "t_end": 2439352.7011236227,
        "cx": [
          -2156.9212463411827,
          598.3315608847514,
          157.5388074175407,
          -17.09403539733641,
          0.9461986099761321
        ],
        "cy": [
          -1642.4039595870836,
          -1292.6221609409813,
          111.72608990696918,
          7.999093644113903,
          -1.261311999961476
        ],
        "cz": [
          -1209.5403642526132,
          -365.2789254007207,
          85.04552511283534,
          -1.1634991810440511,
          -0.2635748251598254
        ]
      },
      {
        "t_start": 2439352.7011236227,
        "t_end": 2439352.7316791783,
        "cx": [
          -217.97982525595833,
          1219.6712602214095,
          10.563525523935668,
          -9.717960368699856
        ],
        "cy": [
          -3163.241413427123,
          -196.90229100818905,
          151.42821171746442,
          1.2744303950723725
        ],
        "cz": [
          -1323.7645670185307,
          232.69558076681545,
          63.39415412880186,
          -1.9724276416726108
        ]
      },
      {
        "t_start": 2439352.7316791783,
        "t_end": 2439352.762234734,
        "cx": [
          1899.0707545731054,
          779.84840860088,
          -131.77182022468423,
          -16.496748662093655
        ],
        "cy": [
          -2317.4328611004075,
          1045.044325406794,
          153.44628080942147,
          -2.5803937320026176
        ],
        "cz": [
          -443.8586191038869,
          618.11847693178,
          27.83866549249553,
          -5.2485227747822325
        ]
      },
      {
        "t_start": 2439352.762234734,
        "t_end": 2439352.7927902895,
        "cx": [
          1650.515436834882,
          -1219.6993455049248,
          -343.8421623694502,
          6.089878080314071,
          10.536005098037167,
          1.8569839084062054
        ],
        "cy": [
          477.3621794434984,
          1513.9180961306138,
          -144.2547292232328,
          -63.735538422280484,
          -5.515176697177361,
          1.0685497137968811
        ],
        "cz": [
          612.8843399340768,
          295.2285213775814,
          -145.666880873126,
          -23.996790233886884,
          0.47959591300057414,
          0.9039339496969284
        ]
      },
      {
        "t_start": 2439352.7927902895,
        "t_end": 2439352.823345845,
        "cx": [
          -1559.3195215925853,
          -1365.0950753368752,
          325.82959389812595,
          13.629458697725925,
          -11.314961171783189,
          1.7175559212471347
        ],
        "cy": [
          913.082840116019,
          -1166.8776366509296,
          -238.3975202857693,
          61.94141776765773,
          -2.3836069029507443,
          -1.6628971672680617
        ],
        "cz": [
          -32.427687209255915,
          -816.3118987241337,
          -12.221579709916652,
          28.307593537349465,
          -3.8567660716388223,
          -0.22510610692921712
        ]
      },
      {
        "t_start": 2439352.823345845,
        "t_end": 2439352.8539014007,
        "cx": [
          -2088.756480408384,
          669.1577210821049,
          146.14302852786463,
          -16.284540624514477,
          0.899054945053919
        ],
        "cy": [
          -1784.4964455923443,
          -1241.911679085781,
          117.2031670406364,
          6.92282421550697,
          -1.07746323749084
        ],
        "cz": [
          -1248.369896945501,
          -326.52505592549903,
          84.28079002827431,
          -1.3887687182487414,
          -0.20169343756461675
        ]
      },
      {
        "t_start": 2439352.8539014007,
        "t_end": 2439352.8837625114,
        "cx": [
          -106.42215749408132,
          1196.459398901916,
          4.852679313382861,
          -9.068591094122697
        ],
        "cy": [
          -3185.0478738498587,
          -137.75039342106598,
          145.38736297238552,
          1.1299427411328518
        ],
        "cz": [
          -1303.0181355911377,
          250.42150542452686,
          59.46842813558299,
          -1.8640233153208297
        ]
      },
      {
        "t_start": 2439352.8837625114,
        "t_end": 2439352.914318067,
        "cx": [
          1950.1382234204866,
          741.2274810350907,
          -139.27677355977139,
          -17.021362301569688,
          -1.0006816563220535
        ],
        "cy": [
          -2243.3400288048306,
          1087.1227199636203,
          151.69693365436513,
          -3.090165545366279,
          -0.9036294086514275
        ],
        "cz": [
          -400.58300745965124,
          624.7228829452235,
          25.184639944746426,
          -5.584514753924188,
          -0.6174176476312381
        ]
      },
      {
        "t_start": 2439352.914318067,
        "t_end": 2439352.9448736226,
        "cx": [
          1567.271942792605,
          -1307.5623746208762,
          -338.5952577720614,
          12.100227125181725,
          11.671093331425723,
          1.7738682993607147
        ],
        "cy": [
          568.355221543707,
          1467.644114087749,
          -170.09131682761185,
          -65.95818790174913,
          -4.60710948570766,
          1.4370494075492257
        ],
        "cz": [
          627.7865432706427,
          253.8885174841972,
          -154.60307590418384,
          -23.333130680907484,
          1.1343980316670337,
          1.0300809185528863
        ]
      },
      {
        "t_start": 2439352.9448736226,
        "t_end": 2439352.975429178,
        "cx": [
          -1646.2416285021886,
          -1280.9367423711165,
          331.31149507044427,
          7.896829749650867,
          -10.200617254800207,
          1.7748294050616702
        ],
        "cy": [
          843.6991972632424,
          -1230.4019414088946,
          -214.3929768733688,
          60.756805230008325,
          -3.4004259949030313,
          -1.323086753424785
        ],
        "cz": [
          -82.55253140958233,
          -819.7692726074283,
          -1.1630743926733298,
          26.345560083137084,
          -3.97635235677807,
          -0.0738655957879405
        ]
      },
      {
        "t_start": 2439352.975429178,
        "t_end": 2439353.0052902894,
        "cx": [
          -2064.6747378582454,
          682.9294390281899,
          134.89010028869487,
          -14.910744052845875
        ],
        "cy": [
          -1845.3469441987386,
          -1194.1411045704156,
          114.49298031327488,
          6.076533873606935
        ],
        "cz": [
          -1265.8492473693912,
          -303.55889883494325,
          80.27379083394925,
          -1.3773285286439014
        ]
      },
      {
        "t_start": 2439353.0052902894,
        "t_end": 2439353.035845845,
        "cx": [
          -48.550473790930425,
          1224.0317321691325,
          2.254981841713875,
          -9.741699232571673
        ],
        "cy": [
          -3183.6698704054243,
          -112.1117752116429,
          152.64863567861212,
          1.1747446114054096
        ],
        "cz": [
          -1286.6897632248679,
          267.67050783578935,
          61.66502565354806,
          -2.020093245073633
        ]
      },
      {
        "t_start": 2439353.035845845,
        "t_end": 2439353.0664014006,
        "cx": [
          1998.4377148980218,
          700.5803052507097,
          -146.59049080072197,
          -17.563150963523828,
          -1.0336727432799433
        ],
        "cy": [
          -2166.2661488638223,
          1128.7157353740852,
          150.04562561790402,
          -3.6585994296232167,
          -1.0122163792943892
        ],
        "cz": [
          -356.87005272968565,
          630.5856965925096,
          22.62067825975339,
          -5.9478655363388135,
          -0.6689214693158765
        ]
      },
      {
        "t_start": 2439353.0664014006,
        "t_end": 2439353.096956956,
        "cx": [
          1479.1980002740866,
          -1393.131924947293,
          -330.87336757347083,
          18.60174725721949,
          12.707372946238841,
          1.6115497071887392
        ],
        "cy": [
          655.712069636617,
          1414.7640786097504,
          -196.4700425972489,
          -67.59348669609511,
          -3.4581723415550205,
          1.821343748441829
        ],
        "cz": [
          639.9471892801894,
          210.5304344662048,
          -163.10654633020695,
          -22.308196427231252,
          1.8596766516336019,
          1.1420418485253188
        ]
      },
      {
        "t_start": 2439353.096956956,
        "t_end": 2439353.1268180674,
        "cx": [
          -1715.681310756952,
          -1196.7857370345685,
          320.36888494646286,
          3.7450957930730846,
          -8.607515458038662,
          1.6023994970150268
        ],
        "cy": [
          804.2864191899525,
          -1248.436570263256,
          -189.0961694437927,
          55.93945170317777,
          -3.6957840163661433,
          -0.9775605209528978
        ],
        "cz": [
          -116.16618834102451,
          -804.9955735108393,
          6.200303422900347,
          23.33649482780416,
          -3.6843514401604534,
          0.020403280502993868
        ]
      },
      {
        "t_start": 2439353.1268180674,
        "t_end": 2439353.1573736225,
        "cx": [
          -2026.3331650788318,
          723.3308255133709,
          137.0591428288976,
          -15.692059738685396
        ],
        "cy": [
          -1894.8886942159463,
          -1199.6458452042573,
          121.67109532627076,
          6.179179893003973
        ],
        "cz": [
          -1275.1110984046027,
          -295.12973068208913,
          83.65045539200241,
          -1.5364667020706217
        ]
      },
      {
        "t_start": 2439353.1573736225,
        "t_end": 2439353.187929178,
        "cx": [
          36.23699548855809,
          1224.429251200955,
          -1.915125928207082,
          -9.774150916809655
        ],
        "cy": [
          -3189.4229615933295,
          -69.43132289183647,
          153.22066845330747,
          1.1268049477472797
        ],
        "cz": [
          -1266.3416687529975,
          284.7634365857799,
          60.780910270529105,
          -2.044579691115069
        ]
      },
      {
        "t_start": 2439353.187929178,
        "t_end": 2439353.2184847337,
        "cx": [
          2043.659056665722,
          657.8489057832962,
          -154.12354029126578,
          -18.119841660179823,
          -1.0628274068770207
        ],
        "cy": [
          -2086.4122016023234,
          1169.737888650379,
          148.12537238176827,
          -4.291770247166587,
          -1.132504399953553
        ],
        "cz": [
          -312.88916124216365,
          635.6675809549384,
          19.895636907522338,
          -6.340428912709807,
          -0.7240484861186857
        ]
      },
      {
        "t_start": 2439353.2184847337,
        "t_end": 2439353.2490402893,
        "cx": [
          1386.5460894685907,
          -1475.780519041162,
          -320.54526791530475,
          25.515042711138186,
          13.59177445582427,
          1.3624305166323185
        ],
        "cy": [
          739.0863903954952,
          1355.2820750020462,
          -223.12293216430422,
          -68.52996178076867,
          -2.068602345906782,
          2.204875777548906
        ],
        "cz": [
          649.3052108659754,
          165.3271827467836,
          -171.038619174459,
          -20.898692063603146,
          2.641589124920492,
          1.2312634361107502
        ]
      },
      {
        "t_start": 2439353.2490402893,
        "t_end": 2439353.279595845,
        "cx": [
          -1805.979288734776,
          -1107.8187577247454,
          335.8942081833129,
          -1.9376655516463999,
          -7.9172953210285115,
          1.7179339151599755
        ],
        "cy": [
          692.1045636122035,
          -1339.5969651114353,
          -167.68699349540142,
          56.94042623256018,
          -4.812343489819699,
          -0.7149780514266151
        ],
        "cz": [
          -184.14868213778877,
          -818.2164546546828,
          18.753243133130034,
          22.264887217217975,
          -3.951552664006749,
          0.1552864812831628
        ]
      },
      {
        "t_start": 2439353.279595845,
        "t_end": 2439353.3101514005,
        "cx": [
          -1944.0188712018169,
          785.1229238990622,
          126.57673888134562,
          -14.960714093878158
        ],
        "cy": [
          -2026.7708830960516,
          -1144.4400724623783,
          125.87898457323182,
          5.36607544866441
        ],
        "cz": [
          -1306.028986727339,
          -256.9838954607902,
          82.60568674945628,
          -1.6752173784730962
        ]
      },
      {
        "t_start": 2439353.3101514005,
        "t_end": 2439353.340706956,
        "cx": [
          175.18010214386211,
          1222.2375273123437,
          -8.798749511025692,
          -9.85363601527699
        ],
        "cy": [
          -3192.614252691505,
          1.3766536018178748,
          154.0586307554176,
          1.0546108945405654
        ],
        "cz": [
          -1231.157086062087,
          312.4109858086384,
          59.31058038420871,
          -2.0931793655452577
        ]
      },
      {
        "t_start": 2439353.340706956,
        "t_end": 2439353.3705680673,
        "cx": [
          2105.5970191405745,
          586.8590208811012,
          -156.87586096808508,
          -17.619636503905305,
          -1.0012018061810906
        ],
        "cy": [
          -1982.9826021668869,
          1196.0294286662927,
          138.86197940226472,
          -4.847865641228557,
          -1.1911743525004281
        ],
        "cz": [
          -255.27820101112093,
          627.6298541492696,
          15.458736355068092,
          -6.4320112884486305,
          -0.7313102343204496
        ]
      },
      {
        "t_start": 2439353.3705680673,
        "t_end": 2439353.401123623,
        "cx": [
          1289.5831953711045,
          -1554.8800414991651,
          -307.51885271326074,
          32.73746942303142,
          14.269472892163757,
          1.0232560892301517
        ],
        "cy": [
          818.1664929166462,
          1289.270045139204,
          -249.75397637432187,
          -68.66408967717308,
          -0.4502773779195381,
          2.5677495114379405
        ],
        "cz": [
          655.8063404166897,
          118.47097938428207,
          -178.25701494431704,
          -19.090023001189792,
          3.4612028579597167,
          1.2889702079561673
        ]
      },
      {
        "t_start": 2439353.401123623,
        "t_end": 2439353.4316791785,
        "cx": [
          -1878.4166721307065,
          -1019.9343923917269,
          335.3748170666249,
          -6.015353290711349,
          -6.815324146619666,
          1.6280053308045712
        ],
        "cy": [
          610.5148631968655,
          -1385.3542300411902,
          -145.35713328374098,
          54.505313951619186,
          -5.238861179818084,
          -0.4601098579315084
        ],
        "cz": [
          -235.26927028437967,
          -813.5349015841381,
          27.561569342753103,
          20.231868967122505,
          -3.8373266826732744,
          0.23411774463174775
        ]
      },
      {
        "t_start": 2439353.4316791785,
        "t_end": 2439353.4622347336,
        "cx": [
          -1890.4923216953237,
          820.29858294405,
          120.51227526645026,
          -14.55321608840052
        ],
        "cy": [
          -2103.250191050135,
          -1110.3298657936016,
          128.20747703811986,
          4.9371187723939425
        ],
        "cz": [
          -1322.0891819588228,
          -234.0953924549807,
          81.93662205215544,
          -1.7428760408441417
        ]
      },
      {
        "t_start": 2439353.4622347336,
        "t_end": 2439353.492095845,
        "cx": [
          233.0749885751128,
          1194.1810322226534,
          -11.125220558601034,
          -9.234923487554381
        ],
        "cy": [
          -3198.2834460155473,
          29.628921264924287,
          147.50017792257526,
          0.950686674642417
        ],
        "cz": [
          -1217.6466221724875,
          316.4248623689781,
          56.050051739444264,
          -1.976309356445554
        ]
      },
      {
        "t_start": 2439353.492095845,
        "t_end": 2439353.5226514004,
        "cx": [
          2124.2292178224493,
          565.9223827217796,
          -169.86049833503807,
          -19.266341156743582,
          -1.1045313944137227
        ],
        "cy": [
          -1918.6368938237003,
          1249.7106400805787,
          143.35955938240028,
          -5.780086827272802,
          -1.4125829581525737
        ],
        "cz": [
          -224.38995546387605,
          643.2852138857958,
          13.912103488142712,
          -7.220979423338992,
          -0.8455747247655119
        ]
      },
      {
        "t_start": 2439353.5226514004,
        "t_end": 2439353.553206956,
        "cx": [
          1188.5966638967814,
          -1629.8087465700885,
          -291.7468641174763,
          40.14349186133757,
          14.686835692840447,
          0.5962372873086769
        ],
        "cy": [
          892.6607600792785,
          1216.8693841679071,
          -276.0402845949017,
          -67.90551581534137,
          1.3717480211417667,
          2.887552350957834
        ],
        "cz": [
          659.4134788811281,
          70.18229183456107,
          -184.6215220250527,
          -16.878973366399457,
          4.294651318448733,
          1.3068052182298138
        ]
      },
      {
        "t_start": 2439353.553206956,
        "t_end": 2439353.5837625116,
        "cx": [
          -1945.705673019031,
          -931.8166246661068,
          333.24829606867024,
          -9.544840570968987,
          -5.772305431840096,
          1.512267855212389
        ],
        "cy": [
          525.4939048750539,
          -1425.3673105396585,
          -123.89796098169694,
          51.83964085322699,
          -5.506511372241746,
          -0.24191092701372532
        ],
        "cz": [
          -286.38085420828503,
          -806.4828889462618,
          35.597891266416326,
          18.24918980500481,
          -3.6747149355871276,
          0.2915179527014778
        ]
      },
      {
        "t_start": 2439353.5837625116,
        "t_end": 2439353.613623623,
        "cx": [
          -1858.1657827618217,
          825.864884377991,
          111.20447014558782,
          -13.333977271748237
        ],
        "cy": [
          -2158.971201428227,
          -1063.1064705545896,
          123.98954727007185,
          4.34280960665631
        ],
        "cz": [
          -1335.2258892660225,
          -213.55107895760352,
          77.82791268243622,
          -1.6692206388181912
        ]
      },
      {
        "t_start": 2439353.613623623,
        "t_end": 2439353.6441791784,
        "cx": [
          289.7247624439501,
          1218.4234263328378,
          -14.5482914151898,
          -9.957581127451029
        ],
        "cy": [
          -3188.7122090062626,
          59.60416614160326,
          154.7872820027642,
          0.9808435570105133
        ],
        "cz": [
          -1198.3707390936875,
          334.4469818450739,
          58.03735951024388,
          -2.1480605927636183
        ]
      },
      {
        "t_start": 2439353.6441791784,
        "t_end": 2439353.674734734,
        "cx": [
          2159.2647664747988,
          516.6156640176006,
          -178.06659153326643,
          -19.84815985330653,
          -1.1138724403969045
        ],
        "cy": [
          -1830.8701961541785,
          1288.459188526704,
          140.44630181476955,
          -6.65054650965829,
          -1.5746442880279632
        ],
        "cz": [
          -180.01598570744082,
          645.7152242364267,
          10.626665687139111,
          -7.712901005920136,
          -0.9120384885340969
        ]
      },
      {
        "t_start": 2439353.674734734,
        "t_end": 2439353.7052902896,
        "cx": [
          1083.891685325298,
          -1699.9587924417508,
          -273.2325171875584,
          47.587468501599716,
          14.795132214591414,
          0.090042890084868
        ],
        "cy": [
          962.2996238627265,
          1138.2937703473715,
          -301.63922627278447,
          -66.18262770820243,
          3.3586101773582255,
          3.1408968854438393
        ],
        "cz": [
          660.1030786204545,
          20.706263208357836,
          -189.99738229902056,
          -14.275011122315743,
          5.113847527199565,
          1.2776959142327857
        ]
      },
      {
        "t_start": 2439353.7052902896,
        "t_end": 2439353.7351514003,
        "cx": [
          -2001.989263179505,
          -852.1881915381008,
          317.0926488801736,
          -11.57959202499454,
          -4.6327948728074855
        ],
        "cy": [
          472.4631418176984,
          -1422.7366104774394,
          -104.27010747626012,
          46.71739289477687,
          -5.16195428166902
        ],
        "cz": [
          -321.866168677145,
          -784.5809042648232,
          39.3125141617617,
          15.670641327230372,
          -3.2434975103039885
        ]
      },
      {
        "t_start": 2439353.7351514003,
        "t_end": 2439353.765706956,
        "cx": [
          -1814.2157662632044,
          865.2192008830746,
          112.65876281221172,
          -14.048331210682175
        ],
        "cy": [
          -2202.122595190361,
          -1063.6998668809688,
          131.14078103049266,
          4.425215398850459
        ],
        "cz": [
          -1340.3518695413936,
          -203.4847879006449,
          80.99919469273647,
          -1.818782389487511
        ]
      },
      {
        "t_start": 2439353.765706956,
        "t_end": 2439353.7962625115,
        "cx": [
          373.62414541475954,
          1213.9955182829642,
          -18.819638768404968,
          -10.047702625889048
        ],
        "cy": [
          -3182.4613881009473,
          102.91310542014618,
          155.25790628005507,
          0.9293352228105197
        ],
        "cz": [
          -1173.4796310190661,
          350.4523058687052,
          57.086870812955006,
          -2.190992225845872
        ]
      },
      {
        "t_start": 2439353.7962625115,
        "t_end": 2439353.826818067,
        "cx": [
          2190.5892944239026,
          465.007468108212,
          -186.49539702454598,
          -20.42863694458492,
          -1.1128702384179108
        ],
        "cy": [
          -1740.6361496353766,
          1326.2305365206755,
          137.12883209992063,
          -7.616401496379052,
          -1.7528968890212218
        ],
        "cz": [
          -135.66170740462428,
          647.1493095073887,
          7.126303271626565,
          -8.24181678168506,
          -0.9822075217220223
        ]
      },
      {
        "t_start": 2439353.826818067,
        "t_end": 2439353.8566791783,
        "cx": [
          1022.573462553039,
          -1711.1120285655193,
          -249.92210017324874,
          49.07473028725285,
          13.536623901861125,
          -0.23190374298207764
        ],
        "cy": [
          1020.4481874340619,
          1065.4165336387032,
          -304.74404997453746,
          -60.78153308978018,
          4.2883609524323445,
          2.9401041718560714
        ],
        "cz": [
          667.2418619582359,
          -11.401658705174217,
          -185.17000119757634,
          -11.725152394740691,
          5.161793025396342,
          1.1145415396856848
        ]
      },
      {
        "t_start": 2439353.8566791783,
        "t_end": 2439353.887234734,
        "cx": [
          -2027.0881907534108,
          -814.6413149039893,
          328.2774043260609,
          -13.912305654724236,
          -4.50400309725574
        ],
        "cy": [
          407.33833050180976,
          -1470.4928658246304,
          -96.79536585258415,
          48.06854823680501,
          -5.649704201416896
        ],
        "cz": [
          -354.1764582072595,
          -793.4921038269948,
          45.1462928064378,
          15.599877687095153,
          -3.4028131097695997
        ]
      },
      {
        "t_start": 2439353.887234734,
        "t_end": 2439353.9177902895,
        "cx": [
          -1755.2611213340306,
          896.5305043636482,
          106.94221360026422,
          -13.682388259140316
        ],
        "cy": [
          -2273.202719669631,
          -1027.9762967521847,
          133.0762833629781,
          4.081037501531276
        ],
        "cz": [
          -1352.7540639413714,
          -181.0050635600324,
          80.26010624770993,
          -1.8627741565821008
        ]
      },
      {
        "t_start": 2439353.9177902895,
        "t_end": 2439353.948345845,
        "cx": [
          457.07386406086385,
          1208.3374385482825,
          -23.13085212973314,
          -10.152669696578254
        ],
        "cy": [
          -3173.1949343574292,
          146.35321871005632,
          155.70122820700146,
          0.8751509515094176
        ],
        "cz": [
          -1147.5120074189656,
          366.1696519213851,
          56.11539381088827,
          -2.2387338864599546
        ]
      },
      {
        "t_start": 2439353.948345845,
        "t_end": 2439353.9782069563,
        "cx": [
          2218.651437107492,
          421.84137549647517,
          -183.4717880177104,
          -19.422562308360117,
          -1.0119253329034026
        ],
        "cy": [
          -1684.141854321646,
          1321.5285391278046,
          128.8886958413363,
          -7.720965946641366,
          -1.709289128787952
        ],
        "cz": [
          -105.63383577544194,
          633.7999012252131,
          4.58632571214457,
          -8.022823257759457,
          -0.938448665822035
        ]
      },
      {
        "t_start": 2439353.9782069563,
        "t_end": 2439354.0087625114,
        "cx": [
          938.7385128642285,
          -1785.2929950947514,
          -244.0880181080989,
          57.27942153320419,
          14.365597389167217,
          -0.681552869812319
        ],
        "cy": [
          1048.4870840976216,
          1023.4297837825452,
          -334.132748049319,
          -62.225012110449796,
          6.173996113250008,
          3.3294190035558024
        ],
        "cz": [
          656.6236863005721,
          -47.21917410038195,
          -195.26469655376192,
          -10.193707969031614,
          6.1219000276475395,
          1.1540806242740327
        ]
      },
      {
        "t_start": 2439354.0087625114,
        "t_end": 2439354.039318067,
        "cx": [
          -2082.0231071320813,
          -727.5324507274942,
          323.17020422070897,
          -16.22387063045521,
          -3.6495301131219486
        ],
        "cy": [
          315.5561553281815,
          -1497.8148086729188,
          -77.69766917371524,
          45.10576985827913,
          -5.635336872525702
        ],
        "cz": [
          -404.6656927960081,
          -781.6199087661214,
          51.447631551471744,
          13.817990738469602,
          -3.1769077675736943
        ]
      },
      {
        "t_start": 2439354.039318067,
        "t_end": 2439354.0698736226,
        "cx": [
          -1694.165136007044,
          926.2533264798075,
          101.3655315852957,
          -13.334874130687577
        ],
        "cy": [
          -2341.8788268388216,
          -991.6562015656556,
          134.8679219934961,
          3.768238050061503
        ],
        "cz": [
          -1363.6318495910975,
          -158.71821159525422,
          79.50000621001766,
          -1.898883181044074
        ]
      },
      {
        "t_start": 2439354.0698736226,
        "t_end": 2439354.099734734,
        "cx": [
          514.5470376283108,
          1177.9142429268752,
          -24.879160813367875,
          -9.544159765814944
        ],
        "cy": [
          -3172.1130152619544,
          171.64461412491414,
          149.00781543319405,
          0.7797470051577854
        ],
        "cz": [
          -1131.4412864996746,
          368.3369161589485,
          52.95748434434452,
          -2.1211399140441354
        ]
      },
      {
        "t_start": 2439354.099734734,
        "t_end": 2439354.1302902894,
        "cx": [
          2227.4005720027317,
          391.6134248459693,
          -198.19189840886546,
          -21.177567795671255,
          -1.0875678720973425
        ],
        "cy": [
          -1614.8269253614194,
          1375.3701646713025,
          131.86736425321018,
          -9.095446678249031,
          -2.0193887823138152
        ],
        "cz": [
          -75.45467530311612,
          647.0585500856641,
          1.9955005559563508,
          -9.012549526173197,
          -1.0804531521216139
        ]
      },
      {
        "t_start": 2439354.1302902894,
        "t_end": 2439354.160845845,
        "cx": [
          826.5152815614109,
          -1842.041251258656,
          -219.49041885502396,
          64.16103679917919,
          13.61893703604096,
          -1.3002006082138566
        ],
        "cy": [
          1105.8333035097785,
          931.6331977238689,
          -356.7353560004324,
          -58.11572302437177,
          8.320031129772278,
          3.3445291289579004
        ],
        "cz": [
          650.4425983103791,
          -98.38635582572728,
          -197.86415595394868,
          -6.789329035575398,
          6.783266410047661,
          1.001079884616064
        ]
      },
      {
        "t_start": 2439354.160845845,
        "t_end": 2439354.1914014006,
        "cx": [
          -2131.5745212368442,
          -641.4566785583476,
          317.09361269531536,
          -18.09753359400601,
          -2.884914238348824
        ],
        "cy": [
          221.4339699012435,
          -1520.0596196679016,
          -59.692576788708784,
          42.150250147110455,
          -5.5367919052635015
        ],
        "cz": [
          -454.64239747782705,
          -767.9782622643007,
          57.058668049287824,
          12.149164412744677,
          -2.939439107035234
        ]
      },
      {
        "t_start": 2439354.1914014006,
        "t_end": 2439354.221956956,
        "cx": [
          -1631.0345297296992,
          954.4247912461148,
          95.9208161444385,
          -13.005726577519406
        ],
        "cy": [
          -2408.1340478078637,
          -954.7772232867582,
          136.52885715151046,
          3.4839158791840767
        ],
        "cz": [
          -1372.9748701002375,
          -136.62859501323922,
          78.72021891283593,
          -1.9281968626305794
        ]
      },
      {
        "t_start": 2439354.221956956,
        "t_end": 2439354.252512512,
        "cx": [
          622.2776487800073,
          1193.2772213409976,
          -31.89804051800651,
          -10.408258128879275
        ],
        "cy": [
          -3145.5896887665913,
          233.59073294125864,
          156.5004729191188,
          0.7555304134142179
        ],
        "cz": [
          -1092.4484223519771,
          396.7214453624853,
          54.10157510485655,
          -2.3502572581437464
        ]
      },
      {
        "t_start": 2439354.252512512,
        "t_end": 2439354.2830680674,
        "cx": [
          2260.6963265175623,
          295.85989052626024,
          -213.04785399928778,
          -22.085398453520636,
          -1.021031720933815
        ],
        "cy": [
          -1456.1747578320424,
          1432.342574453527,
          124.30686865721434,
          -11.18042733897796,
          -2.3955832187893935
        ],
        "cz": [
          -3.5451544887301556,
          644.8379751155038,
          -4.819929517318407,
          -10.067740897461618,
          -1.2122978683595185
        ]
      },
      {
        "t_start": 2439354.2830680674,
        "t_end": 2439354.3136236225,
        "cx": [
          634.416159522627,
          -1921.6571768056183,
          -173.73026124479213,
          74.3964691432878,
          11.541792630481115,
          -2.3257336757809295
        ],
        "cy": [
          1187.7250400953442,
          768.9342730757895,
          -390.10292662984347,
          -49.13863962431457,
          11.750817416350683,
          3.0920878777179857
        ],
        "cz": [
          633.6581683255191,
          -183.4985123181909,
          -199.34246261549555,
          -0.5982596260718221,
          7.615442263869371,
          0.63731551071827
        ]
      },
      {
        "t_start": 2439354.3136236225,
        "t_end": 2439354.3434847337,
        "cx": [
          -2202.9186277214053,
          -514.5918885580683,
          294.32769124987755,
          -18.83475186062971,
          -1.790995126186592
        ],
        "cy": [
          95.12176218210556,
          -1512.128090533214,
          -34.8557021370999,
          35.680801075811495,
          -4.85750466729817
        ],
        "cz": [
          -522.8966619676104,
          -731.9537384205635,
          61.12169874155123,
          9.377368683090115,
          -2.387738757276862
        ]
      },
      {
        "t_start": 2439354.3434847337,
        "t_end": 2439354.3740402893,
        "cx": [
          -1565.982575862394,
          981.0748530515017,
          90.60186659340586,
          -12.694883366105593
        ],
        "cy": [
          -2471.908224880319,
          -917.383037628965,
          138.06996293579027,
          3.225657931427704
        ],
        "cz": [
          -1380.8090816390754,
          -114.7465908485287,
          77.92466466197126,
          -1.9517236607518096
        ]
      },
      {
        "t_start": 2439354.3740402893,
        "t_end": 2439354.404595845,
        "cx": [
          703.8461825453583,
          1183.844388077944,
          -36.36608576126046,
          -10.559416366344532
        ],
        "cy": [
          -3127.256362411164,
          277.3644042627404,
          156.85218426969715,
          0.6882955148097263
        ],
        "cz": [
          -1063.3964461939456,
          411.53396408271686,
          53.05399495349681,
          -2.414847132197313
        ]
      },
      {
        "t_start": 2439354.404595845,
        "t_end": 2439354.4351514005,
        "cx": [
          2275.577643075443,
          234.5622002168628,
          -222.2740463851777,
          -22.575050477253495,
          -0.9495226414447874
        ],
        "cy": [
          -1357.1896389857188,
          1464.7956845723338,
          118.90909528921814,
          -12.623959323023085,
          -2.648569472427771
        ],
        "cz": [
          39.87093382408756,
          641.6228739443967,
          -9.336729622251662,
          -10.760208144899165,
          -1.2936987374187154
        ]
      },
      {
        "t_start": 2439354.4351514005,
        "t_end": 2439354.4650125117,
        "cx": [
          561.5733509861614,
          -1913.5321695890336,
          -148.30418452500138,
          73.230783008956,
          9.645014179119,
          -2.4341967506648405
        ],
        "cy": [
          1234.0464524445306,
          689.0454195469479,
          -385.74898460134546,
          -42.32333025575051,
          11.951623943845657,
          2.617175555978192
        ],
        "cz": [
          633.0718985351008,
          -213.26581934510767,
          -190.99507236994782,
          1.8238418556799088,
          7.207801716318544,
          0.419825812165771
        ]
      },
      {
        "t_start": 2439354.4650125117,
        "t_end": 2439354.4955680673,
        "cx": [
          -2214.4779105283437,
          -473.55309691712154,
          302.69955120826137,
          -20.71172567081992,
          -1.6217380411092905
        ],
        "cy": [
          27.52490635367249,
          -1550.3042711543153,
          -26.99959375483614,
          36.41907877346249,
          -5.158420679836163
        ],
        "cz": [
          -552.5264254913147,
          -736.115553136423,
          66.35932682665785,
          9.182282953201549,
          -2.4623482910129115
        ]
      },
      {
        "t_start": 2439354.4955680673,
        "t_end": 2439354.526123623,
        "cx": [
          -1499.1145726226468,
          1006.2351383421453,
          85.40165169941677,
          -12.402170821563686
        ],
        "cy": [
          -2533.1630800600174,
          -879.5094860671586,
          139.50163609594375,
          2.991148050027995
        ],
        "cz": [
          -1387.1496605453274,
          -93.07830576862669,
          77.1157998573998,
          -1.9703612683680243
        ]
      },
      {
        "t_start": 2439354.526123623,
        "t_end": 2439354.5566791785,
        "cx": [
          784.6010607302628,
          1173.1205060148354,
          -40.89880719232302,
          -10.72659126160924
        ],
        "cy": [
          -3105.8993097408566,
          321.2229644226122,
          157.1687925371292,
          0.61484386039588
        ],
        "cz": [
          -1033.3693130790573,
          426.0271836721781,
          51.97615841533903,
          -2.4859466049877983
        ]
      },
      {
        "t_start": 2439354.5566791785,
        "t_end": 2439354.586540289,
        "cx": [
          2293.709900333209,
          190.43867636303133,
          -218.15494266610227,
          -21.36838282519014,
          -0.8186113129697878
        ],
        "cy": [
          -1294.154733297525,
          1453.8021851205453,
          110.20463368075515,
          -12.692621600056972,
          -2.571993871184148
        ],
        "cz": [
          69.78529504796039,
          625.5188684424177,
          -11.766272263388656,
          -10.474416907747045,
          -1.2290287013929535
        ]
      },
      {
        "t_start": 2439354.586540289,
        "t_end": 2439354.617095845,
        "cx": [
          475.63543993514526,
          -1971.0856491470122,
          -132.71851101147976,
          80.96073751884218,
          9.11868173016513,
          -3.048777319369965
        ],
        "cy": [
          1243.6337208219397,
          628.5349669875004,
          -412.10365677315036,
          -40.00945752084881,
          14.138680646241243,
          2.614816669327653
        ],
        "cz": [
          614.5540125904548,
          -252.00617607573835,
          -197.34679216960825,
          4.71843635398505,
          7.9375972760869224,
          0.26151105112714074
        ]
      },
      {
        "t_start": 2439354.617095845,
        "t_end": 2439354.6476514004,
        "cx": [
          -2247.8824536551165,
          -392.173045051844,
          294.6741775659559,
          -21.54079358017597,
          -1.115008492460357
        ],
        "cy": [
          -71.62789160585298,
          -1558.8351512240833,
          -12.286348319302647,
          33.704305632971895,
          -4.910534904419041
        ],
        "cz": [
          -600.1961377126601,
          -718.2283388989332,
          70.13766738398877,
          7.883605746836194,
          -2.232784086563155
        ]
      },
      {
        "t_start": 2439354.6476514004,
        "t_end": 2439354.678206956,
        "cx": [
          -1430.533759234968,
          1029.9355000305768,
          80.31320805111655,
          -12.127359787582737
        ],
        "cy": [
          -2591.8629151482683,
          -841.1896510631504,
          140.83334731087697,
          2.7782796352618853
        ],
        "cz": [
          -1392.0121376086115,
          -71.62921901691482,
          76.29570832983073,
          -1.9849061637148175
        ]
      },
      {
        "t_start": 2439354.678206956,
        "t_end": 2439354.708068067,
        "cx": [
          840.7660407623694,
          1140.1850865123329,
          -41.984036793541534,
          -10.118257277344709
        ],
        "cy": [
          -3096.7523558539474,
          342.8283228076736,
          150.32390734976423,
          0.5248575283183954
        ],
        "cz": [
          -1014.4599935411679,
          426.02053434695256,
          48.93541345391708,
          -2.366274197623786
        ]
      },
      {
        "t_start": 2439354.708068067,
        "t_end": 2439354.738623623,
        "cx": [
          2289.034029470302,
          147.94364266087226,
          -234.910058392216,
          -23.126144456400105,
          -0.8060154141444525
        ],
        "cy": [
          -1220.5195464169037,
          1505.6937769223136,
          110.51998117609027,
          -14.805945076650355,
          -3.018830940251974
        ],
        "cz": [
          98.06675746002308,
          634.7824650456945,
          -15.924162121450113,
          -11.753670981443262,
          -1.4020841854307728
        ]
      },
      {
        "t_start": 2439354.738623623,
        "t_end": 2439354.7691791784,
        "cx": [
          355.1226565300758,
          -1999.1056130477443,
          -100.42699985414777,
          84.76461213950695,
          6.970157418602051,
          -3.487854085997646
        ],
        "cy": [
          1277.6579011084032,
          520.1050658302718,
          -425.4365977875334,
          -32.34566622202128,
          15.614239801937734,
          2.1240899376694036
        ],
        "cz": [
          596.9411968113367,
          -302.1967830457149,
          -194.26961684515544,
          8.734300136010793,
          7.970894177659753,
          -0.04623147637877897
        ]
      },
      {
        "t_start": 2439354.7691791784,
        "t_end": 2439354.799734734,
        "cx": [
          -2275.992702771303,
          -312.74230876906313,
          286.26575064133084,
          -22.107271726776638,
          -0.6835363993979228
        ],
        "cy": [
          -171.84183159451936,
          -1563.3299262157257,
          1.3772580014701292,
          31.11683455738475,
          -4.640528853459147
        ],
        "cz": [
          -646.8759049415502,
          -699.2440114402932,
          73.39489349251735,
          6.70416301470303,
          -2.0139298991296264
        ]
      },
      {
        "t_start": 2439354.799734734,
        "t_end": 2439354.829595845,
        "cx": [
          -1386.858209091857,
          1023.0090617558998,
          73.43190507090688,
          -11.150674521829178
        ],
        "cy": [
          -2636.113055217491,
          -797.1092663470516,
          135.39192704672473,
          2.4609864008276086
        ],
        "cz": [
          -1397.4558117270935,
          -55.711454187389535,
          72.33552196500466,
          -1.8621797085938028
        ]
      },
      {
        "t_start": 2439354.829595845,
        "t_end": 2439354.8601514003,
        "cx": [
          892.4364658161038,
          1156.7268325321822,
          -47.15531070408528,
          -10.98059756827684
        ],
        "cy": [
          -3072.1265668526507,
          380.544425569915,
          157.56394084777776,
          0.4982957966228031
        ],
        "cz": [
          -990.5684415061914,
          444.9752748538407,
          50.44110166837087,
          -2.5956195580544317
        ]
      },
      {
        "t_start": 2439354.8601514003,
        "t_end": 2439354.890706956,
        "cx": [
          2293.0455638435924,
          80.75568931329391,
          -244.43055427110673,
          -23.461613565285912,
          -0.6622438238626452
        ],
        "cy": [
          -1117.5220544526555,
          1533.698302939742,
          103.49136208067226,
          -16.604323503129667,
          -3.3182119505684438
        ],
        "cz": [
          140.15363704387258,
          628.271415844249,
          -21.150974600208063,
          -12.544855634568721,
          -1.4830604068060662
        ]
      },
      {
        "t_start": 2439354.890706956,
        "t_end": 2439354.9212625115,
        "cx": [
          233.43668490671013,
          -2019.1629064675074,
          -67.0332322536834,
          87.46691542166242,
          4.594549909268852,
          -3.8071011872578984
        ],
        "cy": [
          1305.5322372260093,
          409.00686331513896,
          -435.8178008908056,
          -24.091000171814027,
          16.74529183984167,
          1.5366784124457251
        ],
        "cz": [
          576.5887525604871,
          -351.34997284236397,
          -189.73794392344266,
          12.69883824480273,
          7.808986189715114,
          -0.3614090812336133
        ]
      },
      {
        "t_start": 2439354.9212625115,
        "t_end": 2439354.9511236227,
        "cx": [
          -2304.3465901235777,
          -251.90745316943026,
          267.99673673914583,
          -20.964235431883164,
          -0.37095455557315693
        ],
        "cy": [
          -239.3949624332303,
          -1532.7676177730254,
          10.269189182603887,
          27.42540203429502,
          -4.062838029627039
        ],
        "cz": [
          -680.6199889702741,
          -671.1150470334109,
          72.24737275959367,
          5.524471970832762,
          -1.703835442926577
        ]
      },
      {
        "t_start": 2439354.9511236227,
        "t_end": 2439354.9816791783,
        "cx": [
          -1335.5057448040013,
          1059.7700774526695,
          73.65564771577843,
          -11.793759500003619
        ],
        "cy": [
          -2666.5280079509985,
          -789.1728719625748,
          142.54155555264288,
          2.5237002739032453
        ],
        "cz": [
          -1395.4489404944848,
          -43.02197790523601,
          75.17268918201687,
          -2.0010164509962176
        ]
      },
      {
        "t_start": 2439354.9816791783,
        "t_end": 2439355.012234734,
        "cx": [
          970.8651337638896,
          1142.8833366691974,
          -51.86337734134771,
          -11.186445161549209
        ],
        "cy": [
          -3043.697121330495,
          424.5418717961058,
          157.78278242064246,
          0.4061528791900618
        ],
        "cz": [
          -958.3857627766675,
          458.66780991161664,
          49.280301520129626,
          -2.6838741322144437
        ]
      },
      {
        "t_start": 2439355.012234734,
        "t_end": 2439355.0427902895,
        "cx": [
          2292.193722717511,
          11.040336677814754,
          -254.01355857598125,
          -23.698287499606003,
          -0.4781250454994041
        ],
        "cy": [
          -1013.1012181252397,
          1559.4628404527066,
          95.65835275984112,
          -18.571922340430834,
          -3.6344633952197016
        ],
        "cz": [
          181.50465028253376,
          620.2143090884252,
          -26.712108643103598,
          -13.37559766242002,
          -1.5585360631040557
        ]
      },
      {
        "t_start": 2439355.0427902895,
        "t_end": 2439355.0726514007,
        "cx": [
          153.18560688375962,
          -1992.8328205902585,
          -42.66686888810273,
          83.45308337562281,
          2.7045449005201734,
          -3.567510678945057
        ],
        "cy": [
          1339.554969004775,
          327.8422782855767,
          -423.9260831275654,
          -17.29424663757263,
          15.944267990402777,
          1.0017850041945455
        ],
        "cz": [
          569.1872504005233,
          -376.7878347943486,
          -178.67695084522305,
          14.372446820009188,
          7.004836014322138,
          -0.5129431895540979
        ]
      },
      {
        "t_start": 2439355.0726514007,
        "t_end": 2439355.1032069563,
        "cx": [
          -2305.300761093323,
          -209.51928552089097,
          274.62920733803867,
          -22.514970889855153,
          -0.2147812893650416
        ],
        "cy": [
          -307.1238922875135,
          -1563.7468659655704,
          18.101860196688172,
          27.88276153371968,
          -4.261124038660851
        ],
        "cz": [
          -707.4139155586073,
          -672.0426916670212,
          77.01038367060892,
          5.303109640173567,
          -1.7411627549889988
        ]
      },
      {
        "t_start": 2439355.1032069563,
        "t_end": 2439355.1337625114,
        "cx": [
          -1263.3158890551315,
          1080.1478453771124,
          68.79842674624959,
          -11.559134841768868
        ],
        "cy": [
          -2719.1556089751334,
          -749.8964567525043,
          143.6695704374351,
          2.353868350822584
        ],
        "cz": [
          -1396.8915840419463,
          -22.09916922841003,
          74.32926616579203,
          -2.008612048698495
        ]
      },
      {
        "t_start": 2439355.1337625114,
        "t_end": 2439355.164318067,
        "cx": [
          1048.1762126759652,
          1127.6774639983114,
          -56.659049533400555,
          -11.409646429165196
        ],
        "cy": [
          -3012.254220896971,
          468.58552450113996,
          157.95550041126947,
          0.30391411111824823
        ],
        "cz": [
          -925.2917006430945,
          472.0003222150712,
          48.07775012055783,
          -2.7804574102394293
        ]
      },
      {
        "t_start": 2439355.164318067,
        "t_end": 2439355.1948736226,
        "cx": [
          2286.3411681763705,
          -61.18671582702386,
          -263.6025489782634,
          -23.811648875158184,
          -0.2476738589507907
        ],
        "cy": [
          -907.4667470484441,
          1582.7249591606812,
          86.9556467125982,
          -20.71377557159993,
          -3.9704600963763124
        ],
        "cz": [
          222.01130492522412,
          610.516936788218,
          -32.60330649207133,
          -14.244639920358104,
          -1.6333015223915979
        ]
      },
      {
        "t_start": 2439355.1948736226,
        "t_end": 2439355.225429178,
        "cx": [
          -12.02347282713852,
          -2034.780674018592,
          1.4808120205636597,
          89.29207759586446,
          -0.5114020103011259,
          -4.015957543093122
        ],
        "cy": [
          1342.5113162621944,
          181.46708396597282,
          -447.13991035934066,
          -6.499379859321468,
          17.79917526796601,
          0.18767216459311828
        ],
        "cz": [
          527.9100691447466,
          -445.3281150539562,
          -176.48853900810664,
          20.129154808540793,
          6.914700781799007,
          -0.9498454951291013
        ]
      },
      {
        "t_start": 2439355.225429178,
        "t_end": 2439355.255984734,
        "cx": [
          -2329.398092358538,
          -87.30690931422471,
          259.7443907815759,
          -22.598809802981528,
          0.22985278024122058
        ],
        "cy": [
          -476.07756648573485,
          -1555.2237000001821,
          36.51523331733754,
          24.212434520398535,
          -3.787452898961134
        ],
        "cz": [
          -780.0860467121943,
          -637.0583452255513,
          80.4803827500832,
          3.8227532490504093,
          -1.4390216593072842
        ]
      },
      {
        "t_start": 2439355.255984734,
        "t_end": 2439355.2865402894,
        "cx": [
          -1141.063748757408,
          1110.680412175233,
          60.93986451351384,
          -11.201403987539798
        ],
        "cy": [
          -2800.502096595301,
          -684.0131924863458,
          145.32320822861735,
          2.1065618707595117
        ],
        "cz": [
          -1396.9742830014611,
          11.892469391269405,
          72.9323107003427,
          -2.01550076137372
        ]
      },
      {
        "t_start": 2439355.2865402894,
        "t_end": 2439355.3164014006,
        "cx": [
          1151.5201145074032,
          1081.7534174316877,
          -60.244859487847265,
          -10.940874528135613
        ],
        "cy": [
          -2973.0664081767363,
          514.9747847294216,
          151.02017054738417,
          0.14931438562573013
        ],
        "cz": [
          -882.575793906039,
          478.43825688664407,
          44.37510676596051,
          -2.7218191068165276
        ]
      },
      {
        "t_start": 2439355.3164014006,
        "t_end": 2439355.346956956,
        "cx": [
          2275.352114641423,
          -135.87702595895627,
          -273.13288657373363,
          -23.773421534127582,
          0.03644876815881393
        ],
        "cy": [
          -800.8530142179101,
          1603.242500662361,
          77.31222150862371,
          -23.039119030219315,
          -4.317904586794307
        ],
        "cz": [
          261.5327097344109,
          599.1116045121009,
          -38.85024839272725,
          -15.145444836232754,
          -1.6970542670522062
        ]
      },
      {
        "t_start": 2439355.346956956,
        "t_end": 2439355.377512512,
        "cx": [
          -135.04949009202608,
          -2030.2231930670628,
          35.771791390316714,
          88.3676213212346,
          -3.0620343994331907,
          -3.893498465225063
        ],
        "cy": [
          1351.4927954739617,
          66.43591053108945,
          -447.92623257190036,
          2.4593158032276716,
          17.68111892335126,
          -0.5055932056830332
        ],
        "cz": [
          499.7502484592289,
          -489.5689501042878,
          -167.9313057553545,
          23.43314426121757,
          6.212876500867435,
          -1.1928489330870249
        ]
      },
      {
        "t_start": 2439355.377512512,
        "t_end": 2439355.4080680674,
        "cx": [
          -2337.237228565153,
          -16.70502438902313,
          250.73794179365768,
          -22.465062253699063,
          0.4307739130323556
        ],
        "cy": [
          -577.8158671722697,
          -1546.1531707593645,
          46.44621510868664,
          22.206727168622752,
          -3.5094843068319923
        ],
        "cz": [
          -821.9667772857932,
          -614.9989731886373,
          82.08526543927279,
          3.0578796066561007,
          -1.2767971992317348
        ]
      },
      {
        "t_start": 2439355.4080680674,
        "t_end": 2439355.437929178,
        "cx": [
          -1092.8324160606414,
          1098.1705867042854,
          55.17088350361422,
          -10.328422360040802
        ],
        "cy": [
          -2837.870936517724,
          -642.4452011891613,
          139.46609043079678,
          1.8762976216767477
        ],
        "cz": [
          -1398.4603979679648,
          25.300371350663127,
          69.10059823676363,
          -1.8845996736710284
        ]
      },
      {
        "t_start": 2439355.437929178,
        "t_end": 2439355.4684847337,
        "cx": [
          1199.0130289083495,
          1093.0796931105488,
          -66.53751249413507,
          -11.90938934661217
        ],
        "cy": [
          -2940.3509043618797,
          556.6845592920257,
          158.1395198074672,
          0.06372057812917484
        ],
        "cz": [
          -856.6407469419211,
          497.55292046529615,
          45.53962988530342,
          -3.0012012967291577
        ]
      },
      {
        "t_start": 2439355.4684847337,
        "t_end": 2439355.4990402893,
        "cx": [
          2259.1052656324478,
          -212.96701579681508,
          -282.5258776688737,
          -23.551927151962612,
          0.38133289474714305
        ],
        "cy": [
          -693.5012884145032,
          1620.7401574722148,
          66.65948518408716,
          -25.55081479497154,
          -4.673703527488805
        ],
        "cz": [
          299.94801048846955,
          585.8987892189937,
          -45.45432153270941,
          -16.07181019761353,
          -1.7484688128459855
        ]
      },
      {
        "t_start": 2439355.4990402893,
        "t_end": 2439355.529595845,
        "cx": [
          -257.7783638401347,
          -2017.4742591220338,
          69.53365896566602,
          86.2498422537328,
          -5.491600373853327,
          -3.628199310832089
        ],
        "cy": [
          1354.0930462774,
          -48.49226476650183,
          -445.4613992644811,
          11.26958371293297,
          17.13980982734593,
          -1.1644784368623853
        ],
        "cz": [
          469.15462956697354,
          -531.6183251867078,
          -158.2278611985101,
          26.369521976898472,
          5.3748461533156675,
          -1.3852911913587362
        ]
      },
      {
        "t_start": 2439355.529595845,
        "t_end": 2439355.559456956,
        "cx": [
          -2350.762667820504,
          31.57648955758265,
          233.6544989981686,
          -20.87050771334517,
          0.5083948677756108
        ],
        "cy": [
          -647.9466133662471,
          -1506.4843532752254,
          50.865714941462485,
          19.47853419918334,
          -3.0312488109549562
        ],
        "cz": [
          -852.758154317012,
          -586.5504866404123,
          79.45798416258415,
          2.380558054926697,
          -1.067146084490537
        ]
      },
      {
        "t_start": 2439355.559456956,
        "t_end": 2439355.5900125117,
        "cx": [
          -1038.838561937687,
          1133.1210932053732,
          54.73711991554238,
          -10.95564085142026
        ],
        "cy": [
          -2860.951409910357,
          -630.0534727145553,
          146.63052333944762,
          1.9332946902835542
        ],
        "cz": [
          -1392.83040948243,
          39.228643853101644,
          71.76761804778714,
          -2.0216145908888117
        ]
      },
      {
        "t_start": 2439355.5900125117,
        "t_end": 2439355.6205680673,
        "cx": [
          1272.3372951105393,
          1073.6354869539841,
          -71.63465458015311,
          -12.186806957877828
        ],
        "cy": [
          -2899.911363009596,
          600.7049833502376,
          158.14049590518414,
          -0.07737810885511054
        ],
        "cz": [
          -821.1204165071578,
          509.7381229782693,
          44.19498837236651,
          -3.1267681272845027
        ]
      },
      {
        "t_start": 2439355.6205680673,
        "t_end": 2439355.651123623,
        "cx": [
          2237.4921030260484,
          -292.3649773269252,
          -291.6893439090976,
          -23.111721707640307,
          0.7943351469338529
        ],
        "cy": [
          -585.6730200584446,
          1634.9312067339288,
          54.92956000927916,
          -28.249163059709844,
          -5.031372359459729
        ],
        "cz": [
          337.12622364996537,
          570.791677322574,
          -52.41798507198054,
          -17.0146973160419,
          -1.7831141455765374
        ]
      },
      {
        "t_start": 2439355.651123623,
        "t_end": 2439355.6809847336,
        "cx": [
          -343.3217828922051,
          -1969.236599587931,
          88.62203176769253,
          79.23001110884415,
          -6.504948099875086,
          -3.0508584856608496
        ],
        "cy": [
          1371.0611436820466,
          -124.38358195240703,
          -424.7789098066338,
          16.156314828939756,
          15.257162490049732,
          -1.4307447199587475
        ],
        "cz": [
          453.6816763061197,
          -549.1870933167844,
          -145.07051266995646,
          26.50666193429315,
          4.368146629289647,
          -1.342953594257135
        ]
      },
      {
        "t_start": 2439355.6809847336,
        "t_end": 2439355.711540289,
        "cx": [
          -2340.11814851934,
          74.3646692801874,
          238.73734203861576,
          -22.12431671556382,
          0.6353545985372356
        ],
        "cy": [
          -713.7787967009322,
          -1529.8582331066534,
          58.52376168358948,
          19.753124317479788,
          -3.1534583972350276
        ],
        "cz": [
          -875.674514339804,
          -584.3917568759879,
          83.73993128846128,
          2.1648750135323964,
          -1.082118583837437
        ]
      },
      {
        "t_start": 2439355.711540289,
        "t_end": 2439355.742095845,
        "cx": [
          -961.698665029415,
          1148.1292346253717,
          50.199248240134914,
          -10.786919620320655
        ],
        "cy": [
          -2902.779902832531,
          -589.5101159598795,
          147.49640457331563,
          1.818224308461529
        ],
        "cz": [
          -1388.710170446795,
          59.183593701993196,
          70.90423621148757,
          -2.024228008562595
        ]
      },
      {
        "t_start": 2439355.742095845,
        "t_end": 2439355.7726514004,
        "cx": [
          1344.1275237783407,
          1052.722802281843,
          -76.84667300107441,
          -12.483127113677437
        ],
        "cy": [
          -2856.495041560899,
          644.6751674371197,
          158.0722704319312,
          -0.23479504315990027
        ],
        "cz": [
          -784.8481903041275,
          521.5076493470627,
          42.79424822789278,
          -3.2634960874406493
        ]
      },
      {
        "t_start": 2439355.7726514004,
        "t_end": 2439355.8025125116,
        "cx": [
          2233.305650941484,
          -336.304279086976,
          -284.500861434324,
          -21.29150878906423,
          0.9839957435887182
        ],
        "cy": [
          -514.4940504201026,
          1609.2187860825543,
          45.194169766201874,
          -28.057588073593557,
          -4.807476561744686
        ],
        "cz": [
          364.22039849806015,
          548.9576446677853,
          -54.435227112452985,
          -16.466373968255738,
          -1.6450538230770901
        ]
      },
      {
        "t_start": 2439355.8025125116,
        "t_end": 2439355.833068067,
        "cx": [
          -421.26636197173644,
          -1987.6266676018242,
          113.27188878264283,
          81.63266408966778,
          -8.409753884242829,
          -3.0779476873691323
        ],
        "cy": [
          1347.9730594878408,
          -201.46775321872022,
          -437.13029791067424,
          22.518432312580934,
          15.79529110272995,
          -1.9361077989895923
        ],
        "cz": [
          424.34678262740306,
          -584.103089469347,
          -143.5368294674005,
          29.615902101990294,
          4.091174967016951,
          -1.5484570585126853
        ]
      },
      {
        "t_start": 2439355.833068067,
        "t_end": 2439355.863623623,
        "cx": [
          -2336.9807303860234,
          139.46880260853607,
          229.84360027895502,
          -21.778364121112645,
          0.7499596070599439
        ],
        "cy": [
          -814.6811302749092,
          -1514.5712198332717,
          66.67106176415889,
          18.077622516707766,
          -2.9022190314298095
        ],
        "cz": [
          -914.2831726517026,
          -561.3206026929959,
          84.65904219659136,
          1.5872580795918934,
          -0.9529476418246299
        ]
      },
      {
        "t_start": 2439355.863623623,
        "t_end": 2439355.8941791784,
        "cx": [
          -883.5592555619172,
          1161.8435689688056,
          45.725708861720626,
          -10.633932109994246
        ],
        "cy": [
          -2941.8521669083634,
          -548.7030144766663,
          148.30991285599345,
          1.7137120097571394
        ],
        "cz": [
          -1383.2365296200337,
          78.88908277846883,
          70.03676825937225,
          -2.0266579418603707
        ]
      },
      {
        "t_start": 2439355.8941791784,
        "t_end": 2439355.9240402896,
        "cx": [
          1395.3146158892216,
          1015.9271251411266,
          -76.7323630542352,
          -11.837283220570791
        ],
        "cy": [
          -2832.644620600085,
          659.0121744551959,
          150.93562275860356,
          -0.3200065331318945
        ],
        "cz": [
          -761.5479646785499,
          517.549611861048,
          39.962527733943574,
          -3.1324408155859405
        ]
      },
      {
        "t_start": 2439355.9240402896,
        "t_end": 2439355.954595845,
        "cx": [
          2200.0854006303116,
          -402.5812412019909,
          -303.41441905211184,
          -22.090703953293175,
          1.4701085891438757
        ],
        "cy": [
          -440.0784624185612,
          1648.260254921783,
          37.29931266930965,
          -32.16086230584284,
          -5.496499356667087
        ],
        "cz": [
          385.1780990516068,
          546.9786588376741,
          -62.350296023849936,
          -18.274993202323586,
          -1.791415263662197
        ]
      },
      {
        "t_start": 2439355.954595845,
        "t_end": 2439355.9851514003,
        "cx": [
          -541.8584256023311,
          -1956.373070738265,
          144.27684307427162,
          77.05276056376665,
          -10.259136222959958,
          -2.561274825220247
        ],
        "cy": [
          1335.5847132434549,
          -313.41658877313944,
          -427.4486789239607,
          30.28260155135431,
          14.411759224880951,
          -2.399148319150296
        ],
        "cz": [
          388.42170964072517,
          -620.1008715048646,
          -131.70576170877496,
          31.500274302756026,
          3.070374496339063,
          -1.5983506754948453
        ]
      },
      {
        "t_start": 2439355.9851514003,
        "t_end": 2439356.015706956,
        "cx": [
          -2329.3792636888797,
          202.21189043956284,
          221.0640306898744,
          -21.37239083003521,
          0.8362938115067775
        ],
        "cy": [
          -914.8630538318232,
          -1496.9753341519613,
          74.14244491606593,
          16.533901575069812,
          -2.6650667523749836
        ],
        "cz": [
          -951.4175445732399,
          -537.9577950388706,
          85.33746960563147,
          1.077787865843127,
          -0.8366978135687634
        ]
      },
      {
        "t_start": 2439356.015706956,
        "t_end": 2439356.045568067,
        "cx": [
          -832.3822905775339,
          1145.2008660786805,
          40.794572395442806,
          -9.831725730698075
        ],
        "cy": [
          -2973.2325592178995,
          -509.52669154756484,
          142.17699316766675,
          1.5372252184908184
        ],
        "cz": [
          -1381.5987804554234,
          90.197606099809,
          66.3323366638623,
          -1.8973371791811722
        ]
      },
      {
        "t_start": 2439356.045568067,
        "t_end": 2439356.0761236227,
        "cx": [
          1438.3578163045722,
          1022.2467600115351,
          -84.07351273322284,
          -12.912286205860994
        ],
        "cy": [
          -2793.335427108269,
          703.81893284477,
          157.86632799049343,
          -0.48000312383165306
        ],
        "cz": [
          -734.2859943860103,
          536.5375125443279,
          40.78048325068768,
          -3.467856988804113
        ]
      },
      {
        "t_start": 2439356.0761236227,
        "t_end": 2439356.1066791783,
        "cx": [
          2165.542439948088,
          -486.80905725642486,
          -311.5891384007078,
          -20.981796082027607,
          2.0688593812614093
        ],
        "cy": [
          -332.3264428562536,
          1653.5003446587655,
          22.813414688308097,
          -35.267457780072675,
          -5.820626502105728
        ],
        "cz": [
          418.8770202788068,
          527.1413494030513,
          -70.12686718122148,
          -19.20478971077738,
          -1.7652391970038728
        ]
      },
      {
        "t_start": 2439356.1066791783,
        "t_end": 2439356.137234734,
        "cx": [
          -660.9147112260036,
          -1917.664071003395,
          173.5334966488409,
          71.6268328572094,
          -11.769292836066452,
          -1.9856179091355637
        ],
        "cy": [
          1316.8680703211105,
          -422.9768148338178,
          -414.97189237639293,
          37.34855902947481,
          12.76566600081631,
          -2.745648219269877
        ],
        "cz": [
          350.43050720847395,
          -653.2084862726268,
          -119.23287322438382,
          32.890805549405236,
          2.0337101908511896,
          -1.587018201573692
        ]
      },
      {
        "t_start": 2439356.137234734,
        "t_end": 2439356.1677902895,
        "cx": [
          -2317.441001611996,
          262.624117880959,
          212.42681860480332,
          -20.92137575933567,
          0.8987758620274928
        ],
        "cy": [
          -1014.1380075301128,
          -1477.2499439119943,
          80.9895917173222,
          15.114944106600719,
          -2.4426532906599383
        ],
        "cz": [
          -987.0539438633011,
          -514.3863289284837,
          85.80457913212528,
          0.6299278735850488,
          -0.7325102251237153
        ]
      },
      {
        "t_start": 2439356.1677902895,
        "t_end": 2439356.198345845,
        "cx": [
          -724.6072336780836,
          1185.4677274631558,
          36.946227670936146,
          -10.37430081818374
        ],
        "cy": [
          -3011.621282725683,
          -466.35315863246296,
          149.79812890842288,
          1.532211727251146
        ],
        "cz": [
          -1368.3201818364425,
          117.54482706267063,
          68.29239338943017,
          -2.0323985865834286
        ]
      },
      {
        "t_start": 2439356.198345845,
        "t_end": 2439356.2289014007,
        "cx": [
          1549.2723322180668,
          980.8419438850984,
          -93.2524499010664,
          -13.489761954574453
        ],
        "cy": [
          -2708.46045527029,
          776.0481866311774,
          157.3762969655901,
          -0.8257517872414092
        ],
        "cz": [
          -671.8681942901134,
          554.1584282711823,
          38.207656298289,
          -3.7497745459311993
        ]
      },
      {
        "t_start": 2439356.2289014007,
        "t_end": 2439356.2594569563,
        "cx": [
          2095.75281985106,
          -630.1320738674481,
          -323.6781055061257,
          -18.340940343360067,
          3.257694339871655
        ],
        "cy": [
          -155.3250885208574,
          1652.4964826792032,
          -3.959705302044195,
          -40.733649782941534,
          -6.272513997332577
        ],
        "cz": [
          470.80264729141095,
          489.83036495513966,
          -83.7192422845693,
          -20.671033526653467,
          -1.6391222208724119
        ]
      },
      {
        "t_start": 2439356.2594569563,
        "t_end": 2439356.289318067,
        "cx": [
          -824.6998499868865,
          -1821.2473970908409,
          201.94138315039754,
          59.403152188214165,
          -12.216972333113251,
          -1.048132331770589
        ],
        "cy": [
          1299.0528210003415,
          -556.5111388563123,
          -378.47586900206846,
          43.03281465474127,
          9.423265590126467,
          -2.731849709932949
        ],
        "cz": [
          301.4465393255024,
          -681.0270045276649,
          -97.53610135544045,
          32.00721388502126,
          0.6005686473634426,
          -1.3411783363820093
        ]
      },
      {
        "t_start": 2439356.289318067,
        "t_end": 2439356.3198736226,
        "cx": [
          -2301.3271932448224,
          320.7641069544482,
          203.9418112801846,
          -20.436940460216825,
          0.9413682993277324
        ],
        "cy": [
          -1112.4510967180158,
          -1455.5550367024673,
          87.2661968163197,
          13.81144574033559,
          -2.234954105762028
        ],
        "cz": [
          -1021.1836289343082,
          -490.6180780030861,
          86.08201947487082,
          0.2365864232728465,
          -0.639283886660984
        ]
      },
      {
        "t_start": 2439356.3198736226,
        "t_end": 2439356.350429178,
        "cx": [
          -643.9349604828461,
          1195.4035241515703,
          32.6253235841838,
          -10.266810263877833
        ],
        "cy": [
          -3042.339553963195,
          -424.8152710365603,
          150.4787765512136,
          1.4531657308547343
        ],
        "cz": [
          -1358.8881124931713,
          136.50500578718498,
          67.4121109292173,
          -2.0363221474906905
        ]
      },
      {
        "t_start": 2439356.350429178,
        "t_end": 2439356.380984734,
        "cx": [
          1613.9168993801075,
          953.6990317843081,
          -99.0052899596038,
          -13.865570512284831
        ],
        "cy": [
          -2653.236602416544,
          819.5848240679683,
          156.94873730031387,
          -1.0703109440156822
        ],
        "cz": [
          -632.9090016445394,
          564.0863680000961,
          36.53011260104749,
          -3.9405653988714238
        ]
      },
      {
        "t_start": 2439356.380984734,
        "t_end": 2439356.410845845,
        "cx": [
          2077.597454677436,
          -671.8337772167044,
          -313.8338403410875,
          -16.036000662092984,
          3.4372499778380132
        ],
        "cy": [
          -82.7120423158089,
          1616.61120642667,
          -14.106407592113847,
          -40.11420412630856,
          -5.873182106005921
        ],
        "cz": [
          494.7141535359035,
          464.61841173660537,
          -85.19595002016868,
          -19.828738076271467,
          -1.4347632125651126
        ]
      },
      {
        "t_start": 2439356.410845845,
        "t_end": 2439356.4414014006,
        "cx": [
          -893.2008149100479,
          -1819.3265155806598,
          225.7550800609618,
          58.85729896664611,
          -13.676938255939787,
          -0.7845127653053175
        ],
        "cy": [
          1260.6886747163887,
          -632.7146184125145,
          -382.6067733602153,
          48.97408654296701,
          8.974889290040919,
          -3.0660156813620887
        ],
        "cz": [
          268.5919721960225,
          -710.2284094176365,
          -92.99277062882818,
          34.18614538798929,
          0.050809399393407007,
          -1.404362764415496
        ]
      },
      {
        "t_start": 2439356.4414014006,
        "t_end": 2439356.471956956,
        "cx": [
          -2281.1802029311043,
          376.6109750391066,
          195.63546505590477,
          -19.93026143071262,
          0.9673548236965902
        ],
        "cy": [
          -1209.5320594141947,
          -1432.0666719747412,
          93.01121856922677,
          12.617473437266545,
          -2.0420645954999257
        ],
        "cz": [
          -1053.7528948960924,
          -466.7476277071176,
          86.19350562561664,
          -0.10733470795257033,
          -0.5562355782118084
        ]
      },
      {
        "t_start": 2439356.471956956,
        "t_end": 2439356.502512512,
        "cx": [
          -562.6275286656745,
          1204.1005058468456,
          28.34535767216757,
          -10.174103669247703
        ],
        "cy": [
          -3070.2234926384313,
          -383.08055053789184,
          151.12137196964636,
          1.380810330168088
        ],
        "cz": [
          -1348.1755398113366,
          155.20360912765113,
          66.52752421977681,
          -2.041362238075667
        ]
      },
      {
        "t_start": 2439356.502512512,
        "t_end": 2439356.5323736225,
        "cx": [
          1661.0080024805725,
          915.1576753356882,
          -98.22920658542573,
          -13.176624014581629
        ],
        "cy": [
          -2621.474033667451,
          829.6917322367026,
          149.63384462961363,
          -1.1537698015448417
        ],
        "cz": [
          -607.6547008298385,
          557.9765359066349,
          33.80669744692838,
          -3.797734062406104
        ]
      },
      {
        "t_start": 2439356.5323736225,
        "t_end": 2439356.562929178,
        "cx": [
          2028.1225809105842,
          -749.2474873661728,
          -331.585414013556,
          -15.308256907706308,
          4.404675283574929
        ],
        "cy": [
          -13.221603264583585,
          1641.9016189257457,
          -28.394664586915003,
          -45.36039820604286,
          -6.503451058901247
        ],
        "cz": [
          509.41232945316705,
          454.38571575687644,
          -95.29653412643681,
          -21.689616806033012,
          -1.4347118399300658
        ]
      },
      {
        "t_start": 2439356.562929178,
        "t_end": 2439356.5934847337,
        "cx": [
          -1005.57966667271,
          -1760.6492844452441,
          248.26497461924987,
          51.859762284503724,
          -14.069474793594386,
          -0.2191730546612652
        ],
        "cy": [
          1223.4449463636056,
          -731.6514258725949,
          -363.3190707631653,
          53.39082725767356,
          6.982334472454599,
          -3.048031776078127
        ],
        "cz": [
          225.0723273956952,
          -733.90888306929,
          -79.58648746390654,
          34.12509885005865,
          -0.8339481254079021,
          -1.251994790402192
        ]
      },
      {
        "t_start": 2439356.5934847337,
        "t_end": 2439356.6240402893,
        "cx": [
          -2257.1495207059816,
          430.2023300003187,
          187.51917281101282,
          -19.41008280660553,
          0.9796591361134942
        ],
        "cy": [
          -1305.2343613264159,
          -1406.9342347634156,
          98.26787341948952,
          11.525337029536121,
          -1.8636121546430815
        ],
        "cz": [
          -1084.7444452315228,
          -442.8250949920489,
          86.15934977284867,
          -0.40718271153749735,
          -0.48245779424986707
        ]
      },
      {
        "t_start": 2439356.6240402893,
        "t_end": 2439356.654595845,
        "cx": [
          -480.7753147691721,
          1211.5696336469591,
          24.10068927109267,
          -10.096002035730836
        ],
        "cy": [
          -3095.2583235664792,
          -341.16393050852463,
          151.72858492496633,
          1.3143253188613864
        ],
        "cz": [
          -1336.2023643053392,
          173.63776224666742,
          65.63826840477041,
          -2.047799644407547
        ]
      },
      {
        "t_start": 2439356.654595845,
        "t_end": 2439356.6851514005,
        "cx": [
          1736.8300841386858,
          894.4454277543667,
          -110.97766429064895,
          -14.678316161312482
        ],
        "cy": [
          -2534.152772399333,
          906.006110430337,
          155.73520586124732,
          -1.6474529461478786
        ],
        "cz": [
          -553.3404796946598,
          582.3603220468365,
          32.91770475475695,
          -4.371800925383205
        ]
      },
      {
        "t_start": 2439356.6851514005,
        "t_end": 2439356.715706956,
        "cx": [
          1930.4998242360143,
          -897.7194762713611,
          -338.450417405364,
          -9.783275630255213,
          6.031060660841791,
          1.5410972603842497
        ],
        "cy": [
          157.4167291017419,
          1615.6504428645753,
          -61.687457542564516,
          -51.116837656542245,
          -6.547315210509582,
          0.04259218723865843
        ],
        "cz": [
          551.5301546780446,
          405.8944664409615,
          -110.07858387611172,
          -22.52952110955937,
          -1.0368153246465,
          0.40826874878174096
        ]
      },
      {
        "t_start": 2439356.715706956,
        "t_end": 2439356.7462625117,
        "cx": [
          -1185.2368015419045,
          -1651.2197360511261,
          279.8491283807868,
          39.93326955517398,
          -13.972419698144384,
          0.5886794629246307
        ],
        "cy": [
          1148.639955295607,
          -885.1648524356973,
          -327.8786817522816,
          58.589297510076065,
          3.770196114066833,
          -2.803026581146495
        ],
        "cz": [
          149.78357320771795,
          -766.0581143907704,
          -57.555111552421096,
          33.11657394890937,
          -2.0710449594679274,
          -0.9486405004595925
        ]
      },
      {
        "t_start": 2439356.7462625117,
        "t_end": 2439356.776123623,
        "cx": [
          -2227.571161678401,
          489.11477310289075,
          168.9153875103502,
          -17.460119110726527,
          0.8962961768416687
        ],
        "cy": [
          -1434.5073040321506,
          -1341.4014928304189,
          100.14422551241547,
          9.49447588158226,
          -1.4975698142809684
        ],
        "cz": [
          -1127.4400319673202,
          -401.7339582609172,
          82.1357353424899,
          -0.7113880814601569,
          -0.35952753518439434
        ]
      },
      {
        "t_start": 2439356.776123623,
        "t_end": 2439356.8066791785,
        "cx": [
          -398.4677101039775,
          1217.8206126533144,
          19.885715336198487,
          -10.032339497999061
        ],
        "cy": [
          -3117.4307078557285,
          -299.0794918493322,
          152.3027720950077,
          1.2529128492805617
        ],
        "cz": [
          -1322.988793166331,
          191.80467871565546,
          64.74386423906104,
          -2.055909351966749
        ]
      },
      {
        "t_start": 2439356.8066791785,
        "t_end": 2439356.8372347336,
        "cx": [
          1794.863344862516,
          862.2548219691894,
          -117.21242732317468,
          -15.115162360579147
        ],
        "cy": [
          -2470.352794177301,
          948.806781003163,
          154.92294109105688,
          -1.9866453810287894
        ],
        "cz": [
          -512.8185568993059,
          590.6541262452394,
          30.968846003795175,
          -4.614765380811078
        ]
      },
      {
        "t_start": 2439356.8372347336,
        "t_end": 2439356.867790289,
        "cx": [
          1864.377031057174,
          -987.9474631391505,
          -340.62769573722784,
