{
  "format": "chebyshev-ephemeris",
  "version": "1.0",
  "metadata": {
    "source": "SPICE sampling",
    "created": "2026-03-31T17:34:03.998078+00:00",
    "tolerance_km": 5.0,
    "segments_count": 5238,
    "bodies": [
      "SC",
      "EARTH",
      "SUN"
    ],
    "coordinate_frame": "J2000",
    "units": {
      "time": "julian_date",
      "position": "km"
    },
    "step_size_seconds": 600,
    "spice_target": {
      "name": "-531",
      "code": -531
    },
    "source_kernels": [
      "/home/sankar/sankar/projects/skyfield-ts/data/mirrors/naif/generic_kernels/lsk/latest_leapseconds.tls",
      "/home/sankar/sankar/projects/skyfield-ts/data/mirrors/lunarorbiter1/spk/lo1_ssd_lp150q.bsp",
      "/home/sankar/sankar/projects/skyfield-ts/data/dev/showcase/de440.bsp"
    ],
    "coverage_intervals_utc": [
      {
        "start_utc": "1966-08-14T15:39:55.898",
        "end_utc": "1966-08-22T10:28:55.918",
        "duration_hours": 186.816672
      },
      {
        "start_utc": "1966-08-30T19:59:55.940",
        "end_utc": "1966-09-08T19:28:55.963",
        "duration_hours": 215.48334
      },
      {
        "start_utc": "1966-09-09T18:59:55.966",
        "end_utc": "1966-09-17T19:28:55.987",
        "duration_hours": 192.483339
      },
      {
        "start_utc": "1966-09-18T12:29:55.988",
        "end_utc": "1966-09-18T19:09:55.989",
        "duration_hours": 6.666667
      },
      {
        "start_utc": "1966-09-19T12:29:55.991",
        "end_utc": "1966-09-19T19:29:55.992",
        "duration_hours": 7.0
      },
      {
        "start_utc": "1966-09-20T09:29:55.993",
        "end_utc": "1966-09-20T19:39:55.994",
        "duration_hours": 10.166667
      },
      {
        "start_utc": "1966-09-21T09:59:55.996",
        "end_utc": "1966-09-21T19:59:55.997",
        "duration_hours": 10.0
      },
      {
        "start_utc": "1966-09-22T00:29:55.998",
        "end_utc": "1966-09-22T19:29:56.000",
        "duration_hours": 19.000001
      },
      {
        "start_utc": "1966-09-23T17:29:56.002",
        "end_utc": "1966-09-23T23:59:56.003",
        "duration_hours": 6.5
      },
      {
        "start_utc": "1966-09-24T17:29:56.005",
        "end_utc": "1966-09-25T00:19:56.005",
        "duration_hours": 6.833334
      },
      {
        "start_utc": "1966-09-25T17:59:56.007",
        "end_utc": "1966-09-26T00:39:56.008",
        "duration_hours": 6.666667
      },
      {
        "start_utc": "1966-09-26T07:29:56.009",
        "end_utc": "1966-09-26T14:29:56.009",
        "duration_hours": 7.0
      },
      {
        "start_utc": "1966-09-27T07:59:56.011",
        "end_utc": "1966-09-27T14:49:56.012",
        "duration_hours": 6.833334
      },
      {
        "start_utc": "1966-09-28T08:59:56.014",
        "end_utc": "1966-09-28T14:59:56.015",
        "duration_hours": 6.0
      },
      {
        "start_utc": "1966-09-29T21:59:56.018",
        "end_utc": "1966-09-30T04:59:56.019",
        "duration_hours": 7.0
      },
      {
        "start_utc": "1966-09-30T22:19:56.021",
        "end_utc": "1966-10-01T04:59:56.021",
        "duration_hours": 6.666667
      },
      {
        "start_utc": "1966-10-01T22:29:56.023",
        "end_utc": "1966-10-02T05:19:56.024",
        "duration_hours": 6.833334
      },
      {
        "start_utc": "1966-10-02T22:29:56.026",
        "end_utc": "1966-10-03T05:19:56.027",
        "duration_hours": 6.833334
      },
      {
        "start_utc": "1966-10-03T15:39:56.028",
        "end_utc": "1966-10-03T22:39:56.028",
        "duration_hours": 7.0
      },
      {
        "start_utc": "1966-10-04T15:39:56.030",
        "end_utc": "1966-10-04T22:49:56.031",
        "duration_hours": 7.166667
      },
      {
        "start_utc": "1966-10-05T14:29:56.033",
        "end_utc": "1966-10-05T22:59:56.034",
        "duration_hours": 8.5
      },
      {
        "start_utc": "1966-10-06T15:59:56.035",
        "end_utc": "1966-10-06T20:54:56.036",
        "duration_hours": 4.916667
      },
      {
        "start_utc": "1966-10-07T09:49:56.037",
        "end_utc": "1966-10-07T23:09:56.039",
        "duration_hours": 13.333334
      },
      {
        "start_utc": "1966-10-08T16:19:56.041",
        "end_utc": "1966-10-08T19:49:56.041",
        "duration_hours": 3.5
      },
      {
        "start_utc": "1966-10-09T05:59:56.042",
        "end_utc": "1966-10-09T12:59:56.043",
        "duration_hours": 7.0
      },
      {
        "start_utc": "1966-10-10T06:19:56.045",
        "end_utc": "1966-10-10T13:09:56.046",
        "duration_hours": 6.833334
      },
      {
        "start_utc": "1966-10-11T13:29:56.048",
        "end_utc": "1966-10-11T20:09:56.049",
        "duration_hours": 6.666667
      },
      {
        "start_utc": "1966-10-12T20:29:56.052",
        "end_utc": "1966-10-13T03:09:56.052",
        "duration_hours": 6.666667
      },
      {
        "start_utc": "1966-10-13T20:29:56.054",
        "end_utc": "1966-10-14T03:19:56.055",
        "duration_hours": 6.833334
      },
      {
        "start_utc": "1966-10-14T23:29:56.057",
        "end_utc": "1966-10-15T08:49:56.058",
        "duration_hours": 9.333334
      },
      {
        "start_utc": "1966-10-15T15:49:56.059",
        "end_utc": "1966-10-15T23:29:56.060",
        "duration_hours": 7.666667
      },
      {
        "start_utc": "1966-10-17T04:09:56.063",
        "end_utc": "1966-10-17T10:39:56.063",
        "duration_hours": 6.5
      },
      {
        "start_utc": "1966-10-19T15:39:56.069",
        "end_utc": "1966-10-20T04:39:56.071",
        "duration_hours": 13.0
      },
      {
        "start_utc": "1966-10-24T16:29:56.082",
        "end_utc": "1966-10-24T23:19:56.083",
        "duration_hours": 6.833334
      },
      {
        "start_utc": "1966-10-26T16:59:56.087",
        "end_utc": "1966-10-26T23:39:56.088",
        "duration_hours": 6.666667
      }
    ]
  },
  "time_range": {
    "start": 2439352.153206956,
    "end": 2439425.486542484
  },
  "SC": {
    "time_range": {
      "start": 2439352.153206956,
      "end": 2439425.486542484
    },
    "segments": [
      {
        "t_start": 2439352.153206956,
        "t_end": 2439352.1601514006,
        "cx": [
          2492.110261606757,
          43.67189739639131,
          -7.100548382081129,
          -3.550274191040593
        ],
        "cy": [
          -1269.187675648335,
          355.74129819019333,
          2.4604510834002795,
          1.2302255417001753
        ],
        "cz": [
          127.02338772222957,
          154.18620180269335,
          -0.8268023616046669,
          -0.413401180802337
        ]
      },
      {
        "t_start": 2439352.1601514006,
        "t_end": 2439352.167095845,
        "cx": [
          2467.6455272327144,
          -72.5870284347113,
          -16.00134171063675,
          -0.9001224732371895
        ],
        "cy": [
          -516.1608118386797,
          397.42726611373064,
          2.7438520719385835,
          -1.088525047431066
        ],
        "cz": [
          423.502462284314,
          141.2117172074025,
          -2.989113465581866,
          -0.6677543711862626
        ]
      },
      {
        "t_start": 2439352.167095845,
        "t_end": 2439352.1740402896,
        "cx": [
          2180.9474265325125,
          -215.45551945178264,
          -18.6902360832214,
          -0.44432471305510646
        ],
        "cy": [
          287.2030005015487,
          402.86058903098876,
          -3.40806231907991,
          -1.9874321480781525
        ],
        "cz": [
          673.1546551927357,
          106.85985325120701,
          -6.150358365206715,
          -0.9128680786261478
        ]
      },
      {
        "t_start": 2439352.1740402896,
        "t_end": 2439352.1809847336,
        "cx": [
          1591.3347529475377,
          -373.5661936785293,
          -17.508315173894566,
          1.0352851677184667
        ],
        "cy": [
          1039.3174406442092,
          344.53806901211516,
          -12.839626518192844,
          -2.728349951478343
        ],
        "cz": [
          824.7302959329163,
          42.970571719156204,
          -9.640789904841078,
          -0.8323476911910285
        ]
      },
      {
        "t_start": 2439352.1809847336,
        "t_end": 2439352.187929178,
        "cx": [
          714.5015265681072,
          -499.132321936263,
          -9.238893644619516,
          3.0994255969190583
        ],
        "cy": [
          1585.921364425504,
          197.3883152609066,
          -22.194705534739725,
          -1.949189556795048
        ],
        "cz": [
          820.2102097311165,
          -48.314332044372975,
          -11.288138151674607,
          0.008673567774228452
        ]
      },
      {
        "t_start": 2439352.187929178,
        "t_end": 2439352.1948736226,
        "cx": [
          -315.13099866486425,
          -523.8770068226924,
          4.007499303412018,
          3.52377087709673
        ],
        "cy": [
          1770.8739596299836,
          -13.845230547874358,
          -25.013726517633415,
          0.5396790653481602
        ],
        "cz": [
          631.1753552053019,
          -139.59191775963788,
          -9.030928708067496,
          1.119931154029354
        ]
      },
      {
        "t_start": 2439352.1948736226,
        "t_end": 2439352.201818067,
        "cx": [
          -1277.9830005831943,
          -433.68206585164666,
          14.593357791393885,
          1.7691583668942457
        ],
        "cy": [
          1547.1090759739436,
          -207.08023631042022,
          -19.334892922143254,
          2.2997377323969346
        ],
        "cz": [
          294.9069456955311,
          -194.17853920089112,
          -4.035023609583877,
          1.3780213952124516
        ]
      },
      {
        "t_start": 2439352.201818067,
        "t_end": 2439352.2087625116,
        "cx": [
          -2000.312732488735,
          -286.86900948514636,
          18.150670928890328,
          0.009498201853919142
        ],
        "cy": [
          1010.5859533096249,
          -324.90349342916005,
          -10.256107072666055,
          2.239655192341665
        ],
        "cz": [
          -105.48575501918002,
          -203.93425223877895,
          0.5247949404982251,
          0.9018878798285925
        ]
      },
      {
        "t_start": 2439352.2087625116,
        "t_end": 2439352.215706956,
        "cx": [
          -2427.2444943162054,
          -140.7777133814885,
          16.720748850560646,
          -0.7244592410187751
        ],
        "cy": [
          311.60190951394674,
          -370.35955345742826,
          -2.8141132544863154,
          1.4813417167481902
        ],
        "cz": [
          -495.5446792994614,
          -184.8132914596905,
          3.1475561041220104,
          0.40949270198330723
        ]
      },
      {
        "t_start": 2439352.215706956,
        "t_end": 2439352.2226514006,
        "cx": [
          -2584.9765522223333,
          -18.503166719990496,
          13.623104459857716,
          -0.8243629543326643
        ],
        "cy": [
          -429.6251412216765,
          -368.5379029350231,
          1.8450754318574738,
          0.8482526264237045
        ],
        "cz": [
          -833.6985507271964,
          -152.80127697952977,
          4.226162081151642,
          0.12981028653152293
        ]
      },
      {
        "t_start": 2439352.2226514006,
        "t_end": 2439352.229595845,
        "cx": [
          -2524.748393519042,
          77.18723060208208,
          10.534914817459097,
          -0.7197318668665886
        ],
        "cy": [
          -1139.3008534218816,
          -339.8232807348595,
          4.474132492502861,
          0.4662759038990174
        ],
        "cz": [
          -1103.4211753942743,
          -116.7883714301486,
          4.492114595951094,
          0.0031659708681885945
        ]
      },
      {
        "t_start": 2439352.229595845,
        "t_end": 2439352.2365402896,
        "cx": [
          -2296.4316427842773,
          149.82044783542014,
          7.916770222934662,
          -0.5893404303957137
        ],
        "cy": [
          -1776.209809738727,
          -296.3614650533199,
          5.922553549835989,
          0.25793462476748985
        ],
        "cz": [
          -1300.9160485675557,
          -80.7504844650226,
          4.404149152171393,
          -0.0471486927580389
        ]
      },
      {
        "t_start": 2439352.2365402896,
        "t_end": 2439352.2434847336,
        "cx": [
          -1941.919908925618,
          203.6188780404956,
          5.771954257447192,
          -0.4830675523479755
        ],
        "cy": [
          -2317.7214329019157,
          -244.74417669515802,
          6.734516379254952,
          0.14804678994201304
        ],
        "cz": [
          -1427.8100104956554,
          -46.25472045923107,
          4.181663159863515,
          -0.0640943033959005
        ]
      },
      {
        "t_start": 2439352.2434847336,
        "t_end": 2439352.250429178,
        "cx": [
          -1495.419024634505,
          241.99065865938337,
          3.989259074979728,
          -0.4082800388857848
        ],
        "cy": [
          -2751.1473829321344,
          -188.44249564645833,
          7.213071756460845,
          0.09123089866096201
        ],
        "cz": [
          -1487.7560955178599,
          -13.823239611557035,
          3.9179130626958627,
          -0.06778074518796885
        ]
      },
      {
        "t_start": 2439352.250429178,
        "t_end": 2439352.2573736226,
        "cx": [
          -985.3323313756932,
          267.3258625793527,
          2.448915034827479,
          -0.3618919811903112
        ],
        "cy": [
          -3068.993465493881,
          -129.249676167081,
          7.520893252876803,
          0.06267984954693162
        ],
        "cz": [
          -1485.0090044421988,
          16.435171081922,
          3.647593852102332,
          -0.06737886010873972
        ]
      },
      {
        "t_start": 2439352.2573736226,
        "t_end": 2439352.264318067,
        "cx": [
          -436.1994829087026,
          281.1050565420926,
          1.0450563437371585,
          -0.3400373643548775
        ],
        "cy": [
          -3266.4202115750504,
          -68.06568138315531,
          7.743670314740967,
          0.04870868138520734
        ],
        "cz": [
          -1423.9011831736827,
          44.53787630168848,
          3.37804608229201,
          -0.06739502479639325
        ]
      },
      {
        "t_start": 2439352.264318067,
        "t_end": 2439352.2712625116,
        "cx": [
          129.61178479687243,
          284.0255229485422,
          -0.31632008614379004,
          -0.34065085058558253
        ],
        "cy": [
          -3339.904779156033,
          -5.329224399060635,
          7.922993912274563,
          0.04095311738159069
        ],
        "cz": [
          -1308.7380613544099,
          70.48719001563735,
          3.101935078398885,
          -0.07066047715023771
        ]
      },
      {
        "t_start": 2439352.2712625116,
        "t_end": 2439352.278206956,
        "cx": [
          690.4099869144503,
          276.06796305894346,
          -1.725752306328232,
          -0.3640652595066243
        ],
        "cy": [
          -3286.5896148422653,
          58.718135862416226,
          8.070488211450098,
          0.032794032206233226
        ],
        "cz": [
          -1143.9189294025248,
          94.18136199518567,
          2.8007751962744862,
          -0.07991946391193494
        ]
      },
      {
        "t_start": 2439352.278206956,
        "t_end": 2439352.2851514006,
        "cx": [
          1223.7411379007387,
          256.48597893227185,
          -3.280170296474406,
          -0.4131437355664911
        ],
        "cy": [
          -3104.0976521890043,
          123.82308046228758,
          8.16899555433669,
          0.016459639236977353
        ],
        "cz": [
          -934.2306626170332,
          115.32795900263638,
          2.4428836209351985,
          -0.09902632375770892
        ]
      },
      {
        "t_start": 2439352.2851514006,
        "t_end": 2439352.292095845,
        "cx": [
          1704.8474359602508,
          223.71417422375958,
          -5.0924601034359505,
          -0.4930011679142172
        ],
        "cy": [
          -2790.794801077797,
          189.47554452608284,
          8.16054330866244,
          -0.020685762074045044
        ],
        "cz": [
          -685.347368333346,
          133.321944711765,
          1.9761024823635545,
          -0.1343642455281131
        ]
      },
      {
        "t_start": 2439352.292095845,
        "t_end": 2439352.2990402896,
        "cx": [
          2104.865978592916,
          175.202420391361,
          -7.296356138523649,
          -0.6089468496296746
        ],
        "cy": [
          -2346.6851100590716,
          254.51084688534624,
          7.913944094070509,
          -0.10261384522194916
        ],
        "cz": [
          -404.6506536614891,
          147.0434890556297,
          1.31354067343905,
          -0.19691665893413912
        ]
      },
      {
        "t_start": 2439352.2990402896,
        "t_end": 2439352.3059847336,
        "cx": [
          2388.6718726079544,
          107.23699609490538,
          -10.029311196068377,
          -0.7575306791427141
        ],
        "cy": [
          -1775.4405730297867,
          316.35451072040695,
          7.155585247007124,
          -0.27656557830976425
        ],
        "cz": [
          -102.59646930370724,
          154.50899989548256,
          0.31014986009984113,
          -0.30477874773546887
        ]
      },
      {
        "t_start": 2439352.3059847336,
        "t_end": 2439352.312929178,
        "cx": [
          2512.5813894877783,
          15.019739565135033,
          -13.334873635635278,
          -0.895250540640709
        ],
        "cy": [
          -1088.6514701535868,
          369.52781370413794,
          5.3420283436969385,
          -0.6302128733452932
        ],
        "cz": [
          204.9903460588895,
          152.29100352202448,
          -1.2634740300793332,
          -0.48203319735411476
        ]
      },
      {
        "t_start": 2439352.312929178,
        "t_end": 2439352.3198736226,
        "cx": [
          2423.3180664273127,
          -106.02841093854032,
          -16.825570261515054,
          -0.8500977722991507
        ],
        "cy": [
          -314.37085717642645,
          402.8365040032605,
          1.5094378041727765,
          -1.286082396416802
        ],
        "cz": [
          493.21995546273683,
          134.7226098054194,
          -3.695466182885987,
          -0.7339628790492263
        ]
      },
      {
        "t_start": 2439352.3198736226,
        "t_end": 2439352.326818067,
        "cx": [
          2063.4207887526654,
          -254.9017998340762,
          -18.891436457452173,
          -0.18283532566943705
        ],
        "cy": [
          487.2513871110108,
          395.27413179265847,
          -5.513779178863928,
          -2.225526095101536
        ],
        "cz": [
          723.2402922363373,
          93.62263774381316,
          -7.045644631621936,
          -0.9411263453187342
        ]
      },
      {
        "t_start": 2439352.326818067,
        "t_end": 2439352.3337625116,
        "cx": [
          1396.4407472587125,
          -410.7012845078099,
          -16.137522153318812,
          1.5597924777360888
        ],
        "cy": [
          1203.536023924736,
          316.05746683549296,
          -15.419855550011167,
          -2.727512090472084
        ],
        "cz": [
          840.4566697214623,
          21.955473108206228,
          -10.322177897833136,
          -0.6971402877868726
        ]
      },
      {
        "t_start": 2439352.3337625116,
        "t_end": 2439352.340706956,
        "cx": [
          464.0112890877771,
          -516.7266853991182,
          -6.134545625305364,
          3.441695786270664
        ],
        "cy": [
          1671.4920702048455,
          147.75099212576112,
          -23.715030187721986,
          -1.4200752283832885
        ],
        "cz": [
          790.0172412308062,
          -72.78268842674245,
          -11.097751553593472,
          0.3093534599067116
        ]
      },
      {
        "t_start": 2439352.340706956,
        "t_end": 2439352.3476514006,
        "cx": [
          -569.8915398712687,
          -510.5143349043084,
          7.189071685933065,
          3.220112869348551
        ],
        "cy": [
          1752.2661130889567,
          -67.25377636428145,
          -24.26868443298446,
          1.1432481057519635
        ],
        "cz": [
          558.050342247962,
          -157.59027456663543,
          -7.909879574660739,
          1.2845825295596267
        ]
      },
      {
        "t_start": 2439352.3476514006,
        "t_end": 2439352.354595845,
        "cx": [
          -1484.3929746046672,
          -399.51341479882984,
          16.136441746454082,
          1.253572160911915
        ],
        "cy": [
          1437.0514228107825,
          -244.3928499192578,
          -17.13255644371617,
          2.4248158888822857
        ],
        "cz": [
          197.55387432598022,
          -200.32650949359743,
          -2.7505118511632887,
          1.2951013321891338
        ]
      },
      {
        "t_start": 2439352.354595845,
        "t_end": 2439352.3615402896,
        "cx": [
          -2133.745612827285,
          -248.8484026772859,
          18.118083239457754,
          -0.26275141441000827
        ],
        "cy": [
          845.8652718019449,
          -342.29995827934255,
          -8.14587082324067,
          2.0685269213553994
        ],
        "cz": [
          -205.90722294774693,
          -201.07668405181437,
          1.3652956054678214,
          0.7628023961263857
        ]
      },
      {
        "t_start": 2439352.3615402896,
        "t_end": 2439352.3684847336,
        "cx": [
          -2489.127224416497,
          -107.58322957371144,
          16.01804191588752,
          -0.787269247375141
        ],
        "cy": [
          126.59298564645901,
          -373.60287213373556,
          -1.4069593384255228,
          1.3009288210522243
        ],
        "cz": [
          -585.5747304358558,
          -177.5073434286996,
          3.532255620657139,
          0.3206776114683123
        ]
      },
      {
        "t_start": 2439352.3684847336,
        "t_end": 2439352.375429178,
        "cx": [
          -2587.129953197638,
          7.985378350223929,
          12.827797031193661,
          -0.8078531949717593
        ],
        "cy": [
          -612.5188292962324,
          -363.4753977577256,
          2.66013076403528,
          0.7326162301781842
        ],
        "cz": [
          -907.3753965292941,
          -143.8852174417971,
          4.348466066541246,
          0.08742761147370892
        ]
      },
      {
        "t_start": 2439352.375429178,
        "t_end": 2439352.3823736226,
        "cx": [
          -2480.0877417281445,
          97.56161510477578,
          9.837361002207132,
          -0.6873648195215623
        ],
        "cy": [
          -1307.2704655508132,
          -330.1417489995459,
          4.929109758653951,
          0.40187326713119376
        ],
        "cz": [
          -1158.9302716330812,
          -107.59672478246519,
          4.494331825590173,
          -0.01449473194923101
        ]
      },
      {
        "t_start": 2439352.3823736226,
        "t_end": 2439352.389318067,
        "cx": [
          -2216.1419397764294,
          165.13606160899178,
          7.341110526312093,
          -0.5607604184259571
        ],
        "cy": [
          -1922.1381960148155,
          -284.10056679320434,
          6.1799391011582046,
          0.22354140412089052
        ],
        "cz": [
          -1338.2936185217354,
          -71.8347987295096,
          4.3579785789494565,
          -0.05368189137112722
        ]
      },
      {
        "t_start": 2439352.389318067,
        "t_end": 2439352.3962625116,
        "cx": [
          -1835.1887194789904,
          214.7942084881341,
          5.295210125684562,
          -0.4621897818877514
        ],
        "cy": [
          -2437.5830384264177,
          -230.99079216408052,
          6.886906009792526,
          0.12994205019629845
        ],
        "cz": [
          -1447.826227830432,
          -37.81752736089069,
          4.118545015541862,
          -0.06603489033264132
        ]
      },
      {
        "t_start": 2439352.3962625116,
        "t_end": 2439352.403206956,
        "cx": [
          -1369.8441509927559,
          249.6934167088659,
          3.5813235472163143,
          -0.394753507346401
        ],
        "cy": [
          -2842.553946018604,
          -173.76835130515667,
          7.310434255690922,
          0.08182207275295639
        ],
        "cz": [
          -1491.4332830615576,
          -5.923661566388997,
          3.8502776232348377,
          -0.06809880582091288
        ]
      },
      {
        "t_start": 2439352.403206956,
        "t_end": 2439352.4101514006,
        "cx": [
          -847.4133978957373,
          271.987889171257,
          2.082429113424759,
          -0.35469370954937673
        ],
        "cy": [
          -3130.413677981953,
          -113.95173030413326,
          7.589734963809178,
          0.057828281306058216
        ],
        "cz": [
          -1473.4330061969597,
          23.788359672850326,
          3.5791201069607865,
          -0.06747995231614112
        ]
      },
      {
        "t_start": 2439352.4101514006,
        "t_end": 2439352.417095845,
        "cx": [
          -291.7763476826953,
          282.95599817427563,
          0.6961033784060007,
          -0.3384691579600023
        ],
        "cy": [
          -3296.7660099447553,
          -52.29677159441072,
          7.797395092325175,
          0.04600178295205404
        ],
        "cz": [
          -1398.166862266818,
          51.34223282206852,
          3.308017236513521,
          -0.0680714829074347
        ]
      },
      {
        "t_start": 2439352.417095845,
        "t_end": 2439352.4240402896,
        "cx": [
          274.97811061244767,
          283.11542023955536,
          -0.6699763842180531,
          -0.34457072335201033
        ],
        "cy": [
          -3338.321716765852,
          10.8257430053212,
          7.966751556341427,
          0.03867644905598677
        ],
        "cz": [
          -1269.9622736540543,
          76.72171990626887,
          3.026745467661959,
          -0.07256440151834642
        ]
      },
      {
        "t_start": 2439352.4240402896,
        "t_end": 2439352.4309847336,
        "cx": [
          831.0838736246017,
          272.2718301606773,
          -2.1070016080605782,
          -0.3739418885692807
        ],
        "cy": [
          -3252.375808718835,
          75.18804684732146,
          8.102515167591225,
          0.02920535656897094
        ],
        "cz": [
          -1093.2981697215473,
          99.7859512669183,
          2.713879949022356,
          -0.08386835780146917
        ]
      },
      {
        "t_start": 2439352.4309847336,
        "t_end": 2439352.437929178,
        "cx": [
          1353.6485234903262,
          249.48885023671414,
          -3.7149405447273267,
          -0.43002757976410066
        ],
        "cy": [
          -3036.730314218366,
          140.4956597460411,
          8.178939353379608,
          0.00900673632511051
        ],
        "cz": [
          -873.1444954654742,
          120.17754538815024,
          2.3335247470131435,
          -0.10630924320313895
        ]
      },
      {
        "t_start": 2439352.437929178,
        "t_end": 2439352.4448736226,
        "cx": [
          1817.0628010289702,
          212.97712837253547,
          -5.611538403516029,
          -0.5182713496302078
        ],
        "cy": [
          -2690.09012715508,
          206.11691157208656,
          8.123707863061387,
          -0.03662248148408942
        ],
        "cz": [
          -615.5277951955178,
          137.18566593420252,
          1.826546851806004,
          -0.14717970440044148
        ]
      },
      {
        "t_start": 2439352.4448736226,
        "t_end": 2439352.451818067,
        "cx": [
          2191.118468097548,
          159.9172377735532,
          -7.93414024849406,
          -0.6430295728588362
        ],
        "cy": [
          -2213.1804997170047,
          270.6200428379268,
          7.778361806938257,
          -0.13605054657750415
        ],
        "cz": [
          -328.461011517738,
          149.51496190650988,
          1.0942351776708215,
          -0.21897613266712845
        ]
      },
      {
        "t_start": 2439352.451818067,
        "t_end": 2439352.4587625116,
        "cx": [
          2438.7815863615233,
          86.30773198228177,
          -10.810437264773725,
          -0.7951189352810246
        ],
        "cy": [
          -1611.200605580542,
          330.8789393767869,
          6.816537963441654,
          -0.34486137517084003
        ],
        "cz": [
          -23.497496217057336,
          154.88791316701955,
          -0.02704527663130918,
          -0.3416640944839511
        ]
      },
      {
        "t_start": 2439352.4587625116,
        "t_end": 2439352.465706956,
        "cx": [
          2514.0123668348183,
          -12.78242923997665,
          -14.221392726754798,
          -0.9103587957094836
        ],
        "cy": [
          -898.9038818031512,
          380.31076136592463,
          4.602491894082256,
          -0.7621616595088732
        ],
        "cz": [
          281.6725385329403,
          149.40185941811797,
          -1.7875696063517026,
          -0.5385980703762385
        ]
      },
      {
        "t_start": 2439352.465706956,
        "t_end": 2439352.4726514006,
        "cx": [
          2361.6347135583515,
          -141.26762670663817,
          -17.566198067050507,
          -0.7620438744383407
        ],
        "cy": [
          -110.64945960683661,
          405.67772373890637,
          0.07061771111448678,
          -1.5037754319749972
        ],
        "cz": [
          559.1549948426325,
          126.74356709605311,
          -4.46162919739389,
          -0.7984317251448481
        ]
      },
      {
        "t_start": 2439352.4726514006,
        "t_end": 2439352.479595845,
        "cx": [
          1926.0739060981566,
          -294.90359086824435,
          -18.78701829642562,
          0.15163375975078353
        ],
        "cy": [
          682.0917352907245,
          383.1190894054635,
          -7.818145795267917,
          -2.4406063212162046
        ],
        "cz": [
          766.0569033210714,
          78.41855192334039,
          -7.94120811548463,
          -0.9413577339005434
        ]
      },
      {
        "t_start": 2439352.479595845,
        "t_end": 2439352.4865402896,
        "cx": [
          1184.1929727769368,
          -444.72383600855494,
          -14.280005407584106,
          2.1018726846699103
        ],
        "cy": [
          1351.942129905183,
          281.68715723521166,
          -17.90644174283408,
          -2.6035416525668627
        ],
        "cz": [
          845.3187951278442,
          -0.6061061636570875,
          -10.840100209664076,
          -0.5080883131891634
        ]
      },
      {
        "t_start": 2439352.4865402896,
        "t_end": 2439352.4934847336,
        "cx": [
          206.86530607763302,
          -526.8669846265701,
          -2.8063132792268632,
          3.6349733795087467
        ],
        "cy": [
          1732.0084640082443,
          94.9755189498505,
          -24.713757578831824,
          -0.8001162654320104
        ],
        "cz": [
          748.0399948663519,
          -96.57259416069805,
          -10.639900335389811,
          0.6081882503263039
        ]
      },
      {
        "t_start": 2439352.4934847336,
        "t_end": 2439352.500429178,
        "cx": [
          -816.7580056290337,
          -490.32216549876335,
          10.062009883439742,
          2.799188201824542
        ],
        "cy": [
          1708.1484526378008,
          -117.98608276094156,
          -23.01486246012684,
          1.6495638247844635
        ],
        "cz": [
          476.7473535612736,
          -172.7322322224124,
          -6.664270491453603,
          1.3796266716417858
        ]
      },
      {
        "t_start": 2439352.500429178,
        "t_end": 2439352.5073736226,
        "cx": [
          -1673.6777137891263,
          -363.01912072986664,
          17.218853746364765,
          0.7792337296379834
        ],
        "cy": [
          1309.5670160312584,
          -276.5040937207185,
          -14.832342210363066,
          2.4416963000974548
        ],
        "cz": [
          97.68408097624153,
          -203.77207821355444,
          -1.5463461933233411,
          1.1793354774233595
        ]
      },
      {
        "t_start": 2439352.5073736226,
        "t_end": 2439352.514318067,
        "cx": [
          -2248.5577472263285,
          -211.55149816640005,
          17.837682828236122,
          -0.4698191887023331
        ],
        "cy": [
          673.2120998735842,
          -355.5315602194123,
          -6.1938177752759245,
          1.877565917446109
        ],
        "cz": [
          -304.62674724575,
          -196.72677958747886,
          2.077594648593255,
          0.6326349435349385
        ]
      },
      {
        "t_start": 2439352.514318067,
        "t_end": 2439352.5212625116,
        "cx": [
          -2534.835011034583,
          -76.01627328950379,
          15.256667532936252,
          -0.8206884589475809
        ],
        "cy": [
          -59.63118309552664,
          -374.29881932864396,
          -0.16801093316684046,
          1.1353375036084046
        ],
        "cz": [
          -671.8282414361419,
          -169.59665400900838,
          3.8337158364025115,
          0.24542565036967545
        ]
      },
      {
        "t_start": 2439352.5212625116,
        "t_end": 2439352.528206956,
        "cx": [
          -2576.3775825319817,
          32.86918825251747,
          12.047640453760877,
          -0.7838250806401064
        ],
        "cy": [
          -792.6710536569403,
          -356.9739414808987,
          3.366208570575047,
          0.6317722482625676
        ],
        "cz": [
          -976.5309443415891,
          -134.8076572537866,
          4.430499121706957,
          0.052965992282554275
        ]
      },
      {
        "t_start": 2439352.528206956,
        "t_end": 2439352.590706956,
        "cx": [
          -561.6061290767434,
          2216.8631493796893,
          150.59206235945098,
          -91.59885521646683,
          3.237426099548928
        ],
        "cy": [
          -2578.192526625176,
          -841.5559754960037,
          610.7039225590509,
          16.247633308977786,
          -3.0152483948876605
        ],
        "cz": [
          -1177.8760607950153,
          228.98099630848694,
          283.462594311779,
          -16.897574168711902,
          -0.3807333051074102
        ]
      },
      {
        "t_start": 2439352.590706956,
        "t_end": 2439352.5976514006,
        "cx": [
          1923.494663993096,
          201.17129780704266,
          -6.157019086655431,
          -0.5457515638810762
        ],
        "cy": [
          -2580.918424644455,
          222.68242873981535,
          8.0677600479912,
          -0.055898143502865594
        ],
        "cz": [
          -543.8634232965669,
          140.73579351355417,
          1.6626686518756273,
          -0.16188379876778214
        ]
      },
      {
        "t_start": 2439352.5976514006,
        "t_end": 2439352.604595845,
        "cx": [
          2269.2067037813317,
          143.31617947256598,
          -8.606144103908822,
          -0.6788109447455835
        ],
        "cy": [
          -2071.5534495044813,
          286.4504444704257,
          7.603556188524642,
          -0.17620378623035649
        ],
        "cz": [
          -251.19235664526917,
          151.52925374424134,
          0.8506298648711628,
          -0.24413559473445012
        ]
      },
      {
        "t_start": 2439352.604595845,
        "t_end": 2439352.6115402896,
        "cx": [
          2477.790370725864,
          63.75795855392079,
          -11.62520193999864,
          -0.8307179732993821
        ],
        "cy": [
          -1439.7913849813024,
          344.70942293961514,
          6.39916196224933,
          -0.4259933269073706
        ],
        "cz": [
          55.53129722958346,
          154.5671260443009,
          -0.40391830774953874,
          -0.38313849157590063
        ]
      },
      {
        "t_start": 2439352.6115402896,
        "t_end": 2439352.6184847336,
        "cx": [
          2500.8333005210857,
          -42.45580495000132,
          -15.106754322604957,
          -0.9100582180037193
        ],
        "cy": [
          -704.1655276051299,
          389.5756243079814,
          3.7175417050964157,
          -0.9148168016690512
        ],
        "cz": [
          356.50285704330315,
          145.421855239193,
          -2.3690753682010133,
          -0.5994400386498366
        ]
      },
      {
        "t_start": 2439352.6184847336,
        "t_end": 2439352.625429178,
        "cx": [
          2281.759025563387,
          -178.15468245532696,
          -18.179179217862757,
          -0.6261542296252127
        ],
        "cy": [
          93.56308845272618,
          405.5011369183503,
          -1.5861679579522416,
          -1.7370380298552774
        ],
        "cz": [
          620.5165786200005,
          117.13560334474612,
          -5.281601353717676,
          -0.8568229541084946
        ]
      },
      {
        "t_start": 2439352.625429178,
        "t_end": 2439352.6323736226,
        "cx": [
          1768.879255171817,
          -334.7919901338628,
          -18.312983613102915,
          0.5592520320051335
        ],
        "cy": [
          869.3033622486255,
          365.8921227974432,
          -10.28019611816353,
          -2.609976050250367
        ],
        "cz": [
          800.634666011559,
          61.221231693932,
          -8.804106059478318,
          -0.9044293987718124
        ]
      },
      {
        "t_start": 2439352.6323736226,
        "t_end": 2439352.639318067,
        "cx": [
          956.49533122508,
          -474.41062813773397,
          -11.950372262822356,
          2.622053643135146
        ],
        "cy": [
          1481.7701004276864,
          241.62280016462327,
          -20.183826552151338,
          -2.3418391667435934
        ],
        "cz": [
          838.7124864265454,
          -24.31737861936618,
          -11.152040740319205,
          -0.2695379416486663
        ]
      },
      {
        "t_start": 2439352.639318067,
        "t_end": 2439352.6462625116,
        "cx": [
          -53.29378696916024,
          -529.0975653601931,
          0.6114771298039159,
          3.658871053177961
        ],
        "cy": [
          1766.3456074754174,
          40.475894814567724,
          -25.137450689231734,
          -0.1349729017965906
        ],
        "cz": [
          694.7857631787651,
          -118.99736606000515,
          -9.928083603501701,
          0.8815165100574465
        ]
      },
      {
        "t_start": 2439352.6462625116,
        "t_end": 2439352.653206956,
        "cx": [
          -1052.663711665028,
          -464.3092143501167,
          12.537767100919432,
          2.304273932379825
        ],
        "cy": [
          1639.970627095332,
          -164.9520490631391,
          -21.3397984262036,
          2.033799033310686
        ],
        "cz": [
          388.65798556382464,
          -184.84257463096006,
          -5.352409755550976,
          1.406320413917923
        ]
      },
      {
        "t_start": 2439352.653206956,
        "t_end": 2439352.6601514006,
        "cx": [
          -1844.8421294691573,
          -325.19967510696847,
          17.876823795008256,
          0.3652544146645731
        ],
        "cy": [
          1167.143000267456,
          -303.4688158189558,
          -12.526274534640919,
          2.3729629124705838
        ],
        "cz": [
          -3.4349232572660284,
          -204.79920970748782,
          -0.4501607902653362,
          1.0448040687248827
        ]
      },
      {
        "t_start": 2439352.6601514006,
        "t_end": 2439352.667095845,
        "cx": [
          -2345.143045804511,
          -175.35587325566286,
          17.367559740453814,
          -0.6198864419417944
        ],
        "cy": [
          494.6005502383019,
          -365.0196569409057,
          -4.418319996056724,
          1.6810143568215565
        ],
        "cz": [
          -400.9477289537978,
          -191.1538093908033,
          2.66941240621583,
          0.5149825295157004
        ]
      },
      {
        "t_start": 2439352.667095845,
        "t_end": 2439352.6740402896,
        "cx": [
          -2565.168544445524,
          -46.12148833616717,
          14.463833838819376,
          -0.8319765088754524
        ],
        "cy": [
          -245.86142308043577,
          -372.77513743220175,
          0.9160378952040418,
          0.9861645888088262
        ],
        "cz": [
          -754.0253345376126,
          -161.22631040140283,
          4.064383989433008,
          0.18250326209289547
        ]
      },
      {
        "t_start": 2439352.6740402896,
        "t_end": 2439352.6809847336,
        "cx": [
          -2553.5023480448835,
          56.20064483335789,
          11.28975403192028,
          -0.7550633945740399
        ],
        "cy": [
          -969.3934090174218,
          -349.2263480105608,
          3.9770388836514385,
          0.5443359054148225
        ],
        "cz": [
          -1041.0931117851655,
          -125.63381850182157,
          4.47968067809037,
          0.025145082235781935
        ]
      },
      {
        "t_start": 2439352.6809847336,
        "t_end": 2439352.687929178,
        "cx": [
          -2361.6173769278553,
          134.3059343055377,
          8.532970075654184,
          -0.6233285835590081
        ],
        "cy": [
          -1627.9188328347338,
          -308.45554423642847,
          5.664102024295929,
          0.2991956649074865
        ],
        "cz": [
          -1256.0421534148725,
          -89.32949596621246,
          4.451135001435311,
          -0.03941792056331295
        ]
      },
      {
        "t_start": 2439352.687929178,
        "t_end": 2439352.6948736226,
        "cx": [
          -2033.6969644138585,
          192.4821293075844,
          6.268272273905751,
          -0.509020317315283
        ],
        "cy": [
          -2195.0681376544117,
          -258.2254833284874,
          6.600656533819855,
          0.169081589854434
        ],
        "cz": [
          -1399.5980764772257,
          -54.32818281050541,
          4.247623572706665,
          -0.06233779380099591
        ]
      },
      {
        "t_start": 2439352.6948736226,
        "t_end": 2439352.701818067,
        "cx": [
          -1605.878791236783,
          234.40099282832296,
          4.398170191567825,
          -0.42603072385360896
        ],
        "cy": [
          -2656.211377053015,
          -202.64725925533227,
          7.1416501633867995,
          0.101415224929017
        ],
        "cz": [
          -1475.134380449568,
          -21.33869783955341,
          3.98647021727443,
          -0.06823888391514998
        ]
      },
      {
        "t_start": 2439352.701818067,
        "t_end": 2439352.7087625116,
        "cx": [
          -1107.9628032395483,
          262.7163982502064,
          2.8009763541579176,
          -0.372566194851391
        ],
        "cy": [
          -3002.884202641162,
          -143.85707511616587,
          7.478632596684813,
          0.06707599172008205
        ],
        "cz": [
          -1486.8751747532917,
          9.461333761999459,
          3.7133306696132062,
          -0.06833088991543357
        ]
      },
      {
        "t_start": 2439352.7087625116,
        "t_end": 2439352.715706956,
        "cx": [
          -565.394123172163,
          279.1351496966617,
          1.3667121131235689,
          -0.34456592566577626
        ],
        "cy": [
          -3229.796363271032,
          -82.93786600271451,
          7.71307161866598,
          0.050143519270384296
        ],
        "cz": [
          -1439.203247769657,
          38.0743081610312,
          3.4407605484061463,
          -0.06795417068811105
        ]
      },
      {
        "t_start": 2439352.715706956,
        "t_end": 2439352.7226514006,
        "cx": [
          -1.0244070525579119,
          284.55061318130475,
          -0.0011943701536765161,
          -0.3393873159728322
        ],
        "cy": [
          -3333.247700967663,
          -20.422090700217993,
          7.895833606060137,
          0.04123747442672254
        ],
        "cz": [
          -1336.475430070874,
          64.51536350682326,
          3.164468486548623,
          -0.07019186024066482
        ]
      },
      {
        "t_start": 2439352.7226514006,
        "t_end": 2439352.729595845,
        "cx": [
          563.3504482094983,
          279.128164306658,
          -1.3933499183407108,
          -0.3566904581206991
        ],
        "cy": [
          -3310.332454634474,
          43.41209486067511,
          8.045349260595685,
          0.03352035284113697
        ],
        "cz": [
          -1183.096630036867,
          88.71554722103178,
          2.868689874244561,
          -0.0776974459113342
        ]
      },
      {
        "t_start": 2439352.729595845,
        "t_end": 2439352.7365402896,
        "cx": [
          1105.5501929618722,
          262.3162585797378,
          -2.9039936502970356,
          -0.3986314078574633
        ],
        "cy": [
          -3158.648652676291,
          108.32498119704468,
          8.151897459671794,
          0.019753746696832053
        ],
        "cz": [
          -983.7713286224,
          110.43813319100988,
          2.5254478693941493,
          -0.09392355651389295
        ]
      },
      {
        "t_start": 2439352.7365402896,
        "t_end": 2439352.7434847336,
        "cx": [
          1601.5120850942535,
          232.77728050918978,
          -4.640699737204489,
          -0.469721635596267
        ],
        "cy": [
          -2876.4453489278326,
          173.88702070209433,
          8.16929376103218,
          -0.011055596016586122
        ],
        "cz": [
          -743.9454041710003,
          129.16943768157688,
          2.0887407117678904,
          -0.12443002229924005
        ]
      },
      {
        "t_start": 2439352.7434847336,
        "t_end": 2439352.750429178,
        "cx": [
          2023.5763749506452,
          188.24185829937431,
          -6.731001832860709,
          -0.5754294122318218
        ],
        "cy": [
          -2463.335505677679,
          239.13260322732526,
          7.988855119564448,
          -0.07916372471730426
        ],
        "cz": [
          -470.53001374615985,
          143.9427924321171,
          1.4824200894744557,
          -0.17873028884746311
        ]
      },
      {
        "t_start": 2439352.750429178,
        "t_end": 2439352.7573736226,
        "cx": [
          2338.4368319035207,
          125.32735643490813,
          -9.313486270046255,
          -0.7158128063608942
        ],
        "cy": [
          -1921.9774567671534,
          301.9219714110647,
          7.3819065752932715,
          -0.22431054741825562
        ],
        "cz": [
          -173.0992298597564,
          153.0364997014724,
          0.5794365838470839,
          -0.272761463966237
        ]
      },
      {
        "t_start": 2439352.7573736226,
        "t_end": 2439352.764318067,
        "cx": [
          2504.8551472343684,
          39.512897327991155,
          -12.469609405941242,
          -0.8622487615866845
        ],
        "cy": [
          -1261.623372561092,
          357.68587347743966,
          5.889427940180347,
          -0.5219287701382633
        ],
        "cz": [
          134.10397164591967,
          153.46449391253032,
          -0.8249791994997722,
          -0.4294464277071981
        ]
      },
      {
        "t_start": 2439352.764318067,
        "t_end": 2439352.7712625116,
        "cx": [
          2472.1045007341268,
          -74.01399972816616,
          -15.970521205808552,
          -0.8882071383469423
        ],
        "cy": [
          -505.3085548027342,
          397.017761708656,
          2.667062795654651,
          -1.0892538021245706
        ],
        "cz": [
          428.8887957225882,
          140.22747739097034,
          -3.01068474583567,
          -0.6634063454607437
        ]
      },
      {
        "t_start": 2439352.7712625116,
        "t_end": 2439352.778206956,
        "cx": [
          2182.965984227397,
          -216.4452073217218,
          -18.611902292124554,
          -0.4324834048110304
        ],
        "cy": [
          296.5907366501488,
          401.81461268993877,
          -3.4667713129221838,
          -1.9776632521638042
        ],
        "cz": [
          676.4503820260595,
          105.76739705924628,
          -6.1441084523452165,
          -0.903305507794026
        ]
      },
      {
        "t_start": 2439352.778206956,
        "t_end": 2439352.7851514006,
        "cx": [
          1592.1965910691436,
          -373.72465639092377,
          -17.412843400908613,
          1.032012850418944
        ],
        "cy": [
          1046.2581855662147,
          343.1676699368702,
          -12.837103891435866,
          -2.7075030370930655
        ],
        "cz": [
          826.0233318325868,
          42.08029152373649,
          -9.59463089943431,
          -0.8219557157505069
        ]
      },
      {
        "t_start": 2439352.7851514006,
        "t_end": 2439352.792095845,
        "cx": [
          715.8062145874881,
          -498.5584461906917,
          -9.198295600829923,
          3.07526104962043
        ],
        "cy": [
          1590.459400270472,
          196.38466445254718,
          -22.134864521115666,
          -1.9413772777467777
        ],
        "cz": [
          820.2609993356765,
          -48.657291287946755,
          -11.223965434033927,
          0.007288448450663232
        ]
      },
      {
        "t_start": 2439352.792095845,
        "t_end": 2439352.7990402896,
        "cx": [
          -312.71772558687445,
          -523.3778030439172,
          3.9770862786768504,
          3.512429890132985
        ],
        "cy": [
          1774.0404058631825,
          -14.221350787828111,
          -24.970248377098095,
          0.523685349755521
        ],
        "cz": [
          631.0547280558467,
          -139.43340133999482,
          -8.992808130257945,
          1.1082902034373578
        ]
      },
      {
        "t_start": 2439352.7990402896,
        "t_end": 2439352.8059847336,
        "cx": [
          -1275.0175241607626,
          -433.62966920667066,
          14.561738925277353,
          1.7798964331672167
        ],
        "cy": [
          1549.6400312252633,
          -207.3680090119946,
          -19.348218700904987,
          2.2873294883410473
        ],
        "cz": [
          295.2325451224933,
          -193.9077066102985,
          -4.030658164137762,
          1.372784779622723
        ]
      },
      {
        "t_start": 2439352.8059847336,
        "t_end": 2439352.812929178,
        "cx": [
          -1997.3457725361277,
          -286.8981126366744,
          18.162671989317147,
          0.020570098852729757
        ],
        "cy": [
          1012.2302009087741,
          -325.5118334239501,
          -10.288242939815945,
          2.242658392203495
        ],
        "cz": [
          -104.67060504324101,
          -203.71915135039424,
          0.5219262459456822,
          0.9035074254190025
        ]
      },
      {
        "t_start": 2439352.812929178,
        "t_end": 2439352.8198736226,
        "cx": [
          -2424.066785761254,
          -140.52468776561994,
          16.759097634981742,
          -0.722357276020432
        ],
        "cy": [
          311.80523815160683,
          -371.1815276080158,
          -2.825039489413335,
          1.4889433329977955
        ],
        "cz": [
          -494.3002780495745,
          -184.59556469061295,
          3.1518401765984905,
          0.4114495399073945
        ]
      },
      {
        "t_start": 2439352.8198736226,
        "t_end": 2439352.826818067,
        "cx": [
          -2580.9468736320687,
          -17.904868879663603,
          13.66016008604332,
          -0.8271114984488364
        ],
        "cy": [
          -431.0423203360418,
          -369.32344720449737,
          1.86012786085778,
          0.8536403421377337
        ],
        "cz": [
          -831.9544107514458,
          -152.51665978537508,
          4.235656628364882,
          0.13045868597579435
        ]
      },
      {
        "t_start": 2439352.826818067,
        "t_end": 2439352.8337625116,
        "cx": [
          -2519.2618264354414,
          78.03916045644704,
          10.558648846355624,
          -0.7236441213949831
        ],
        "cy": [
          -1142.087645715724,
          -340.3993881671705,
          4.5051078768855035,
          0.4688496658761707
        ],
        "cz": [
          -1101.0208146616894,
          -116.41644726788016,
          4.502250342341572,
          0.002838171012550461
        ]
      },
      {
        "t_start": 2439352.8337625116,
        "t_end": 2439352.840706956,
        "cx": [
          -2289.1067805343687,
          150.79932124340354,
          7.925520443912692,
          -0.5929200798264542
        ],
        "cy": [
          -1779.8612532033903,
          -296.6467252434057,
          5.960096031066811,
          0.2586444112144832
        ],
        "cz": [
          -1297.6944365139832,
          -80.30226601766773,
          4.412067475833066,
          -0.04792960426678228
        ]
      },
      {
        "t_start": 2439352.840706956,
        "t_end": 2439352.8476514006,
        "cx": [
          -1932.6186682191224,
          204.60985721483618,
          5.767652729899897,
          -0.48601377717999306
        ],
        "cy": [
          -2321.6310154964754,
          -244.716697321345,
          6.772775487736254,
          0.1476953171202382
        ],
        "cz": [
          -1423.639230007665,
          -45.75549328190944,
          4.186135864042583,
          -0.06503620162850154
        ]
      },
      {
        "t_start": 2439352.8476514006,
        "t_end": 2439352.854595845,
        "cx": [
          -1484.212662621063,
          242.8994897240093,
          3.974335411471575,
          -0.4106448820341537
        ],
        "cy": [
          -2754.6996321780234,
          -188.1139485357466,
          7.2487171366490735,
          0.09027550733611456
        ],
        "cz": [
          -1482.5641747215388,
          -13.30325471542357,
          3.918529297123939,
          -0.06876708183074955
        ]
      },
      {
        "t_start": 2439352.854595845,
        "t_end": 2439352.8615402896,
        "cx": [
          -972.4617307621486,
          268.07700363703634,
          2.4254584157338286,
          -0.36379361583475855
        ],
        "cy": [
          -3071.61606435538,
          -128.650867976057,
          7.551948467752483,
          0.061340158215640095
        ],
        "cz": [
          -1478.7859670880773,
          16.94431726875023,
          3.6442391368550267,
          -0.06837799830377778
        ]
      },
      {
        "t_start": 2439352.8615402896,
        "t_end": 2439352.8684847336,
        "cx": [
          -422.04160862988755,
          281.6377429830657,
          1.0147073914149942,
          -0.3415818963246089
        ],
        "cy": [
          -3267.6148854695566,
          -67.23955198008593,
          7.768750783820838,
          0.0470609998185374
        ],
        "cz": [
          -1416.7006414922826,
          45.00421632438327,
          3.370655131531824,
          -0.06841400435780853
        ]
      },
      {
        "t_start": 2439352.8684847336,
        "t_end": 2439352.875429178,
        "cx": [
          144.5700202862304,
          284.2904164324503,
          -0.35223160978844703,
          -0.34188760427711884
        ],
        "cy": [
          -3339.2689622402354,
          -4.328487449999554,
          7.940825465006446,
          0.038976340774295126
        ],
        "cz": [
          -1300.6781463867621,
          70.87814397994745,
          3.090385529151529,
          -0.07172079683229526
        ]
      },
      {
        "t_start": 2439352.875429178,
        "t_end": 2439352.8823736226,
        "cx": [
          705.5927514873327,
          276.0254507229034,
          -1.7659597012858228,
          -0.36497644147158326
        ],
        "cy": [
          -3283.8365089396675,
          59.83031557727846,
          8.079575118429588,
          0.0303984859372477
        ],
        "cz": [
          -1135.1842177582391,
          94.4630192593771,
          2.784854750755791,
          -0.08104459236561823
        ]
      },
      {
        "t_start": 2439352.8823736226,
        "t_end": 2439352.889318067,
        "cx": [
          1238.5035491197045,
          256.1067720377981,
          -3.323109444627029,
          -0.41359843019896303
        ],
        "cy": [
          -3099.0798980892214,
          124.97019227237698,
          8.16736911684789,
          0.01349851327184659
        ],
        "cz": [
          -925.0756066324002,
          115.46432323465189,
          2.422317487135677,
          -0.10022403944441027
        ]
      },
      {
        "t_start": 2439352.889318067,
        "t_end": 2439352.8962625116,
        "cx": [
          1718.5000113936967,
          222.98340748669742,
          -5.135674943618536,
          -0.4926843192968331
        ],
        "cy": [
          -2783.5357997776773,
          190.5630122426096,
          8.145581523732123,
          -0.024392309829652348
        ],
        "cz": [
          -676.1008176901742,
          133.27464806465616,
          1.9506822012999265,
          -0.1355936034734846
        ]
      },
      {
        "t_start": 2439352.8962625116,
        "t_end": 2439352.903206956,
        "cx": [
          2116.7129367512857,
          174.1296040306491,
          -7.335502624103821,
          -0.6072295209458449
        ],
        "cy": [
          -2337.42102104961,
          255.42018467049556,
          7.8824178938071086,
          -0.10718950513282621
        ],
        "cz": [
          -395.71955398243915,
          146.77301822780578,
          1.2834873707539813,
          -0.19800381179948445
        ]
      },
      {
        "t_start": 2439352.903206956,
        "t_end": 2439352.9101514006,
        "cx": [
          2398.0790659568315,
          105.87598841784454,
          -10.056576138208214,
          -0.7533072361062954
        ],
        "cy": [
          -1764.6727505974509,
          316.9391012551127,
          7.1044488407079385,
          -0.2817950214168299
        ],
        "cz": [
          -94.46321963786376,
          153.98008234910824,
          0.2770198354312079,
          -0.30522995586189516
        ]
      },
      {
        "t_start": 2439352.9101514006,
        "t_end": 2439352.917095845,
        "cx": [
          2519.099305647197,
          13.504050167393833,
          -13.336978348462921,
          -0.8868938690211157
        ],
        "cy": [
          -1077.1982655874008,
          369.61888267510534,
          5.271446681043294,
          -0.6347060584154924
        ],
        "cz": [
          211.79076440065728,
          151.4880017582283,
          -1.294780026937719,
          -0.4806699753225683
        ]
      },
      {
        "t_start": 2439352.917095845,
        "t_end": 2439352.9240402896,
        "cx": [
          2426.895884533044,
          -107.43166877211873,
          -16.785373329606085,
          -0.8373036215504381
        ],
        "cy": [
          -303.3734180952709,
          402.2858559444985,
          1.4312289359912214,
          -1.2854028141105296
        ],
        "cz": [
          498.17489201782615,
          133.68691392293044,
          -3.713203898958099,
          -0.7285419606876218
        ]
      },
      {
        "t_start": 2439352.9240402896,
        "t_end": 2439352.9309847336,
        "cx": [
          2064.6972506813668,
          -255.77653673254022,
          -18.804516635570614,
          -0.17226803143181613
        ],
        "cy": [
          496.50755107415375,
          394.0967617099239,
          -5.565474094012899,
          -2.2129487008915447
        ],
        "cz": [
          726.0475237137797,
          92.52661884156859,
          -7.031401761866921,
          -0.9305569707667876
        ]
      },
      {
        "t_start": 2439352.9309847336,
        "t_end": 2439352.937929178,
        "cx": [
          1396.8484472661514,
          -410.6928916822177,
          -16.045766634655216,
          1.5516430318895154
        ],
        "cy": [
          1210.1829713643795,
          314.65928726001937,
          -15.4042167345775,
          -2.7064226193907626
        ],
        "cz": [
          841.3365863334562,
          21.143913403887627,
          -10.268462510307764,
          -0.687973403453628
        ]
      },
      {
        "t_start": 2439352.937929178,
        "t_end": 2439352.9448736226,
        "cx": [
          465.08834779817147,
          -516.0983289856052,
          -6.108009034341308,
          3.417235768267446
        ],
        "cy": [
          1675.8005356093365,
          146.83411160965161,
          -23.652547485150265,
          -1.4177427558956004
        ],
        "cz": [
          789.859598659147,
          -73.00410450946829,
          -11.034869372850048,
          0.3047699721824584
        ]
      },
      {
        "t_start": 2439352.9448736226,
        "t_end": 2439352.951818067,
        "cx": [
          -567.7249140452174,
          -510.0835451446525,
          7.154766391921264,
          3.214151944863797
        ],
        "cy": [
          1755.311768819842,
          -67.6142581384088,
          -24.235306963675633,
          1.1263630166329328
        ],
        "cz": [
          557.9020522974304,
          -157.37532092261645,
          -7.8786275135871655,
          1.2733509574490132
        ]
      },
      {
        "t_start": 2439352.951818067,
        "t_end": 2439352.9587625116,
        "cx": [
          -1481.758326413407,
          -399.47027311263594,
          16.11395461372291,
          1.2654421660370971
        ],
        "cy": [
          1439.3905501531021,
          -244.76457003837584,
          -17.150525983765107,
          2.416027473322302
        ],
        "cz": [
          197.91271898936162,
          -200.0490180913419,
          -2.7486389253662047,
          1.2916433366614637
        ]
      },
      {
        "t_start": 2439352.9587625116,
        "t_end": 2439352.965706956,
        "cx": [
          -2131.0321318408614,
          -248.79210476450146,
          18.136809714358726,
          -0.2540146157192602
        ],
        "cy": [
          847.1674865133016,
          -342.96938849506023,
          -8.172315771036217,
          2.073077633042171
        ],
        "cz": [
          -205.0373739187511,
          -200.844812125568,
          1.3638864570394418,
          0.7646193545413595
        ]
      },
      {
        "t_start": 2439352.965706956,
        "t_end": 2439352.9726514006,
        "cx": [
          -2486.0129600050304,
          -107.22930676612313,
          16.055642981446393,
          -0.7865687507368482
        ],
        "cy": [
          126.4037062892564,
          -374.4134544987878,
          -1.4104413106415805,
          1.307859597155133
        ],
        "cz": [
          -584.2264520534289,
          -177.25741904830892,
          3.5375803786414224,
          0.32222760625962366
        ]
      },
      {
        "t_start": 2439352.9726514006,
        "t_end": 2439352.979595845,
        "cx": [
          -2582.989804378143,
          8.65503098259778,
          12.860780160622372,
          -0.8108626596752235
        ],
        "cy": [
          -614.2552360428004,
          -364.2005000341984,
          2.679534287499358,
          0.737128201915322
        ],
        "cz": [
          -905.460612150845,
          -143.5667100778058,
          4.357642321244009,
          0.08780336504168407
        ]
      },
      {
        "t_start": 2439352.979595845,
        "t_end": 2439352.9865402896,
        "cx": [
          -2474.3851281858792,
          98.4476948015443,
          9.85687934437723,
          -0.6910877484472895
        ],
        "cy": [
          -1310.233700290771,
          -330.6369411567499,
          4.9615804015436495,
          0.40389485510680956
        ],
        "cz": [
          -1156.2981956377992,
          -107.19799217312577,
          4.503404793289395,
          -0.01492212901901624
        ]
      },
      {
        "t_start": 2439352.9865402896,
        "t_end": 2439352.9934847336,
        "cx": [
          -2208.5639402686975,
          166.11831718598245,
          7.3465274850681475,
          -0.5640881812073051
        ],
        "cy": [
          -1925.8005621724374,
          -284.3020453405046,
          6.217331170366478,
          0.2239805293046473
        ],
        "cz": [
          -1334.7967554930538,
          -71.3699569209991,
          4.364626315547909,
          -0.05446710985168579
        ]
      },
      {
        "t_start": 2439352.9934847336,
        "t_end": 2439353.000429178,
        "cx": [
          -1825.6506218434677,
          215.76598190660604,
          5.288488819784789,
          -0.4649311514343779
        ],
        "cy": [
          -2441.341280163872,
          -230.88521818108387,
          6.924240110059923,
          0.12947394054201844
        ],
        "cz": [
          -1443.3572383878086,
          -37.311941997808646,
          4.121794267443549,
          -0.06694891420053795
        ]
      },
      {
        "t_start": 2439353.000429178,
        "t_end": 2439353.0073736226,
        "cx": [
          -1358.4556966785924,
          250.5670374986671,
          3.5646773005795396,
          -0.39697460816817554
        ],
        "cy": [
          -2845.807856748216,
          -173.37106238705474,
          7.344832142470782,
          0.0808220756634892
        ],
        "cz": [
          -1485.939844747478,
          -5.406666337865332,
          3.849790315433623,
          -0.06905306180441073
        ]
      },
      {
        "t_start": 2439353.0073736226,
        "t_end": 2439353.014318067,
        "cx": [
          -834.4428233671101,
          272.69237438454593,
          2.057754444042537,
          -0.3564868201003826
        ],
        "cy": [
          -3132.61115095633,
          -113.29491985320172,
          7.619456078187271,
          0.05648989219461331
        ],
        "cz": [
          -1466.9231134655665,
          24.286049346450437,
          3.5750937687810094,
          -0.06829521152188178
        ]
      },
      {
        "t_start": 2439353.014318067,
        "t_end": 2439353.0212625116,
        "cx": [
          -277.61986643981055,
          283.4341148589165,
          0.6648190763677775,
          -0.3399808637369972
        ],
        "cy": [
          -3297.4301323222853,
          -51.42325734047798,
          7.82106442273634,
          0.0443142800800953
        ],
        "cz": [
          -1390.704195859849,
          51.79517697428585,
          3.2997111988195584,
          -0.06939607345887211
        ]
      },
      {
        "t_start": 2439353.0212625116,
        "t_end": 2439353.028206956,
        "cx": [
          289.81876781873217,
          283.3187656611094,
          -0.706688400665989,
          -0.34577287477987184
        ],
        "cy": [
          -3337.07243460815,
          11.8619350687345,
          7.983024450981532,
          0.03666573404235862
        ],
        "cz": [
          -1261.6795568054524,
          77.08659966134672,
          3.0139863612906197,
          -0.07346634530558305
        ]
      },
      {
        "t_start": 2439353.028206956,
        "t_end": 2439353.0351514006,
        "cx": [
          846.020069567996,
          272.1619413989491,
          -2.1478777790759835,
          -0.3748218144251396
        ],
        "cy": [
          -3248.951178225556,
          76.32271760160411,
          8.109817026467342,
          0.026730553700688553
        ],
        "cz": [
          -1084.3999211843457,
          100.03456614796565,
          2.697046737701964,
          -0.08500346648875912
        ]
      },
      {
        "t_start": 2439353.0351514006,
        "t_end": 2439353.042095845,
        "cx": [
          1368.02462867784,
          249.0373721087919,
          -3.7583689832814997,
          -0.4304237876776469
        ],
        "cy": [
          -3031.0113375139713,
          141.64976344496816,
          8.17509769644672,
          0.005909781288863769
        ],
        "cz": [
          -863.8994219643657,
          120.27340536239893,
          2.311991318470646,
          -0.10752424312687836
        ]
      },
      {
        "t_start": 2439353.042095845,
        "t_end": 2439353.0490402896,
        "cx": [
          1830.1812615049346,
          212.1710263913226,
          -5.6548376372426326,
          -0.5178105393029195
        ],
        "cy": [
          -2682.1354054043286,
          207.19154487220783,
          8.10585011151073,
          -0.04053357375677713
        ],
        "cz": [
          -606.2802338479029,
          137.08984114397214,
          1.800108098287076,
          -0.1484173669648996
        ]
      },
      {
        "t_start": 2439353.0490402896,
        "t_end": 2439353.0559847336,
        "cx": [
          2202.2816030405047,
          158.77051916612166,
          -7.97242959349502,
          -0.640985438823253
        ],
        "cy": [
          -2203.2722990467846,
          271.490143439518,
          7.743014019875197,
          -0.14088447206101407
        ],
        "cz": [
          -319.634336187897,
          149.18762012754357,
          1.0632353213073173,
          -0.22001902152500108
        ]
      },
      {
        "t_start": 2439353.0559847336,
        "t_end": 2439353.062929178,
        "cx": [
          2447.3679149154514,
          84.88457267467801,
          -10.834869661787263,
          -0.7902345953229091
        ],
        "cy": [
          -1599.9014670861973,
          331.3895219095698,
          6.760680796876549,
          -0.3502821394383453
        ],
        "cz": [
          -15.589688912403616,
          154.2950988073566,
          -0.06062135987930617,
          -0.34190931906831423
        ]
      },
      {
        "t_start": 2439353.062929178,
        "t_end": 2439353.0698736226,
        "cx": [
          2519.616186771688,
          -14.327454076937101,
          -14.217176178779882,
          -0.9009186631733437
        ],
        "cy": [
          -887.1088589275886,
          380.2864880118651,
          4.527484322527549,
          -0.7663160977360839
        ],
        "cz": [
          288.11825360178744,
          148.53430194596348,
          -1.8177048816213741,
          -0.5366324418027197
        ]
      },
      {
        "t_start": 2439353.0698736226,
        "t_end": 2439353.076818067,
        "cx": [
          2364.306286889343,
          -142.63192262485185,
          -17.516129817667853,
          -0.7485581562706436
        ],
        "cy": [
          -99.5743125757568,
          404.98036558640143,
          -0.007901184602388867,
          -1.5013766558288992
        ],
        "cz": [
          563.6427749621122,
          125.66174917745235,
          -4.474645355439311,
          -0.7918377951062343
        ]
      },
      {
        "t_start": 2439353.076818067,
        "t_end": 2439353.0837625116,
        "cx": [
          1926.6161222265669,
          -295.64662500849494,
          -18.692895758808312,
          0.16017518570034284
        ],
        "cy": [
          691.151598433382,
          381.8189608636998,
          -7.861070302677625,
          -2.425207903208719
        ],
        "cz": [
          768.3597958767278,
          77.33338887959465,
          -7.918411070576219,
          -0.9300450624622556
        ]
      },
      {
        "t_start": 2439353.0837625116,
        "t_end": 2439353.090706956,
        "cx": [
          1184.164791560431,
          -444.55567169699844,
          -14.194827837524372,
          2.0888587749416843
        ],
        "cy": [
          1358.2647234239428,
          280.28541015569147,
          -17.87857824501708,
          -2.5835460679610094
        ],
        "cz": [
          845.8001631743679,
          -1.3238661956453286,
          -10.78010029795804,
          -0.5007995512286327
        ]
      },
      {
        "t_start": 2439353.090706956,
        "t_end": 2439353.0976514006,
        "cx": [
          207.69227328039915,
          -526.2158415156382,
          -2.7928177027335934,
          3.612146292453705
        ],
        "cy": [
          1736.0762259105675,
          94.13952365159457,
          -24.651715603694463,
          -0.8030226113776244
        ],
        "cz": [
          747.6971481587876,
          -96.6791046606799,
          -10.580011979448347,
          0.6008437104834794
        ]
      },
      {
        "t_start": 2439353.0976514006,
        "t_end": 2439353.104595845,
        "cx": [
          -814.8835945845016,
          -489.9498881113013,
          10.027458773189657,
          2.797991945507892
        ],
        "cy": [
          1711.0266296477316,
          -118.35886404859373,
          -22.99120387202059,
          1.6332784772144606
        ],
        "cz": [
          476.5734017893639,
          -172.474327708154,
          -6.639383978268526,
          1.3694702901064382
        ]
      },
      {
        "t_start": 2439353.104595845,
        "t_end": 2439353.1115402896,
        "cx": [
          -1671.3779044959877,
          -362.9553923534132,
          17.205517666732902,
          0.7910375012637019
        ],
        "cy": [
          1311.6390988597043,
          -276.95907458716636,
          -14.852019567487297,
          2.436313675052258
        ],
        "cz": [
          98.06653509219683,
          -203.48573665069966,
          -1.5457793016415167,
          1.1773320482070595
        ]
      },
      {
        "t_start": 2439353.1115402896,
        "t_end": 2439353.1184847336,
        "cx": [
          -2246.0613100460673,
          -211.40028497384122,
          17.86097411238251,
          -0.46330927843888325
        ],
        "cy": [
          674.1200146038755,
          -356.2407867799597,
          -6.213573790081249,
          1.8829092136507448
        ],
        "cz": [
          -303.7026360481258,
          -196.47170766842595,
          2.077674340752484,
          0.6343947729899373
        ]
      },
      {
        "t_start": 2439353.1184847336,
        "t_end": 2439353.125429178,
        "cx": [
          -2531.7449938802956,
          -75.56773380574094,
          15.292304221675238,
          -0.8210256669147498
        ],
        "cy": [
          -60.22656543608499,
          -375.08141446649245,
          -0.16481620306459632,
          1.1414695798575814
        ],
        "cz": [
          -670.3675484481565,
          -169.31221199725826,
          3.8396598094455037,
          0.2465979613565903
        ]
      },
      {
        "t_start": 2439353.125429178,
        "t_end": 2439353.1323736226,
        "cx": [
          -2572.1045620854607,
          33.60020178188566,
          12.076376584294849,
          -0.7869381517754448
        ],
        "cy": [
          -794.7153937227142,
          -357.63045273685464,
          3.389105963499226,
          0.6354915034243156
        ],
        "cz": [
          -974.4353671975508,
          -134.4558884847057,
          4.439096344306435,
          0.053120306073854096
        ]
      },
      {
        "t_start": 2439353.1323736226,
        "t_end": 2439353.1948736226,
        "cx": [
          -550.5256241797078,
          2221.47019536217,
          148.66026132685792,
          -92.03690435211357,
          3.285447804620567
        ],
        "cy": [
          -2577.8111720550955,
          -836.1190223904877,
          612.8181433411031,
          15.92381565991163,
          -3.06994630428406
        ],
        "cz": [
          -1171.5270600383885,
          232.64882751750372,
          283.01085105062947,
          -17.13096700044589,
          -0.38744592337321926
        ]
      },
      {
        "t_start": 2439353.1948736226,
        "t_end": 2439353.201818067,
        "cx": [
          1936.0205408014301,
          200.28909847468788,
          -6.200258070713247,
          -0.5451230473064399
        ],
        "cy": [
          -2572.2911227179366,
          223.73812354389315,
          8.046814364303689,
          -0.06002996738360444
        ],
        "cz": [
          -534.6579870076824,
          140.590276447142,
          1.6352328977342658,
          -0.16312558675525501
        ]
      },
      {
        "t_start": 2439353.201818067,
        "t_end": 2439353.2087625116,
        "cx": [
          2279.627477834132,
          142.09632880774018,
          -8.643277571262574,
          -0.676386702968224
        ],
        "cy": [
          -2061.038236646034,
          287.273430786714,
          7.564150881715555,
          -0.18130177391054403
        ],
        "cz": [
          -242.51535238471058,
          151.14411862162564,
          0.8187537893259673,
          -0.24511396744888714
        ]
      },
      {
        "t_start": 2439353.2087625116,
        "t_end": 2439353.215706956,
        "cx": [
          2485.5018869852606,
          62.276613963799655,
          -11.646210330440127,
          -0.8250796766205265
        ],
        "cy": [
          -1428.015863879471,
          345.13607394494915,
          6.338414811915705,
          -0.43156626098943107
        ],
        "cz": [
          63.16733863186421,
          153.9103349585514,
          -0.43772108346940897,
          -0.3831234689488223
        ]
      },
      {
        "t_start": 2439353.215706956,
        "t_end": 2439353.2226514006,
        "cx": [
          2505.4831121325724,
          -44.0199458376895,
          -15.095324372842766,
          -0.8994773445807942
        ],
        "cy": [
          -692.1046079328689,
          389.42519087205864,
          3.638432552725561,
          -0.9184248686055554
        ],
        "cz": [
          362.5497677983556,
          144.49221902882857,
          -2.3974714416924066,
          -0.5967517101626623
        ]
      },
      {
        "t_start": 2439353.2226514006,
        "t_end": 2439353.229595845,
        "cx": [
          2283.5135506081465,
          -179.4613743548113,
          -18.118841708992548,
          -0.6122813234940665
        ],
        "cy": [
          104.62355308464024,
          404.651986902207,
          -1.663533933760256,
          -1.7325583746373816
        ],
        "cz": [
          624.5043835593601,
          116.0166567222688,
          -5.288951461506599,
          -0.8489882997444553
        ]
      },
      {
        "t_start": 2439353.229595845,
        "t_end": 2439353.2365402896,
        "cx": [
          1768.7136762415857,
          -335.38583593069694,
          -18.213513546887526,
          0.5649454045465774
        ],
        "cy": [
          878.0822235960183,
          364.4821741489118,
          -10.312552854278437,
          -2.5919510856217514
        ],
        "cz": [
          802.4278153088111,
          60.1650153309988,
          -8.772470853873536,
          -0.8927713964389843
        ]
      },
      {
        "t_start": 2439353.2365402896,
        "t_end": 2439353.2434847336,
        "cx": [
          956.0636924035076,
          -474.09452394883215,
          -11.874265629788766,
          2.6046785540027173
        ],
        "cy": [
          1487.7235926861288,
          240.24290330226688,
          -20.145136132142486,
          -2.324340553310252
        ],
        "cz": [
          838.8231951571024,
          -24.927136630615976,
          -11.087473149690616,
          -0.2647297514695772
        ]
      },
      {
        "t_start": 2439353.2434847336,
        "t_end": 2439353.250429178,
        "cx": [
          -52.7231406835459,
          -528.4483887784215,
          0.6135750898091956,
          3.639241805796349
        ],
        "cy": [
          1770.1434178266093,
          39.71030771360981,
          -25.07836438135102,
          -0.14227357129399998
        ],
        "cz": [
          694.2892067796488,
          -118.99945695329096,
          -9.87268356259722,
          0.8721245450162929
        ]
      },
      {
        "t_start": 2439353.250429178,
        "t_end": 2439353.2573736226,
        "cx": [
          -1051.0972037561448,
          -463.9795549248955,
          12.505813828372808,
          2.3068775634854717
        ],
        "cy": [
          1642.6223990352785,
          -165.35442906271575,
          -21.324569496900974,
          2.019171013519065
        ],
        "cz": [
          388.4675338622275,
          -184.55244980395284,
          -5.333151242241801,
          1.3976416151613993
        ]
      },
      {
        "t_start": 2439353.2573736226,
        "t_end": 2439353.264318067,
        "cx": [
          -1842.8520176020463,
          -325.0922535380903,
          17.871824594206046,
          0.3761278194311046
        ],
        "cy": [
          1168.8827628813594,
          -303.99555694289154,
          -12.545269200276564,
          2.3704791347931007
        ],
        "cz": [
          -3.0280857302917354,
          -204.5016402287743,
          -0.45009212265802034,
          1.0438879446305052
        ]
      },
      {
        "t_start": 2439353.264318067,
        "t_end": 2439353.2712625116,
        "cx": [
          -2342.813218634895,
          -175.1081517647199,
          17.393416054280998,
          -0.6153320893936156
        ],
        "cy": [
          495.08400078616836,
          -365.746145635564,
          -4.431150166805104,
          1.6865803819426226
        ],
        "cz": [
          -399.9629925446757,
          -190.87283039614948,
          2.6707802562626526,
          0.5165482448298171
        ]
      },
      {
        "t_start": 2439353.2712625116,
        "t_end": 2439353.278206956,
        "cx": [
          -2562.0614171601655,
          -45.58842385005389,
          14.496661875274826,
          -0.8330450001094727
        ],
        "cy": [
          -246.8551381780473,
          -373.51494671184474,
          0.9249430668080265,
          0.9914662348639709
        ],
        "cz": [
          -752.4443371781304,
          -160.90861708820833,
          4.070574554456005,
          0.18334890426685924
        ]
      },
      {
        "t_start": 2439353.278206956,
        "t_end": 2439353.2851514006,
        "cx": [
          -2549.077355363856,
          56.98127339826854,
          11.314237379085652,
          -0.7581672479850861
        ],
        "cy": [
          -971.7167417601787,
          -349.80783341005775,
          4.0025899872658,
          0.5473572253649017
        ],
        "cz": [
          -1038.813645612111,
          -125.25221586076468,
          4.487525524471376,
          0.025126580740833404
        ]
      },
      {
        "t_start": 2439353.2851514006,
        "t_end": 2439353.292095845,
        "cx": [
          -2355.4783884843764,
          135.23292772421703,
          8.544705865098582,
          -0.6265985090085398
        ],
        "cy": [
          -1631.1546981507047,
          -308.7824032179156,
          5.69802951237083,
          0.3003625371876133
        ],
        "cz": [
          -1252.935933320876,
          -88.88490252982959,
          4.457864160812711,
          -0.03995726257013743
        ]
      },
      {
        "t_start": 2439353.292095845,
        "t_end": 2439353.2990402896,
        "cx": [
          -2025.656717891473,
          193.45027217576904,
          6.26776447926153,
          -0.5118721839099329
        ],
        "cy": [
          -2198.667695751556,
          -258.26111791625397,
          6.6369824457355975,
          0.1691139294947277
        ],
        "cz": [
          -1395.5559363146888,
          -53.838160216786605,
          4.251744655206856,
          -0.06310249023283276
        ]
      },
      {
        "t_start": 2439353.2990402896,
        "t_end": 2439353.3059847336,
        "cx": [
          -1595.9472131123046,
          235.3189534793989,
          4.387206231261022,
          -0.42840694009029257
        ],
        "cy": [
          -2659.589796948149,
          -202.39108773214133,
          7.176773542129027,
          0.10078161870201896
        ],
        "cz": [
          -1470.0897543246538,
          -20.827851542347773,
          3.9873571568673785,
          -0.06909125893692142
        ]
      },
      {
        "t_start": 2439353.3059847336,
        "t_end": 2439353.312929178,
        "cx": [
          -1096.3170768503392,
          263.5082389439966,
          2.7813185541219667,
          -0.3745368984792634
        ],
        "cy": [
          -3005.477323404357,
          -143.3296402840693,
          7.5103704221247,
          0.06601682129582098
        ],
        "cz": [
          -1480.8136131105205,
          9.965677719693618,
          3.7107270832912627,
          -0.06922377785107936
        ]
      },
      {
        "t_start": 2439353.312929178,
        "t_end": 2439353.3198736226,
        "cx": [
          -552.3501988356745,
          279.73788113750686,
          1.3398026877994411,
          -0.3462210346819994
        ],
        "cy": [
          -3231.0948889811334,
          -82.17314970822673,
          7.739921591083375,
          0.048758763183569975
        ],
        "cz": [
          -1432.1662538141115,
          38.543573980710015,
          3.434511891281745,
          -0.0688838181537359
        ]
      },
      {
        "t_start": 2439353.3198736226,
        "t_end": 2439353.326818067,
        "cx": [
          12.98601963037791,
          284.9113306720859,
          -0.034210625119641236,
          -0.3407856217775418
        ],
        "cy": [
          -3332.82072869078,
          -19.464404621837758,
          7.916492350250791,
          0.03952661640008148
        ],
        "cz": [
          -1328.5628006617578,
          64.91981977791997,
          3.154393103833275,
          -0.07117557557043952
        ]
      },
      {
        "t_start": 2439353.326818067,
        "t_end": 2439353.3337625116,
        "cx": [
          577.7981006791035,
          279.20212742788635,
          -1.431456522626199,
          -0.3578373269757371
        ],
        "cy": [
          -3307.847988508784,
          44.5080790396023,
          8.058360821787304,
          0.03140761936811742
        ],
        "cz": [
          -1174.4693055961252,
          89.02373976801564,
          2.854522064440239,
          -0.07875994412612286
        ]
      },
      {
        "t_start": 2439353.3337625116,
        "t_end": 2439353.340706956,
        "cx": [
          1119.824197652307,
          262.06668645331547,
          -2.946022706630391,
          -0.39944576502635876
        ],
        "cy": [
          -3153.896613518834,
          109.49179935643696,
          8.15536763396473,
          0.017095786720624062
        ],
        "cz": [
          -974.6556401312332,
          110.61608149307169,
          2.5068336568305867,
          -0.09508425967867495
        ]
      },
      {
        "t_start": 2439353.340706956,
        "t_end": 2439353.3476514006,
        "cx": [
          1614.938194881749,
          232.17789590296192,
          -4.684852452959344,
          -0.46996910813808235
        ],
        "cy": [
          -2869.3676215740475,
          175.03982858873738,
          8.160639634740075,
          -0.014459786332894353
        ],
        "cz": [
          -734.6387994102427,
          129.17999665070957,
          2.065308502412634,
          -0.12567831753031555
        ]
      },
      {
        "t_start": 2439353.3476514006,
        "t_end": 2439353.354595845,
        "cx": [
          2035.444873835827,
          187.2842076919591,
          -6.774003171272483,
          -0.5746062510185297
        ],
        "cy": [
          -2454.06714011043,
          240.16266119377326,
          7.964656272526469,
          -0.08353189477391965
        ],
        "cz": [
          -461.40725187767566,
          143.74590291816125,
          1.4540125750202009,
          -0.17996964616590816
        ]
      },
      {
        "t_start": 2439353.354595845,
        "t_end": 2439353.3615402896,
        "cx": [
          2348.0534654904386,
          124.03682688304933,
          -9.349117330479963,
          -0.7129508285852246
        ],
        "cy": [
          -1910.9017232813856,
          302.6895464516628,
          7.338237905310805,
          -0.22967728883393335
        ],
        "cz": [
          -164.61555738101202,
          152.59217073291947,
          0.5467708838541476,
          -0.27365119941711846
        ]
      },
      {
        "t_start": 2439353.3615402896,
        "t_end": 2439353.3684847336,
        "cx": [
          2511.638473857315,
          37.97947471453864,
          -12.48653086905733,
          -0.8557559407034341
        ],
        "cy": [
          -1249.43639710771,
          358.01850804528823,
          5.823694551861998,
          -0.5275943878904918
        ],
        "cz": [
          141.42272998347386,
          152.7433613161004,
          -0.8587397470778306,
          -0.42910411604886356
        ]
      },
      {
        "t_start": 2439353.3684847336,
        "t_end": 2439353.375429178,
        "cx": [
          2475.7660154413484,
          -75.58415680998024,
          -15.9509782280061,
          -0.8764677387709234
        ],
        "cy": [
          -493.06717541974604,
          396.73105218573966,
          2.5843716379892996,
          -1.0920670690458358
        ],
        "cz": [
          434.4936057935908,
          139.23854674878046,
          -3.036675237549799,
          -0.6598636291871278
        ]
      },
      {
        "t_start": 2439353.375429178,
        "t_end": 2439353.3823736226,
        "cx": [
          2183.803690907935,
          -217.673284827669,
          -18.541212436478332,
          -0.4186493654652068
        ],
        "cy": [
          307.5383350328829,
          400.8116381568592,
          -3.5412685820708703,
          -1.970753040984249
        ],
        "cz": [
          679.9079179909396,
          104.62168248579106,
          -6.14484116310406,
          -0.894219333590013
        ]
      },
      {
        "t_start": 2439353.3823736226,
        "t_end": 2439353.389318067,
        "cx": [
          1591.3609045544029,
          -374.1540872118661,
          -17.310383808483643,
          1.034063679462509
        ],
        "cy": [
          1054.674061118842,
          341.66601134583783,
          -12.857421748595002,
          -2.6873235422778166
        ],
        "cz": [
          827.3059616331761,
          41.071683166391956,
          -9.554197143211386,
          -0.8104586564636573
        ]
      },
      {
        "t_start": 2439353.389318067,
        "t_end": 2439353.3962625116,
        "cx": [
          715.00552682662,
          -498.11265098266375,
          -9.133104741978201,
          3.0545758537902685
        ],
        "cy": [
          1596.0047780162868,
          195.049759573842,
          -22.087313704124846,
          -1.9276224354871054
        ],
        "cz": [
          820.0300187082817,
          -49.148887943465674,
          -11.156720847570686,
          0.009196804284021809
        ]
      },
      {
        "t_start": 2439353.3962625116,
        "t_end": 2439353.403206956,
        "cx": [
          -312.4053708492117,
          -522.746685121716,
          3.970018400926236,
          3.4969857176619215
        ],
        "cy": [
          1777.5373606365677,
          -14.93156542574296,
          -24.916090648488492,
          0.5132339633052965
        ],
        "cz": [
          630.4302175071922,
          -139.3440127522714,
          -8.94291983686579,
          1.097703701068447
        ]
      },
      {
        "t_start": 2439353.403206956,
        "t_end": 2439353.4101514006,
        "cx": [
          -1273.7571566957974,
          -433.3229478606305,
          14.53432412940478,
          1.7851671465773364
        ],
        "cy": [
          1552.0071912690914,
          -207.81034160794417,
          -19.339565980910038,
          2.275028370483888
        ],
        "cz": [
          295.03062544414996,
          -193.59214206936824,
          -4.016045354059653,
          1.3657335403346007
        ]
      },
      {
        "t_start": 2439353.4101514006,
        "t_end": 2439353.417095845,
        "cx": [
          -1995.6257771309952,
          -286.73050938078364,
          18.1646505169728,
          0.029996047206644505
        ],
        "cy": [
          1013.5856227773343,
          -326.093792835164,
          -10.304697883612775,
          2.2424056781647863
        ],
        "cz": [
          -104.23691778455385,
          -203.40635116757906,
          0.5220546294529989,
          0.9033164514217251
        ]
      },
      {
        "t_start": 2439353.417095845,
        "t_end": 2439353.4240402896,
        "cx": [
          -2421.85082122538,
          -140.18395555444118,
          16.785808835292432,
          -0.7194168880468563
        ],
        "cy": [
          311.85026666258585,
          -371.9048184883423,
          -2.8312083011279725,
          1.4943391130776291
        ],
        "cz": [
          -493.24562763551427,
          -184.28628834487267,
          3.154195306470296,
          0.4127538870869234
        ]
      },
      {
        "t_start": 2439353.4240402896,
        "t_end": 2439353.4309847336,
        "cx": [
          -2577.7856011897734,
          -17.29890396748499,
          13.68964972022646,
          -0.8286626694861015
        ],
        "cy": [
          -432.41586499257465,
          -370.00883461653274,
          1.8737487994432271,
          0.8581394372079565
        ],
        "cz": [
          -830.2426296700635,
          -152.16692917649027,
          4.241764332842617,
          0.13103062609924088
        ]
      },
      {
        "t_start": 2439353.4309847336,
        "t_end": 2439353.437929178,
        "cx": [
          -2514.671491624676,
          78.8576906439659,
          10.579003942994262,
          -0.7266602191299967
        ],
        "cy": [
          -1144.6558815533042,
          -340.90177004300216,
          4.532572601832705,
          0.47127246398676803
        ],
        "cz": [
          -1098.5512717322702,
          -116.00799255823057,
          4.509204987814067,
          0.002689701386484167
        ]
      },
      {
        "t_start": 2439353.437929178,
        "t_end": 2439353.500429178,
        "cx": [
          -326.11185403847816,
          2277.769807333148,
          85.50104779606707,
          -90.02389050307275,
          1.621880089273605
        ],
        "cy": [
          -2649.933876406183,
          -560.9988840909871,
          624.0980008841622,
          13.039648522137512,
          -2.3906222169758093
        ],
        "cz": [
          -1141.3445440719888,
          356.99290616312015,
          270.9840874590571,
          -17.762311818431677,
          -0.5392094180572293
        ]
      },
      {
        "t_start": 2439353.500429178,
        "t_end": 2439353.5073736226,
        "cx": [
          2127.863012952473,
          173.09751285661645,
          -7.378071464773782,
          -0.6061787682385074
        ],
        "cy": [
          -2327.548904879369,
          256.4176674955964,
          7.854786907390988,
          -0.11180909260961158
        ],
        "cz": [
          -386.71975967824767,
          146.5232439574033,
          1.2541349067751177,
          -0.19923173824840923
        ]
      },
      {
        "t_start": 2439353.5073736226,
        "t_end": 2439353.514318067,
        "cx": [
          2406.834488713894,
          104.51784310746886,
          -10.09031105944613,
          -0.7499410290976525
        ],
        "cy": [
          -1753.0893581007558,
          317.6426391853839,
          7.056306712125739,
          -0.2874310050230129
        ],
        "cz": [
          -86.21589713200979,
          153.47538525598378,
          0.2436682410739195,
          -0.3060015946022041
        ]
      },
      {
        "t_start": 2439353.514318067,
        "t_end": 2439353.5212625116,
        "cx": [
          2524.9075068695224,
          11.925795578150868,
          -13.349069999463694,
          -0.8794384409111307
        ],
        "cy": [
          -1064.6717699381327,
          369.84714188460725,
          5.20069252686217,
          -0.6403760876087574
        ],
        "cz": [
          218.74803240222514,
          150.70262337999336,
          -1.328173555441733,
          -0.4799193036556293
        ]
      },
      {
        "t_start": 2439353.5212625116,
        "t_end": 2439353.528206956,
        "cx": [
          2429.544409947089,
          -108.99277442727143,
          -16.75683385283891,
          -0.8244434857764773
        ],
        "cy": [
          -291.04371485017157,
          401.8534128629505,
          1.3456918460551606,
          -1.2871242527947473
        ],
        "cz": [
          503.2971956342438,
          132.64261366134164,
          -3.7360259368092006,
          -0.7240068870280902
        ]
      },
      {
        "t_start": 2439353.528206956,
        "t_end": 2439353.5351514006,
        "cx": [
          2064.631156476026,
          -256.9039535188758,
          -18.723782803005342,
          -0.15903098930676762
        ],
        "cy": [
          507.241273609558,
          392.9411433389328,
          -5.635172669637065,
          -2.203308005051394
        ],
        "cz": [
          728.9506919405059,
          91.36658242264144,
          -7.024626381367069,
          -0.9202933352508476
        ]
      },
      {
        "t_start": 2439353.5351514006,
        "t_end": 2439353.542095845,
        "cx": [
          1395.3897125615258,
          -410.94713207303226,
          -15.943066157823033,
          1.5493893118979507
        ],
        "cy": [
          1218.1590144332856,
          313.0884076878528,
          -15.411552263520953,
          -2.684881791890522
        ],
        "cz": [
          842.1166170675357,
          20.201817020789047,
          -10.219677748565637,
          -0.6772323483484506
        ]
      },
      {
        "t_start": 2439353.542095845,
        "t_end": 2439353.5490402896,
        "cx": [
          463.9516211278793,
          -515.5468065410337,
