{
  "format": "chebyshev-ephemeris-bundle",
  "version": "1.0",
  "metadata": {
    "created": "2026-03-25T15:09:12.670Z",
    "coordinate_frame": "J2000",
    "units": {
      "time": "julian_date",
      "position": "km"
    },
    "origin": "geo",
    "bodies": [
      "SC",
      "MOON",
      "SUN"
    ],
    "source_kernels": [
      "isro_full_mission_predict_00.bsp",
      "de440.bsp"
    ],
    "source_sc_file": "geo-CH1-cheb.json",
    "step_seconds": 60,
    "tolerance_km": 5,
    "max_degree": 8
  },
  "time_range": {
    "start": 2454761.5498178634,
    "end": 2454785.2922453703
  },
  "SC": {
    "format": "chebyshev-ephemeris",
    "version": "1.0",
    "metadata": {
      "source": "geo-CH1-samples.json",
      "created": "2026-03-25T15:08:19.190Z",
      "tolerance_km": 5,
      "segments_count": 207,
      "coordinate_frame": "J2000",
      "units": {
        "time": "julian_date",
        "position": "km"
      },
      "origin": "geo",
      "target": "CH1",
      "source_kernel": "isro_full_mission_predict_00.bsp",
      "step_seconds": 60
    },
    "time_range": {
      "start": 2454761.5498178634,
      "end": 2454785.2922453703
    },
    "segments": [
      {
        "t_start": 2454761.5498178634,
        "t_end": 2454761.583845639,
        "cx": [
          -1389.2526275116188,
          6363.76599381341,
          544.9506484693917,
          -295.92106189384884,
          80.6037186774323,
          -15.873307825946556,
          1.2335286652086952,
          0.6909646738053199,
          -0.4646416392299697
        ],
        "cy": [
          -10125.097426532247,
          -7267.001006586704,
          1526.0478888558496,
          -163.9496142142437,
          -7.095760795645914,
          13.454124189405686,
          -5.6386105747856865,
          1.5716688496997728,
          -0.2706367926954969
        ],
        "cz": [
          953.9031950795096,
          930.8936583276899,
          -131.9279826660967,
          6.139341913411676,
          3.417650915480891,
          -1.8548504930948397,
          0.5932322489596569,
          -0.12997277663393272,
          0.010542648803020091
        ]
      },
      {
        "t_start": 2454761.583845639,
        "t_end": 2454761.617873415,
        "cx": [
          11348.702019893126,
          5794.884698573515,
          -265.3285875873106,
          -0.36257065506658237,
          0.8357336284507637,
          -0.181066059206881,
          0.02964034211933641,
          -0.004451884659892686,
          0.0006416612381203641
        ],
        "cy": [
          -17008.37217487215,
          -527.307516199949,
          415.2936509400113,
          -34.17804575003747,
          3.2503427731040584,
          -0.33277695712507827,
          0.03409859540648044,
          -0.00337843274063796,
          0.0003067974505293067
        ],
        "cz": [
          2062.0539261756094,
          247.4091487709142,
          -49.91624705843744,
          3.357372631350394,
          -0.29205528424699856,
          0.026653871155290495,
          -0.0023535829514506924,
          0.00018157456187701707,
          -8.402964376132143e-06
        ]
      },
      {
        "t_start": 2454761.617873415,
        "t_end": 2454761.6859289664,
        "cx": [
          23409.006564922325,
          5564.065922304022,
          -958.7372890841076,
          5.6779702207720835,
          -2.068944819569491,
          -0.0464994231522783,
          0.04079066251455534,
          -0.03785099256665373,
          0.03129485070588046
        ],
        "cy": [
          -13186.950923464708,
          4583.0755975192515,
          554.9097148853659,
          -57.67191579162665,
          4.944489099662004,
          -0.7063442416520364,
          0.12871851150519348,
          -0.06137056294332255,
          0.045187792937274915
        ],
        "cz": [
          2091.4087910166318,
          -264.5514860353753,
          -86.88270015867211,
          5.743258422258911,
          -0.5053076368735816,
          0.0761711863176185,
          -0.06315979543132079,
          0.0582077581460287,
          -0.051820680478963356
        ]
      },
      {
        "t_start": 2454761.6859289664,
        "t_end": 2454761.753984518,
        "cx": [
          26633.105034069067,
          -2479.23094573702,
          -1130.5659440690526,
          -40.6264923564156,
          -4.8507352808641775,
          -0.4019379210118055,
          -0.04307023368922601,
          -0.003964752165530033,
          -0.0003363214253049845
        ],
        "cy": [
          -1295.2749477015693,
          6891.351211897948,
          39.798753244974385,
          -47.52548195994024,
          -3.627255309603429,
          -0.6797132195684715,
          -0.08207327167509346,
          -0.012676068102649337,
          -0.0017476151411501728
        ],
        "cz": [
          1027.0349804514835,
          -763.5097647116012,
          -42.1051030835659,
          3.313532063444258,
          0.19365425328439892,
          0.05340357518029076,
          0.00662984211355784,
          0.0011144355432700283,
          0.00016068237098743916
        ]
      },
      {
        "t_start": 2454761.753984518,
        "t_end": 2454761.7880122936,
        "cx": [
          17969.2638578272,
          -5464.556893671348,
          -475.8824723042667,
          -20.591236554115458,
          -1.1726940655580995,
          -0.01510962861758554,
          0.012463451595238073,
          0.0033484061986914474,
          0.0006601344656175217
        ],
        "cy": [
          8373.213101398442,
          2584.5812482360643,
          -235.2282899754537,
          -34.09536997932719,
          -3.9961529975301215,
          -0.4976653877280393,
          -0.06167960444702826,
          -0.007524443670466962,
          -0.0008923325580388385
        ],
        "cz": [
          -219.33754867803017,
          -439.5691131174979,
          7.109287412599304,
          2.663268934275195,
          0.3538021461247599,
          0.048449954796624,
          0.006484010439042869,
          0.0008520110249101545,
          0.00010981304409442435
        ]
      },
      {
        "t_start": 2454761.7880122936,
        "t_end": 2454761.8220400694,
        "cx": [
          2898.8507634274406,
          -9425.858018046469,
          -109.55449070470404,
          298.63464547963423,
          114.23450416925124,
          26.5000231710789,
          1.768360033080887,
          -1.7706059173476432,
          -1.1155714078010581
        ],
        "cy": [
          8414.913341796118,
          -3870.6681673575476,
          -1902.454343569069,
          -326.4316961551935,
          -14.130336414560956,
          19.13712923248536,
          10.09539323408161,
          2.9312859087332046,
          0.3440574587042038
        ],
        "cz": [
          -733.5386957124807,
          62.031686939931234,
          183.43519572455313,
          42.1706920570731,
          5.256361544335083,
          -0.9737872640966818,
          -0.925506230388701,
          -0.3453722134204185,
          -0.07100711108808537
        ]
      },
      {
        "t_start": 2454761.8220400694,
        "t_end": 2454761.8567622895,
        "cx": [
          -2413.2531784184894,
          5533.5212229564395,
          1149.1781923868803,
          -492.83401244183057,
          111.78340751202305,
          -7.553405452833564,
          -7.566241806753762,
          4.46197982731864,
          -1.3700554577004467
        ],
        "cy": [
          -8165.666255673546,
          -8829.415460261329,
          1709.9989561171155,
          -81.3555741447213,
          -73.03600194293725,
          38.75281506256939,
          -10.689329259655109,
          0.9972058680509871,
          0.8251856509134964
        ],
        "cz": [
          724.1088406692497,
          1063.159947400434,
          -128.58536333852868,
          -9.094493662094388,
          11.041436238844815,
          -4.054732457703197,
          0.7803159811721055,
          0.05880024369362313,
          -0.12851074098427984
        ]
      },
      {
        "t_start": 2454761.8567622895,
        "t_end": 2454761.8914845097,
        "cx": [
          10267.903436875094,
          6119.426685648342,
          -275.700711814566,
          -2.090763926940934,
          1.379222809948899,
          -0.29715907615790865,
          0.051250725443584354,
          -0.008159313797705094,
          0.0012492448597990113
        ],
        "cy": [
          -16802.72018208167,
          -868.5495061394593,
          476.8664747837699,
          -42.3376946855639,
          4.3282162621530285,
          -0.47053160853210757,
          0.05058665553850771,
          -0.00512951620450874,
          0.00044839131479850256
        ],
        "cz": [
          2017.0368475010562,
          298.51752923090504,
          -56.6527265674204,
          4.103052976758604,
          -0.3786104087445494,
          0.03599641305570427,
          -0.003192202093457847,
          0.00021966686042320781,
          -3.8672561853723415e-07
        ]
      },
      {
        "t_start": 2454761.8914845097,
        "t_end": 2454761.96092895,
        "cx": [
          23041.174957335,
          5918.392744528845,
          -1002.7382180326325,
          7.243249613676082,
          -2.1974429814959526,
          -0.0467485262105209,
          0.009699686926169146,
          -0.004026401705833224,
          0.0007467049090552228
        ],
        "cy": [
          -13369.506812186055,
          4534.803648085388,
          600.1280210996032,
          -64.4620316298704,
          5.9301461840475955,
          -0.8382130695498775,
          0.09848097553103681,
          -0.013875680480003271,
          0.0018020768955023271
        ],
        "cz": [
          2122.2015121083605,
          -241.9642917648192,
          -94.13870148556639,
          6.61450491384422,
          -0.6616224851841114,
          0.08106658753215776,
          -0.0093747559175234,
          0.0012279242542892262,
          -0.0001516110461740183
        ]
      },
      {
        "t_start": 2454761.96092895,
        "t_end": 2454762.0303733903,
        "cx": [
          26650.615774831705,
          -2445.925581268346,
          -1172.0524767998586,
          -42.113870469342785,
          -5.155195581000628,
          -0.43012693614870573,
          -0.04699472183550938,
          -0.004386313127423119,
          -0.0003803625929682295
        ],
        "cy": [
          -1370.4636597296455,
          7014.614012925427,
          44.324404993269546,
          -50.03219885190143,
          -3.793353784235186,
          -0.731303040239288,
          -0.08862832145617335,
          -0.013957033393794947,
          -0.001941983166119027
        ],
        "cz": [
          1062.7516349082684,
          -777.8708182391002,
          -45.169361817681995,
          3.4725697638689423,
          0.1948417136728677,
          0.05717395344758788,
          0.007104521630287947,
          0.001223415086466845,
          0.00017815912934598518
        ]
      },
      {
        "t_start": 2454762.0303733903,
        "t_end": 2454762.0650956105,
        "cx": [
          17847.671693162545,
          -5613.2381351140475,
          -496.6912375980723,
          -21.900313180698383,
          -1.2553785547140939,
          -0.011316906550621208,
          0.015337203523591247,
          0.004111198757087347,
          0.0008237170019633868
        ],
        "cy": [
          8452.588177771737,
          2601.5358450394715,
          -250.19768746165076,
          -36.886835829509145,
          -4.429785199247854,
          -0.5646614891154057,
          -0.07160869981693382,
          -0.008928080264181276,
          -0.0010806556010048707
        ],
        "cz": [
          -213.78797570338784,
          -452.3674839726089,
          7.396278634431788,
          2.875529614207071,
          0.3928955452185476,
          0.05522002656901105,
          0.007580822757878524,
          0.0010208349680852482,
          0.00013477456258011552
        ]
      },
      {
        "t_start": 2454762.0650956105,
        "t_end": 2454762.099123386,
        "cx": [
          2588.8687308409767,
          -9391.040106563234,
          -31.501061204758056,
          331.63053588405637,
          122.01296809561921,
          26.232037797880473,
          0.48950845898448725,
          -2.4524927395060434,
          -1.3175559124756675
        ],
        "cy": [
          8257.435321223713,
          -4161.671150774642,
          -1960.6831121862517,
          -323.73028294563255,
          -5.2842637570652515,
          23.620654453241784,
          11.307841755055717,
          2.9707476385551868,
          0.17260027833861014
        ],
        "cz": [
          -726.8072881333736,
          82.59965392824402,
          191.98705629048092,
          43.403822334476416,
          4.7820040614092525,
          -1.3952375720664132,
          -1.086972865997226,
          -0.3747519565049244,
          -0.062478659488935454
        ]
      },
      {
        "t_start": 2454762.099123386,
        "t_end": 2454762.1338456064,
        "cx": [
          -2247.8348909813585,
          5733.43659265381,
          1046.7171756037053,
          -466.02455957973694,
          110.8857947605563,
          -10.917421803075154,
          -5.535153195766206,
          3.808109087812442,
          -1.3167581659457765
        ],
        "cy": [
          -8466.995970787204,
          -8604.67095898623,
          1707.306906976658,
          -104.42164811209497,
          -60.18225510161717,
          34.94633734938531,
          -10.50370070525743,
          1.463443031413135,
          0.5109394236309156
        ],
        "cz": [
          758.2309120979866,
          1054.9078256225284,
          -130.96602159068772,
          -6.381559187137161,
          9.875042266266776,
          -3.8140428629326397,
          0.8275398607944341,
          -0.005388650323236657,
          -0.09736298651983794
        ]
      },
      {
        "t_start": 2454762.1338456064,
        "t_end": 2454762.1685678265,
        "cx": [
          10523.16189751818,
          6085.218860538421,
          -277.6212651537978,
          -1.5875018119557833,
          1.2666382341694489,
          -0.2753230022900261,
          0.04730893453398017,
          -0.007489791021242466,
          0.0011397157080705745
        ],
        "cy": [
          -16801.252993740793,
          -784.9788595464411,
          467.4531035762018,
          -41.18656224072814,
          4.1760696663729755,
          -0.45137785846023876,
          0.048378299942148886,
          -0.004919198188889838,
          0.00043819589471240215
        ],
        "cz": [
          2038.692606130741,
          295.5155194516971,
          -56.135252155798895,
          4.010298567579589,
          -0.36671785621642555,
          0.03463877608346811,
          -0.0030689834049032316,
          0.00021516810796730752,
          -2.0821797415791607e-06
        ]
      },
      {
        "t_start": 2454762.1685678265,
        "t_end": 2454762.2373178224,
        "cx": [
          23141.444065179094,
          5817.941865876541,
          -984.1074736535293,
          7.111436217262057,
          -2.132787588658971,
          -0.04065793116756165,
          0.008360145646464746,
          -0.003613590511691187,
          0.0006630929484728729
        ],
        "cy": [
          -13279.000775301403,
          4527.83737756235,
          581.997855548923,
          -62.12656019075235,
          5.623215449269119,
          -0.7877167913319779,
          0.0912158097192831,
          -0.012721782696775586,
          0.0016305086738126454
        ],
        "cz": [
          2142.421804175148,
          -239.23333709311257,
          -92.7944685840098,
          6.3941120859376515,
          -0.6319718925270086,
          0.07634749870755113,
          -0.008706965766955791,
          0.0011262703140580048,
          -0.00013711608346803522
        ]
      },
      {
        "t_start": 2454762.2373178224,
        "t_end": 2454762.3067622627,
        "cx": [
          26662.536177271304,
          -2451.9193415529785,
          -1171.3095644500431,
          -41.821378418797316,
          -5.129151923645494,
          -0.42600634207663973,
          -0.04652048746278911,
          -0.004323823318892804,
          -0.0003733380723494758
        ],
        "cy": [
          -1308.737515649957,
          7006.199600524211,
          41.6316997393763,
          -50.06002713697919,
          -3.784813394649781,
          -0.7290434796903077,
          -0.08811025597022927,
          -0.013866107329512802,
          -0.0019253401337242123
        ],
        "cz": [
          1085.0149628544445,
          -780.6217569398337,
          -46.1033735240579,
          3.44776498126452,
          0.19000379364671646,
          0.05673621341704983,
          0.0070318429656960404,
          0.0012137583948056492,
          0.00017660255557310089
        ]
      },
      {
        "t_start": 2454762.3067622627,
        "t_end": 2454762.341484483,
        "cx": [
          17858.442217602453,
          -5607.980966226851,
          -495.04718743711413,
          -21.722321904345947,
          -1.2414793636800376,
          -0.010888365300290014,
          0.015157483190140722,
          0.004049215822368235,
          0.0008092698076404336
        ],
        "cy": [
          8492.409607704136,
          2590.543539140076,
          -250.26786241011212,
          -36.71690746615892,
          -4.395852544493219,
          -0.5589560879431329,
          -0.07072602512098135,
          -0.008800852515730973,
          -0.0010635116812942327
        ],
        "cz": [
          -199.72145310585097,
          -457.2458427811021,
          6.97394754560614,
          2.8466667881727137,
          0.38926418114316563,
          0.05472867214006413,
          0.007512052450166344,
          0.0010114640040216952,
          0.0001335630941841852
        ]
      },
      {
        "t_start": 2454762.341484483,
        "t_end": 2454762.3755122586,
        "cx": [
          2618.908416051651,
          -9383.492316699881,
          -40.198284789447136,
          326.2182940439206,
          120.55265290347563,
          26.255268784532273,
          0.7264018086907768,
          -2.3230594775217095,
          -1.2799991450025636
        ],
        "cy": [
          8298.78074480319,
          -4139.438052527263,
          -1949.5691644720073,
          -323.2776747085489,
          -6.691867079796028,
          22.810477051425902,
          11.080171383295179,
          2.9647229882975905,
          0.2068136759706224
        ],
        "cz": [
          -728.068216457766,
          71.38548604893349,
          190.77401570652947,
          43.54491917378516,
          4.993480684950479,
          -1.29127720875889,
          -1.057306828796086,
          -0.3725293690143224,
          -0.06587942684546055
        ]
      },
      {
        "t_start": 2454762.3755122586,
        "t_end": 2454762.410234479,
        "cx": [
          -2249.7506555403393,
          5727.053528555008,
          1060.1541712162568,
          -470.9561523239611,
          111.40468241474743,
          -10.454711742350788,
          -5.875573791892497,
          3.931945001168459,
          -1.3341271819077318
        ],
        "cy": [
          -8416.61788121677,
          -8627.183488387362,
          1712.3136288517549,
          -101.95901388971068,
          -62.201477002950554,
          35.66200923687006,
          -10.585879878254126,
          1.4007017136815396,
          0.5631571909662098
        ],
        "cz": [
          751.8142404918901,
          1063.8747204050283,
          -130.0675661234866,
          -7.2821092976891215,
          10.21674969863728,
          -3.8833429568532565,
          0.8185877500012758,
          0.009264595772900036,
          -0.10476300327611555
        ]
      },
      {
        "t_start": 2454762.410234479,
        "t_end": 2454762.4442622545,
        "cx": [
          10423.924229763334,
          5994.68845653191,
          -267.90052622985144,
          -1.5915584241089502,
          1.2167990461361746,
          -0.2600072417489874,
          0.04405731291431016,
          -0.006880138003563312,
          0.001032250958925241
        ],
        "cy": [
          -16762.082478028093,
          -795.1650956337801,
          453.9088404356377,
          -39.54260993346167,
          3.95874998553939,
          -0.4219132895396817,
          0.044532598461695674,
          -0.004448171953816688,
          0.00038660527233990783
        ],
        "cz": [
          2044.0917229246916,
          299.6308348910043,
          -54.78085509096129,
          3.8507006062604474,
          -0.3462396709466707,
          0.032058588698728005,
          -0.0027656959051160944,
          0.00018399666745678886,
          1.6373915562880175e-07
        ]
      },
      {
        "t_start": 2454762.4442622545,
        "t_end": 2454762.5130122504,
        "cx": [
          23043.71902179796,
          5896.892423453669,
          -986.9229625364428,
          7.703848148435288,
          -2.1395340429356344,
          -0.04094969881258054,
          0.00937188127327175,
          -0.003842390349174029,
          0.0007157286492766819
        ],
        "cy": [
          -13306.936994961232,
          4490.197255971899,
          587.8915464130552,
          -63.20343518374482,
          5.809078909726819,
          -0.8148333904021113,
          0.09566692792411116,
          -0.013379509730695146,
          0.0017337523356702209
        ],
        "cz": [
          2167.2831583728967,
          -227.04914497329204,
          -94.57652317703173,
          6.537118678559935,
          -0.6534814208154239,
          0.07906647809853617,
          -0.009111411541496497,
          0.001180510732737392,
          -0.00014486649657168016
        ]
      },
      {
        "t_start": 2454762.5130122504,
        "t_end": 2454762.5817622463,
        "cx": [
          26772.891316000725,
          -2291.2330532605633,
          -1139.544875270268,
          -39.06766423380346,
          -4.776231151083928,
          -0.3850727008762467,
          -0.04164065068957331,
          -0.003808859567093207,
          -0.000329426917334019
        ],
        "cy": [
          -1452.6557343584489,
          6926.560673776936,
          47.40864306730763,
          -47.648045194391436,
          -3.407623944267669,
          -0.6595978139189395,
          -0.07674983676074469,
          -0.011957891893083829,
          -0.0016134344302465957
        ],
        "cz": [
          1131.3149141252882,
          -770.1861634311156,
          -46.73094096149818,
          3.272892436405797,
          0.16080622232971742,
          0.05102012780878992,
          0.006050680952615304,
          0.0010413009297078047,
          0.00014724768870495858
        ]
      },
      {
        "t_start": 2454762.5817622463,
        "t_end": 2454762.6164844665,
        "cx": [
          18315.6602223661,
          -5445.83766257664,
          -483.2491908495423,
          -20.77584904617631,
          -1.2178878777985327,
          -0.02368616801859897,
          0.010837525140706997,
          0.0030625309066462827,
          0.0006122596510789903
        ],
        "cy": [
          8331.740376671403,
          2659.5145892614178,
          -233.05089258762106,
          -33.833880034475584,
          -3.9368534012268537,
          -0.48957640993613105,
          -0.060673289994706066,
          -0.007424818430498919,
          -0.0008872349376970149
        ],
        "cz": [
          -149.29496805875155,
          -464.2415005971943,
          5.219427769445492,
          2.5783459707398944,
          0.3440341637340886,
          0.04746626162454798,
          0.006386095138483185,
          0.0008448907157426227,
          0.00010994743046232155
        ]
      },
      {
        "t_start": 2454762.6164844665,
        "t_end": 2454762.650512242,
        "cx": [
          3336.2554072939874,
          -9405.414640148065,
          -206.7107138615153,
          248.5001271091252,
          100.017467117596,
          25.449082625091194,
          3.1687119432984674,
          -0.8454477168402541,
          -0.7861975841714879
        ],
        "cy": [
          8721.542067946173,
          -3506.131588069782,
          -1797.2260303712085,
          -321.0831840380302,
          -24.935222538532727,
          12.488798314791554,
          7.885092359059818,
          2.590797385989113,
          0.46367998571750013
        ],
        "cz": [
          -741.542586373358,
          -1.242132279644261,
          169.79168734278244,
          40.83354326461608,
          6.151777978504694,
          -0.2852886640213629,
          -0.6555171023511093,
          -0.2845011456089301,
          -0.07415725084305397
        ]
      },
      {
        "t_start": 2454762.650512242,
        "t_end": 2454762.6616233527,
        "cx": [
          -6365.621725686783,
          -5.551462051113817,
          440.3413968695104,
          -24.89049250797381,
          -5.063976638025537,
          1.0281987183192534,
          0.03434956323746719,
          -0.03442618991912715,
          0.0027693745900757164
        ],
        "cy": [
          -1451.6443524383033,
          -4532.001882147918,
          62.40020946757122,
          43.05880745260963,
          -5.070501877807663,
          -0.5065389995624436,
          0.18769261622364042,
          -0.004451921519938219,
          -0.007189020390874966
        ],
        "cz": [
          -94.75709563720525,
          448.33079462093747,
          10.423681564504331,
          -5.165018031260226,
          0.3043967090097431,
          0.08842599491099501,
          -0.016908359919447058,
          -0.0008901100033871757,
          0.000804645046148398
        ]
      },
      {
        "t_start": 2454762.6616233527,
        "t_end": 2454762.6803733516,
        "cx": [
          -2533.404003772225,
          3629.9711147741896,
          141.1942856859648,
          -48.36704024199385,
          9.493551725506121,
          -2.1395436014332256,
          0.9200901241398519,
          -0.5998670049581829,
          0.47471824113609756
        ],
        "cy": [
          -10938.470216079264,
          -4549.9915187168945,
          465.5744430021161,
          -37.02963109028139,
          1.575655760818623,
          0.09932558935208319,
          0.1809648182071737,
          -0.23025862568991676,
          0.20726108789694966
        ],
        "cz": [
          990.5939355631865,
          588.9023002191996,
          -40.78872762539874,
          1.861574927719909,
          0.17126652691430183,
          -0.05989082905068452,
          -0.009494686968609703,
          0.01977673031859112,
          -0.018226449490979797
        ]
      },
      {
        "t_start": 2454762.6803733516,
        "t_end": 2454762.7095400165,
        "cx": [
          6893.975731565034,
          5569.627234530397,
          -133.10666918715924,
          -4.234073271713752,
          1.5646387224523766,
          -0.3004846165912747,
          0.049957123479717,
          -0.007726266858420029,
          0.0011454050287105105
        ],
        "cy": [
          -18230.30751177615,
          -2752.388632840006,
          381.5924843599249,
          -34.24648297706596,
          3.5202186672159277,
          -0.3711004141188872,
          0.0374711050308572,
          -0.003300458342297582,
          0.0001847137786179907
        ],
        "cz": [
          2071.5192237515207,
          484.3940488690408,
          -42.897308148965266,
          3.2334704456491967,
          -0.2891926443249676,
          0.025296722489214035,
          -0.0018026777773356769,
          3.13498979854664e-05,
          2.5551520783188563e-05
        ]
      },
      {
        "t_start": 2454762.7095400165,
        "t_end": 2454762.7678733463,
        "cx": [
          20860.67027997981,
          8057.569003681705,
          -460.8095809999632,
          14.173143572163404,
          -0.6161020194908788,
          -0.04295824796460174,
          0.018868621760818292,
          -0.004209131346841576,
          0.0008108532366412554
        ],
        "cy": [
          -21645.033109365617,
          -464.23939853883525,
          495.99504403839444,
          -46.62602324154121,
          5.255109747725565,
          -0.6530204680384329,
          0.0847336377306184,
          -0.01120683612926329,
          0.0015097538010134942
        ],
        "cz": [
          2940.2573901623773,
          351.78986081086066,
          -66.7040802924713,
          5.1632274870994666,
          -0.5445459173450641,
          0.06311058696026424,
          -0.007681241234726601,
          0.0009503933657560254,
          -0.00011870148310782379
        ]
      },
      {
        "t_start": 2454762.7678733463,
        "t_end": 2454762.884540006,
        "cx": [
          36943.681900672265,
          7134.851323139681,
          -1309.8718669077032,
          23.170531012304263,
          -4.562632785078544,
          0.23244988919806428,
          -0.03214125654171264,
          0.0018186899548891717,
          -0.00013997208123468324
        ],
        "cy": [
          -16840.603751001625,
          5499.442135827791,
          613.2091554545311,
          -64.39674206135452,
          6.207776011889276,
          -0.8777301710645413,
          0.10903647066486453,
          -0.015762901189542756,
          0.0021866486784226096
        ],
        "cz": [
          3073.6348283884954,
          -275.12288358939657,
          -110.57094086179087,
          7.269669301275873,
          -0.7890916475291448,
          0.09590342705336945,
          -0.012036062701468267,
          0.0016325037797852101,
          -0.00022216655698222072
        ]
      },
      {
        "t_start": 2454762.884540006,
        "t_end": 2454763.0012066658,
        "cx": [
          40827.59851532067,
          -3348.2213523432433,
          -1430.0528544987328,
          -47.82592738569926,
          -6.623681510534033,
          -0.5676900602213684,
          -0.07300286324454121,
          -0.008060998790262808,
          -0.0010210101580117213
        ],
        "cy": [
          -2759.3404163528544,
          8152.970863916957,
          83.25575946544664,
          -44.5585320190186,
          -2.978791296867479,
          -0.6121399442494696,
          -0.07098279558808752,
          -0.011428876422417135,
          -0.0015777636530358654
        ],
        "cz": [
          1823.2975982622472,
          -936.3476066310603,
          -62.53991045353007,
          2.60689345839065,
          0.044183656127851426,
          0.039189326939106775,
          0.0042709593634838,
          0.0008277223149720716,
          0.00011772857984278309
        ]
      },
      {
        "t_start": 2454763.0012066658,
        "t_end": 2454763.0595399956,
        "cx": [
          29546.078981585444,
          -7037.601567972228,
          -618.8801278816712,
          -31.94202798151931,
          -2.7393383892140406,
          -0.2410704111900112,
          -0.021058021197025798,
          -0.0015676116726107484,
          -5.230289885118999e-05
        ],
        "cy": [
          9036.828810801024,
          3435.2125147045945,
          -200.4199194246064,
          -30.730135342719763,
          -3.7060193729610966,
          -0.48967958526603644,
          -0.06609265153524355,
          -0.009043176080726509,
          -0.0012595236700552374
        ],
        "cz": [
          224.2041027769515,
          -608.1118502758521,
          -3.6032520808555724,
          1.8362833684392057,
          0.26358847379009787,
          0.03940265946082132,
          0.0057518884789752815,
          0.0008365656423394323,
          0.0001227705923290313
        ]
      },
      {
        "t_start": 2454763.0595399956,
        "t_end": 2454763.0887066606,
        "cx": [
          16171.555546248133,
          -5953.510446268845,
          -281.8380755760272,
          -11.885187010029844,
          -0.4387031528316915,
          0.03316921277702529,
          0.013280605933868284,
          0.0026993491278774874,
          0.00046393962271976103
        ],
        "cy": [
          12846.781914195351,
          399.6381384210772,
          -233.7827736064653,
          -25.8522004958769,
          -2.8939418331378515,
          -0.33421860509512435,
          -0.0385762564172604,
          -0.004343265978137557,
          -0.00046745346118836424
        ],
        "cz": [
          -661.7049166247493,
          -265.723350514874,
          12.488575396807006,
          2.1115148374328396,
          0.2700252763284557,
          0.03434143590334272,
          0.0043189439451734755,
          0.0005314602849681722,
          6.370608349563497e-05
        ]
      },
      {
        "t_start": 2454763.0887066606,
        "t_end": 2454763.1178733255,
        "cx": [
          1948.355274750707,
          -8101.901089407474,
          8.073259753277597,
          186.48808041806313,
          65.00286254339208,
          14.63610571402039,
          1.4546712591986473,
          -0.5407059022465698,
          -0.3939150817216735
        ],
        "cy": [
          9517.263989985378,
          -4621.800981110234,
          -1348.3082427493384,
          -209.8911480740289,
          -12.141595042210039,
          8.404184508176366,
          4.525281961547788,
          1.3329064650828384,
          0.21161960912752187
        ],
        "cz": [
          -871.9508607977228,
          150.18368718976492,
          133.77435433634744,
          27.827572063460526,
          3.6671855918606457,
          -0.2715972721785507,
          -0.38936749387427605,
          -0.1511156233856942,
          -0.035550939383769145
        ]
      },
      {
        "t_start": 2454763.1178733255,
        "t_end": 2454763.147734435,
        "cx": [
          -3645.2057399737964,
          3934.2659854873477,
          1238.2963656343532,
          -417.59312617612613,
          66.91589237615668,
          8.752986353512636,
          -10.241679663766599,
          3.5125706686153366,
          -0.33868729761082356
        ],
        "cy": [
          -7003.223629548913,
          -9223.609443088728,
          1257.9543487713747,
          20.14435555922674,
          -85.69493581702382,
          31.7093242442571,
          -4.48316807027945,
          -1.54907869818544,
          1.282721001615059
        ],
        "cz": [
          555.9064541089597,
          1068.188502864044,
          -76.65174055818555,
          -18.17077070693166,
          11.043427585070953,
          -2.7786722571666473,
          0.04117645709770192,
          0.28893684254485963,
          -0.13882784526286793
        ]
      },
      {
        "t_start": 2454763.147734435,
        "t_end": 2454763.1769010997,
        "cx": [
          6888.001901029387,
          5582.189117374403,
          -133.86272039560515,
          -4.2718981056734995,
          1.5863184704274518,
          -0.30570035483990005,
          0.05098324830935586,
          -0.007907094256359045,
          0.0011751303269220059
        ],
        "cy": [
          -18182.02726628272,
          -2752.326655216264,
          383.3106734783697,
          -34.54561023347494,
          3.5624564790773903,
          -0.3765149878395402,
          0.038075769595268975,
          -0.0033505614814577397,
          0.0001848319369469847
        ],
        "cz": [
          2074.8277072359183,
          490.22574452145085,
          -43.26178070384056,
          3.26184084086503,
          -0.29153443020753594,
          0.02540203470610189,
          -0.001781793422715564,
          2.2652273868249977e-05,
          2.771597903262124e-05
        ]
      },
      {
        "t_start": 2454763.1769010997,
        "t_end": 2454763.235928874,
        "cx": [
          20964.013657681495,
          8142.589222029255,
          -472.67314479158927,
          14.77682029702263,
          -0.6614892502780055,
          -0.04272775129076357,
          0.01972328425344564,
          -0.004472650770001234,
          0.0008729452517572008
        ],
        "cy": [
          -21578.07032733864,
          -436.34740994723415,
          505.04682884276446,
          -48.04381183112178,
          5.4726183608139465,
          -0.6873775624194118,
          0.0901483211835568,
          -0.012049402851134625,
          0.0016408832777865833
        ],
        "cz": [
          2958.968067240895,
          359.6537612444532,
          -68.53793591368958,
          5.34572667054037,
          -0.5690757958300168,
          0.06656739373478537,
          -0.008178191230420634,
          0.0010212382849033416,
          -0.00012873387342075704
        ]
      },
      {
        "t_start": 2454763.235928874,
        "t_end": 2454763.353289978,
        "cx": [
          37082.62782498574,
          7081.288693347096,
          -1325.1926550221553,
          23.202129119454867,
          -4.65496562273178,
          0.23591350423321905,
          -0.03322255048819988,
          0.001903150621070902,
          -0.00015614097582501997
        ],
        "cy": [
          -16647.60152004892,
          5587.939930704793,
          611.0155816363477,
          -64.75173690096663,
          6.211675720146055,
          -0.8839057426597099,
          0.10953195719860402,
          -0.01589729183098357,
          0.002203829477112283
        ],
        "cz": [
          3095.1792537995093,
          -280.18612548110394,
          -112.2019644691898,
          7.3345602042061975,
          -0.7979130915863152,
          0.0969636277704008,
          -0.012169056664350572,
          0.0016526171404606077,
          -0.00022488336518776365
        ]
      },
      {
        "t_start": 2454763.353289978,
        "t_end": 2454763.470651082,
        "cx": [
          40718.568074946714,
          -3551.031042951954,
          -1455.8261577229073,
          -50.10882483857693,
          -6.944792235409381,
          -0.6093653848572056,
          -0.0789112683059204,
          -0.008869192161190117,
          -0.0011344353580121265
        ],
        "cy": [
          -2426.2025738162793,
          8197.773989616211,
          72.42126837753295,
          -46.24359401349795,
          -3.2545473936775404,
          -0.6588155863821291,
          -0.07879209282345,
          -0.012733243217186403,
          -0.0017970529990421545
        ],
        "cz": [
          1823.1700056411069,
          -952.6421855414263,
          -63.76625973725576,
          2.6474550385442686,
          0.05344969176636513,
          0.041762948307291776,
          0.004759058683417833,
          0.0009198642380152122,
          0.00013435132813838664
        ]
      },
      {
        "t_start": 2454763.470651082,
        "t_end": 2454763.5296788565,
        "cx": [
          28937.828613373396,
          -7333.426912179387,
          -649.3768291387911,
          -34.89801298760855,
          -3.071818798137393,
          -0.27630591577909724,
          -0.024213555340153483,
          -0.0017068611370131465,
          -1.7827493397018927e-05
        ],
        "cy": [
          9370.782488158187,
          3384.575034016199,
          -223.26126847138624,
          -34.620626925461096,
          -4.347759729800836,
          -0.595544143916802,
          -0.08340907256938922,
          -0.011826379314820381,
          -0.0017069050235327117
        ],
        "cz": [
          193.04647247515754,
          -621.3316012924475,
          -3.0558896970938725,
          2.082389943852892,
          0.31232471549263946,
          0.048378033372731125,
          0.00733578369260421,
          0.0011067992455904506,
          0.00016855858323166955
        ]
      },
      {
        "t_start": 2454763.5296788565,
        "t_end": 2454763.5588455214,
        "cx": [
          15036.383760506154,
          -6162.599415818407,
          -294.17884937567464,
          -12.330829321307796,
          -0.32700618763024675,
          0.07414212492162225,
          0.022720871623917588,
          0.004533621190816967,
          0.0007913790566327718
        ],
        "cy": [
          12928.74713976027,
          197.97191268084,
          -265.7780613943554,
          -30.647079767427606,
          -3.59570427286752,
          -0.4325925779050287,
          -0.05160487091170444,
          -0.005929417890393275,
          -0.000635995665684143
        ],
        "cz": [
          -700.8373084121607,
          -259.2503409956097,
          14.956222047534947,
          2.561927978977701,
          0.34384028310123027,
          0.04574056868751151,
          0.005990368111041101,
          0.0007622201492784707,
          9.34848216581003e-05
        ]
      },
      {
        "t_start": 2454763.5588455214,
        "t_end": 2454763.5880121863,
        "cx": [
          618.9431098477154,
          -7877.024161108007,
          293.1057585170969,
          295.7309047522436,
          87.06426422030384,
          12.555036680143225,
          -2.4360984236015626,
          -2.30275778501961,
          -0.8099525914960677
        ],
        "cy": [
          8495.523968945354,
          -5675.827162469439,
          -1542.3821390968035,
          -195.26883299788958,
          17.217065003257986,
          21.459968230240346,
          7.470087080512235,
          1.1952775379284477,
          -0.27510259285109406
        ],
        "cz": [
          -821.6327511587093,
          256.6333714275236,
          164.25570718775637,
          30.84105543731208,
          1.6970360504479105,
          -1.6230838303439992,
          -0.8285505003600763,
          -0.20663025680380584,
          -0.0044987654372018755
        ]
      },
      {
        "t_start": 2454763.5880121863,
        "t_end": 2454763.6178732957,
        "cx": [
          -3047.701914641676,
          4776.022354633046,
          844.1333202425866,
          -330.12493629870573,
          73.83278387877529,
          -6.648489029451464,
          -3.372533240755539,
          2.1460426754801816,
          -0.6793832912634874
        ],
        "cy": [
          -8562.26795663683,
          -8409.146846491285,
          1271.525610720476,
          -77.50746256364961,
          -39.15995227874534,
          21.743993706067275,
          -6.127572171633704,
          0.7542075637223614,
          0.2920674314710037
        ],
        "cz": [
          732.2325426372897,
          1025.4416767701778,
          -92.65117635494376,
          -5.442655183778016,
          6.807483130278519,
          -2.4094227854863175,
          0.468254632724119,
          0.012035660319904037,
          -0.05606642591467651
        ]
      },
      {
        "t_start": 2454763.6178732957,
        "t_end": 2454763.6470399606,
        "cx": [
          7935.599662074678,
          5492.645314263969,
          -138.75512482782847,
          -2.1728015002452676,
          1.1000687919771914,
          -0.21108207876578333,
          0.03417699357015221,
          -0.005126443974883383,
          0.000737897960829406
        ],
        "cy": [
          -18649.206772100133,
          -2468.5000020967605,
          347.54744034594376,
          -29.795502019626444,
          2.9478509817946628,
          -0.3027203609289342,
          0.030419505854651196,
          -0.0028057398572985193,
          0.00020618012427610965
        ],
        "cz": [
          2171.4721781909807,
          463.82718114747644,
          -40.07275489977909,
          2.87432849322714,
          -0.2489516948575806,
          0.021632226154564525,
          -0.0016535393751393036,
          7.3295422541665e-05,
          9.10351661657574e-06
        ]
      },
      {
        "t_start": 2454763.6470399606,
        "t_end": 2454763.7053732905,
        "cx": [
          21661.45400866916,
          7902.341084874674,
          -456.2483063623087,
          13.99347965189844,
          -0.6752257817913631,
          -0.02201176863179162,
          0.013818250193081392,
          -0.0031602156581820254,
          0.0006045136497028916
        ],
        "cy": [
          -21567.14775230387,
          -251.4749622505947,
          469.95225149593637,
          -43.06653570079536,
          4.717814819995256,
          -0.5711762358165455,
          0.07224285025552649,
          -0.00932853999905776,
          0.0012282840426845758
        ],
        "cz": [
          3007.2588601760694,
          339.10304000338505,
          -64.8852276915842,
          4.839210667102576,
          -0.49589766269134594,
          0.055894989768584306,
          -0.006628393122953757,
          0.0008008250263759794,
          -9.789347478097486e-05
        ]
      },
      {
        "t_start": 2454763.7053732905,
        "t_end": 2454763.82203995,
        "cx": [
          37334.23586787996,
          6879.463171766552,
          -1307.2126207538226,
          21.95411873211934,
          -4.4975765818278,
          0.2206725718856111,
          -0.031639704374248456,
          0.0018018270477356893,
          -0.0001598987792928475
        ],
        "cy": [
          -16402.758008660985,
          5642.99612722691,
          589.3144607283251,
          -62.16422936858715,
          5.810774090955595,
          -0.8216565566510455,
          0.09956847975876254,
          -0.014309738816451088,
          0.0019463130821927408
        ],
        "cz": [
          3116.361407081718,
          -288.0252147494589,
          -110.59965875700885,
          7.05679278751168,
          -0.7567786939272744,
          0.090493462106645,
          -0.011159451989871273,
          0.0014945115237535217,
          -0.0001998580829787397
        ]
      },
      {
        "t_start": 2454763.82203995,
        "t_end": 2454763.93870661,
        "cx": [
          40683.997899573136,
          -3639.665270365929,
          -1443.1151359972694,
          -49.91260947841718,
          -6.860606750108807,
          -0.6034342443273122,
          -0.07772660145774885,
          -0.008733500456305473,
          -0.001112458204618198
        ],
        "cy": [
          -2189.6524483619482,
          8144.48768900439,
          63.372071381729405,
          -45.93848600677097,
          -3.2936656059066896,
          -0.6548358124889843,
          -0.07884883720926959,
          -0.01265164060387165,
          -0.00178928791788235
        ],
        "cz": [
          1835.2564444619416,
          -955.1096384592731,
          -63.680869920073995,
          2.585616523980077,
          0.054839096704025606,
          0.04113729673335376,
          0.004750648404745626,
          0.0009107610595238862,
          0.000133657398295654
        ]
      },
      {
        "t_start": 2454763.93870661,
        "t_end": 2454763.9970399397,
        "cx": [
          28876.234900167903,
          -7271.176500877594,
          -634.683024295386,
          -33.7179713847195,
          -2.9328830742611394,
          -0.26045007523647196,
          -0.0224804627961754,
          -0.0015469563092564084,
          -1.021899139636369e-05
        ],
        "cy": [
          9479.604862458787,
          3320.5385160187493,
          -220.82741878014295,
          -33.672415873882876,
          -4.183010147325593,
          -0.5667276350337204,
          -0.0785267130468781,
          -0.011017829724078974,
          -0.0015733216993466977
        ],
        "cz": [
          204.64939741819416,
          -619.5230511275558,
          -3.270395349096475,
          2.0079482505362587,
          0.29925146674110137,
          0.045970579412723485,
          0.006908269855099876,
          0.0010327945556392805,
          0.0001557955333130085
        ]
      },
      {
        "t_start": 2454763.9970399397,
        "t_end": 2454764.0262066047,
        "cx": [
          15063.264841999804,
          -6151.030743990651,
          -292.6985217538466,
          -12.222242761633094,
          -0.3251768126770025,
          0.072462937266099,
          0.022196992306117456,
          0.004418912351226872,
          0.0007694785978152142
        ],
        "cy": [
          12969.99331486837,
          191.70758428664357,
          -264.6960486182623,
          -30.38395714591675,
          -3.551976004578671,
          -0.42601349136989825,
          -0.05068814419274097,
          -0.005812899128326582,
          -0.000623058595972646
        ],
        "cz": [
          -691.9707012653433,
          -263.74480076303075,
          14.676214443991183,
          2.5328733195403026,
          0.33973083443430246,
          0.04514238361332326,
          0.005905637143500455,
          0.0007509558777327993,
          9.212951792353111e-05
        ]
      },
      {
        "t_start": 2454764.0262066047,
        "t_end": 2454764.0553732696,
        "cx": [
          666.091242426209,
          -7879.525625294589,
          278.4889573995676,
          289.59690726598797,
          86.05456129040454,
          12.89432130692789,
          -2.1183646338734863,
          -2.1847940383169115,
          -0.7949253982185214
        ],
        "cy": [
          8559.730793430113,
          -5637.437305576314,
          -1531.795121676991,
          -196.59300727418443,
          15.199342976843788,
          20.64883578476953,
          7.347321998467556,
          1.2469240803208015,
          -0.2278646580149832
        ],
        "cz": [
          -826.669272935993,
          246.33979290580132,
          163.0782853705077,
          31.016256578119513,
          1.9312888898036498,
          -1.5214654386982822,
          -0.8071861558119369,
          -0.2093452583704744,
          -0.009266272742558177
        ]
      },
      {
        "t_start": 2454764.0553732696,
        "t_end": 2454764.0845399345,
        "cx": [
          -3195.109760551677,
          4603.3945957933265,
          855.2832208751153,
          -323.68706835960575,
          69.33155042546834,
          -5.007025863204106,
          -3.670767798634107,
          2.093326457270244,
          -0.6063267223966398
        ],
        "cy": [
          -8340.066366901587,
          -8348.980039356877,
          1231.0530434077448,
          -65.58363654582088,
          -41.0438560030306,
          21.23998873736937,
          -5.601488304205817,
          0.5348925599599678,
          0.33913003100603284
        ],
        "cz": [
          702.34712753153,
          1017.7166374945541,
          -87.56033001092,
          -6.650223941042908,
          6.879900447321646,
          -2.300099766972007,
          0.4014202472222238,
          0.033412615109570956,
          -0.05831042446652071
        ]
      },
      {
        "t_start": 2454764.0845399345,
        "t_end": 2454764.1137065995,
        "cx": [
          7667.531469032354,
          5530.845986674912,
          -138.73953277773174,
          -2.653531000723421,
          1.2255728763595628,
          -0.23622107166115955,
          0.03867286061402035,
          -0.005869997748722142,
          0.0008545783789124386
        ],
        "cy": [
          -18476.98691297584,
          -2536.048696657637,
          357.92148410211695,
          -31.22990032612392,
          3.134858108645527,
          -0.32546209413965294,
          0.03287316862217032,
          -0.0030093990653104357,
          0.0002095579450560658
        ],
        "cz": [
          2152.740067847949,
          477.354464097711,
          -41.269631292689475,
          2.99885024429382,
          -0.2617662262132879,
          0.0227093231263831,
          -0.001686032274414221,
          5.876545270306266e-05,
          1.4194540019595808e-05
        ]
      },
      {
        "t_start": 2454764.1137065995,
        "t_end": 2454764.1720399293,
        "cx": [
          21488.884356181126,
          7956.0106166910045,
          -459.9688336840552,
          14.262824195304194,
          -0.679904205482911,
          -0.025738116926381106,
          0.01502877047046132,
          -0.003437221919636438,
          0.0006614998184368417
        ],
        "cy": [
          -21494.771902612774,
          -285.1225319822506,
          476.4068543876164,
          -44.16368627744269,
          4.888777925872161,
          -0.5975933003527304,
          0.07629337344353657,
          -0.009938539126268846,
          0.0013197373013334372
        ],
        "cz": [
          3015.097207233873,
          351.81094998314904,
          -66.14556571671136,
          4.97698739439593,
          -0.5142551531639581,
          0.05841738112341803,
          -0.006977800803203156,
          0.0008484130544363186,
          -0.00010425686880027672
        ]
      },
      {
        "t_start": 2454764.1720399293,
        "t_end": 2454764.2880121446,
        "cx": [
          37250.68797761058,
          6929.21988562834,
          -1295.814398185071,
          22.45095743815602,
          -4.450229004320864,
          0.22388301675140163,
          -0.03128241163754834,
          0.0018158741155656364,
          -0.00015496232979206057
        ],
        "cy": [
          -16416.111192202126,
          5582.0251590089665,
          586.1634774034686,
          -61.91855345564705,
          5.824220185867083,
          -0.820449875113642,
          0.0999607138785311,
          -0.014330808740618194,
          0.0019559012349489573
        ],
        "cz": [
          3149.942116001051,
          -274.3509654380681,
          -111.07132447402759,
          7.079505194182767,
          -0.7609303912507616,
          0.09079766472400881,
          -0.011224035287256623,
          0.0015004508997376032,
          -0.00020097976843187973
        ]
      },
      {
        "t_start": 2454764.2880121446,
        "t_end": 2454764.40398436,
        "cx": [
          40825.55225011822,
          -3451.889322730526,
          -1416.2744505910002,
          -47.12682935788349,
          -6.495951139891248,
          -0.5543258492856867,
          -0.07091807983034304,
          -0.007791845210641333,
          -0.0009812577557100695
        ],
        "cy": [
          -2334.2176065085405,
          8080.16238932265,
          67.723845724767,
          -44.38149446707409,
          -3.021939748729105,
          -0.6067402769889269,
          -0.07060209988203772,
          -0.011262016790670707,
          -0.0015534250696344351
        ],
        "cz": [
          1892.4717686882807,
          -945.2840307651212,
          -64.33491518188167,
          2.5038753431089598,
          0.03677287717214254,
          0.03787393617623985,
          0.0041451440338928745,
          0.000804266145499659,
          0.00011471510576941053
        ]
      },
      {
        "t_start": 2454764.40398436,
        "t_end": 2454764.46231769,
        "cx": [
          29405.82391266864,
          -7086.798614078779,
          -618.8597165160312,
          -31.878120011002387,
          -2.7294492770238423,
          -0.23916014395717622,
          -0.020687686700813765,
          -0.001497202008497013,
          -3.899281283191324e-05
        ],
        "cy": [
          9313.27972986338,
          3368.3493629059476,
          -207.2889910303037,
          -31.266621527772294,
          -3.773229226556687,
          -0.49885356259633423,
          -0.06741755542832269,
          -0.009237302262810979,
          -0.0012884610569367026
        ],
        "cz": [
          267.8075347856141,
          -623.7396336032477,
          -4.523852645690186,
          1.8166211242362602,
          0.2645711492075636,
          0.03991369142603338,
          0.005865142354877578,
          0.0008576975527676003,
          0.00012649439730291927
        ]
      },
      {
        "t_start": 2454764.46231769,
        "t_end": 2454764.4914843547,
        "cx": [
          15959.32589762975,
          -5975.782127032968,
          -281.10144038277656,
          -11.724666633044313,
          -0.40744329958984027,
          0.03899530188961802,
          0.014312161665890362,
          0.0028726314543301005,
          0.0004920527659447009
        ],
        "cy": [
          12986.48352938369,
          332.5389827851953,
          -238.9375824523826,
          -26.36679780429878,
          -2.9573223413290557,
          -0.3421773148582203,
          -0.0395435235865576,
          -0.004451713585714353,
          -0.0004778029803276504
        ],
        "cz": [
          -644.9979759800816,
          -276.21943266060475,
          12.350916173500417,
          2.146198402658907,
          0.27743634806085804,
          0.035577682870592,
          0.004506612675911222,
          0.0005581195343713184,
          6.729699309884508e-05
        ]
      },
      {
        "t_start": 2454764.4914843547,
        "t_end": 2454764.5199565752,
        "cx": [
          1905.2288013639322,
          -7913.424750645851,
          -9.52080132759175,
          163.29900288516728,
          55.1095588701303,
          12.115063852850497,
          1.597900744075292,
          0.08677011918300026,
          0.043450813513527774
        ],
        "cy": [
          9623.579054414002,
          -4529.737275934592,
          -1286.5530198761555,
          -202.54473735385764,
          -16.13727489705815,
          5.4032291887662165,
          3.7038484586770664,
          1.5153800618681899,
          0.5543261277142495
        ],
        "cz": [
          -882.7362977499395,
          127.72684901743608,
          126.87193521496695,
          26.355737156954422,
          3.634055465656826,
          -0.114761955713711,
          -0.29820799823043964,
          -0.12049708520421959,
          -0.03181393177600029
        ]
      },
      {
        "t_start": 2454764.5199565752,
        "t_end": 2454764.5234287973,
        "cx": [
          -6296.801673497262,
          -465.9403656890069,
          45.99522411543718,
          0.7557380530471834,
          -0.09377506811642312,
          -0.0018666529984095817
        ],
        "cy": [
          2143.3571977997694,
          -1475.8475982313353,
          -17.82725645575008,
          1.7309399834432249,
          0.04450425217949126,
          -0.0015764027013781261
        ],
        "cz": [
          -476.1434935364766,
          126.30017201823578,
          3.5948445421410593,
          -0.13809473971803718,
          -0.008238878160536346,
          6.223856934013196e-05
        ]
      },
      {
        "t_start": 2454764.5234287973,
        "t_end": 2454764.5532899066,
        "cx": [
          -3472.4876459853967,
          4355.247065587445,
          746.7092236767361,
          -287.0838174794261,
          70.40016584431119,
          -10.012350082368117,
          -1.181005766920048,
          1.3496025556821398,
          -0.43221626384558415
        ],
        "cy": [
          -9444.873341903418,
          -8915.367995735685,
          1134.3165056034563,
          -92.11859921756124,
          -24.417255198040714,
          16.822711912470947,
          -5.242467197338768,
          0.6984818519813923,
          0.43559843045788665
        ],
        "cz": [
          784.9945864866677,
          1063.2711126112779,
          -79.71660392678147,
          -3.2802104616456793,
          5.495799791196119,
          -2.166667979486099,
          0.5464949535777741,
          -0.07396442228357963,
          -0.005059866237862511
        ]
      },
      {
        "t_start": 2454764.5532899066,
        "t_end": 2454764.5859287935,
        "cx": [
          7278.90158000893,
          5771.192848581368,
          -109.00091037953302,
          -2.3292695229804807,
          1.2145163599215303,
          -0.2421461341324762,
          0.045675109336909964,
          -0.006320996953166543,
          0.00023818629571629505
        ],
        "cy": [
          -21769.63566390159,
          -4049.911600409501,
          353.256504900262,
          -32.46037368777444,
          3.4916465139450805,
          -0.3933749758672465,
          0.04506303893052017,
          -0.004362055956309351,
          0.0007492313081799051
        ],
        "cz": [
          2456.6271460570115,
          644.7656727790395,
          -39.30492197355062,
          3.216614017069655,
          -0.20522900122910703,
          0.08351438508830011,
          0.020940766849100942,
          0.0037246335884078357,
          -0.015316679398482155
        ]
      },
      {
        "t_start": 2454764.5859287935,
        "t_end": 2454764.651901012,
        "cx": [
          22555.873212966093,
          9257.769817052631,
          -343.292609605742,
          14.380389490128163,
          -0.6898086743332732,
          -0.010894765060483584,
          0.012893805147105966,
          -0.003207571497474275,
          0.0006530908772351297
        ],
        "cy": [
          -29485.8970476103,
          -3476.709295178696,
          464.4686227413229,
          -43.38311066497565,
          4.996259093603633,
          -0.6311031020127444,
          0.08385836351157414,
          -0.011397370016402095,
          0.0015884939904946616
        ],
        "cz": [
          3866.835269079764,
          735.871526406753,
          -60.38946246114199,
          4.889313511585191,
          -0.5219667512042887,
          0.06175639542929571,
          -0.007717739749181581,
          0.0009868036173859807,
          -0.00012872854870064679
        ]
      },
      {
        "t_start": 2454764.651901012,
        "t_end": 2454764.783151004,
        "cx": [
          44727.15779184386,
          12423.212266710174,
          -781.4538056609085,
          35.07056084887745,
          -3.0752166445626914,
          0.2768433293560681,
          -0.02630039544389815,
          0.002365706142726768,
          -0.00017610862495480816
        ],
        "cy": [
          -34029.96589074483,
          -823.0403089421646,
          609.0365588212128,
          -53.84705492023009,
          6.074555027476811,
          -0.7658706287485872,
          0.10257447685532899,
          -0.014174663694665073,
          0.002032452370728777
        ],
        "cz": [
          5256.00316317013,
          608.3788434742288,
          -93.25385229947732,
          6.800789701171121,
          -0.7297617911788253,
          0.08729587037077997,
          -0.011233390929423407,
          0.0014983509537344316,
          -0.0002078991468486756
        ]
      },
      {
        "t_start": 2454764.783151004,
        "t_end": 2454765.0456509884,
        "cx": [
          68997.13646255626,
          10525.47791181751,
          -2017.9249270759296,
          43.653766027242014,
          -8.257054258207411,
          0.5644505048160056,
          -0.08409261273880134,
          0.008383964126829466,
          -0.0011519024607704572
        ],
        "cy": [
          -28586.470453216603,
          6640.218033155198,
          851.9444793911691,
          -73.74587163874594,
          7.439657826164263,
          -0.993798832129921,
          0.1251668421766872,
          -0.017796698830741982,
          0.002491550460438712
        ],
        "cz": [
          5748.75131958779,
          -208.57416237578244,
          -169.6947412054058,
          9.129274610020822,
          -1.0844267472959208,
          0.12200179781760072,
          -0.01591728524775765,
          0.002111507586918315,
          -0.00029467618010291143
        ]
      },
      {
        "t_start": 2454765.0456509884,
        "t_end": 2454765.3081509727,
        "cx": [
          74220.9516755208,
          -5420.044542179612,
          -2164.073647298914,
          -73.51282928709531,
          -10.70315323140018,
          -0.95921776230141,
          -0.1314258973452299,
          -0.015534878042121178,
          -0.002146497929862203
        ],
        "cy": [
          -10494.974293574962,
          10998.039640426605,
          292.1322667816785,
          -40.98114387422466,
          -2.097872936921635,
          -0.5515215000259434,
          -0.06153428430048855,
          -0.010493106684414777,
          -0.001456747273995789
        ],
        "cz": [
          4185.262007966372,
          -1315.2146125818388,
          -120.65643869047769,
          0.9240983902701598,
          -0.24727295355241036,
          0.013702115277021086,
          0.0004927438550786769,
          0.00037583865654955943,
          5.2602100153745705e-05
        ]
      },
      {
        "t_start": 2454765.3081509727,
        "t_end": 2454765.439400965,
        "cx": [
          56548.57267665072,
          -10921.962047137104,
          -969.8414280323266,
          -55.76808808001534,
          -5.482270339527606,
          -0.5910151662028142,
          -0.06943681040248137,
          -0.008465921848888076,
          -0.0010711795251835624
        ],
        "cy": [
          6437.472759380797,
          5588.964416772137,
          -121.24442425501755,
          -27.24202366784571,
          -3.4314391047902983,
          -0.4774701488877384,
          -0.06781665678788791,
          -0.00979203654692188,
          -0.0014531979465078324
        ],
        "cz": [
          1764.5489400231154,
          -1014.9622167159392,
          -29.194972088779153,
          0.3207591908874301,
          0.1058212692074938,
          0.02201259223353386,
          0.003741564081522387,
          0.0006063581311868072,
          9.783272624864524e-05
        ]
      },
      {
        "t_start": 2454765.439400965,
        "t_end": 2454765.505373183,
        "cx": [
          35525.042987760426,
          -9555.575347392223,
          -515.5664274886234,
          -32.4246394921585,
          -2.883746639533799,
          -0.28139893001675004,
          -0.028227725851244462,
          -0.002741399516539723,
          -0.00023744301792936882
        ],
        "cy": [
          13827.077495200885,
          1767.605230087645,
          -209.65547427959638,
          -27.196399134273804,
          -3.4597723102832534,
          -0.4653232995375466,
          -0.0646589040896475,
          -0.009108427970621022,
          -0.0013116484629884279
        ],
        "cz": [
          143.2154011954545,
          -579.9454249607138,
          -1.1991732418447576,
          1.3061372379285199,
          0.21876221978992652,
          0.033930042016602,
          0.00517467211672057,
          0.0007811258415893705,
          0.00011912189520412096
        ]
      },
      {
        "t_start": 2454765.505373183,
        "t_end": 2454765.53801207,
        "cx": [
          18817.861839515394,
          -6847.289559250192,
          -259.70641144400827,
          -13.573868414008869,
          -0.7590425660550092,
          -0.015194497386671077,
          0.0067935614763375745,
          0.0019136723241782124,
          0.0003816604453638052
        ],
        "cy": [
          15161.78111989792,
          -388.26191573153505,
          -217.79356180469065,
          -24.102581897095362,
          -2.828777263449138,
          -0.3449331333033492,
          -0.0426125044067262,
          -0.005226496800990275,
          -0.0006322194230744502
        ],
        "cz": [
          -697.5815070556481,
          -252.34657065378204,
          10.453038710231176,
          1.799434713914321,
          0.24643804608875378,
          0.03331219241822455,
          0.0044802690239900455,
          0.0005949207989976919,
          7.826976564865325e-05
        ]
      },
      {
        "t_start": 2454765.53801207,
        "t_end": 2454765.570650957,
        "cx": [
          2796.9805142821956,
          -9070.403633532711,
          -36.00914566910299,
          197.78694784967544,
          81.83936426109993,
          22.513938799790985,
          3.559924466546739,
          -0.4123881333127217,
          -0.6484609824576345
        ],
        "cy": [
          10305.201603072032,
          -5443.998029128622,
          -1458.5402433319734,
          -268.6259356534498,
          -27.387437830970807,
          7.863810843995652,
          6.161460449016826,
          2.246275076549528,
          0.45148501732563645
        ],
        "cz": [
          -899.0747938889959,
          151.22710409129456,
          142.0004972120416,
          34.79026102684162,
          6.159673371263378,
          0.18447218890259495,
          -0.4520245189868121,
          -0.23716047995110215,
          -0.07183491519316411
        ]
      },
      {
        "t_start": 2454765.570650957,
        "t_end": 2454765.5942620668,
        "cx": [
          -5122.239540831834,
          2111.7457737584245,
          965.4268748562836,
          -250.71055169333727,
          27.24032016166446,
          8.477938042240423,
          -5.37144251836609,
          1.2010912555503621,
          0.16880242234384474
        ],
        "cy": [
          -6133.960241786383,
          -8662.965070107208,
          717.2721463792927,
          51.490599701378365,
          -57.00214777953462,
          16.581813228820533,
          -0.9619542546381908,
          -1.6444800537914865,
          1.1574722106652666
        ],
        "cz": [
          385.00740432326535,
          944.9870838902675,
          -28.821531846719402,
          -15.847483187709031,
          6.699342816504923,
          -1.209081981225475,
          -0.14909886782006876,
          0.19694651895156123,
          -0.07900377838082517
        ]
      },
      {
        "t_start": 2454765.5942620668,
        "t_end": 2454765.6178731765,
        "cx": [
          1994.0888773587237,
          4245.892239606907,
          -22.355424049022105,
          -7.889053503250403,
          1.7145011233011058,
          -0.2898942574073578,
          0.04481223404047918,
          -0.006505517854586976,
          0.0008963229135603665
        ],
        "cy": [
          -18874.820269803662,
          -4493.257105809774,
          283.3329925381714,
          -25.143419741910428,
          2.4780391027354365,
          -0.23962357393650918,
          0.020170249129263244,
          -0.0010072152978403625,
          -0.00011507566663101985
        ],
        "cz": [
          1948.815749088504,
          626.8087690257788,
          -28.894637521042966,
          2.1348530427054024,
          -0.16955827418264288,
          0.01098030222114819,
          -3.347215557680481e-05,
          -0.00018452318759826783,
          5.0429035477825153e-05
        ]
      },
      {
        "t_start": 2454765.6178731765,
        "t_end": 2454765.665095396,
        "cx": [
          13885.668561416249,
          7501.025739975076,
          -168.71833561418924,
          5.103769717676406,
          0.23262621483234258,
          -0.11544931621238569,
          0.025652218418104736,
          -0.004800416554927026,
          0.0008501063281003506
        ],
        "cy": [
          -28759.72503374645,
          -5246.342509772866,
          366.4140424783382,
          -34.806186770870205,
          3.969470448233186,
          -0.49009433040121786,
          0.06293112985647992,
          -0.008179465816272529,
          0.001072749810132603
        ],
        "cz": [
          3438.2026539414887,
          841.9774590323347,
          -43.43633425157342,
          3.652637169599004,
          -0.38118604955578167,
          0.0432911626883336,
          -0.005087230449477428,
          0.0005972762411691175,
          -6.870978531076296e-05
        ]
      },
      {
        "t_start": 2454765.665095396,
        "t_end": 2454765.7595398347,
        "cx": [
          33622.90738926079,
          11993.054435478927,
          -383.69976637988145,
          21.238355023047852,
          -1.5732761302706353,
          0.11713025589965366,
          -0.006519270896542913,
          -0.00021137023680278488,
          0.0001797334747247755
        ],
        "cy": [
          -39909.58849273306,
          -5722.172896955765,
          467.3976002701637,
          -43.37446138389378,
          4.986963703492069,
          -0.6328356039590117,
          0.08503708930296448,
          -0.011750884081160953,
          0.0016789749692722718
        ],
        "cz": [
          5391.840971784873,
          1083.249066838146,
          -62.70346405520641,
          5.19706892548641,
          -0.5599000484249518,
          0.0674728151812996,
          -0.008666580070936796,
          0.0011492958026754283,
          -0.00015771350484635873
        ]
      },
      {
        "t_start": 2454765.7595398347,
        "t_end": 2454765.9484287123,
        "cx": [
          63798.73969152125,
          17736.93707915503,
          -761.2476244363581,
          44.143208279539486,
          -3.9278498328801708,
          0.39745683896667244,
          -0.04326111228689729,
          0.004853925824132477,
          -0.0005548497286611206
        ],
        "cy": [
          -51134.35530753184,
          -5246.9549291913645,
          622.066428256453,
          -54.92699263470793,
          6.19682047512092,
          -0.7788399597436749,
          0.10434170064953167,
          -0.014433316444862775,
          0.002076384841822048
        ],
        "cz": [
          7804.436078210218,
          1284.8446021603336,
          -94.29028448121355,
          7.328279288966313,
          -0.7811960691120681,
          0.09401859869248931,
          -0.012163272485215156,
          0.0016335498437207653,
          -0.00022878718107718996
        ]
      },
      {
        "t_start": 2454765.9484287123,
        "t_end": 2454766.325512023,
        "cx": [
          105409.51164915819,
          22955.70158731893,
          -1551.8605932083874,
          78.44681054809574,
          -7.593840073163348,
          0.7989217043416783,
          -0.09334003094451698,
          0.011399665180638051,
          -0.0014603999077313795
        ],
        "cy": [
          -58770.65585470364,
          -2000.1529547680288,
          880.7150115669699,
          -72.0622938074257,
          7.933672959263659,
          -0.9796507069684794,
          0.1294655393777611,
          -0.017715570371603668,
          0.0025276258734760167
        ],
        "cz": [
          10357.84333864815,
          1190.4888296889367,
          -153.96729364715912,
          10.504527582814722,
          -1.111184602307753,
          0.1312011104739214,
          -0.01680918286833428,
          0.0022407072159669637,
          -0.00031251221664537826
        ]
      },
      {
        "t_start": 2454766.325512023,
        "t_end": 2454767.079678645,
        "cx": [
          149091.46209318654,
          18276.585213075974,
          -3818.0917740466803,
          93.58697232608408,
          -16.79035461136158,
          1.2723994379394816,
          -0.18905855174668548,
          0.020658333141180332,
          -0.002940747978669466
        ],
        "cy": [
          -52867.98376350696,
          8576.163091745924,
          1377.3524939749698,
          -99.67684530013449,
          10.515186214498991,
          -1.3188358933268733,
          0.16710470852997947,
          -0.023113184439929577,
          0.003222494636854377
        ],
        "cz": [
          11666.873400953129,
          -53.60831102947203,
          -300.73844508043527,
          13.890552220097266,
          -1.7644998418234494,
          0.18510005440785193,
          -0.02466637699581882,
          0.0031736967363649488,
          -0.0004451850844793605
        ]
      },
      {
        "t_start": 2454767.079678645,
        "t_end": 2454767.8338452666,
        "cx": [
          156013.03475393105,
          -11503.2362697676,
          -4000.9816651889664,
          -130.81828742971183,
          -19.78728330301932,
          -1.7534368256379218,
          -0.24609012548396736,
          -0.029215191467749146,
          -0.004119803539911426
        ],
        "cy": [
          -27286.559019246135,
          16447.005546039323,
          688.285628793028,
          -40.92758232913236,
          -0.9312286927141059,
          -0.5235218203058895,
          -0.0525602304310991,
          -0.00994559274750514,
          -0.001353829376781355
        ],
        "cz": [
          9448.827495286467,
          -2115.7991673354636,
          -240.70529133637243,
          -1.643608571023634,
          -0.7684099111024634,
          -0.024708086034102714,
          -0.005527811406719119,
          -0.000292240458260527,
          -4.5995714716283324e-05
        ]
      },
      {
        "t_start": 2454767.8338452666,
        "t_end": 2454768.2109285775,
        "cx": [
          121171.60010670699,
          -20874.43046323024,
          -1783.9660871297413,
          -103.5306463827587,
          -10.459256942916124,
          -1.1673783931142736,
          -0.14321157716489183,
          -0.018350974212328314,
          -0.0024668437137987127
        ],
        "cy": [
          -643.6197130024741,
          9569.610724675613,
          -1.919460843302713,
          -24.19722211525223,
          -3.161056130875725,
          -0.4563256980300615,
          -0.06601213416404753,
          -0.00966252677068007,
          -0.001453293391586346
        ],
        "cz": [
          5320.273065248934,
          -1844.7170595975308,
          -77.09027912753592,
          -2.1184546934633173,
          -0.14389393470603581,
          -0.005901985207917831,
          0.0002595110527449219,
          0.0001512678034970511,
          3.547006470478392e-05
        ]
      },
      {
        "t_start": 2454768.2109285775,
        "t_end": 2454768.399817455,
        "cx": [
          81339.54036193802,
          -17964.81618566555,
          -965.5639096131299,
          -64.81332111252726,
          -6.3601161564818165,
          -0.7117540010455132,
          -0.08621602539436345,
          -0.010890239985313084,
          -0.0014353724232197104
        ],
        "cy": [
          13211.881083747388,
          4172.7755102214705,
          -165.74168474860744,
          -25.79889573519152,
          -3.394568861677204,
          -0.4693175400214273,
          -0.06711738331000149,
          -0.00974413397088832,
          -0.0014575805832164907
        ],
        "cz": [
          2232.9096465330836,
          -1188.5710767575388,
          -25.609292011482076,
          -0.2823436065836294,
          0.056891986365856816,
          0.015133741577680715,
          0.002839487817740171,
          0.0004827485606192083,
          8.060383067607975e-05
        ]
      },
      {
        "t_start": 2454768.399817455,
        "t_end": 2454768.494261894,
        "cx": [
          49661.50141949481,
          -13197.603217916972,
          -557.4130390973114,
          -38.80414054016041,
          -3.671223323693092,
          -0.39112595513626014,
          -0.04430959404978248,
          -0.0051459287990665735,
          -0.0006069654539987009
        ],
        "cy": [
          18322.359462035573,
          943.1410042739501,
          -213.4103121305372,
          -26.348122993553797,
          -3.3872097175978033,
          -0.4608974498795278,
          -0.06510571848074628,
          -0.009348688461913234,
          -0.0013794960367621617
        ],
        "cz": [
          357.548376815263,
          -664.977290881537,
          -3.2521351645061487,
          0.8995199846672092,
          0.17274761376800815,
          0.02820305461701857,
          0.004457596838305184,
          0.0006927131976551504,
          0.00010880367433194722
        ]
      },
      {
        "t_start": 2454768.494261894,
        "t_end": 2454768.5414841133,
        "cx": [
          27127.77565094943,
          -9034.98856731593,
          -318.1535652776627,
          -20.464842644963063,
          -1.6287149332445274,
          -0.12987952132670844,
          -0.008330993341496893,
          -2.4341593554074725e-05,
          0.00014584646147423628
        ],
        "cy": [
          18407.367102033524,
          -815.5201509921417,
          -223.8195280412492,
          -25.563839565929218,
          -3.1818965338295304,
          -0.4175021650943394,
          -0.05641271131983944,
          -0.0076959145820633375,
          -0.0010641039601785186
        ],
        "cz": [
          -628.2891319773349,
          -311.98319435701075,
          8.137573703422365,
          1.6172000745586583,
          0.24103820026968523,
          0.03524882435742603,
          0.005160467450969955,
          0.0007519086628268008,
          0.00011038461661345754
        ]
      },
      {
        "t_start": 2454768.5414841133,
        "t_end": 2454768.5880118883,
        "cx": [
          5874.217024171767,
          -12299.68667620923,
          -288.86169096364915,
          229.81723236106157,
          139.469866029093,
          56.50639477998959,
          17.236175208938548,
          3.3820096284252865,
          -0.4034383241540627
        ],
        "cy": [
          12128.519117254233,
          -6791.3070524877485,
          -1986.5091728639748,
          -494.6901811934304,
          -98.27855568332329,
          -3.907778625639786,
          10.01487337633136,
          6.616481974986063,
          2.982666850253422
        ],
        "cz": [
          -935.183342994014,
          131.4839957137463,
          181.8151461415675,
          58.303992421116796,
          15.638207108918595,
          2.8303521858353475,
          -0.22759533426169748,
          -0.4964532022443729,
          -0.3067624656235528
        ]
      },
      {
        "t_start": 2454768.5880118883,
        "t_end": 2454768.589400777,
        "cx": [
          -6463.054353603803,
          -185.22999760943867,
          7.240298696209379
        ],
        "cy": [
          2172.5830329247055,
          -604.7437820308957,
          -2.4334815926072224
        ],
        "cz": [
          -495.7925760909173,
          51.142284543606024,
          0.5542142821129019
        ]
      },
      {
        "t_start": 2454768.589400777,
        "t_end": 2454768.5900952215,
        "cx": [
          -6715.726732662086,
          -74.68268014505293
        ],
        "cy": [
          1235.9739025627073,
          -329.4318667384954
        ],
        "cz": [
          -415.0286487385537,
          29.06742852664462
        ]
      },
      {
        "t_start": 2454768.5900952215,
        "t_end": 2454768.594261888,
        "cx": [
          -6966.009868370619,
          -111.90178466707094,
          62.3906427592643,
          -1.6174383569381754,
          -0.3686164328289344,
          -0.11184215632113008,
          -0.052635943283154636
        ],
        "cy": [
          -955.5452084086908,
          -1855.631896187045,
          11.526942675890226,
          7.016019551406553,
          2.522584958276598,
          1.3013846311637136,
          0.7232245942609364
        ],
        "cz": [
          -211.88268676615502,
          176.10115766562632,
          1.5191882739650453,
          -0.6885613098384701,
          -0.24970944870628167,
          -0.13222965315381197,
          -0.06764556837879003
        ]
      },
      {
        "t_start": 2454768.594261888,
        "t_end": 2454768.6345396633,
        "cx": [
          -1076.9647192173159,
          6626.697744427864,
          361.7743108728539,
          -217.63282471803038,
          77.3410889720268,
          -23.006821917988535,
          5.6311147990192945,
          -0.9598717647741123,
          -0.038307707996261306
        ],
        "cy": [
          -14495.294819964762,
          -10148.568772816487,
          1318.566059417471,
          -221.17841741528156,
          27.989271857426026,
          2.4282294768974144,
          -3.8068064253435487,
          1.8443421597968126,
          -0.6885628982276545
        ],
        "cz": [
          1368.148074285921,
          1281.9771537912443,
          -112.52897889425432,
          11.918498852953483,
          0.69843960799039,
          -1.254694180532477,
          0.6191204080197186,
          -0.22141931437169904,
          0.06496228581703957
        ]
      },
      {
        "t_start": 2454768.6345396633,
        "t_end": 2454768.680372994,
        "cx": [
          13184.690927679501,
          7282.106816082788,
          -145.9473894135505,
          4.096434626407862,
          0.27615179987509253,
          -0.11128978505440995,
          0.023631981900797884,
          -0.004298014579377546,
          0.0007426497516932022
        ],
        "cy": [
          -29485.906520015866,
          -5588.70565131126,
          342.47998747271,
          -32.142349645057024,
          3.6040980029944953,
          -0.4367315196182951,
          0.05496018837466724,
          -0.006992814930831167,
          0.0008957982151643491
        ],
        "cz": [
          3459.244999371756,
          866.293724222448,
          -39.84983472377055,
          3.3160508831779363,
          -0.33929173432935317,
          0.03766614132615825,
          -0.004312997721300532,
          0.000491418069483565,
          -5.441572785969144e-05
        ]
      },
      {
        "t_start": 2454768.680372994,
        "t_end": 2454768.772039655,
        "cx": [
          32627.799461703216,
          11949.478230307624,
          -332.86826577169313,
          18.85968764772738,
          -1.3621820045375022,
          0.09595859282635749,
          -0.00432089910667756,
          -0.0004289056864157914,
          0.00019757544040575813
        ],
        "cy": [
          -41948.67407265619,
          -6702.3172306577435,
          439.09899729864355,
          -40.84911589531413,
          4.670643860750887,
          -0.5884148435290545,
          0.07842443378265682,
          -0.010744458381166626,
          0.0015209358689946112
        ],
        "cz": [
          5532.278790290158,
          1180.653815392112,
          -57.5215139734389,
          4.817546685073055,
          -0.5157760863034088,
          0.0616372051630685,
          -0.00784076014833922,
          0.0010290573016784976,
          -0.00013960980888455324
        ]
      },
      {
        "t_start": 2454768.772039655,
        "t_end": 2454768.9553729775,
        "cx": [
          63501.45976954358,
          18557.253965654807,
          -638.4623783645836,
          39.82750084297042,
          -3.519980904569692,
          0.35462429070414975,
          -0.03822246324979886,
          0.0042293731916770464,
          -0.0004737340941911853
        ],
        "cy": [
          -56489.94447862161,
          -7604.1548190764015,
          578.5534401121794,
          -51.9317754769672,
          5.863460246436736,
          -0.7359437728676687,
          0.09835743180285789,
          -0.013565953597401568,
          0.0019449684222686441
        ],
        "cz": [
          8311.855341328903,
          1559.843972020209,
          -84.5917123142362,
          6.824164941345574,
          -0.7273732886977894,
          0.0874494143409747,
          -0.011282792814745413,
          0.0015101769203293301,
          -0.00021066079166278092
        ]
      },
      {
        "t_start": 2454768.9553729775,
        "t_end": 2454769.3227340668,
        "cx": [
          109820.72208557294,
          27077.854071820733,
          -1205.1660083440195,
          73.17173417581351,
          -6.821926602206506,
          0.7313933969152668,
          -0.08548527504984589,
          0.010464623515860152,
          -0.0013407914156789234
        ],
        "cy": [
          -71848.66224696972,
          -7407.880730262111,
          801.4978396175642,
          -68.35378325362294,
          7.580254884896412,
          -0.9403400271483703,
          0.12471634285156072,
          -0.017108827700913,
          0.0024462448134499244
        ],
        "cz": [
          11852.071145056236,
          1916.4503050798194,
          -131.25663728920142,
          9.899205459745643,
          -1.0405709663464477,
          0.12401099816624439,
          -0.015939331447356767,
          0.0021309195907911315,
          -0.0002978275965364898
        ]
      },
      {
        "t_start": 2454769.3227340668,
        "t_end": 2454770.056761801,
        "cx": [
          172927.92883324824,
          34624.76993077977,
          -2404.0918634358295,
          124.86735302592913,
          -12.283476537891115,
          1.319884978967906,
          -0.1575813889534571,
          0.019701653200524385,
          -0.0025915397623161723
        ],
        "cy": [
          -83465.04563128941,
          -3661.958906987438,
          1182.6248964732085,
          -92.35290313880674,
          10.046513782985002,
          -1.2258884332236044,
          0.1605266439590363,
          -0.021791137359267153,
          0.003088396394780243
        ],
        "cz": [
          15769.456649978545,
          1886.0800819939168,
          -220.88756977203113,
          14.528820137920336,
          -1.522686862081501,
          0.17783885845284328,
          -0.022613747451792135,
          0.002995236189409276,
          -0.0004156729293867183
        ]
      },
      {
        "t_start": 2454770.056761801,
        "t_end": 2454771.524817269,
        "cx": [
          238040.05658123572,
          26764.205103843433,
          -5836.693792017474,
          148.23456902263084,
          -26.174894775383645,
          2.036024662523737,
          -0.3009914857517525,
          0.03348092067898413,
          -0.004779734069141501
        ],
        "cy": [
          -78100.77316662495,
          10037.794176059799,
          1967.0108213062645,
          -128.01752201627167,
          13.834703805465416,
          -1.683810741254738,
          0.21425356954170927,
          -0.029206962965629028,
          0.004065195908229714
        ],
        "cz": [
          18134.93273445263,
          218.31386789496634,
          -446.9995987315538,
          18.99851942877713,
          -2.514240476426744,
          0.2538628992179561,
          -0.034210558625262774,
          0.004325569561437,
          -0.0006081107718482331
        ]
      },
      {
        "t_start": 2454771.524817269,
        "t_end": 2454772.992872737,
        "cx": [
          246428.58653157298,
          -18561.957837820177,
          -6066.254776979251,
          -194.58937380443015,
          -29.76948559972692,
          -2.6132375580035827,
          -0.36946196923635016,
          -0.04375307253254496,
          -0.0061946847993907764
        ],
        "cy": [
          -45534.09005751155,
          21848.51364230726,
          1127.4940694689333,
          -42.905733582447716,
          0.07057867055527883,
          -0.5243978708000291,
          -0.04735062039185633,
          -0.010047575284831722,
          -0.0013476031585365979
        ],
        "cz": [
          15377.195994586062,
          -2919.2361274046716,
          -376.8720397504961,
          -4.689136238257434,
          -1.350181746090352,
          -0.06696855152439463,
          -0.012043844150452261,
          -0.0010004643207220437,
          -0.00014979007374601978
        ]
      },
      {
        "t_start": 2454772.992872737,
        "t_end": 2454773.726900471,
        "cx": [
          191979.80998295848,
          -32141.007129227786,
          -2688.843081264042,
          -155.1508681318795,
          -15.71318087092074,
          -1.7595968080875823,
          -0.21686779641467407,
          -0.02793013642372085,
          -0.0037779444827247114
        ],
        "cy": [
          -9126.273553371797,
          13612.401500675249,
          117.07267787092086,
          -22.803884487547958,
          -3.109876767928638,
          -0.46650898422056053,
          -0.06865631249605662,
          -0.010156322652916818,
          -0.0015385022531069553
        ],
        "cz": [
          9467.758096180836,
          -2734.0737032998513,
          -131.28607049723047,
          -4.799463030605623,
          -0.4084275866602979,
          -0.034458680580579965,
          -0.003191110633949766,
          -0.0002865954826831363,
          -2.316586702490897e-05
        ]
      },
      {
        "t_start": 2454773.726900471,
        "t_end": 2454774.09426156,
        "cx": [
          130963.02743862539,
          -27376.002770763134,
          -1450.932599824853,
          -97.6901343289577,
          -9.680011209566064,
          -1.0975792952716312,
          -0.13512641976950387,
          -0.017383937072897315,
          -0.002342630547255593
        ],
        "cy": [
          11252.061588343673,
          6563.990503099126,
          -134.48912778124273,
          -26.270459000949618,
          -3.5476165975900336,
          -0.4966039210637143,
          -0.07150999889352241,
          -0.010424500691238332,
          -0.0015655878090566604
        ],
        "cz": [
          4797.747019955768,
          -1849.7984138261802,
          -52.18101771980155,
          -1.8821292418506397,
          -0.09663290025242856,
          -0.0020044432434841346,
          0.0007374993759958559,
          0.000211139834125105,
          4.371600338044913e-05
        ]
      },
      {
        "t_start": 2454774.09426156,
        "t_end": 2454774.2775948825,
        "cx": [
          82814.16605815383,
          -20001.04938845039,
          -842.4763320517117,
          -60.030533131202496,
          -5.889503696853061,
          -0.6588521679016733,
          -0.0795029606686865,
          -0.009984728257301845,
          -0.0013058060999585508
        ],
        "cy": [
          20045.16288311091,
          2206.369281339659,
          -212.13875105041888,
          -27.67635279631583,
          -3.5994995209310177,
          -0.4935023402137172,
          -0.07025459919953694,
          -0.010167284931753263,
          -0.0015168667400298722
        ],
        "cz": [
          1805.8195691817523,
          -1105.427964184448,
          -17.583897832094475,
          -0.06093204586885043,
          0.0779661019545679,
          0.017342443612963745,
          0.0031085452913151928,
          0.0005179389835059269,
          8.549622543115475e-05
        ]
      },
      {
        "t_start": 2454774.2775948825,
        "t_end": 2454774.3692615437,
        "cx": [
          48626.024853608986,
          -13747.959814595451,
          -502.71287554787835,
          -35.726293542838064,
          -3.3427926086955244,
          -0.3494687357330092,
          -0.03849878997992601,
          -0.004298920915670971,
          -0.00047812871635812774
        ],
        "cy": [
          21998.097329065866,
          -219.97285600135626,
          -235.1042479167658,
          -27.68600424605069,
          -3.5293695335454496,
          -0.4774525195637122,
          -0.06709277441550526,
          -0.009583488963873435,
          -0.001405731851800636
        ],
        "cz": [
          88.99940694776075,
          -594.9080291084108,
          -0.19310423480884512,
          1.028128396981552,
          0.1852860966817013,
          0.029661043771647078,
          0.00464227531820781,
          0.0007167114730903136,
          0.00011193366380786967
        ]
      },
      {
        "t_start": 2454774.3692615437,
        "t_end": 2454774.4150948743,
        "cx": [
          25528.466348667254,
          -9077.797967566881,
          -287.1230798317469,
          -17.987733059174207,
          -1.3236404717247194,
          -0.08783148828172689,
          -0.002289344130726794,
          0.0008481366451872818,
          0.0002721101219027767
        ],
        "cy": [
          20233.599574048923,
          -1490.0975295338621,
          -235.92708363456234,
          -26.346426600502685,
          -3.2372635737780997,
          -0.4185982218838321,
          -0.05556769826866806,
          -0.007421639903063547,
          -0.000999375433245778
        ],
        "cz": [
          -778.0510304220575,
          -265.1415709419863,
          9.53415436629085,
          1.6943828821761382,
          0.24779973659026347,
          0.035758782096937995,
          0.005164232690004209,
          0.0007410672069137442,
          0.00010680676677065305
        ]
      },
      {
        "t_start": 2454774.4150948743,
        "t_end": 2454774.460928205,
        "cx": [
          4540.538328244307,
          -11862.790975419923,
          -81.92214640095267,
          281.9383502225789,
          144.39424158718683,
          50.67540708518599,
          12.021751734327623,
          0.7510818271843374,
          -1.3611465928714825
        ],
        "cy": [
          12407.813554305227,
          -7665.242189610874,
          -1972.8223195620474,
          -445.71093734662975,
          -67.99980634622177,
          8.659666589306852,
          13.274035149513143,
          6.681071311288316,
          2.3258166258812016
        ],
        "cz": [
          -975.6313778549851,
          195.6489860916804,
          183.25772931806617,
          54.80925765281889,
          12.894502775198612,
          1.4520667009852506,
          -0.7127964355692877,
          -0.5951287151128143,
          -0.2793171018201566
        ]
      },
      {
        "t_start": 2454774.460928205,
        "t_end": 2454774.4907893143,
        "cx": [
          -4885.545933266768,
          3337.1192816945345,
          953.219262723127,
          -301.9960585000243,
          55.748735896988066,
          -1.0659091155302416,
          -4.358473329438581,
          2.723928558949101,
          -0.6763867981149914
        ],
        "cy": [
          -8567.96445971799,
          -9924.283864562582,
          975.133351269464,
          -26.197120544658716,
          -45.04146898665809,
          21.59721214169049,
          -5.196095599897332,
          -0.7779403441061402,
          0.7913434526120748
        ],
        "cz": [
          585.1615546367238,
          1080.0686471668832,
          -56.02657775498106,
          -12.128661866994966,
          8.042690669107857,
          -1.5428302931138733,
          -0.12348089505888177,
          -0.22805718027354074,
          0.048258539089427795
        ]
      },
      {
        "t_start": 2454774.4907893143,
        "t_end": 2454774.5206504236,
        "cx": [
          4298.302815863617,
          5101.6891634890435,
          -48.17809299723795,
          -4.909885838980459,
          1.3288879582814712,
          -0.23953495298739755,
          0.03867278287438911,
          -0.0058683031377644995,
          0.0008577161639283381
        ],
        "cy": [
          -23036.806788047914,
          -5139.289741514061,
          295.93871566931324,
          -26.679390093974675,
          2.735280412958044,
          -0.28734487262074826,
          0.029030860359525578,
          -0.0025900318107056446,
          0.00015702615441735566
        ],
        "cz": [
          2326.4843123077044,
          690.9806660496567,
          -29.572975734440273,
          2.279959782742598,
          -0.19923391734053056,
          0.016745297235114077,
          -0.001085426660225448,
          -4.4831864894302116e-06,
          2.1298977639392504e-05
        ]
      },
      {
        "t_start": 2454774.5206504236,
        "t_end": 2454774.579678198,
        "cx": [
          18362.59277639988,
          8815.877512847608,
          -190.87216319312748,
          7.779193872332237,
          -0.1212312759228314,
          -0.06262027630861891,
          0.01729439310852207,
          -0.0034521784950221684,
