{
  "format": "chebyshev-ephemeris-bundle",
  "version": "1.0",
  "metadata": {
    "created": "2026-03-25T15:09:13.383Z",
    "coordinate_frame": "J2000",
    "units": {
      "time": "julian_date",
      "position": "km"
    },
    "origin": "lunar",
    "bodies": [
      "SC",
      "MOON",
      "EARTH",
      "SUN"
    ],
    "source_kernels": [
      "isro_full_mission_predict_00.bsp",
      "de440.bsp"
    ],
    "source_sc_file": "lunar-CH1-cheb.json",
    "step_seconds": 60,
    "tolerance_km": 5,
    "max_degree": 8
  },
  "time_range": {
    "start": 2454761.5498178634,
    "end": 2454785.2922453703
  },
  "SC": {
    "format": "chebyshev-ephemeris",
    "version": "1.0",
    "metadata": {
      "source": "lunar-CH1-samples.json",
      "created": "2026-03-25T15:08:20.090Z",
      "tolerance_km": 5,
      "segments_count": 201,
      "coordinate_frame": "J2000",
      "units": {
        "time": "julian_date",
        "position": "km"
      },
      "origin": "lunar",
      "target": "CH1",
      "source_kernel": "isro_full_mission_predict_00.bsp",
      "step_seconds": 60
    },
    "time_range": {
      "start": 2454761.5498178634,
      "end": 2454785.2922453703
    },
    "segments": [
      {
        "t_start": 2454761.5498178634,
        "t_end": 2454761.583845639,
        "cx": [
          220030.19102808088,
          7634.590426273356,
          544.0331380075106,
          -295.92185367520045,
          80.60371910305125,
          -15.873307826089379,
          1.2335286654587958,
          0.6909646725386935,
          -0.46464163994092
        ],
        "cy": [
          -312706.57861096354,
          -6415.644470163326,
          1527.306880557582,
          -163.9502989042467,
          -7.095761160805912,
          13.45412419000105,
          -5.638610574590746,
          1.5716688498197553,
          -0.27063679278851455
        ],
        "cz": [
          -4415.634339901947,
          1063.3610581178536,
          -131.90566682466508,
          6.139248338105875,
          3.4176509193083575,
          -1.8548504933981083,
          0.5932322486634344,
          -0.12997277666801801,
          0.010542648824281374
        ]
      },
      {
        "t_start": 2454761.583845639,
        "t_end": 2454761.617873415,
        "cx": [
          235302.42445068795,
          7058.3311575400585,
          -266.2555585754169,
          -0.36335562098337687,
          0.8357340550097181,
          -0.18106605907105883,
          0.02964034183534797,
          -0.004451884679337089,
          0.0006416621928705248
        ],
        "cy": [
          -317877.0944407604,
          334.0879900034422,
          416.5443915501767,
          -34.17873623045107,
          3.2503424138966754,
          -0.33277695726755363,
          0.03409859589810031,
          -0.0033784327542297943,
          0.0003067974597286254
        ],
        "cz": [
          -3042.37383763488,
          380.0505846951582,
          -49.89505376350111,
          3.357279116145135,
          -0.29205528050436896,
          0.026653871695864643,
          -0.0023535829874707648,
          0.00018157508826148588,
          -0.000008402926824350621
        ]
      },
      {
        "t_start": 2454761.617873415,
        "t_end": 2454761.6859289664,
        "cx": [
          251133.4683822992,
          8068.5287984406905,
          -962.5013004673424,
          5.671772724217245,
          -2.068937942175633,
          -0.04649941950941704,
          0.04079066329293686,
          -0.03785099329725515,
          0.03129485161169876
        ],
        "cy": [
          -311445.33971687086,
          6335.722022751577,
          559.8626370447736,
          -57.67750800977572,
          4.944483453543008,
          -0.7063442343049052,
          0.12871851168566198,
          -0.061370562914266576,
          0.045187792940364575
        ],
        "cz": [
          -2614.665590956094,
          1.218151313709154,
          -86.8046563244252,
          5.742511109378669,
          -0.5053075644298625,
          0.0761711868365362,
          -0.0631597954659643,
          0.058207758384368466,
          -0.05182068006503301
        ]
      },
      {
        "t_start": 2454761.6859289664,
        "t_end": 2454761.753984518,
        "cx": [
          259336.14633112014,
          -5.175765469765904,
          -1134.4036632606385,
          -40.632579344797335,
          -4.850728342908025,
          -0.40193791893871256,
          -0.04307023276305313,
          -0.003964752853913825,
          -0.00033632292309428163
        ],
        "cy": [
          -296008.96109458525,
          8683.351063013852,
          44.6840314719891,
          -47.5311633712408,
          -3.6272608113262237,
          -0.6797132127784078,
          -0.08207327089924832,
          -0.012676067286411663,
          -0.001747614858370611
        ],
        "cz": [
          -3146.9041594709424,
          -497.15162700577247,
          -42.03601961873653,
          3.3127860139883882,
          0.1936543385280155,
          0.05340357571391572,
          0.00662984191799102,
          0.001114435433997849,
          0.0001606823822894627
        ]
      },
      {
        "t_start": 2454761.753984518,
        "t_end": 2454761.7880122936,
        "cx": [
          254368.9282510756,
          -4239.117464531524,
          -476.85550920625866,
          -20.591986990780317,
          -1.1726936294938624,
          -0.01510962856455231,
          0.012463449136404198,
          0.0033484055346263623,
          0.0006601334049230649
        ],
        "cy": [
          -283634.2175896028,
          3495.166446350315,
          -234.0198233229377,
          -34.09608833337534,
          -3.9961533347035885,
          -0.49766538868391136,
          -0.061679604767666464,
          -0.007524443903735264,
          -0.0008923316100276418
        ],
        "cz": [
          -3993.4888089329197,
          -306.19202214721605,
          7.124880796595383,
          2.6631758132412626,
          0.3538021521102915,
          0.048449955575225766,
          0.006484010506884097,
          0.000852011159716567,
          0.00010981280845642703
        ]
      },
      {
        "t_start": 2454761.7880122936,
        "t_end": 2454761.8220400694,
        "cx": [
          241741.58128697748,
          -8208.238786310658,
          -110.53649091461965,
          298.6339020371422,
          114.23450460709293,
          26.50002317222569,
          1.768360032633278,
          -1.7706059178943852,
          -1.1155714072596041
        ],
        "cy": [
          -281761.7065816932,
          -2950.4498083535445,
          -1901.254529378432,
          -326.432419867886,
          -14.13033674783463,
          19.137129233219852,
          10.095393233550604,
          2.9312859085888663,
          0.34405745878826877
        ],
        "cz": [
          -4240.814564394316,
          195.52905681953575,
          183.44967224108535,
          42.17059903424818,
          5.2563615508500945,
          -0.9737872643718362,
          -0.9255062302925529,
          -0.3453722134005673,
          -0.07100711133217608
        ]
      },
      {
        "t_start": 2454761.8220400694,
        "t_end": 2454761.8567622895,
        "cx": [
          238881.478228998,
          6767.854571147244,
          1148.1463623960533,
          -492.83479480082724,
          111.78340798902425,
          -7.553405454090953,
          -7.566241807220627,
          4.461979826799895,
          -1.3700554587907356
        ],
        "cy": [
          -296473.2533124777,
          -7880.559151312247,
          1711.239073281779,
          -81.35634875084794,
          -73.03600229800206,
          38.75281506385485,
          -10.689329259813926,
          0.997205868419974,
          0.8251856510640745
        ],
        "cz": [
          -2513.332745328946,
          1199.4964753620905,
          -128.57146341126645,
          -9.094592384567871,
          11.041436246165171,
          -4.05473245803759,
          0.7803159817479589,
          0.058800243673489176,
          -0.12851074128230552
        ]
      },
      {
        "t_start": 2454761.8567622895,
        "t_end": 2454761.8914845097,
        "cx": [
          254023.01726271768,
          7345.46797047564,
          -276.7418842903161,
          -2.0915386436844106,
          1.3792232891396285,
          -0.29715907554816495,
          0.05125072469853269,
          -0.00815931177731489,
          0.0012492450503543214
        ],
        "cy": [
          -303202.7031868144,
          90.190462574449,
          478.09726266682316,
          -42.338474946709916,
          4.328215910907691,
          -0.47053160822909856,
          0.05058665512500501,
          -0.005129516424693949,
          0.00044839131723139054
        ],
        "cz": [
          -947.6242331797873,
          434.9605199587184,
          -56.64001059250294,
          4.102954374615116,
          -0.3786104007684347,
          0.035996413270065704,
          -0.0031922021847331644,
          0.00021966681227468833,
          -3.8685834426495883e-7
        ]
      },
      {
        "t_start": 2454761.8914845097,
        "t_end": 2454761.96092895,
        "cx": [
          270452.41624507855,
          8345.306949391499,
          -1006.9582502464539,
          7.237144018548498,
          -2.1974352817132914,
          -0.046748522732875566,
          0.009699687392043379,
          -0.004026401399053352,
          0.0007467052443779542
        ],
        "cy": [
          -296867.5573034522,
          6481.639144039053,
          604.9946763595575,
          -64.46834034743296,
          5.93014068793616,
          -0.8382130617266952,
          0.09848097515983274,
          -0.013875680137787097,
          0.0018020768488438421
        ],
        "cz": [
          -432.88041014062003,
          31.203817805890097,
          -94.09492963292311,
          6.613717651975708,
          -0.6616223509429963,
          0.08106658824296278,
          -0.009374755756957391,
          0.0012279242263078696,
          -0.00015161134251535729
        ]
      },
      {
        "t_start": 2454761.96092895,
        "t_end": 2454762.0303733903,
        "cx": [
          278881.6946828569,
          -53.06260449575162,
          -1176.3450352879797,
          -42.119852454475726,
          -5.155187829252544,
          -0.4301269341553006,
          -0.04699472142100013,
          -0.004386314094179119,
          -0.00038036208066039056
        ],
        "cy": [
          -280936.1506956151,
          9000.078449579165,
          49.114833226434094,
          -50.038594244529754,
          -3.7933591224276473,
          -0.7313030321300951,
          -0.08862832156666532,
          -0.013957033385354832,
          -0.0019419826088898694
        ],
        "cz": [
          -945.6737828651848,
          -504.3902848551741,
          -45.13502376393607,
          3.4717847602370866,
          0.19484186158539527,
          0.05717395408788346,
          0.007104521704441551,
          0.0012234151269251991,
          0.00017815895598166531
        ]
      },
      {
        "t_start": 2454762.0303733903,
        "t_end": 2454762.0650956105,
        "cx": [
          273651.8809555338,
          -4429.757988337344,
          -497.77773768941535,
          -21.901049272983755,
          -1.2553780669035297,
          -0.0113169070317388,
          0.015337204276183352,
          0.004111198568619214,
          0.000823717114947447
        ],
        "cy": [
          -268117.01023767167,
          3608.5599581657793,
          -249.0145376328024,
          -36.88764317694863,
          -4.429785524969268,
          -0.5646614881070096,
          -0.07160869892048319,
          -0.008928080572887874,
          -0.001080655254108918
        ],
        "cz": [
          -1811.8726515572916,
          -315.53391054726984,
          7.403098816251567,
          2.8754317180446862,
          0.39289555532419174,
          0.05522002625467318,
          0.007580822756558097,
          0.0010208350173028919,
          0.00013477467779141676
        ]
      },
      {
        "t_start": 2454762.0650956105,
        "t_end": 2454762.099123386,
        "cx": [
          260727.86588649914,
          -8239.696267573767,
          -32.55289040504976,
          331.6298503489931,
          122.01296854709236,
          26.232037798595833,
          0.48950845831944567,
          -2.4524927383430177,
          -1.3175559118883662
        ],
        "cy": [
          -266309.0549045195,
          -3165.6415956180535,
          -1959.5560558479358,
          -323.7310476434677,
          -5.284264052968396,
          23.620654452850484,
          11.307841755011191,
          2.970747637988165,
          0.1726002777566758
        ],
        "cz": [
          -2053.9118562777157,
          216.7449919680959,
          191.99249034287217,
          43.40373034542702,
          4.782004070677074,
          -1.39523757179865,
          -1.0869728659542388,
          -0.3747519567109177,
          -0.06247865898964797
        ]
      },
      {
        "t_start": 2454762.099123386,
        "t_end": 2454762.1338456064,
        "cx": [
          258208.68912689018,
          6899.5690452557565,
          1045.6133695871902,
          -466.0252802009603,
          110.88579524891816,
          -10.917421803685823,
          -5.535153195708261,
          3.8081090866864877,
          -1.3167581669597945
        ],
        "cy": [
          -281011.88238618855,
          -7579.058332255747,
          1708.470752651818,
          -104.42246564312772,
          -60.18225541858927,
          34.946337349900055,
          -10.503700705614218,
          1.4634430316631548,
          0.5109394232032384
        ],
        "cz": [
          -297.8043680920331,
          1191.8310290288368,
          -130.96152360675603,
          -6.381656758098252,
          9.875042276648513,
          -3.81404286284039,
          0.8275398610226439,
          -0.005388649970360971,
          -0.09736298624818727
        ]
      },
      {
        "t_start": 2454762.1338456064,
        "t_end": 2454762.1685678265,
        "cx": [
          273303.0930830258,
          7242.486408601134,
          -278.73367153589425,
          -1.5882145821979752,
          1.2666387231352725,
          -0.2753230015562254,
          0.04730893462944097,
          -0.00748978888042959,
          0.001139716226746478
        ],
        "cy": [
          -287285.6345170034,
          249.90520534793728,
          468.60710864428705,
          -41.18738479879006,
          4.176069354691229,
          -0.4513778578983956,
          0.04837830032252572,
          -0.004919198377658315,
          0.00043819619576713933
        ],
        "cz": [
          1256.5360110158324,
          432.47002627934336,
          -56.13192397946362,
          4.010201171657969,
          -0.3667178453472587,
          0.034638776104564575,
          -0.003068983556912168,
          0.00021516809265470372,
          -0.000002082255645808036
        ]
      },
      {
        "t_start": 2454762.1685678265,
        "t_end": 2454762.2373178224,
        "cx": [
          289346.90830629674,
          8082.915334149921,
          -988.5180808600245,
          7.1059945280043,
          -2.132780006680833,
          -0.04065792827295703,
          0.008360145520974598,
          -0.0036135904148967848,
          0.0006630934000656868
        ],
        "cy": [
          -280655.69939360354,
          6603.95570321116,
          586.4640860126503,
          -62.13300219826401,
          5.623210769268783,
          -0.7877167832390289,
          0.09121580963768416,
          -0.012721782533522222,
          0.0016305088655614636
        ],
        "cz": [
          1768.4422198937139,
          31.992920808960456,
          -92.78823799398555,
          6.393358168010329,
          -0.6319717126268621,
          0.07634749907130746,
          -0.008706965616633882,
          0.0011262701642841902,
          -0.00013711614122015062
        ]
      },
      {
        "t_start": 2454762.2373178224,
        "t_end": 2454762.3067622627,
        "cx": [
          297384.8847156399,
          -200.1533518922928,
          -1175.875935278077,
          -41.82686068671137,
          -5.129143988642956,
          -0.4260063405128555,
          -0.04652048783936185,
          -0.004323823800209191,
          -0.00037333716698969286
        ],
        "cy": [
          -264476.2968690089,
          9139.244649486165,
          46.10888239053278,
          -50.06674266408408,
          -3.784818111983254,
          -0.7290434719229997,
          -0.08811025573993128,
          -0.013866107111340668,
          -0.0019253398268094149
        ],
        "cz": [
          1256.248841881851,
          -506.6421562861452,
          -46.106275540313916,
          3.4469910650814466,
          0.19000399329554027,
          0.056736213355352456,
          0.0070318425205559915,
          0.001213758280279637,
          0.0001766024371857616
        ]
      },
      {
        "t_start": 2454762.3067622627,
        "t_end": 2454762.341484483,
        "cx": [
          291941.2544617294,
          -4495.864557637385,
          -496.2010139597528,
          -21.722995263413683,
          -1.24147886515009,
          -0.010888364021486643,
          0.015157483363756146,
          0.004049215158045578,
          0.0008092700128805641
        ],
        "cy": [
          -251458.86845672972,
          3670.414288879825,
          -249.1637363650207,
          -36.717753900401604,
          -4.395852831944192,
          -0.5589560886812533,
          -0.07072602504546191,
          -0.008800852524053509,
          -0.0010635118441525938
        ],
        "cz": [
          382.46224508866777,
          -320.2743163215052,
          6.971483313254659,
          2.8465703553223918,
          0.3892641932093274,
          0.05472867237596816,
          0.007512052290846645,
          0.0010114638557540767,
          0.00013356330298725593
        ]
      },
      {
        "t_start": 2454762.341484483,
        "t_end": 2454762.3755122586,
        "cx": [
          278894.685417766,
          -8302.604614317857,
          -41.31405758416023,
          326.2176677105677,
          120.55265336463263,
          26.25526878404726,
          0.7264018094539031,
          -2.323059479230764,
          -1.279999145183476
        ],
        "cy": [
          -249505.7706901447,
          -3072.6339320268926,
          -1948.5184450443246,
          -323.2784756175811,
          -6.691867340728495,
          22.810477051463202,
          11.080171383334278,
          2.9647229876997674,
          0.20681367600684472
        ],
        "cz": [
          125.2963609036913,
          205.5940242675666,
          190.77054998961552,
          43.544828609927976,
          4.993480697682597,
          -1.2912772086122626,
          -1.0573068287681484,
          -0.37252936885147014,
          -0.0658794268588448
        ]
      },
      {
        "t_start": 2454762.3755122586,
        "t_end": 2454762.410234479,
        "cx": [
          276200.68071986706,
          6820.767618639485,
          1058.9845332656116,
          -470.95680988128936,
          111.4046829128588,
          -10.454711742198546,
          -5.875573793313261,
          3.9319450025885665,
          -1.3341271801962502
        ],
        "cy": [
          -264057.19979082997,
          -7529.983238945279,
          1713.3975366029586,
          -101.9598692819845,
          -62.201477281553466,
          35.662009237120486,
          -10.585879878400624,
          1.4007017139560214,
          0.5631571908812972
        ],
        "cz": [
          1876.3028273368168,
          1200.7890934894162,
          -130.0723165942852,
          -7.282205305466139,
          10.216749712797657,
          -3.883342956964444,
          0.818587749723169,
          0.0092645955834559,
          -0.10476300334113424
        ]
      },
      {
        "t_start": 2454762.410234479,
        "t_end": 2454762.4442622545,
        "cx": [
          291030.7610015704,
          7057.419892168032,
          -269.03130380487187,
          -1.592169847144818,
          1.2167995079103786,
          -0.26000724253134766,
          0.044057312000108775,
          -0.006880137426420536,
          0.0010322522717606257
        ],
        "cy": [
          -270221.7834011679,
          288.46459867581234,
          454.94004084600886,
          -39.54341913313447,
          3.9587497336192943,
          -0.42191328998826616,
          0.04453259801897842,
          -0.00444817246584464,
          0.00038660590392211
        ],
        "cz": [
          3439.630205539625,
          433.76563771299885,
          -54.78651158394407,
          3.8506104541965764,
          -0.34623965817489916,
          0.032058588984799505,
          -0.002765695985960192,
          0.00018399676324825644,
          1.635665375527178e-7
        ]
      },
      {
        "t_start": 2454762.4442622545,
        "t_end": 2454762.5130122504,
        "cx": [
          306836.2151437708,
          8016.296000629325,
          -991.5836465716368,
          7.698897722465314,
          -2.13952631849496,
          -0.0409496977240912,
          0.009371881494310551,
          -0.0038423896216837014,
          0.0007157307414416348
        ],
        "cy": [
          -263471.78282726934,
          6704.5482939168305,
          592.0408595366976,
          -63.21015854021309,
          5.809074817839674,
          -0.8148333825773998,
          0.09566692791405572,
          -0.013379509704231006,
          0.001733752361863312
        ],
        "cz": [
          3967.827085346938,
          43.7982375734885,
          -94.60626988490374,
          6.536377818942917,
          -0.6534811940696066,
          0.07906647836517247,
          -0.009111411626219692,
          0.001180510471872436,
          -0.00014486644228876017
        ]
      },
      {
        "t_start": 2454762.5130122504,
        "t_end": 2454762.5817622463,
        "cx": [
          314766.7224883239,
          -209.35046567148444,
          -1144.2642219539275,
          -39.07249084524438,
          -4.7762233979056825,
          -0.38507269990957244,
          -0.041640649035056196,
          -0.003808858399909152,
          -0.0003294271447362573
        ],
        "cy": [
          -247155.86125172293,
          9173.782393612895,
          51.47688787417743,
          -47.65483286166511,
          -3.407627890929095,
          -0.6595978066824578,
          -0.0767498365715514,
          -0.011957891637416377,
          -0.0016134344908216006
        ],
        "cz": [
          3473.287523980408,
          -499.6122532573167,
          -46.769555840461244,
          3.2721552952272046,
          0.1608064603519619,
          0.05102012816625755,
          0.00605068053086721,
          0.001041300829488873,
          0.00014724750079623676
        ]
      },
      {
        "t_start": 2454762.5817622463,
        "t_end": 2454762.6164844665,
        "cx": [
          309424.91022012045,
          -4408.791457051705,
          -484.46399896970803,
          -20.776458800462212,
          -1.2178873720724464,
          -0.023686168884817442,
          0.010837525071910862,
          0.003062529759935881,
          0.0006122599144174337
        ],
        "cy": [
          -233973.96059481092,
          3806.7588679019964,
          -232.02886701312542,
          -33.83476050684177,
          -3.936853650859032,
          -0.48957641020719445,
          -0.060673290523649684,
          -0.0074248185809605875,
          -0.0008872354226202637
        ],
        "cz": [
          2599.7504549992864,
          -327.7146957002036,
          5.207883251930277,
          2.578251383434865,
          0.34403417997453734,
          0.047466261792313065,
          0.006386095313781214,
          0.0008448905264868009,
          0.00010994715090948068
        ]
      },
      {
        "t_start": 2454762.6164844665,
        "t_end": 2454762.650512242,
        "cx": [
          296489.3577552068,
          -8398.566124421772,
          -207.88432695689153,
          248.49956075913997,
          100.01746758306803,
          25.449082625410266,
          3.1687119422154897,
          -0.8454477146992697,
          -0.7861975841207792
        ],
        "cy": [
          -231304.67440515303,
          -2373.9401958315343,
          -1796.254545175703,
          -321.0840164190631,
          -24.935222764170177,
          12.488798315918164,
          7.8850923590926,
          2.590797386161487,
          0.4636799854606398
        ],
        "cz": [
          2277.7323979594735,
          132.4601868841707,
          169.77952224034775,
          40.833454481308905,
          6.151777993747309,
          -0.2852886642085499,
          -0.6555171022976332,
          -0.28450114608249555,
          -0.0741572507483561
        ]
      },
      {
        "t_start": 2454762.650512242,
        "t_end": 2454762.6616233527,
        "cx": [
          288120.0105974919,
          321.1785840688188,
          440.2157849168634,
          -24.89051205447041,
          -5.063976634080568,
          1.0281987175539138,
          0.03434956380807589,
          -0.034426191044277195,
          0.002769374215363721
        ],
        "cy": [
          -239973.42834464004,
          -4160.62854239505,
          62.503084087572454,
          43.05877838986016,
          -5.070501881567457,
          -0.5065390019898053,
          0.18769261682380933,
          -0.004451922484608607,
          -0.007189019547482704
        ],
        "cz": [
          3101.8456118024583,
          491.96708316807945,
          10.422309211809743,
          -5.165021116553361,
          0.3043967097738201,
          0.08842599513008367,
          -0.016908359849505346,
          -0.000890109476700982,
          0.0008046456263386039
        ]
      },
      {
        "t_start": 2454762.6616233527,
        "t_end": 2454762.6803733516,
        "cx": [
          292828.26647391793,
          4179.04635367751,
          140.83569128762866,
          -48.367133615122334,
          9.49355176969299,
          -2.139543600347764,
          0.9200901245193869,
          -0.5998670038038859,
          0.4747182397040129
        ],
        "cy": [
          -248460.51558365038,
          -3921.4373237564064,
          465.86605873997627,
          -37.029771009204104,
          1.5756557386794714,
          0.09932558875136843,
          0.18096481750299048,
          -0.23025862521533327,
          0.20726108758372155
        ],
        "cz": [
          4304.446452568793,
          662.5131619094336,
          -40.792777200951846,
          1.8615601192193698,
          0.17126652922707475,
          -0.05989082876022535,
          -0.009494686847554779,
          0.019776730429809316,
          -0.018226449099362604
        ]
      },
      {
        "t_start": 2454762.6803733516,
        "t_end": 2454762.7095400165,
        "cx": [
          303653.6365554437,
          6418.030220597843,
          -133.9778265205573,
          -4.234421410652585,
          1.5646389755226233,
          -0.3004846179172484,
          0.049957121971455506,
          -0.007726266520439045,
          0.0011454047819229626
        ],
        "cy": [
          -254141.83816003142,
          -1770.0186174928779,
          382.2929230413806,
          -34.247011202100886,
          3.520218549061994,
          -0.37110041366633956,
          0.03747110444757559,
          -0.0033004583872162673,
          0.00018471359516456824
        ],
        "cz": [
          5573.428319875308,
          598.8335384638503,
          -42.90765600394489,
          3.2334148151465545,
          -0.28919263544694646,
          0.025296722370019873,
          -0.0018026770839143056,
          0.000031349951741598056,
          0.00002555134853503872
        ]
      },
      {
        "t_start": 2454762.7095400165,
        "t_end": 2454762.7678733463,
        "cx": [
          320147.1865990156,
          9733.386294003196,
          -464.319045553437,
          14.170407055588612,
          -0.6160979678155524,
          -0.0429582476420144,
          0.018868620770683513,
          -0.004209130624498798,
          0.0008108526302978481
        ],
        "cy": [
          -254594.83499806566,
          1517.1872976612592,
          498.75866007474264,
          -46.630271376096,
          5.255107908842819,
          -0.6530204652059952,
          0.08473363745981931,
          -0.011206836437260453,
          0.001509753398671849
        ],
        "cz": [
          6785.258149893941,
          580.4074928252533,
          -66.74946930072768,
          5.162784091673063,
          -0.5445457778933903,
          0.06311058803723925,
          -0.007681241183020368,
          0.0009503938730537008,
          -0.00011870151451303465
        ]
      },
      {
        "t_start": 2454762.7678733463,
        "t_end": 2454762.884540006,
        "cx": [
          341183.48936625954,
          10401.627367307616,
          -1324.103053733148,
          23.149418298130318,
          -4.562567741052178,
          0.23244990204864055,
          -0.03214125782859575,
          0.0018186893232449513,
          -0.00013997291011096105
        ],
        "cy": [
          -243788.81871283468,
          9527.624254598466,
          623.9561089157088,
          -64.43107078932982,
          6.207748091266447,
          -0.8777300713573606,
          0.10903647020955774,
          -0.015762901328415135,
          0.0021866484644763157
        ],
        "cz": [
          7603.45970203704,
          180.91960125946756,
          -110.78429230304774,
          7.266149504523699,
          -0.789089314563638,
          0.09590343431797181,
          -0.012036062163941945,
          0.001632503815796449,
          -0.00022216598086123126
        ]
      },
      {
        "t_start": 2454762.884540006,
        "t_end": 2454763.0012066658,
        "cx": [
          351486.3187918965,
          -196.29050302304648,
          -1444.5311419030602,
          -47.845997549604775,
          -6.623616246715998,
          -0.5676900509604965,
          -0.07300286487440096,
          -0.008060998876119394,
          -0.001021010561553412
        ],
        "cy": [
          -221566.52526579957,
          12265.473388059658,
          93.58815336292909,
          -44.593291599522,
          -2.9788172360827456,
          -0.6121398459962043,
          -0.07098279551628944,
          -0.011428876592818433,
          -0.0015777635847535392
        ],
        "cz": [
          7263.367332923475,
          -482.1802380822883,
          -62.79527075921901,
          2.6034121335990905,
          0.044186131643595576,
          0.03918933393537768,
          0.004270959246073648,
          0.0008277224042644261,
          0.00011772833989671075
        ]
      },
      {
        "t_start": 2454763.0012066658,
        "t_end": 2454763.0595399956,
        "cx": [
          344878.17852795805,
          -5505.316337377914,
          -622.5440249153763,
          -31.94443875670529,
          -2.739334303536488,
          -0.2410704113148014,
          -0.021058022298770407,
          -0.001567611752718319,
          -0.00005230335631576838
        ],
        "cy": [
          -203563.24774741166,
          5522.029619178217,
          -197.91535483145464,
          -30.73451813966422,
          -3.706020902615086,
          -0.48967958259592526,
          -0.0660926521661817,
          -0.009043176524484877,
          -0.0012595241125882358
        ],
        "cz": [
          6344.528214623916,
          -381.8372120309087,
          -3.6748931604043937,
          1.8358519905832094,
          0.26358863517318565,
          0.03940265958547377,
          0.005751888905200176,
          0.00083656589009945,
          0.00012277070213381977
        ]
      },
      {
        "t_start": 2454763.0595399956,
        "t_end": 2454763.0887066606,
        "cx": [
          333788.31635136605,
          -5198.389165307549,
          -282.7594219537419,
          -11.88548222195514,
          -0.43870289790892203,
          0.03316921299382239,
          0.013280604710131955,
          0.0026993482290516412,
          0.00046393976827277246
        ],
        "cy": [
          -196613.7262315091,
          1450.5060767438365,
          -233.16651306414468,
          -25.852750605493437,
          -2.8939419263830644,
          -0.334218604666753,
          -0.0385762565652603,
          -0.0043432654931830055,
          -0.0004674541187080146
        ],
        "cz": [
          5797.7576513982,
          -152.80628540056273,
          12.469696594223356,
          2.1114611597699104,
          0.270025286776267,
          0.034341435902914615,
          0.004318944126625809,
          0.0005314600976851123,
          0.00006370635155314844
        ]
      },
      {
        "t_start": 2454763.0887066606,
        "t_end": 2454763.1178733255,
        "cx": [
          321067.9767017765,
          -7354.164680138589,
          7.1483953655424015,
          186.48778929868115,
          65.00286279929576,
          14.636105714313137,
          1.4546712597531228,
          -0.5407059018231251,
          -0.39391508175842194
        ],
        "cy": [
          -197836.5991166345,
          -3566.029388821339,
          -1347.6985923689617,
          -209.89169965261073,
          -12.141595133100028,
          8.404184507741126,
          4.52528196132676,
          1.3329064645208688,
          0.21161960894804233
        ],
        "cz": [
          5813.192769245691,
          262.94714813990817,
          133.75483238649716,
          27.82751855050212,
          3.6671856014618127,
          -0.2715972721156631,
          -0.38936749383468594,
          -0.15111562327152733,
          -0.03555093927769415
        ]
      },
      {
        "t_start": 2454763.1178733255,
        "t_end": 2454763.147734435,
        "cx": [
          316980.0595214996,
          4692.125765342124,
          1237.3232568061742,
          -417.5934341487879,
          66.91589265701394,
          8.75298635401126,
          -10.241679663307433,
          3.5125706690871557,
          -0.338687297426675
        ],
        "cy": [
          -212215.40471652293,
          -8137.675523882305,
          1258.5863459439602,
          20.143762076148818,
          -85.69493591514647,
          31.70932424388741,
          -4.483168070263208,
          -1.549078698264391,
          1.2827210017628101
        ],
        "cz": [
          7469.098865112516,
          1183.4723129194842,
          -76.6728832206386,
          -18.170827951688988,
          11.043427596584525,
          -2.7786722562597945,
          0.04117645693613271,
          0.2889368428039194,
          -0.13882784550066088
        ]
      },
      {
        "t_start": 2454763.147734435,
        "t_end": 2454763.1769010997,
        "cx": [
          329003.7908080902,
          6314.894848828516,
          -134.7945542805208,
          -4.272180941280637,
          1.5863187260843967,
          -0.30570035433910575,
          0.05098324629611585,
          -0.007907094819993845,
          0.0011751301485696409
        ],
        "cy": [
          -221242.70631540185,
          -1686.793166090144,
          383.9068931763418,
          -34.54616469144101,
          3.5624563917826824,
          -0.3765149880510481,
          0.03807576929309175,
          -0.0033505608085790347,
          0.000184831510015697
        ],
        "cz": [
          9215.740385959101,
          602.662637845215,
          -43.28259812185989,
          3.261787669580276,
          -0.29153441899256777,
          0.02540203531186211,
          -0.0017817932588416728,
          0.000022652082769468945,
          0.000027716298710855327
        ]
      },
      {
        "t_start": 2454763.1769010997,
        "t_end": 2454763.235928874,
        "cx": [
          345275.3907136356,
          9602.568669202918,
          -476.5105289292407,
          14.774527184740517,
          -0.6614849554493113,
          -0.04272775152260725,
          0.01972328226308033,
          -0.004472650502924152,
          0.0008729455249997423
        ],
        "cy": [
          -221404.12792711402,
          1734.5502133556993,
          507.44754538510034,
          -48.04842494165588,
          5.472616948142958,
          -0.6873775593079143,
          0.09014832074613399,
          -0.012049403910270196,
          0.0016408831734188868
        ],
        "cz": [
          10439.414030417582,
          586.6822566706431,
          -68.62714096504129,
          5.3452880826018205,
          -0.5690756129683937,
          0.06656739386564797,
          -0.008178191270712636,
          0.0010212386172283917,
          -0.0001287336189482684
        ]
      },
      {
        "t_start": 2454763.235928874,
        "t_end": 2454763.353289978,
        "cx": [
          365676.5221533949,
          9892.355303616809,
          -1340.5208256092835,
          23.184913682849064,
          -4.6548984338417,
          0.23591350649823237,
          -0.03322255053972465,
          0.001903149853173678,
          -0.00015614219225863318
        ],
        "cy": [
          -209937.32206013036,
          9960.181790691146,
          620.1776145825701,
          -64.78825024416545,
          6.211655146795422,
          -0.88390564447678,
          0.10953195651887493,
          -0.015897291735715607,
          0.0022038295338378667
        ],
        "cz": [
          11252.109528232599,
          168.9791938307423,
          -112.58551967938439,
          7.3311479079861614,
          -0.7979101462422628,
          0.09696363431620898,
          -0.012169056475686089,
          0.0016526169275884726,
          -0.00022488335321281723
        ]
      },
      {
        "t_start": 2454763.353289978,
        "t_end": 2454763.470651082,
        "cx": [
          374811.3289743839,
          -863.397860707741,
          -1471.3544625005002,
          -50.1249650614929,
          -6.944725031618258,
          -0.6093653853856952,
          -0.07891126816977746,
          -0.00886919270076935,
          -0.001134435460081277
        ],
        "cy": [
          -186899.53448909233,
          12641.554025960968,
          81.14323090985967,
          -46.28042085226713,
          -3.254566011464382,
          -0.6588154889989031,
          -0.07879209296448608,
          -0.012733242511979853,
          -0.001797053404325366
        ],
        "cz": [
          10875.23338173323,
          -506.70828718673636,
          -64.19047549387994,
          2.6440908964044385,
          0.0534527648061377,
          0.04176295435433881,
          0.004759058726480003,
          0.0009198638971092104,
          0.00013435132758321872
        ]
      },
      {
        "t_start": 2454763.470651082,
        "t_end": 2454763.5296788565,
        "cx": [
          367011.256953756,
          -6028.810422692956,
          -653.3409312039623,
          -34.899963744564545,
          -3.071814499279196,
          -0.27630591603699783,
          -0.02421355544694998,
          -0.0017068615346403876,
          -0.000017827229915731036
        ],
        "cy": [
          -168391.2626153807,
          5645.523531120832,
          -221.1391414556607,
          -34.62533989523952,
          -4.347760828087348,
          -0.5955441411202612,
          -0.08340907226107964,
          -0.011826379374464732,
          -0.0017069043930804649
        ],
        "cz": [
          9913.692343819057,
          -398.36995091129864,
          -3.1708364923090535,
          2.08196668720482,
          0.31232491814541685,
          0.0483780335697503,
          0.007335783449613493,
          0.00110679916158697,
          0.00016855845474943035
        ]
      },
      {
        "t_start": 2454763.5296788565,
        "t_end": 2454763.5588455214,
        "cx": [
          355044.3386533443,
          -5529.695136028317,
          -295.1509104728527,
          -12.331058460858008,
          -0.3270059315265837,
          0.07414212529819988,
          0.022720872813244145,
          0.0045336212626325536,
          0.0007913779005783247
        ],
        "cy": [
          -161447.3562084873,
          1321.3561211580188,
          -265.2702682143363,
          -30.647649890835616,
          -3.595704335497062,
          -0.432592578145191,
          -0.051604869681825816,
          -0.0059294173197483105,
          -0.0006359956511548279
        ],
        "cz": [
          9352.508501016453,
          -149.42562107478804,
          14.927233635605242,
          2.561877211205762,
          0.3438402952809653,
          0.04574056866697766,
          0.005990367812120106,
          0.0007622193050606085,
          0.0000934849856273252
        ]
      },
      {
        "t_start": 2454763.5588455214,
        "t_end": 2454763.5880121863,
        "cx": [
          341884.921415336,
          -7251.907299156311,
          292.13097232805376,
          295.7306797112784,
          87.06426447857336,
          12.555036680296755,
          -2.4360984234460497,
          -2.3027577853276813,
          -0.8099525905064022
        ],
        "cy": [
          -163629.77029358145,
          -4548.407991438775,
          -1541.8811933682184,
          -195.26940411220116,
          17.217064942092602,
          21.459968230109872,
          7.4700870809068505,
          1.1952775378613023,
          -0.27510259271646315
        ],
        "cz": [
          9451.128664006588,
          366.22375055182414,
          164.22611074527296,
          30.841004867324298,
          1.6970360628721306,
          -1.6230838302135369,
          -0.8285505005372775,
          -0.2066302570234858,
          -0.004498765905947575
        ]
      },
      {
        "t_start": 2454763.5880121863,
        "t_end": 2454763.6178732957,
        "cx": [
          339475.3529030941,
          5407.932658175962,
          843.108725182901,
          -330.12517335068725,
          73.83278416125749,
          -6.6484890299757495,
          -3.372533241105449,
          2.1460426758010067,
          -0.6793832907885209
        ],
        "cy": [
          -178401.7756230601,
          -7250.761373173763,
          1272.0434196548088,
          -77.50807649215317,
          -39.15995234404979,
          21.74399370522027,
          -6.127572172667774,
          0.7542075631139092,
          0.29206743097854504
        ],
        "cz": [
          11226.538131308002,
          1137.3935072633017,
          -92.68284131043431,
          -5.442709237412434,
          6.8074831438098355,
          -2.4094227849802654,
          0.46825463294658876,
          0.01203566108437588,
          -0.05606642559280546
        ]
      },
      {
        "t_start": 2454763.6178732957,
        "t_end": 2454763.6470399606,
        "cx": [
          351699.8108035375,
          6101.9362324895355,
          -139.73527561942635,
          -2.173018250506258,
          1.1000690484807376,
          -0.21108207867806794,
          0.034176993070611304,
          -0.005126443547152419,
          0.0007378980388279508
        ],
        "cy": [
          -186194.88208393162,
          -1333.0826904197597,
          348.03449272030906,
          -29.796075045391703,
          2.947850923999182,
          -0.30272036047985756,
          0.030419504871074123,
          -0.002805739459179503,
          0.00020618090462757406
        ],
        "cz": [
          12886.8299311446,
          572.9284644171602,
          -40.10357459397435,
          2.8742783263525897,
          -0.2489516817157961,
          0.021632226066837873,
          -0.0016535389008041467,
          0.0000732951017048008,
          0.000009103670522011806
        ]
      },
      {
        "t_start": 2454763.6470399606,
        "t_end": 2454763.7053732905,
        "cx": [
          367232.9180508571,
          9097.349147830897,
          -460.18428215400695,
          13.991794781657951,
          -0.6752216878439339,
          -0.022011769451396664,
          0.013818251104517702,
          -0.0031602144607247016,
          0.0006045140381027029
        ],
        "cy": [
          -185696.44109982566,
          2030.9147054834757,
          471.8591518342721,
          -43.07113063014399,
          4.717813947077082,
          -0.5711762329054412,
          0.07224285072187603,
          -0.009328539913385227,
          0.0012282842838636286
        ],
        "cz": [
          14049.264689480815,
          556.5542228011608,
          -65.01210692599602,
          4.838811767959767,
          -0.4958974582610261,
          0.05589499008026323,
          -0.006628392995274789,
          0.000800825026402399,
          -0.00009789307285127996
        ]
      },
      {
        "t_start": 2454763.7053732905,
        "t_end": 2454763.82203995,
        "cx": [
          386407.7865211503,
          9174.630652659052,
          -1323.0741036313643,
          21.941425058902364,
          -4.497511189260981,
          0.22067256473194521,
          -0.03163970344669724,
          0.001801826722729772,
          -0.0001598991723373653
        ],
        "cy": [
          -173645.62442691321,
          10252.463989625528,
          596.6104603863588,
          -62.201147799686886,
          5.810761496812597,
          -0.8216564657275913,
          0.09956847949530317,
          -0.014309739042380702,
          0.0019463129087441834
        ],
        "cz": [
          14807.98841205508,
          143.73916112502454,
          -111.13570851148175,
          7.053641301046617,
          -0.756775345877837,
          0.09049346757871408,
          -0.011159451657721454,
          0.0014945116344642808,
          -0.00019985788399468128
        ]
      },
      {
        "t_start": 2454763.82203995,
        "t_end": 2454763.93870661,
        "cx": [
          394220.5218394373,
          -1471.9811741125222,
          -1459.122670537218,
          -49.92425816643225,
          -6.860541525892771,
          -0.6034342555543911,
          -0.07772660122425482,
          -0.008733500902208431,
          -0.0011124581851767292
        ],
        "cy": [
          -150156.62037215332,
          12810.548176179791,
          70.22390064528638,
          -45.975591455552276,
          -3.2936763925146617,
          -0.6548357231393075,
          -0.07884883759598871,
          -0.012651640706476484,
          -0.0017892881360666209
        ],
        "cz": [
          14386.004694857998,
          -527.7840131533557,
          -64.25441256191303,
          2.582519462780888,
          0.0548425512692169,
          0.041137302324296535,
          0.004750648619732951,
          0.0009107610679843275,
          0.00013365759650886097
        ]
      },
      {
        "t_start": 2454763.93870661,
        "t_end": 2454763.9970399397,
        "cx": [
          385604.12804129004,
          -6235.498177595339,
          -638.7102864542093,
          -33.71932974076021,
          -2.9328790066356687,
          -0.26045007531566633,
          -0.02248046245498281,
          -0.001546955483597829,
          -0.000010218972903507615
        ],
        "cy": [
          -131462.9957866696,
          5673.66458109202,
          -219.1980808800265,
          -33.677069270256844,
          -4.183010738179542,
          -0.5667276326062296,
          -0.07852671308105211,
          -0.011017829083398628,
          -0.0015733219792288288
        ],
        "cz": [
          13394.200584556316,
          -407.61903102497087,
          -3.420705042568737,
          2.007566355546905,
          0.29925168784883605,
          0.045970579834828086,
          0.006908270023287511,
          0.0010327942873988765,
          0.00015579576857168464
        ]
      },
      {
        "t_start": 2454763.9970399397,
        "t_end": 2454764.0262066047,
        "cx": [
          373329.55810057226,
          -5645.2899894295,
          -293.7083417638554,
          -12.222406460345374,
          -0.32517656049384314,
          0.07246293691378014,
          0.022196992005858365,
          0.004418911499060237,
          0.0007694778262925722
        ],
        "cy": [
          -124436.86059125762,
          1373.1010177669539,
          -264.2991916452166,
          -30.38453967614753,
          -3.5519760385493258,
          -0.4260134904693267,
          -0.05068814329341595,
          -0.005812898761076495,
          -0.0006230588943593001
        ],
        "cz": [
          12814.868566359608,
          -158.24843545616324,
          14.637780580273194,
          2.532825915832926,
          0.3397308483505659,
          0.04514238264887868,
          0.005905636949752869,
          0.0007509556176283476,
          0.00009212980126769327
        ]
      },
      {
        "t_start": 2454764.0262066047,
        "t_end": 2454764.0553732696,
        "cx": [
          359935.7812782609,
          -7381.871219267978,
          277.47719737660515,
          289.59674762846777,
          86.05456154280745,
          12.894321307374664,
          -2.118364636721031,
          -2.184794039615371,
          -0.7949253976415447
        ],
        "cy": [
          -126481.18353259236,
          -4452.89698695519,
          -1531.4052583010027,
          -196.5935903398535,
          15.199342943617628,
          20.648835784003545,
          7.34732199856794,
          1.2469240802433472,
          -0.22786465808527412
        ],
        "cz": [
          12890.853455712364,
          351.52641569983246,
          163.03928399878544,
          31.016209398321106,
          1.931288904031629,
          -1.521465438696028,
          -0.807186155905444,
          -0.20934525879741753,
          -0.009266272821075169
        ]
      },
      {
        "t_start": 2454764.0553732696,
        "t_end": 2454764.0845399345,
        "cx": [
          357061.7889896,
          5092.9473279887825,
          854.2695695353143,
          -323.68722394297225,
          69.33155067794938,
          -5.007025862675549,
          -3.6707677980525135,
          2.0933264583216515,
          -0.6063267227772039
        ],
        "cy": [
          -141008.80331132293,
          -7161.348809588672,
          1231.4359069303614,
          -65.584220117841,
          -41.043856034639205,
          21.239988737893004,
          -5.601488304082843,
          0.5348925595581577,
          0.33913003009798093
        ],
        "cz": [
          14629.929300642845,
          1122.5889884867017,
          -87.59989619471385,
          -6.650270895970266,
          6.879900462104353,
          -2.3000997669108245,
          0.40142024721389924,
          0.03341261537806793,
          -0.058310423946944225
        ]
      },
      {
        "t_start": 2454764.0845399345,
        "t_end": 2454764.1137065995,
        "cx": [
          368895.4206093758,
          6012.2821091104615,
          -139.75502678602365,
          -2.653682529513873,
          1.2255731300677066,
          -0.2362210713715704,
          0.03867286049554735,
          -0.005869996007576139,
          0.0008545780672153622
        ],
        "cy": [
          -148767.42067127043,
          -1345.3825784502485,
          358.2973418491884,
          -31.230484378347448,
          3.1348580792694563,
          -0.3254620946936049,
          0.03287316779832162,
          -0.0030093992656216274,
          0.0002095572665701869
        ],
        "cz": [
          16289.748631900491,
          581.9080356323396,
          -41.309759575338795,
          2.9988035161243007,
          -0.26176621163357955,
          0.022709323247731967,
          -0.0016860316350124115,
          0.00005876526542368999,
          0.000014194766633991325
        ]
      },
      {
        "t_start": 2454764.1137065995,
        "t_end": 2454764.1720399293,
        "cx": [
          384139.7309506079,
          8894.47610584085,
          -464.04148919585805,
          14.261660511891478,
          -0.6799001616625716,
          -0.025738115810159477,
          0.01502877180375629,
          -0.003437221831050405,
          0.0006614992521104458
        ],
        "cy": [
          -148205.41420839305,
          2105.0935594883117,
          477.86820788485704,
          -44.16836403648831,
          4.888777500404867,
          -0.5975932976840486,
          0.07629337336387823,
          -0.009938538631136841,
          0.0013197368346873845
        ],
        "cz": [
          17464.915822492203,
          559.9441114392873,
          -66.309430235002,
          4.976616316758777,
          -0.5142549231095462,
          0.05841738111275169,
          -0.006977800684731687,
          0.0008484130472231236,
          -0.00010425674834225935
        ]
      },
      {
        "t_start": 2454764.1720399293,
        "t_end": 2454764.2880121446,
        "cx": [
          402620.8166981566,
          8697.942670202447,
          -1311.9905147199686,
          22.442571419169788,
          -4.450166052244786,
          0.22388300174746023,
          -0.031282411961612445,
          0.0018158736404550646,
          -0.0001549623248007189
        ],
        "cy": [
          -135954.93882064134,
          10367.648093153897,
          591.6076766985323,
          -61.955383213154114,
          5.824214806368358,
          -0.8204497906727137,
          0.09996071416334266,
          -0.014330808367307735,
          0.001955901598205636
        ],
        "cz": [
          18218.21019141624,
          135.45867760214645,
          -111.74509146177766,
          7.076632887948277,
          -0.7609267312973186,
          0.09079766883719098,
          -0.011224035240410636,
          0.0015004509031047283,
          -0.00020097980685975707
        ]
      },
      {
        "t_start": 2454764.2880121446,
        "t_end": 2454764.40398436,
        "cx": [
          409603.4110099619,
          -1812.9609001326928,
          -1432.5451662944256,
          -47.13421066811065,
          -6.495888507826035,
          -0.5543258652843189,
          -0.07091807921795573,
          -0.007791843908172373,
          -0.0009812568940352495
        ],
        "cy": [
          -112259.6462524529,
          12907.569752897027,
          72.72562648076605,
          -44.418396976359034,
          -3.0219434666654603,
          -0.6067401946163179,
          -0.07060209997032514,
          -0.011262016962864675,
          -0.0015534252709454243
        ],
        "cz": [
          17774.860553803497,
          -541.0013920780258,
          -65.04279556945275,
          2.5010623007855517,
          0.03677662459248787,
          0.03787394054906083,
          0.004145143967400288,
          0.0008042661753420392,
          0.00011471534449091976
        ]
      },
      {
        "t_start": 2454764.40398436,
        "t_end": 2454764.46231769,
        "cx": [
          400585.5441421418,
          -6311.719254758891,
          -622.9922863170568,
          -31.878963707727603,
          -2.7294452861787075,
          -0.2391601451261916,
          -0.02068768698866028,
          -0.0014972016993969246,
          -0.00003899271550465118
        ],
        "cy": [
          -93338.14201727432,
          5811.169950868238,
          -206.1077644854687,
          -31.27132248520924,
          -3.7732293854247656,
          -0.4988535598141278,
          -0.0674175552973021,
          -0.009237301759944062,
          -0.0012884612760770786
        ],
        "cz": [
          16755.129498413633,
          -422.56351682788903,
          -4.709317821470998,
          1.8162689193661667,
          0.26457139275249936,
          0.03991369126318062,
          0.005865142178417197,
          0.0008576972794360564,
          0.00012649466905328128
        ]
      },
      {
        "t_start": 2454764.46231769,
        "t_end": 2454764.4914843547,
        "cx": [
          388286.15868215315,
          -5600.650411973246,
          -282.13643028619595,
          -11.72476611229443,
          -0.40744305208783954,
          0.03899530320156001,
          0.014312159906488873,
          0.0028726314153614853,
          0.0004920508823939926
        ],
        "cy": [
          -85996.33062747918,
          1557.4347751014227,
          -238.6528548404677,
          -26.367385634740746,
          -2.957322348149381,
          -0.34217731549935765,
          -0.03954352379883258,
          -0.004451713731422916,
          -0.00047780305962573464
        ],
        "cz": [
          16143.388714942977,
          -176.1921169667681,
          12.30376053716126,
          2.1461547450698086,
          0.2774363628352402,
          0.03557768309794414,
          0.0045066126995134985,
          0.0005581197203404603,
          0.00006729693500545811
        ]
      },
      {
        "t_start": 2454764.4914843547,
        "t_end": 2454764.5199565752,
        "cx": [
          374965.3544947645,
          -7555.215771857061,
          -10.508194598492222,
          163.29891400160696,
          55.109559095599806,
          12.115063853201606,
          1.5979007433832821,
          0.08677012024128103,
          0.04345081227944789
        ],
        "cy": [
          -86936.41849553505,
          -3331.835366269846,
          -1286.288331959525,
          -202.5452842857213,
          -16.13727490244314,
          5.40322918853217,
          3.7038484577805013,
          1.515380061919157,
          0.5543261269731591
        ],
        "cz": [
          16102.955744581812,
          225.0066956182366,
          126.82650641999932,
          26.355696770107144,
          3.634055479939688,
          -0.11476195602987863,
          -0.29820799798627085,
          -0.12049708579673817,
          -0.0318139317446537
        ]
      },
      {
        "t_start": 2454764.5199565752,
        "t_end": 2454764.5234287973,
        "cx": [
          367163.70370719506,
          -422.7968685237323,
          45.980530689804084,
          0.7557378924943717,
          -0.0937750698255115,
          -0.0018666487223209015
        ],
        "cy": [
          -93072.24853395282,
          -1329.6179479826865,
          -17.82337475032283,
          1.7309389932479298,
          0.044504252623091385,
          -0.0015764005819581348
        ],
        "cz": [
          16618.6220790732,
          138.13864527776508,
          3.594164883862558,
          -0.1380948129015359,
          -0.008238879270335972,
          0.00006223811597160313
        ]
      },
      {
        "t_start": 2454764.5234287973,
        "t_end": 2454764.5532899066,
        "cx": [
          370398.41377217177,
          4721.427010152989,
          745.6218363240431,
          -287.0839152442605,
          70.40016611715463,
          -10.012350081496109,
          -1.181005767118016,
          1.3496025572577168,
          -0.43221626394169316
        ],
        "cy": [
          -103255.68345417315,
          -7656.522411458796,
          1134.599370336707,
          -92.11923025114159,
          -24.417255202619952,
          16.822711913134277,
          -5.242467198174397,
          0.6984818517591919,
          0.4355984305784829
        ],
        "cz": [
          17993.23407299229,
          1164.8567011850896,
          -79.7671820326739,
          -3.2802567542600736,
          5.495799807887261,
          -2.166667979558353,
          0.5464949536487335,
          -0.07396442180865803,
          -0.005059866468058817
        ]
      },
      {
        "t_start": 2454764.5532899066,
        "t_end": 2454764.5859287935,
        "cx": [
          381906.4829155674,
          6161.479894557067,
          -110.30144418768123,
          -2.3293912325966377,
          1.2145167499305096,
          -0.2421461349942427,
          0.04567511013848397,
          -0.006320996602171913,
          0.00023818711030897065
        ],
        "cy": [
          -112943.1479517964,
          -2671.4122994685326,
          353.584975339194,
          -32.46119778976655,
          3.491646511137048,
          -0.39337497597923765,
          0.04506303855187525,
          -0.004362056794690239,
          0.0007492311121267786
        ],
        "cz": [
          19877.032547144114,
          755.3355652420973,
          -39.36604000059431,
          3.2165539410999306,
          -0.20522897707597987,
          0.08351438486069314,
          0.020940767020056462,
          0.003724633894058472,
          -0.015316678687688282
        ]
      },
      {
        "t_start": 2454764.5859287935,
        "t_end": 2454764.651901012,
        "cx": [
          398334.84320912906,
          10014.850966080778,
          -348.614664471843,
          14.379461816038058,
          -0.6898022101250739,
          -0.010894766530299152,
          0.012893804953818333,
          -0.0032075721928823044,
          0.00065309053498255
        ],
        "cy": [
          -116487.71599392623,
          -682.555146014859,
          465.74957183943997,
          -43.38991642002368,
          4.996259103506367,
          -0.6311030973377807,
          0.08385836295871316,
          -0.011397369830717608,
          0.001588493387541635
        ],
        "cz": [
          21619.988036100392,
          957.8565421575091,
          -60.64358987212478,
          4.888822311038613,
          -0.5219663385782002,
          0.06175639509520034,
          -0.00771773971025738,
          0.0009868032315703502,
          -0.00012872856034648486
        ]
      },
      {
        "t_start": 2454764.651901012,
        "t_end": 2454764.783151004,
        "cx": [
          422658.38605480397,
          13802.593748236352,
          -802.5786099206647,
          35.06446961151591,
          -3.0751159881744723,
          0.27684328721297785,
          -0.026300395212450468,
          0.002365706963214789,
          -0.00017610872709183383
        ],
        "cy": [
          -112653.19928789567,
          4764.757416621992,
          613.623450463727,
          -53.90062997206827,
          6.074557400097766,
          -0.765870483038245,
          0.102574476955253,
          -0.014174664036903836,
          0.0020324527274821398
        ],
        "cz": [
          23667.39797324572,
          1043.8539466370773,
          -94.294190779162,
          6.797000118677372,
          -0.7297552282580532,
          0.08729587714121799,
          -0.01123339110725211,
          0.001498350979014351,
          -0.00020789926981463404
        ]
      },
      {
        "t_start": 2454764.783151004,
        "t_end": 2454765.0456509884,
        "cx": [
          450621.99437663495,
          12776.041569293844,
          -2102.7713607427777,
          43.62422979857907,
          -8.255465333240664,
          0.5644489840827666,
          -0.08409262259460924,
          0.008383964264262104,
          -0.0011519026175500185
        ],
        "cy": [
          -90359.14189026717,
          17913.370566708614,
          866.438283941484,
          -74.17358269661074,
          7.439764897770949,
          -0.9937942871863216,
          0.1251668349026964,
          -0.017796698771649667,
          0.0024915506734938422
        ],
        "cz": [
          25444.086066348587,
          636.5357862971582,
          -174.12289237033852,
          9.10023769560285,
          -1.0843186399678397,
          0.1220019953142848,
          -0.015917286377447794,
          0.0021115076347636833,
          -0.0002946762411613803
        ]
      },
      {
        "t_start": 2454765.0456509884,
        "t_end": 2454765.3081509727,
        "cx": [
          459667.34655889537,
          -3849.2402954309664,
          -2249.1230216958184,
          -73.51719807600546,
          -10.701596928449801,
          -0.9592195011529573,
          -0.1314259064173077,
          -0.015534878248607897,
          -0.0021464980036716126
        ],
        "cy": [
          -49621.6181738003,
          22366.648450597535,
          301.5067868020158,
          -41.4064239999022,
          -2.097676704914399,
          -0.5515171301548548,
          -0.06153429183587649,
          -0.010493106269699598,
          -0.0014567472787320314
        ],
        "cz": [
          25534.308988614972,
          -506.89394906253375,
          -125.42252880212253,
          0.8968213760341324,
          -0.2471611546529735,
          0.013702287325304645,
          0.0004927427072733834,
          0.0003758386456616665,
          0.000052602218011411545
        ]
      },
      {
        "t_start": 2454765.3081509727,
        "t_end": 2454765.439400965,
        "cx": [
          444032.2457327053,
          -10391.690043145834,
          -991.0938651623402,
          -55.76631901408522,
          -5.482174772297334,
          -0.5910152248577902,
          -0.06943680961629754,
          -0.008465922682678161,
          -0.0010711797319866003
        ],
        "cy": [
          -15605.880232044736,
          11296.139402026349,
          -119.85491232634702,
          -27.294842684905298,
          -3.431422804750686,
          -0.4774700160004604,
          -0.06781665709660321,
          -0.009792036194266943,
          -0.0014531980792386638
        ],
        "cz": [
          24307.9012776355,
          -625.432481170954,
          -30.44643241992524,
          0.3175190512362102,
          0.10582840894321,
          0.022012596787826143,
          0.003741564073871344,
          0.0006063578221950075,
          0.00009783283710476938
        ]
      },
      {
        "t_start": 2454765.439400965,
        "t_end": 2454765.505373183,
        "cx": [
          423725.4597905422,
          -9353.217615010095,
          -520.9306465487138,
          -32.42426959458682,
          -2.8837405983953404,
          -0.2813989319371256,
          -0.028227726393555762,
          -0.0027413996091495405,
          -0.00023744307804711952
        ],
        "cy": [
          364.2233244636374,
          4639.830005768445,
          -209.4245072546606,
          -27.203080536584554,
          -3.4597711436416665,
          -0.4653232959814625,
          -0.0646589031185927,
          -0.009108428047964209,
          -0.0013116479545150865
        ],
        "cz": [
          23267.140180185408,
          -387.9710974034318,
          -1.5226458315187132,
          1.3057367094540944,
          0.21876268032083956,
          0.033930042573293656,
          0.005174671767071599,
          0.0007811256512999877,
          0.00011912183082443348
        ]
      },
      {
        "t_start": 2454765.505373183,
        "t_end": 2454765.53801207,
        "cx": [
          407300.83587014,
          -6763.038357751928,
          -261.01849536942285,
          -13.573814892246755,
          -0.7590422059482996,
          -0.015194496322391237,
          0.006793561282201051,
          0.0019136707816198525,
          0.00038165976787962595
        ],
        "cy": [
          5992.930859500891,
          1033.3356200892988,
          -217.75168126921022,
          -24.10338924310303,
          -2.828777190490437,
          -0.34493313337099135,
          -0.04261250439658631,
          -0.005226496933701958,
          -0.0006322196764219847
        ],
        "cz": [
          22712.088823107522,
          -158.331474651724,
          10.372990577250981,
          1.7993868802742388,
          0.2464380744453001,
          0.03331219253171469,
          0.004480269147610306,
          0.0005949208555106655,
          0.00007826957724262638
        ]
      },
      {
        "t_start": 2454765.53801207,
        "t_end": 2454765.570650957,
        "cx": [
          391437.9623794209,
          -8996.64643651793,
          -37.32055279875713,
          197.78700712439496,
          81.8393646196426,
          22.51393880002992,
          3.559924466432809,
          -0.4123881319458704,
          -0.6484609839095326
        ],
        "cy": [
          3979.8507937197496,
          -4022.104181411865,
          -1458.5080438001582,
          -268.6267418023916,
          -27.38743775570897,
          7.863810844154918,
          6.161460448564474,
          2.2462750772652473,
          0.45148501750775577
        ],
        "cz": [
          22697.98353084939,
          244.59952654539188,
          141.91987773548237,
          34.790213636767625,
          6.15967339881731,
          0.18447218859425574,
          -0.45202451892065726,
          -0.23716048063295447,
          -0.0718349148468361
        ]
      },
      {
        "t_start": 2454765.570650957,
        "t_end": 2454765.5942620668,
        "cx": [
          383638.6921003914,
          2158.5637325484918,
          964.7409312936556,
          -250.71052738448824,
          27.240320259812133,
          8.477938040814262,
          -5.371442521408544,
          1.2010912554855682,
          0.1688024229371966
        ],
        "cy": [
          -10008.653913077951,
          -7634.220377480601,
          717.2846373190539,
          51.49029492145973,
          -57.00214775831298,
          16.581813228674125,
          -0.9619542536518969,
          -1.6444800536865518,
          1.1574722105628403
        ],
        "cz": [
          24142.542710652284,
          1012.1298829589181,
          -28.863976555122203,
          -15.847500982628118,
          6.699342824222413,
          -1.2090819808747533,
          -0.14909886831308586,
          0.1969465191887408,
          -0.0790037783953493
        ]
      },
      {
        "t_start": 2454765.5942620668,
        "t_end": 2454765.6178731765,
        "cx": [
          390843.1698302886,
          4287.223843467495,
          -23.04106648006405,
          -7.889027626471343,
          1.7145012207257142,
          -0.289894257605131,
          0.044812232748365446,
          -0.006505516464368028,
          0.0008963239121300237
        ],
        "cy": [
          -20691.936205789898,
          -3464.4271092013164,
          283.3418281961187,
          -25.143724175449176,
          2.478039122660682,
          -0.23962357274669338,
          0.02017024843953122,
          -0.0010072166176778223,
          -0.0001150753075664389
        ],
        "cz": [
          25840.296421133873,
          693.6111583334674,
          -28.937295038015733,
          2.134835370274099,
          -0.16955826569670684,
          0.010980301020553406,
          -0.00003347183329167234,
          -0.0001845231967834964,
          0.000050428650076654426
        ]
      },
      {
        "t_start": 2454765.6178731765,
        "t_end": 2454765.665095396,
        "cx": [
          402844.35040381737,
          7567.239800352515,
          -171.45895310545438,
          5.10399547552832,
          0.23262777370191676,
          -0.11544931665721118,
          0.025652218417886043,
          -0.004800417017642631,
          0.0008501062094047946
        ],
        "cy": [
          -27490.217456555598,
          -3188.5416492441586,
          366.427486134716,
          -34.80861796129027,
          3.969470808905868,
          -0.49009432884752296,
          0.06293113021826027,
          -0.008179465174736297,
          0.0010727497404635366
        ],
        "cz": [
          27529.191675233204,
          974.5543386464552,
          -43.608229796469864,
          3.6524972552105863,
          -0.3811859266169493,
          0.043291162511231246,
          -0.005087230792865233,
          0.0005972762510367281,
          -0.00006870942779387134
        ]
      },
      {
        "t_start": 2454765.665095396,
        "t_end": 2454765.7595398347,
        "cx": [
          422722.7193407714,
          12059.763997066115,
          -394.64456432577555,
          21.240459159196504,
          -1.5732513839706457,
          0.1171302432493248,
          -0.00651927138912,
          -0.00021137085578712227,
          0.00017973372238108958
        ],
        "cy": [
          -32466.811208536128,
          -1606.8166130742904,
          467.27666652668063,
          -43.393839234691846,
          4.986969851682675,
          -0.6328355815093699,
          0.08503708956770942,
          -0.011750885571055737,
          0.0016789740255994858
        ],
        "cz": [
          29876.92708114413,
          1344.2448643956973,
          -63.401007953160565,
          5.195973231968312,
          -0.5598980750288189,
          0.06747281636956509,
          -0.00866658003451848,
          0.0011492965906207432,
          -0.00015771321352708314
        ]
      },
      {
        "t_start": 2454765.7595398347,
        "t_end": 2454765.9484287123,
        "cx": [
          452869.23565963353,
          17608.227789873057,
          -804.8528827720512,
          44.16475333322712,
          -3.9274602443983366,
          0.397456404103997,
          -0.04326111363780849,
          0.0048539251153912385,
          -0.0005548501339037899
        ],
        "cy": [
          -31351.353024668337,
          2976.334880832627,
          620.1933380555192,
          -55.08076366086126,
          6.1969302186404995,
          -0.7788392108848397,
          0.10434169948411008,
          -0.014433316337812965,
          0.002076385457711465
        ],
        "cz": [
          33057.6767108421,
          1789.8431233411388,
          -97.15754306860447,
          7.319894738657229,
          -0.7811641638115439,
          0.09401861956568713,
          -0.012163272396755959,
          0.0016335497237980605,
          -0.00022878724566674114
        ]
      },
      {
        "t_start": 2454765.9484287123,
        "t_end": 2454766.325512023,
        "cx": [
          493185.43884062365,
          21661.298899766396,
          -1723.7487261344563,
          78.69118894025185,
          -7.587867922765415,
          0.7989067958351684,
          -0.0933400932092471,
          0.011399665766471277,
          -0.0014604002688638174
        ],
        "cy": [
          -14413.25268709141,
          14335.81196921782,
          862.3397592966019,
          -73.26257801892524,
          7.935762019071499,
          -0.9796283083003134,
          0.12946546319993493,
          -0.017715570906016793,
          0.002527625749804281
        ],
        "cz": [
          37062.7984430004,
          2128.142942705019,
          -165.96582357704415,
          10.443961238969527,
          -1.1106692462845937,
          0.13120160654526908,
          -0.01680919165477714,
          0.002240707201962527,
          -0.0003125120933976756
        ]
      },
      {
        "t_start": 2454766.325512023,
        "t_end": 2454767.079678645,
        "cx": [
          529424.9140984433,
          11632.515200705067,
          -4482.760828481863,
          96.64165499221153,
          -16.702465984868017,
          1.2718588532738904,
          -0.18906168601831724,
          0.020658373006115942,
          -0.002940748054753809
        ],
        "cy": [
          39909.54627742824,
          40531.28216180167,
          1219.5563022191573,
          -108.81388951930211,
          10.558659578942128,
          -1.3182109509759934,
          0.16709942229668653,
          -0.023113201234919407,
          0.003222495383329683
        ],
        "cz": [
          40923.229436508744,
          1520.70914477453,
          -352.61922561137936,
          13.506113647284458,
          -1.7560943095982207,
          0.18510589625460697,
          -0.02466692140452189,
          0.0031736982547749338,
          -0.0004451853473107597
        ]
      },
      {
        "t_start": 2454767.079678645,
        "t_end": 2454767.8338452666,
        "cx": [
          517873.38968185143,
          -23294.974490222954,
          -4620.926144074663,
          -126.44756292908069,
          -19.710861518677135,
          -1.7540380578675028,
          -0.24609201229270672,
          -0.029215144141350742,
          -0.004119803359010776
        ],
        "cy": [
          127800.57637489069,
          46713.906116459824,
          425.4080860046217,
          -49.27609806604576,
          -0.8765582963589287,
          -0.523028399641847,
          -0.05256585775650146,
          -0.009945599512834375,
          -0.0013538293558201767
        ],
        "cz": [
          41425.780393121575,
          -972.6903530516613,
          -296.3908021223775,
          -1.8933169662028635,
          -0.7600140811735238,
          -0.024714672163838644,
          -0.0055282975715334,
          -0.00029223781531578015,
          -0.000045995527178969094
        ]
      },
      {
        "t_start": 2454767.8338452666,
        "t_end": 2454768.2109285775,
        "cx": [
          463071.4188806166,
          -28572.59475258806,
          -1928.1802077213233,
          -102.87625597814099,
          -10.455056969203016,
          -1.1673979613427679,
          -0.14321158936381811,
          -0.018350973396702046,
          -0.0024668433040114434
        ],
        "cy": [
          198766.190506149,
          23813.737938970902,
          -85.69780810745456,
          -25.153807704222512,
          -3.1572227676039923,
          -0.45631346253866034,
          -0.06601222217795374,
          -0.009662526876316087,
          -0.0014532931254751017
        ],
        "cz": [
          38800.56213403841,
          -1442.920329743205,
          -91.46697134291762,
          -2.137174461549712,
          -0.1433791812514098,
          -0.005902447658435023,
          0.0002595044429671513,
          0.00015126801089226244,
          0.000035470125451121026
        ]
      },
      {
        "t_start": 2454768.2109285775,
        "t_end": 2454768.399817455,
        "cx": [
          411150.82418077585,
          -22246.374528074346,
          -1000.2190054319494,
          -64.7249439588799,
          -6.359870298331913,
          -0.7117546234031877,
          -0.0862160249820526,
          -0.010890239073023306,
          -0.0014353719706783274
        ],
        "cy": [
          233675.6379455214,
          11044.307058181976,
          -188.87522656173817,
          -25.913217982370927,
          -3.394316668047605,
          -0.4693172038750455,
          -0.06711738418404584,
          -0.009744134051172058,
          -0.001457580776429759
        ],
        "cz": [
          36262.06593802152,
          -1030.7472302253848,
          -29.252449424409672,
          -0.2839250689330732,
          0.056923905947238014,
          0.01513372348944877,
          0.0028394877487708135,
          0.00048274837546068627,
          0.0000806040359949161
        ]
      },
      {
        "t_start": 2454768.399817455,
        "t_end": 2454768.494261894,
        "cx": [
          372921.494180255,
          -15441.24268261457,
          -565.874867141391,
          -38.79273132464381,
          -3.671208541654444,
          -0.3911259750201501,
          -0.04430959357436544,
          -0.005145929214955619,
          -0.0006069653666548404
        ],
        "cy": [
          249005.38590483906,
          4308.103198139561,
          -219.44768737557183,
          -26.36203144681643,
          -3.387193651541847,
          -0.46089743967575836,
          -0.0651057187168584,
          -0.009348688849898888,
          -0.0013794958349012609
        ],
        "cz": [
          34609.76195922122,
          -597.0129293203648,
          -4.1660769448364405,
          0.8993699798914522,
          0.17274959075082447,
          0.0282030538030486,
          0.004457597037232977,
          0.0006927135467226208,
          0.00010880365744891445
        ]
      },
      {
        "t_start": 2454768.494261894,
        "t_end": 2454768.5414841133,
        "cx": [
          346990.70624574024,
          -10182.05191070046,
          -320.24316425175675,
          -20.463394529653083,
          -1.628714028027971,
          -0.12987952210602594,
          -0.00833099273161671,
          -0.00002434140957823114,
          0.00014584643554907986
        ],
        "cy": [
          254115.04079090242,
          848.6774517843036,
          -225.35996045443204,
          -25.56555392069216,
          -3.181895519595049,
          -0.41750216508651505,
          -0.05641271118033057,
          -0.007695914418214422,
          -0.0010641050480272132
        ],
        "cz": [
          33722.44209501843,
          -280.7446033901405,
          7.908775918933274,
          1.6171842828713214,
          0.2410383225359123,
          0.03524882424389342,
          0.005160467605832042,
          0.0007519084388194112,
          0.00011038473613826499
        ]
      },
      {
        "t_start": 2454768.5414841133,
        "t_end": 2454768.5880118883,
        "cx": [
          323443.53226992564,
          -13446.163693300123,
          -290.8734543717061,
          229.81863119043706,
          139.46986687043983,
          56.5063947776923,
          17.236175208557956,
          3.3820096290434862,
          -0.4034383246300119
        ],
        "cy": [
          251127.95350779226,
          -5163.715372891253,
          -1988.0243632692927,
          -494.6918055880197,
          -98.27855472361789,
          -3.9077786266580707,
          10.01487337628413,
          6.616481974392481,
          2.982666850849491
        ],
        "cz": [
          33475.768230762485,
          160.47228905135472,
          181.5928568771912,
          58.30397918149649,
          15.63820722440973,
          2.830352186543968,
          -0.2275953342883233,
          -0.49645320198247134,
          -0.3067624661687225
        ]
      },
      {
        "t_start": 2454768.5880118883,
        "t_end": 2454768.589400777,
        "cx": [
          309923.3051274416,
          -219.70016638509696,
          7.238513795833569
        ],
        "cy": [
          242846.49168443444,
          -556.3457458773919,
          -2.434840652756975
        ],
        "cz": [
          33944.76317086678,
          51.980268649873324,
          0.5540161350827475
        ]
      },
      {
        "t_start": 2454768.589400777,
        "t_end": 2454768.5900952215,
        "cx": [
          309618.92035606387,
          -91.92311878839973
        ],
        "cy": [
          241982.47417154058,
          -305.2369263636938
        ],
        "cz": [
          34026.783281792,
          29.48582614026236
        ]
      },
      {
        "t_start": 2454768.5900952215,
        "t_end": 2454768.594261888,
        "cx": [
          309247.8952727309,
          -215.41934865181295,
          62.37458877349281,
          -1.6174373444454038,
          -0.3686164366978242,
          -0.11184215943337694,
          -0.05263594796845687
        ],
        "cy": [
          239960.2747660315,
          -1710.5193730957237,
          11.514699515429228,
          7.016018389783443,
          2.5225849574968047,
          1.3013846332932426,
          0.7232245997954563
        ],
        "cz": [
          34232.85148805194,
          178.60322095100892,
          1.5174048770733006,
          -0.6885613174288706,
          -0.24970944760253744,
          -0.1322296534899055,
          -0.06764556905725559
        ]
      },
      {
        "t_start": 2454768.594261888,
        "t_end": 2454768.6345396633,
        "cx": [
          314027.6267327348,
          5619.422657938104,
          360.2802128177558,
          -217.6319080017735,
          77.34108943718753,
          -23.006821916690658,
          5.631114798693161,
          -0.9598717645554022,
          -0.038307709424243136
        ],
        "cy": [
          227964.46174746242,
          -8750.88239014047,
          1317.4150842176398,
          -221.1794605322614,
          27.989272400383925,
          2.428229476492109,
          -3.8068064256222978,
          1.8443421591571405,
          -0.688562896855008
        ],
        "cz": [
          35839.0001461017,
          1305.428079819485,
          -112.69567735645998,
          11.918491541287512,
          0.6984396724875208,
          -1.2546941803847946,
          0.6191204083215054,
          -0.2214193143285931,
          0.06496228520439529
        ]
      },
      {
        "t_start": 2454768.6345396633,
        "t_end": 2454768.680372994,
        "cx": [
          326121.7441337691,
          6121.416081218682,
          -147.8667841047444,
          4.097797071012587,
          0.2761525728373059,
          -0.11128978446510554,
          0.023631983222309735,
          -0.004298014711043949,
          0.0007426507940753892
        ],
        "cy": [
          215951.0948352749,
          -4009.5013354334783,
          340.9723561514691,
          -32.143872967636796,
          3.604098915521195,
          -0.43673151917589226,
          0.05496018741631726,
          -0.006992817424622672,
          0.0008957994278298338
        ],
        "cz": [
          37978.660160137566,
          891.3566342524468,
          -40.06580257892289,
          3.316041736400092,
          -0.3392916260339454,
          0.037666140920619186,
          -0.004312997301418574,
          0.0004914188690395629,
          -0.0000544165205913238
        ]
      },
      {
        "t_start": 2454768.680372994,
        "t_end": 2454768.772039655,
        "cx": [
          342042.70728273626,
          9582.35179332209,
          -340.4470499858995,
          18.870733815796612,
          -1.3621699068819884,
          0.09595857566911219,
          -0.004320899167902438,
          -0.0004289062436308006,
          0.00019757567011104035
        ],
        "cy": [
          208194.02083331335,
          -3580.446185787811,
          432.95962846010184,
          -40.861126350507114,
          4.670658588996329,
          -0.5884148360096457,
          0.07842443344640693,
          -0.01074445831029124,
          0.0015209350650548057
        ],
        "cz": [
          40122.345950954135,
          1225.5945047011382,
          -58.38594563501253,
          4.8174941960540805,
          -0.5157743666283093,
          0.061637204477292096,
          -0.007840760305710185,
          0.0010290573436103352,
          -0.00013960957618094105
        ]
      },
      {
        "t_start": 2454768.772039655,
        "t_end": 2454768.9553729775,
        "cx": [
          365657.74030640285,
          13643.721438040868,
          -667.971328957093,
          39.918142713450294,
          -3.5197953671864015,
          0.35462375780840816,
          -0.03822246346114304,
          0.004229372997368635,
          -0.00047373498399568253
        ],
        "cy": [
          202887.40481428182,
          -1510.5353638147305,
          553.1447149080656,
          -52.02501061557896,
          5.863699159071594,
          -0.7359435661946231,
          0.09835743142858482,
          -0.013565953469206775,
          0.0019449690575182436
        ],
        "cz": [
          43018.58505438178,
          1628.9704925044014,
          -88.0516561917525,
          6.824073321760225,
          -0.7273460788130302,
          0.08744939382384095,
          -0.011282793099418828,
          0.0015101769972776014,
          -0.0002106609527076223
        ]
      },
      {
        "t_start": 2454768.9553729775,
        "t_end": 2454769.3227340668,
        "cx": [
          396612.1523252788,
          16543.434388135298,
          -1316.9252700512038,
          73.93526186312634,
          -6.819192096435319,
          0.731376392808891,
          -0.08548525982222724,
          0.010464623696801623,
          -0.0013407917280551514
        ],
        "cy": [
          205281.84540177754,
          4169.321355987059,
          692.952015806634,
          -69.0571345431712,
          7.584197385303096,
          -0.940334554659989,
          0.12471627566141448,
          -0.017108828000675202,
          0.0024462446630577716
        ],
        "cz": [
          46693.5979023848,
          1971.7026848902328,
          -145.13076002561982,
          9.903663820187077,
          -1.0401428921936227,
          0.12401026026054143,
          -0.015939334707968527,
          0.0021309197981399094,
          -0.00029782755012898785
        ]
      },
      {
        "t_start": 2454769.3227340668,
        "t_end": 2454770.056761801,
        "cx": [
          425926.5180916721,
          11081.77196060096,
          -2793.1336551208033,
          131.4314027855701,
          -12.247843183443761,
          1.31936760813923,
          -0.157579722969152,
          0.019701682082499956,
          -0.0025915400490389537
        ],
        "cy": [
          225984.85037823618,
          16714.136072841527,
          702.3809062397088,
          -97.19558559850347,
          10.111406472576968,
          -1.2257853155219387,
          0.16052298466476494,
          -0.021791105947665135,
          0.003088396487208894
        ],
        "cz": [
          50487.07837669036,
          1665.9931157575527,
          -275.5776840950165,
          14.643969948623296,
          -1.516242057295974,
          0.1778122452766602,
          -0.022613881172842288,
          0.0029952401183899638,
          -0.0004156728382865859
        ]
      },
      {
        "t_start": 2454770.056761801,
        "t_end": 2454771.524817269,
        "cx": [
          413408.1712352987,
          -28054.481189818605,
          -6892.821488660524,
          206.11327340791686,
          -25.835010714378495,
          2.021948854906177,
          -0.3008327437141319,
          0.033482115879306405,
          -0.004779850347795859
        ],
        "cy": [
          281660.72445890383,
          38275.71029771748,
          -242.76112664518686,
          -154.11763462369836,
          14.8944498621332,
          -1.6838451420918894,
          0.2141185995197643,
          -0.029201764894658314,
          0.004065218055835096
        ],
        "cz": [
          51072.62505284916,
          -1493.8184517825698,
          -651.8733161354639,
          21.073787704492414,
          -2.424593686821262,
          0.252948679314699,
          -0.0342095289425561,
          0.004325973599692072,
          -0.0006081168486266712
        ]
      },
      {
        "t_start": 2454771.524817269,
        "t_end": 2454772.992872737,
        "cx": [
          305961.7146050811,
          -78979.06432577639,
          -6403.8159571781125,
          -133.31391570059594,
          -29.672503484286,
          -2.6235263187670688,
          -0.36932218676518586,
          -0.0437555814475884,
          -0.006194794206009948
        ],
        "cy": [
          352236.12787603715,
          31442.752221863077,
          -1294.1997851654605,
          -52.18141756580749,
          1.1091411153271153,
          -0.5259163506672969,
          -0.04734160060899649,
          -0.010042865622077199,
          -0.0013476524711636894
        ],
        "cz": [
          43346.80631436643,
          -6147.7250059541075,
          -548.8260629070234,
          -1.3210636472654125,
          -1.2777899043527867,
          -0.06774897732333815,
          -0.012034960921765939,
          -0.0010003283588593166,
          -0.00014980013742518441
        ]
      },
      {
        "t_start": 2454772.992872737,
        "t_end": 2454773.726900471,
        "cx": [
          160313.0951802674,
          -62601.117010997514,
          -2634.711482533085,
          -147.44923510861258,
          -15.715794594404755,
          -1.7598587211769507,
          -0.21686683167477713,
          -0.027930174642861214,
          -0.0037779448047181707
        ],
        "cy": [
          393887.00885414775,
          11077.703609450942,
          -496.06348135455886,
          -22.419959260456867,
          -3.0460783581125366,
          -0.4665269982068002,
          -0.06865487375080673,
          -0.010156299282480746,
          -0.0015385025997036177
        ],
        "cz": [
          31990.227704089953,
          -4819.260857443793,
          -165.8178556900646,
          -4.2777085982088385,
          -0.404558143608987,
          -0.03447775544625245,
          -0.003190968088891928,
          -0.0002865963451733087,
          -0.000023165780799795532
        ]
      },
      {
        "t_start": 2454773.726900471,
        "t_end": 2454774.09426156,
        "cx": [
          53881.55485931371,
          -42362.56363432898,
          -1420.056095026079,
          -96.73141476519638,
          -9.680416032297428,
          -1.0975872089761254,
          -0.1351264182951722,
          -0.01738393751449835,
          -0.002342630420005282
        ],
        "cy": [
          408167.4441066214,
          3461.443310087419,
          -286.3827460504286,
          -26.126431971099905,
          -3.54361809998254,
          -0.4966035556982838,
          -0.07150997027241651,
          -0.01042449987517194,
          -0.0015655877472171979
        ],
        "cz": [
          24067.857279024807,
          -2990.4596278114736,
          -59.60541458872418,
          -1.8111001419830917,
          -0.09640700083666187,
          -0.002004969095891936,
          0.0007375008604957319,
          0.00021113978506455083,
          0.00004371617355306462
        ]
      },
      {
        "t_start": 2454774.09426156,
        "t_end": 2454774.2775948825,
        "cx": [
          -16606.661315651774,
          -27375.96465634191,
          -832.6443517214925,
          -59.91205969531308,
          -5.889536175866614,
          -0.658852413482233,
          -0.07950296035716269,
          -0.009984728281407094,
          -0.0013058059897485647
        ],
        "cy": [
          411742.8203516312,
          205.45680418639859,
          -249.5953451690018,
          -27.652485591567768,
          -3.599250921424467,
          -0.4935023127360861,
          -0.0702545985445534,
          -0.010167285092439098,
          -0.0015168663904950117
        ],
        "cz": [
          19339.028593426672,
          -1696.0111312473064,
          -19.271040432811102,
          -0.05177247627995871,
          0.07797963822338486,
          0.017342428239577153,
          0.0031085452985653624,
          0.000517939346089034,
          0.00008549590781357385
        ]
      },
      {
        "t_start": 2454774.2775948825,
        "t_end": 2454774.3692615437,
        "cx": [
          -61818.97387474279,
          -17404.456950950535,
          -499.98874415737527,
          -35.71153574661762,
          -3.3427948715126945,
          -0.3494687439642115,
          -0.03849878999790367,
          -0.004298920821390671,
          -0.00047812869328177224
        ],
        "cy": [
          410554.2013597066,
          -1332.4919553853604,
          -244.41152380152806,
          -27.682647617523138,
          -3.5293539672915943,
          -0.47745251846207426,
          -0.06709277433712578,
          -0.009583489880780784,
          -0.001405732055765118
        ],
        "cz": [
          16730.11042899007,
          -895.1470639435818,
          -0.5941091867730571,
          1.0292934830395832,
          0.18528692919536824,
          0.029661044179152343,
          0.0046422755214414295,
          0.000716711950238783,
          0.00011193344685431
        ]
      },
      {
        "t_start": 2454774.3692615437,
        "t_end": 2454774.4150948743,
        "cx": [
          -90390.89664907304,
          -10897.691620328986,
          -286.4088712473133,
          -17.98589181209878,
          -1.3236406214541305,
          -0.08783148758130598,
          -0.0022893440944475947,
          0.0008481366039622338,
          0.00027211063264368483
        ],
        "cy": [
          407086.0609966188,
          -2074.236644505603,
          -238.24615163578324,
          -26.345983658979097,
          -3.2372626011309964,
          -0.4185982213890137,
          -0.055567698374379484,
          -0.007421640220862755,
          -0.0009993753540138545
        ],
        "cz": [
          15411.210808046793,
          -416.4496466898423,
          9.436535146786621,
          1.6945297603415772,
          0.2477997881153682,
          0.03575878151505096,
          0.005164232948113983,
          0.0007410681502118477,
          0.00010680656541670846
        ]
      },
      {
        "t_start": 2454774.4150948743,
        "t_end": 2454774.460928205,
        "cx": [
          -115012.82836772071,
          -13676.882620423832,
          -81.18585727847001,
          281.9401890522622,
          144.39424143525963,
          50.675407085191665,
          12.021751735509804,
          0.7510818257775546,
          -1.361146591529288
        ],
        "cy": [
          398073.4612218238,
          -8267.912322318269,
          -1975.135978711652,
          -445.71047881127464,
          -67.99980537116281,
          8.65966659119497,
          13.274035151085544,
          6.681071312009026,
          2.3258166251016377
        ],
        "cz": [
          14910.238946613057,
          43.56702073769757,
          183.16187757631613,
          54.80940535382523,
          12.894502826751369,
          1.4520666999861125,
          -0.7127964364535689,
          -0.5951287148587046,
          -0.27931710146086575
        ]
      },
      {
        "t_start": 2454774.460928205,
        "t_end": 2454774.4907893143,
        "cx": [
          -127431.28801584066,
          2158.417168621752,
          953.5395270428619,
          -301.99555054073585,
          55.748735869401976,
          -1.0659091148117148,
          -4.358473327868988,
          2.7239285594214184,
          -0.6763867981938535
        ],
        "cy": [
          376091.08288904425,
          -10326.881109878139,
          974.153222560467,
          -26.196990175942137,
          -45.04146881026575,
          21.597212140419312,
          -5.196095599419521,
          -0.7779403454783774,
          0.7913434523579196
        ],
        "cz": [
          16219.401056794108,
          980.575389417598,
          -56.06664151520206,
          -12.128620833250958,
          8.042690678717692,
          -1.5428302918799484,
          -0.12348089445117573,
          -0.22805718020783394,
          0.04825853962685903
        ]
      },
      {
        "t_start": 2454774.4907893143,
        "t_end": 2454774.5206504236,
        "cx": [
          -120602.26208132367,
          3925.573539261883,
          -47.85173590547305,
          -4.909378337258165,
          1.328887928564356,
          -0.2395349541668516,
          0.03867278252815934,
          -0.005868303332751869,
          0.0008577159594625414
        ],
        "cy": [
          360809.21002826834,
          -5549.721710865232,
          294.96016829108083,
          -26.679256909890615,
          2.7352805889608907,
          -0.2873448736046972,
          0.029030859577649375,
          -0.0025900323118274162,
          0.00015702528777818223
        ],
        "cz": [
          17761.418349917483,
          591.1688703193801,
          -29.612546211806166,
          2.2800009628674918,
          -0.199233908250453,
          0.016745297296574178,
          -0.0010854259631967974,
          -0.000004483301135171914,
          0.000021299410770451952
        ]
      },
      {
        "t_start": 2454774.5206504236,
        "t_end": 2454774.579678198,
        "cx": [
          -110032.15048392458,
          6498.794633211055,
          -189.5615242972843,
          7.783108475970337,
